{"learner":{"attributes":{"best_iteration":"495","best_score":"0.9553937112065765"},"feature_names":["Hurst","CorrDim","Lyapunov","Skewness","Kurtosis","PSD","ACF_1","WL_C1","WL_C2","WL_C3","Hurst_8_dyn","Hurst_8_Variance","CorrDim_8_dyn","CorrDim_8_Variance","Lyapunov_8_dyn","Lyapunov_8_Variance","Skewness_8_dyn","Skewness_8_Variance","Kurtosis_8_dyn","Kurtosis_8_Variance","PSD_8_dyn","PSD_8_Variance","ACF_1_8_dyn","ACF_1_8_Variance","WL_C1_8_dyn","WL_C1_8_Variance","WL_C2_8_dyn","WL_C2_8_Variance","WL_C3_8_dyn","WL_C3_8_Variance"],"feature_types":["float","float","float","float","float","float","float","float","float","float","float","float","float","float","float","float","float","float","float","float","float","float","float","float","float","float","float","float","float","float"],"gradient_booster":{"model":{"gbtree_model_param":{"num_parallel_tree":"1","num_trees":"500"},"iteration_indptr":[0,1,2,3,4,5,6,7,8,9,10,11,12,13,14,15,16,17,18,19,20,21,22,23,24,25,26,27,28,29,30,31,32,33,34,35,36,37,38,39,40,41,42,43,44,45,46,47,48,49,50,51,52,53,54,55,56,57,58,59,60,61,62,63,64,65,66,67,68,69,70,71,72,73,74,75,76,77,78,79,80,81,82,83,84,85,86,87,88,89,90,91,92,93,94,95,96,97,98,99,100,101,102,103,104,105,106,107,108,109,110,111,112,113,114,115,116,117,118,119,120,121,122,123,124,125,126,127,128,129,130,131,132,133,134,135,136,137,138,139,140,141,142,143,144,145,146,147,148,149,150,151,152,153,154,155,156,157,158,159,160,161,162,163,164,165,166,167,168,169,170,171,172,173,174,175,176,177,178,179,180,181,182,183,184,185,186,187,188,189,190,191,192,193,194,195,196,197,198,199,200,201,202,203,204,205,206,207,208,209,210,211,212,213,214,215,216,217,218,219,220,221,222,223,224,225,226,227,228,229,230,231,232,233,234,235,236,237,238,239,240,241,242,243,244,245,246,247,248,249,250,251,252,253,254,255,256,257,258,259,260,261,262,263,264,265,266,267,268,269,270,271,272,273,274,275,276,277,278,279,280,281,282,283,284,285,286,287,288,289,290,291,292,293,294,295,296,297,298,299,300,301,302,303,304,305,306,307,308,309,310,311,312,313,314,315,316,317,318,319,320,321,322,323,324,325,326,327,328,329,330,331,332,333,334,335,336,337,338,339,340,341,342,343,344,345,346,347,348,349,350,351,352,353,354,355,356,357,358,359,360,361,362,363,364,365,366,367,368,369,370,371,372,373,374,375,376,377,378,379,380,381,382,383,384,385,386,387,388,389,390,391,392,393,394,395,396,397,398,399,400,401,402,403,404,405,406,407,408,409,410,411,412,413,414,415,416,417,418,419,420,421,422,423,424,425,426,427,428,429,430,431,432,433,434,435,436,437,438,439,440,441,442,443,444,445,446,447,448,449,450,451,452,453,454,455,456,457,458,459,460,461,462,463,464,465,466,467,468,469,470,471,472,473,474,475,476,477,478,479,480,481,482,483,484,485,486,487,488,489,490,491,492,493,494,495,496,497,498,499,500],"tree_info":[0,0,0,0,0,0,0,0,0,0,0,0,0,0,0,0,0,0,0,0,0,0,0,0,0,0,0,0,0,0,0,0,0,0,0,0,0,0,0,0,0,0,0,0,0,0,0,0,0,0,0,0,0,0,0,0,0,0,0,0,0,0,0,0,0,0,0,0,0,0,0,0,0,0,0,0,0,0,0,0,0,0,0,0,0,0,0,0,0,0,0,0,0,0,0,0,0,0,0,0,0,0,0,0,0,0,0,0,0,0,0,0,0,0,0,0,0,0,0,0,0,0,0,0,0,0,0,0,0,0,0,0,0,0,0,0,0,0,0,0,0,0,0,0,0,0,0,0,0,0,0,0,0,0,0,0,0,0,0,0,0,0,0,0,0,0,0,0,0,0,0,0,0,0,0,0,0,0,0,0,0,0,0,0,0,0,0,0,0,0,0,0,0,0,0,0,0,0,0,0,0,0,0,0,0,0,0,0,0,0,0,0,0,0,0,0,0,0,0,0,0,0,0,0,0,0,0,0,0,0,0,0,0,0,0,0,0,0,0,0,0,0,0,0,0,0,0,0,0,0,0,0,0,0,0,0,0,0,0,0,0,0,0,0,0,0,0,0,0,0,0,0,0,0,0,0,0,0,0,0,0,0,0,0,0,0,0,0,0,0,0,0,0,0,0,0,0,0,0,0,0,0,0,0,0,0,0,0,0,0,0,0,0,0,0,0,0,0,0,0,0,0,0,0,0,0,0,0,0,0,0,0,0,0,0,0,0,0,0,0,0,0,0,0,0,0,0,0,0,0,0,0,0,0,0,0,0,0,0,0,0,0,0,0,0,0,0,0,0,0,0,0,0,0,0,0,0,0,0,0,0,0,0,0,0,0,0,0,0,0,0,0,0,0,0,0,0,0,0,0,0,0,0,0,0,0,0,0,0,0,0,0,0,0,0,0,0,0,0,0,0,0,0,0,0,0,0,0,0,0,0,0,0,0,0,0,0,0,0,0,0,0,0,0,0,0,0,0,0,0,0,0,0,0,0,0,0,0,0,0,0,0,0,0,0,0,0,0,0,0,0,0,0,0,0,0,0,0,0,0,0,0,0,0,0,0,0,0,0,0,0,0,0,0,0,0,0,0,0,0],"trees":[{"base_weights":[-7.2860755E-2,-2.0718706E-1,2.572642E0,4.3571982E-1,-3.8176882E-1,1.6033101E0,3.1767626E0,9.7007847E-1,2.5517786E-1,-7.107509E-2,-5.7082474E-1,1.762505E0,2.4666718E-1,2.6290386E0,3.2872257E0,1.7658517E-1,3.8795486E-1,2.0425259E-1,2.9982537E-2,-2.7695278E-2,3.670601E-1,-9.477655E-2,-1.8301114E-1,3.6251763E-1,6.148191E-1,-1.6457953E-1,4.0881327E-1,5.538284E-1,8.33275E-1,5.589016E-1,8.270161E-1],"categories":[],"categories_nodes":[],"categories_segments":[],"categories_sizes":[],"default_left":[0,0,0,0,0,0,0,0,0,0,0,0,0,0,0,0,0,0,0,0,0,0,0,0,0,0,0,0,0,0,0],"id":0,"left_children":[1,3,5,7,9,11,13,15,17,19,21,23,25,27,29,-1,-1,-1,-1,-1,-1,-1,-1,-1,-1,-1,-1,-1,-1,-1,-1],"loss_changes":[8.1911567E3,2.4621423E3,6.5224805E2,4.5195404E2,1.0133391E3,9.2357544E1,4.1515625E1,1.8151746E2,2.660778E2,3.9889478E2,3.315083E2,8.332068E1,5.6452644E1,3.354657E1,1.251123E1,0E0,0E0,0E0,0E0,0E0,0E0,0E0,0E0,0E0,0E0,0E0,0E0,0E0,0E0,0E0,0E0],"parents":[2147483647,0,0,1,1,2,2,3,3,4,4,5,5,6,6,7,7,8,8,9,9,10,10,11,11,12,12,13,13,14,14],"right_children":[2,4,6,8,10,12,14,16,18,20,22,24,26,28,30,-1,-1,-1,-1,-1,-1,-1,-1,-1,-1,-1,-1,-1,-1,-1,-1],"split_conditions":[8.445098E-2,-1.0165999E-2,2.4726067E-1,-2.651142E-2,-1.0431916E-2,1.0539582E-3,3.5276833E1,2.4050068E1,-9.096914E-2,1.515848E-4,1.3719002E1,2.3356486E-5,2.3715077E-3,5.198512E-1,-1.8146066E-1,1.7658517E-1,3.8795486E-1,2.0425259E-1,2.9982537E-2,-2.7695278E-2,3.670601E-1,-9.477655E-2,-1.8301114E-1,3.6251763E-1,6.148191E-1,-1.6457953E-1,4.0881327E-1,5.538284E-1,8.33275E-1,5.589016E-1,8.270161E-1],"split_indices":[16,16,17,20,20,29,4,4,18,23,4,15,27,6,8,0,0,0,0,0,0,0,0,0,0,0,0,0,0,0,0],"split_type":[0,0,0,0,0,0,0,0,0,0,0,0,0,0,0,0,0,0,0,0,0,0,0,0,0,0,0,0,0,0,0],"sum_hessian":[2.3050246E4,2.1936418E4,1.1138281E3,4.6847095E3,1.7251709E4,4.276511E2,6.8617706E2,1.1830796E3,3.50163E3,6.5263477E3,1.0725361E4,3.8273718E2,4.4913887E1,1.1516436E2,5.710127E2,8.140336E2,3.6904593E2,6.79384E2,2.8222458E3,6.362238E3,1.6410986E2,4.899278E3,5.826083E3,2.6425E2,1.184872E2,2.719101E1,1.772288E1,7.254078E1,4.2623577E1,1.1097298E1,5.599154E2],"tree_param":{"num_deleted":"0","num_feature":"30","num_nodes":"31","size_leaf_vector":"1"}},{"base_weights":[-6.239891E-2,-1.993084E-1,1.2993308E0,2.131712E-1,-3.4340206E-1,8.637901E-1,1.8219469E0,5.2111614E-1,2.6456753E-4,5.8123127E-2,-4.4052088E-1,3.79592E-1,1.3612485E0,1.3352875E0,1.9365282E0,-4.905752E-2,1.5025996E-1,5.372199E-1,-8.388936E-3,7.9777755E-2,-6.719786E-2,1.7162873E-1,-1.1763304E-1,6.292347E-2,6.5806895E-1,1.4621004E-1,4.4343624E-1,-3.6732966E-1,3.933264E-1,4.3463176E-1,5.008315E-1],"categories":[],"categories_nodes":[],"categories_segments":[],"categories_sizes":[],"default_left":[0,0,0,0,0,0,0,0,0,0,0,0,0,0,0,0,0,0,0,0,0,0,0,0,0,0,0,0,0,0,0],"id":1,"left_children":[1,3,5,7,9,11,13,15,17,19,21,23,25,27,29,-1,-1,-1,-1,-1,-1,-1,-1,-1,-1,-1,-1,-1,-1,-1,-1],"loss_changes":[4.2367734E3,1.2273044E3,4.7256104E2,3.505008E2,5.967627E2,2.727556E2,5.262207E1,1.2528888E2,2.296944E2,2.5430542E2,4.168042E2,1.6533685E2,1.7888086E2,1.20066956E2,1.0103027E1,0E0,0E0,0E0,0E0,0E0,0E0,0E0,0E0,0E0,0E0,0E0,0E0,0E0,0E0,0E0,0E0],"parents":[2147483647,0,0,1,1,2,2,3,3,4,4,5,5,6,6,7,7,8,8,9,9,10,10,11,11,12,12,13,13,14,14],"right_children":[2,4,6,8,10,12,14,16,18,20,22,24,26,28,30,-1,-1,-1,-1,-1,-1,-1,-1,-1,-1,-1,-1,-1,-1,-1,-1],"split_conditions":[1.515848E-4,-7.3329653E-3,3.358815E1,-1.0431916E-2,-3.0412167E-2,3.1815603E-2,1.1471378E-1,6.757426E-5,-2.366852E-19,3.7815261E-3,-1.4520564E-20,7.2732484E-3,-3.1423364E-2,3.0589202E-1,5.5381405E1,-4.905752E-2,1.5025996E-1,5.372199E-1,-8.388936E-3,7.9777755E-2,-6.719786E-2,1.7162873E-1,-1.1763304E-1,6.292347E-2,6.5806895E-1,1.4621004E-1,4.4343624E-1,-3.6732966E-1,3.933264E-1,4.3463176E-1,5.008315E-1],"split_indices":[23,16,4,20,20,16,17,17,13,24,13,25,22,7,4,0,0,0,0,0,0,0,0,0,0,0,0,0,0,0,0],"split_type":[0,0,0,0,0,0,0,0,0,0,0,0,0,0,0,0,0,0,0,0,0,0,0,0,0,0,0,0,0,0,0],"sum_hessian":[2.272534E4,2.0649248E4,2.0760916E3,5.3459697E3,1.5303278E4,1.1323837E3,9.437079E2,2.1852485E3,3.1607212E3,2.9805515E3,1.2322728E4,5.7384235E2,5.585413E2,1.7985074E2,7.638571E2,2.1906102E2,1.9661874E3,4.8981445E1,3.1117397E3,1.6573973E3,1.3231542E3,3.196226E2,1.20031045E4,5.430133E2,3.0829037E1,1.9379062E2,3.6475067E2,1.4068598E1,1.6578214E2,1.9269823E2,5.7115894E2],"tree_param":{"num_deleted":"0","num_feature":"30","num_nodes":"31","size_leaf_vector":"1"}},{"base_weights":[-5.6082126E-2,-1.6396873E-1,9.190288E-1,1.2189157E-1,-2.9185417E-1,6.2885463E-1,1.4622487E0,2.5956252E-1,-1.6962703E-1,-7.481637E-2,-4.285712E-1,4.7930938E-1,1.0569152E0,5.6312963E-2,1.4829761E0,4.1876487E-2,2.1185634E-1,3.470521E-2,-1.1953862E-1,4.5174483E-2,-5.6016777E-2,1.9158065E-1,-1.1427781E-1,-3.0707153E-2,1.5928927E-1,1.3452506E-1,3.3885166E-1,3.363512E-1,4.0044153E-1],"categories":[],"categories_nodes":[],"categories_segments":[],"categories_sizes":[],"default_left":[0,0,0,0,0,0,0,0,0,0,0,0,0,0,0,0,0,0,0,0,0,0,0,0,0,0,0,0,0],"id":2,"left_children":[1,3,5,7,9,11,13,15,17,19,21,23,25,-1,27,-1,-1,-1,-1,-1,-1,-1,-1,-1,-1,-1,-1,-1,-1],"loss_changes":[2.3345308E3,7.304322E2,3.4845935E2,2.4785782E2,4.0962134E2,9.224097E1,1.9732178E1,2.2700842E2,1.8852342E2,2.0346062E2,2.888319E2,1.01499374E2,5.77724E1,0E0,1.2371216E1,0E0,0E0,0E0,0E0,0E0,0E0,0E0,0E0,0E0,0E0,0E0,0E0,0E0,0E0],"parents":[2147483647,0,0,1,1,2,2,3,3,4,4,5,5,6,6,7,7,8,8,9,9,10,10,11,11,12,12,14,14],"right_children":[2,4,6,8,10,12,14,16,18,20,22,24,26,-1,28,-1,-1,-1,-1,-1,-1,-1,-1,-1,-1,-1,-1,-1,-1],"split_conditions":[1.2950657E-4,-5.5326186E-3,4.5064107E-1,1.2171486E-2,-1.110767E-2,4.3751674E0,1.1471378E-1,5.0236464E0,-1.5176338E-2,-1.5908414E-2,-3.775347E-20,-1.0718218E-1,-7.325626E-2,5.6312963E-2,6.696524E0,4.1876487E-2,2.1185634E-1,3.470521E-2,-1.1953862E-1,4.5174483E-2,-5.6016777E-2,1.9158065E-1,-1.1427781E-1,-3.0707153E-2,1.5928927E-1,1.3452506E-1,3.3885166E-1,3.363512E-1,4.0044153E-1],"split_indices":[23,16,16,20,20,3,17,3,16,24,13,16,22,0,3,0,0,0,0,0,0,0,0,0,0,0,0,0,0],"split_type":[0,0,0,0,0,0,0,0,0,0,0,0,0,0,0,0,0,0,0,0,0,0,0,0,0,0,0,0,0],"sum_hessian":[2.219103E4,1.9980395E4,2.2106353E3,6.175772E3,1.3804623E4,1.4409309E3,7.697044E2,4.194778E3,1.9809945E3,5.3351333E3,8.469489E3,1.0678701E3,3.7306076E2,1.26866255E1,7.5701776E2,3.626836E3,5.6794165E2,9.9062134E2,9.9037317E2,1.9672407E3,3.3678923E3,1.9757272E2,8.271917E3,2.2179172E2,8.460784E2,1.362497E2,2.3681105E2,3.5078778E2,4.0622998E2],"tree_param":{"num_deleted":"0","num_feature":"30","num_nodes":"29","size_leaf_vector":"1"}},{"base_weights":[-3.951647E-2,-1.4412834E-1,6.0398054E-1,-4.2588344E-1,-6.0632322E-2,3.5500962E-1,1.0869738E0,-3.295454E-1,-8.786882E-1,-7.1542615E-1,-1.8360881E-2,5.638767E-1,-6.994998E-2,1.6480187E-1,1.167573E0,-1.5024666E-1,-3.425791E-2,1.1000006E-1,-2.3344888E-1,-2.0145082E-1,1.8383856E-1,5.0941557E-2,-2.7910193E-2,7.632089E-2,2.1490687E-1,3.461912E-2,-1.4277533E-1,2.2206682E-1,-1.7864102E-1,2.575366E-1,3.410201E-1],"categories":[],"categories_nodes":[],"categories_segments":[],"categories_sizes":[],"default_left":[0,0,0,0,0,0,0,0,0,0,0,0,0,0,0,0,0,0,0,0,0,0,0,0,0,0,0,0,0,0,0],"id":3,"left_children":[1,3,5,7,9,11,13,15,17,19,21,23,25,27,29,-1,-1,-1,-1,-1,-1,-1,-1,-1,-1,-1,-1,-1,-1,-1,-1],"loss_changes":[1.4618193E3,4.3942563E2,3.651504E2,1.8626526E2,3.988237E2,1.7785114E2,7.676611E1,1.8398611E2,5.443878E1,1.14571106E2,2.8044675E2,1.0274353E2,6.89726E1,5.282319E1,2.5650635E1,0E0,0E0,0E0,0E0,0E0,0E0,0E0,0E0,0E0,0E0,0E0,0E0,0E0,0E0,0E0,0E0],"parents":[2147483647,0,0,1,1,2,2,3,3,4,4,5,5,6,6,7,7,8,8,9,9,10,10,11,11,12,12,13,13,14,14],"right_children":[2,4,6,8,10,12,14,16,18,20,22,24,26,28,30,-1,-1,-1,-1,-1,-1,-1,-1,-1,-1,-1,-1,-1,-1,-1,-1],"split_conditions":[2.8480133E-3,2.6483041E-5,7.0522085E-4,-1.0260861E-2,-8.8728106E-1,8.880416E-3,1.0759564E1,2.528474E0,-1.2162372E-2,7.4944365E-1,1.3662047E-4,4.5470705E0,1.42849535E-2,6.334446E-5,6.696524E0,-1.5024666E-1,-3.425791E-2,1.1000006E-1,-2.3344888E-1,-2.0145082E-1,1.8383856E-1,5.0941557E-2,-2.7910193E-2,7.632089E-2,2.1490687E-1,3.461912E-2,-1.4277533E-1,2.2206682E-1,-1.7864102E-1,2.575366E-1,3.410201E-1],"split_indices":[17,17,23,8,5,20,4,3,22,0,2,3,24,29,3,0,0,0,0,0,0,0,0,0,0,0,0,0,0,0,0],"split_type":[0,0,0,0,0,0,0,0,0,0,0,0,0,0,0,0,0,0,0,0,0,0,0,0,0,0,0,0,0,0,0],"sum_hessian":[2.1715285E4,1.867873E4,3.0365554E3,4.269931E3,1.4408799E4,2.0037019E3,1.0328536E3,3.5208464E3,7.490847E2,8.7377527E2,1.3535023E4,1.3434187E3,6.602832E2,8.301944E1,9.498342E2,1.4609371E3,2.0599094E3,3.0046505E1,7.190382E2,8.225365E2,5.1238773E1,4.0029019E3,9.532122E3,7.1673804E2,6.2668066E2,4.6633295E2,1.9395023E2,4.554862E1,3.747082E1,5.58948E2,3.908862E2],"tree_param":{"num_deleted":"0","num_feature":"30","num_nodes":"31","size_leaf_vector":"1"}},{"base_weights":[-3.0434208E-2,-8.1276305E-2,8.4743464E-1,1.4678887E-1,-1.885325E-1,4.2858586E-1,9.8452437E-1,-4.8359504E-1,1.8816552E-1,-7.826398E-2,-4.059428E-1,7.878415E-1,-4.6025833E-1,-6.359924E-1,1.0316575E0,-1.7795824E-1,1.0223136E-1,4.212806E-2,2.9189873E-1,3.7898448E-1,-2.2945572E-2,-7.653867E-2,-2.2160995E-1,-3.178125E-1,2.2666974E-1,2.7185205E-1,-2.3608105E-1,-4.209545E-1,1.2494924E-1,2.1802427E-1,2.9048568E-1],"categories":[],"categories_nodes":[],"categories_segments":[],"categories_sizes":[],"default_left":[0,0,0,0,0,0,0,0,0,0,0,0,0,0,0,0,0,0,0,0,0,0,0,0,0,0,0,0,0,0,0],"id":4,"left_children":[1,3,5,7,9,11,13,15,17,19,21,23,25,27,29,-1,-1,-1,-1,-1,-1,-1,-1,-1,-1,-1,-1,-1,-1,-1,-1],"loss_changes":[9.510356E2,4.9269073E2,6.697986E1,1.6804187E2,3.2841415E2,9.185856E1,6.713013E1,8.083791E1,1.1637503E2,1.9588254E2,2.210362E2,5.0133278E1,6.2036003E1,2.956926E1,1.7753357E1,0E0,0E0,0E0,0E0,0E0,0E0,0E0,0E0,0E0,0E0,0E0,0E0,0E0,0E0,0E0,0E0],"parents":[2147483647,0,0,1,1,2,2,3,3,4,4,5,5,6,6,7,7,8,8,9,9,10,10,11,11,12,12,13,13,14,14],"right_children":[2,4,6,8,10,12,14,16,18,20,22,24,26,28,30,-1,-1,-1,-1,-1,-1,-1,-1,-1,-1,-1,-1,-1,-1,-1,-1],"split_conditions":[8.445098E-2,-1.1045315E-2,5.4880977E0,-8.773239E-1,9.859901E-3,3.6820665E-4,1.2590654E-1,2.717461E-3,3.6355658E-4,-9.225399E-19,-6.3568093E-3,-1.1688283E-1,8.452655E-5,3.17488E-4,5.261723E0,-1.7795824E-1,1.0223136E-1,4.212806E-2,2.9189873E-1,3.7898448E-1,-2.2945572E-2,-7.653867E-2,-2.2160995E-1,-3.178125E-1,2.2666974E-1,2.7185205E-1,-2.3608105E-1,-4.209545E-1,1.2494924E-1,2.1802427E-1,2.9048568E-1],"split_indices":[16,18,19,5,20,27,16,11,21,13,8,8,29,23,3,0,0,0,0,0,0,0,0,0,0,0,0,0,0,0,0],"split_type":[0,0,0,0,0,0,0,0,0,0,0,0,0,0,0,0,0,0,0,0,0,0,0,0,0,0,0,0,0,0,0],"sum_hessian":[2.1308002E4,2.0141502E4,1.1664999E3,6.442472E3,1.3699029E4,2.8765314E2,8.788467E2,3.968164E2,6.045656E3,9.08912E3,4.6099087E3,2.048563E2,8.279685E1,2.48376E1,8.540091E2,3.160084E2,8.080801E1,5.9267324E3,1.1892377E2,7.642325E1,9.012697E3,3.8171746E3,7.9273413E2,1.1176811E1,1.9367949E2,1.972545E1,6.3071404E1,1.2920118E1,1.1917482E1,3.8388403E2,4.7012503E2],"tree_param":{"num_deleted":"0","num_feature":"30","num_nodes":"31","size_leaf_vector":"1"}},{"base_weights":[-2.3138562E-2,-7.308628E-2,5.7048625E-1,-2.3098314E-1,3.269698E-2,3.4686518E-1,9.199425E-1,-9.835119E-2,-3.9869E-1,2.8585863E-1,-5.0045762E-2,2.5624233E-1,1.1938264E0,5.133298E-1,1.029717E0,-3.4983132E-2,1.9490637E-1,-7.459242E-2,-1.7722808E-1,6.1499304E-3,1.3785739E-1,6.294209E-2,-3.8375285E-2,8.4469035E-2,-1.8687853E-1,3.68376E-1,-2.2231501E-1,-1.8981759E-1,2.1353151E-1,2.2600938E-1,2.8519088E-1],"categories":[],"categories_nodes":[],"categories_segments":[],"categories_sizes":[],"default_left":[0,0,0,0,0,0,0,0,0,0,0,0,0,0,0,0,0,0,0,0,0,0,0,0,0,0,0,0,0,0,0],"id":5,"left_children":[1,3,5,7,9,11,13,15,17,19,21,23,25,27,29,-1,-1,-1,-1,-1,-1,-1,-1,-1,-1,-1,-1,-1,-1,-1,-1],"loss_changes":[6.208468E2,3.2259857E2,1.2699292E2,1.7234921E2,2.4226869E2,7.606154E1,2.8303528E1,1.5795673E2,1.0649036E2,1.9766655E2,2.721716E2,7.335403E1,5.5806854E1,5.847034E1,6.968567E0,0E0,0E0,0E0,0E0,0E0,0E0,0E0,0E0,0E0,0E0,0E0,0E0,0E0,0E0,0E0,0E0],"parents":[2147483647,0,0,1,1,2,2,3,3,4,4,5,5,6,6,7,7,8,8,9,9,10,10,11,11,12,12,13,13,14,14],"right_children":[2,4,6,8,10,12,14,16,18,20,22,24,26,28,30,-1,-1,-1,-1,-1,-1,-1,-1,-1,-1,-1,-1,-1,-1,-1,-1],"split_conditions":[2.1252906E-4,7.7489174E-5,4.7796464E0,3.7815261E-3,-2.86668E-2,5.463926E-2,4.600531E1,6.11796E-1,1.8972997E-2,3.93225E-1,2.3670635E0,3.444834E-2,5.1851605E-30,-4.7009847E-1,-2.8890284E-2,-3.4983132E-2,1.9490637E-1,-7.459242E-2,-1.7722808E-1,6.1499304E-3,1.3785739E-1,6.294209E-2,-3.8375285E-2,8.4469035E-2,-1.8687853E-1,3.68376E-1,-2.2231501E-1,-1.8981759E-1,2.1353151E-1,2.2600938E-1,2.8519088E-1],"split_indices":[23,17,3,24,20,20,19,6,20,6,3,20,13,14,9,0,0,0,0,0,0,0,0,0,0,0,0,0,0,0,0],"split_type":[0,0,0,0,0,0,0,0,0,0,0,0,0,0,0,0,0,0,0,0,0,0,0,0,0,0,0,0,0,0,0],"sum_hessian":[2.0938984E4,1.9313912E4,1.6250728E3,7.748369E3,1.1565543E4,9.9095544E2,6.3411725E2,4.3266367E3,3.4217324E3,2.848927E3,8.716616E3,8.9517645E2,9.577905E1,1.3480615E2,4.993111E2,4.1309937E3,1.9564296E2,2.5856023E3,8.3613E2,1.4361271E3,1.4127999E3,2.225133E3,6.4914834E3,8.27851E2,6.732543E1,8.444277E1,1.1336276E1,2.8473558E1,1.06332596E2,2.3423315E2,2.6507794E2],"tree_param":{"num_deleted":"0","num_feature":"30","num_nodes":"31","size_leaf_vector":"1"}},{"base_weights":[-1.7863294E-2,-5.5269655E-2,5.423173E-1,8.413878E-2,-1.6367553E-1,3.7512666E-1,9.342446E-1,5.957662E-2,6.8845755E-1,1.1477787E0,-1.7926525E-1,1.0821251E0,2.1828952E-1,1.0081497E0,6.496962E-1,1.7817117E-2,-2.7561927E-1,3.3747882E-1,4.660762E-2,1.7566033E-1,4.9569157E-1,-1.7207737E-1,-3.5371017E-2,3.423144E-1,-1.5844807E-1,1.08262934E-1,-9.766292E-2,2.1156208E-1,2.8880444E-1,-2.1925232E-1,2.208397E-1],"categories":[],"categories_nodes":[],"categories_segments":[],"categories_sizes":[],"default_left":[0,0,0,0,0,0,0,0,0,0,0,0,0,0,0,0,0,0,0,0,0,0,0,0,0,0,0,0,0,0,0],"id":6,"left_children":[1,3,5,7,9,11,13,15,17,19,21,23,25,27,29,-1,-1,-1,-1,-1,-1,-1,-1,-1,-1,-1,-1,-1,-1,-1,-1],"loss_changes":[4.3238052E2,2.9232202E2,8.4635864E1,1.25597626E2,2.2247375E2,1.00394745E2,8.121643E0,1.1047453E2,1.0974078E2,4.751274E1,2.0681519E2,8.099519E1,9.691104E1,7.2998962E0,2.8414322E1,0E0,0E0,0E0,0E0,0E0,0E0,0E0,0E0,0E0,0E0,0E0,0E0,0E0,0E0,0E0,0E0],"parents":[2147483647,0,0,1,1,2,2,3,3,4,4,5,5,6,6,7,7,8,8,9,9,10,10,11,11,12,12,13,13,14,14],"right_children":[2,4,6,8,10,12,14,16,18,20,22,24,26,28,30,-1,-1,-1,-1,-1,-1,-1,-1,-1,-1,-1,-1,-1,-1,-1,-1],"split_conditions":[5.154159E-2,-2.783477E-3,6.3612854E-1,8.0940445E1,-2.8571963E-2,1.1831128E-1,7.380956E-4,8.52593E-3,3.2833439E-6,2.4394524E-1,-8.773239E-1,4.991097E-1,7.9641736E-4,8.0940445E1,3.2238077E-4,1.7817117E-2,-2.7561927E-1,3.3747882E-1,4.660762E-2,1.7566033E-1,4.9569157E-1,-1.7207737E-1,-3.5371017E-2,3.423144E-1,-1.5844807E-1,1.08262934E-1,-9.766292E-2,2.1156208E-1,2.8880444E-1,-2.1925232E-1,2.208397E-1],"split_indices":[16,16,17,4,18,18,29,27,21,12,5,6,27,4,27,0,0,0,0,0,0,0,0,0,0,0,0,0,0,0,0],"split_type":[0,0,0,0,0,0,0,0,0,0,0,0,0,0,0,0,0,0,0,0,0,0,0,0,0,0,0,0,0,0,0],"sum_hessian":[2.0634365E4,1.9342746E4,1.2916183E3,8.461437E3,1.0881311E4,9.053953E2,3.8622293E2,8.1309624E3,3.3047418E2,1.2782864E2,1.0753481E4,1.6438002E2,7.410153E2,3.0658594E2,7.9636986E1,8.0499707E3,8.099174E1,1.4259293E2,1.8788126E2,8.338062E1,4.4448017E1,7.429738E2,1.0010508E4,1.4081767E2,2.3562346E1,5.4781494E2,1.9320036E2,1.4594092E2,1.6064503E2,1.0569317E1,6.9067665E1],"tree_param":{"num_deleted":"0","num_feature":"30","num_nodes":"31","size_leaf_vector":"1"}},{"base_weights":[-1.8284094E-2,-7.439691E-2,2.4318549E-1,1.3824426E-1,-1.3530251E-1,1.5689869E-1,6.646134E-1,4.5576116E-1,-1.0710116E-1,6.2651485E-1,-1.5794253E-1,-1.0628175E-1,3.14947E-1,-8.458656E-1,7.331627E-1,1.3732758E-1,-1.2838806E-1,-3.863201E-2,3.716961E-1,-3.3833846E-1,2.1455221E-1,-1.2853368E-2,-7.378063E-2,-3.3992592E-1,-1.2995427E-2,9.302317E-2,-1.945929E-1,1.10928945E-1,-4.1020393E-1,3.9937696E-1,1.7400652E-1],"categories":[],"categories_nodes":[],"categories_segments":[],"categories_sizes":[],"default_left":[0,0,0,0,0,0,0,0,0,0,0,0,0,0,0,0,0,0,0,0,0,0,0,0,0,0,0,0,0,0,0],"id":7,"left_children":[1,3,5,7,9,11,13,15,17,19,21,23,25,27,29,-1,-1,-1,-1,-1,-1,-1,-1,-1,-1,-1,-1,-1,-1,-1,-1],"loss_changes":[2.9887494E2,2.1720822E2,1.3088194E2,2.9089978E2,2.2486263E2,1.24269104E2,6.333963E1,1.4759912E2,1.592395E2,1.7260616E2,1.8502325E2,7.62951E1,1.1662503E2,2.722973E1,1.8784088E1,0E0,0E0,0E0,0E0,0E0,0E0,0E0,0E0,0E0,0E0,0E0,0E0,0E0,0E0,0E0,0E0],"parents":[2147483647,0,0,1,1,2,2,3,3,4,4,5,5,6,6,7,7,8,8,9,9,10,10,11,11,12,12,13,13,14,14],"right_children":[2,4,6,8,10,12,14,16,18,20,22,24,26,28,30,-1,-1,-1,-1,-1,-1,-1,-1,-1,-1,-1,-1,-1,-1,-1,-1],"split_conditions":[1.5419312E-3,-3.0412167E-2,5.6051165E-1,-5.4711807E-1,-1.4520564E-20,-7.440502E-3,9.270022E0,4.116859E1,9.2406334E1,-8.587898E-1,5.617105E-4,-8.773239E-1,-2.508663E-1,1.7618437E-5,6.157345E-5,1.3732758E-1,-1.2838806E-1,-3.863201E-2,3.716961E-1,-3.3833846E-1,2.1455221E-1,-1.2853368E-2,-7.378063E-2,-3.3992592E-1,-1.2995427E-2,9.302317E-2,-1.945929E-1,1.10928945E-1,-4.1020393E-1,3.9937696E-1,1.7400652E-1],"split_indices":[17,20,18,5,13,22,4,4,4,5,27,5,5,29,23,0,0,0,0,0,0,0,0,0,0,0,0,0,0,0,0],"split_type":[0,0,0,0,0,0,0,0,0,0,0,0,0,0,0,0,0,0,0,0,0,0,0,0,0,0,0,0,0,0,0],"sum_hessian":[2.0370646E4,1.6771418E4,3.5992295E3,3.7341736E3,1.3037244E4,2.9875403E3,6.116894E2,1.6276887E3,2.1064849E3,3.7626166E2,1.2660982E4,1.1209429E3,1.8665973E3,2.6553417E1,5.85136E2,1.4844279E3,1.4326085E2,2.0456179E3,6.0866955E1,3.9417942E1,3.3684372E2,7.126677E3,5.534305E3,4.6542725E1,1.0744001E3,1.773882E3,9.271537E1,1.0125229E1,1.6428188E1,2.4102192E1,5.610338E2],"tree_param":{"num_deleted":"0","num_feature":"30","num_nodes":"31","size_leaf_vector":"1"}},{"base_weights":[-1.1434986E-2,1.3486548E-1,-1.0440823E-1,8.6450055E-2,5.0126857E-1,-1.5498292E-1,2.4085693E-1,2.3685257E-1,-6.318762E-2,9.219131E-1,2.876922E-1,-6.2758885E-2,-3.089948E-1,6.5298986E-1,-3.0362772E-2,4.8437703E-2,2.1882156E-1,-4.858375E-2,2.170812E-2,1.4007664E-1,3.7577495E-1,-3.4472283E-2,1.7493203E-1,-1.5983853E-1,-6.52855E-3,-1.5519902E-2,-1.1953579E-1,2.4266858E-1,-9.5546246E-2,-2.9826102E-1,2.1460887E-2],"categories":[],"categories_nodes":[],"categories_segments":[],"categories_sizes":[],"default_left":[0,0,0,0,0,0,0,0,0,0,0,0,0,0,0,0,0,0,0,0,0,0,0,0,0,0,0,0,0,0,0],"id":8,"left_children":[1,3,5,7,9,11,13,15,17,19,21,23,25,27,29,-1,-1,-1,-1,-1,-1,-1,-1,-1,-1,-1,-1,-1,-1,-1,-1],"loss_changes":[2.739698E2,1.3883691E2,2.1504868E2,1.5558264E2,8.206415E1,1.5257397E2,1.758845E2,9.487254E1,8.339479E1,6.464661E1,1.062413E2,1.4196172E2,1.6803079E2,2.0538025E2,1.2822415E2,0E0,0E0,0E0,0E0,0E0,0E0,0E0,0E0,0E0,0E0,0E0,0E0,0E0,0E0,0E0,0E0],"parents":[2147483647,0,0,1,1,2,2,3,3,4,4,5,5,6,6,7,7,8,8,9,9,10,10,11,11,12,12,13,13,14,14],"right_children":[2,4,6,8,10,12,14,16,18,20,22,24,26,28,30,-1,-1,-1,-1,-1,-1,-1,-1,-1,-1,-1,-1,-1,-1,-1,-1],"split_conditions":[-1.5908414E-2,2.6313199E-2,1.4520565E-21,2.9445917E-3,2.0569284E-4,5.461729E-3,2.2743008E1,1.9024548E-4,1.2254901E-5,2.300394E-2,1.10576975E-5,2.1401358E-5,1.0042233E1,1.6325408E-5,-1.7575984E-1,4.8437703E-2,2.1882156E-1,-4.858375E-2,2.170812E-2,1.4007664E-1,3.7577495E-1,-3.4472283E-2,1.7493203E-1,-1.5983853E-1,-6.52855E-3,-1.5519902E-2,-1.1953579E-1,2.4266858E-1,-9.5546246E-2,-2.9826102E-1,2.1460887E-2],"split_indices":[24,22,13,2,27,20,4,21,15,20,15,29,4,15,8,0,0,0,0,0,0,0,0,0,0,0,0,0,0,0,0],"split_type":[0,0,0,0,0,0,0,0,0,0,0,0,0,0,0,0,0,0,0,0,0,0,0,0,0,0,0,0,0,0,0],"sum_hessian":[2.0141758E4,7.8263604E3,1.2315397E4,6.9129146E3,9.13446E2,1.074192E4,1.5734777E3,3.4476538E3,3.4652607E3,3.0760284E2,6.0584314E2,6.7187017E3,4.0232185E3,6.245098E2,9.489678E2,3.2296204E3,2.1803363E2,2.0414032E3,1.4238574E3,1.896248E2,1.1797806E2,2.980202E2,3.0782294E2,4.0147818E2,6.3172236E3,1.6356228E3,2.3875957E3,4.778613E2,1.4664851E2,8.622988E1,8.627379E2],"tree_param":{"num_deleted":"0","num_feature":"30","num_nodes":"31","size_leaf_vector":"1"}},{"base_weights":[-1.06716305E-2,-2.2169842E-1,3.5408653E-2,-1.2945728E-1,-5.7401127E-1,-4.1011277E-1,6.0925633E-2,-4.2573485E-1,6.720674E-2,-7.373362E-1,-6.066348E-3,-5.41161E-1,7.942301E-1,1.3017756E-1,-8.265223E-2,-3.6744907E-2,-1.5531479E-1,4.2087685E-2,-1.8305996E-1,-2.2653487E-1,-3.6445267E-2,2.3070137E-1,-1.12330966E-1,-1.8369195E-1,4.276469E-2,5.1967573E-1,-2.30193E-1,-6.1230797E-2,4.542964E-2,-3.3770257E-3,-2.0228595E-1],"categories":[],"categories_nodes":[],"categories_segments":[],"categories_sizes":[],"default_left":[0,0,0,0,0,0,0,0,0,0,0,0,0,0,0,0,0,0,0,0,0,0,0,0,0,0,0,0,0,0,0],"id":9,"left_children":[1,3,5,7,9,11,13,15,17,19,21,23,25,27,29,-1,-1,-1,-1,-1,-1,-1,-1,-1,-1,-1,-1,-1,-1,-1,-1],"loss_changes":[1.946631E2,1.16596344E2,1.86789E2,1.6567789E2,6.905258E1,1.4047986E2,1.5452002E2,6.182837E1,1.3818915E2,5.7732697E1,6.84628E1,1.10690414E2,1.9242165E2,2.0268521E2,2.5400961E2,0E0,0E0,0E0,0E0,0E0,0E0,0E0,0E0,0E0,0E0,0E0,0E0,0E0,0E0,0E0,0E0],"parents":[2147483647,0,0,1,1,2,2,3,3,4,4,5,5,6,6,7,7,8,8,9,9,10,10,11,11,12,12,13,13,14,14],"right_children":[2,4,6,8,10,12,14,16,18,20,22,24,26,28,30,-1,-1,-1,-1,-1,-1,-1,-1,-1,-1,-1,-1,-1,-1,-1,-1],"split_conditions":[2.5822408E-5,1.4909001E-3,-8.822561E-1,9.270022E0,-2.619595E-3,1.4520565E-21,9.859901E-3,8.100305E-4,-1.0260861E-2,1.9067369E-5,-7.701977E-1,2.717461E-3,2.3657995E1,5.028212E-5,2.3967823E-2,-3.6744907E-2,-1.5531479E-1,4.2087685E-2,-1.8305996E-1,-2.2653487E-1,-3.6445267E-2,2.3070137E-1,-1.12330966E-1,-1.8369195E-1,4.276469E-2,5.1967573E-1,-2.30193E-1,-6.1230797E-2,4.542964E-2,-3.3770257E-3,-2.0228595E-1],"split_indices":[17,27,5,4,9,13,20,11,8,17,5,11,4,29,8,0,0,0,0,0,0,0,0,0,0,0,0,0,0,0,0],"split_type":[0,0,0,0,0,0,0,0,0,0,0,0,0,0,0,0,0,0,0,0,0,0,0,0,0,0,0,0,0,0,0],"sum_hessian":[2.001831E4,3.5878115E3,1.6430498E4,2.8433765E3,7.4443506E2,8.900641E2,1.5540435E4,1.1343984E3,1.7089781E3,5.7816656E2,1.662685E2,8.027196E2,8.734448E1,1.0483799E4,5.0566357E3,4.6766678E2,6.667316E2,1.5170479E3,1.9193027E2,4.4980777E2,1.283588E2,5.371029E1,1.125582E2,6.311529E2,1.7156671E2,4.994149E1,3.7402992E1,1.2665034E3,9.217296E3,4.6171953E3,4.3944034E2],"tree_param":{"num_deleted":"0","num_feature":"30","num_nodes":"31","size_leaf_vector":"1"}},{"base_weights":[-8.235004E-3,7.669167E-2,-1.226488E-1,1.22509696E-1,-1.4226255E-1,-1.063776E-1,-8.536776E-1,9.3826845E-2,7.217857E-1,3.4105527E-1,-3.422961E-1,-3.2290202E-1,-5.085892E-2,-1.0928833E0,-1.8221766E-1,1.6238146E-2,1.3841155E-1,2.4358146E-2,2.837908E-1,3.87136E-1,5.2595597E-2,3.147377E-2,-1.2339853E-1,-1.3885246E-1,-6.585462E-3,-4.5029707E-3,-1.2651514E-1,-3.1653133E-1,-3.7936494E-2,2.3052129E-1,-2.111625E-1],"categories":[],"categories_nodes":[],"categories_segments":[],"categories_sizes":[],"default_left":[0,0,0,0,0,0,0,0,0,0,0,0,0,0,0,0,0,0,0,0,0,0,0,0,0,0,0,0,0,0,0],"id":10,"left_children":[1,3,5,7,9,11,13,15,17,19,21,23,25,27,29,-1,-1,-1,-1,-1,-1,-1,-1,-1,-1,-1,-1,-1,-1,-1,-1],"loss_changes":[1.9326341E2,1.1452499E2,1.00794106E2,1.6227112E2,1.9099004E2,9.964637E1,2.9632538E1,1.19615135E2,1.1128882E2,9.1244354E1,9.897479E1,1.1664412E2,9.864789E1,2.2177689E1,3.5460365E1,0E0,0E0,0E0,0E0,0E0,0E0,0E0,0E0,0E0,0E0,0E0,0E0,0E0,0E0,0E0,0E0],"parents":[2147483647,0,0,1,1,2,2,3,3,4,4,5,5,6,6,7,7,8,8,9,9,10,10,11,11,12,12,13,13,14,14],"right_children":[2,4,6,8,10,12,14,16,18,20,22,24,26,28,30,-1,-1,-1,-1,-1,-1,-1,-1,-1,-1,-1,-1,-1,-1,-1,-1],"split_conditions":[3.7815261E-3,-3.3422285E-3,5.0131854E-4,6.027233E-1,3.521116E-1,3.1933992E-5,4.1448246E-3,5.886242E1,-8.753381E-2,2.1955157E-4,-2.2504847E-2,4.6792126E-1,5.6903666E-1,6.889665E-2,-7.071817E-3,1.6238146E-2,1.3841155E-1,2.4358146E-2,2.837908E-1,3.87136E-1,5.2595597E-2,3.147377E-2,-1.2339853E-1,-1.3885246E-1,-6.585462E-3,-4.5029707E-3,-1.2651514E-1,-3.1653133E-1,-3.7936494E-2,2.3052129E-1,-2.111625E-1],"split_indices":[24,8,15,6,6,17,29,4,8,25,20,6,6,18,18,0,0,0,0,0,0,0,0,0,0,0,0,0,0,0,0],"split_type":[0,0,0,0,0,0,0,0,0,0,0,0,0,0,0,0,0,0,0,0,0,0,0,0,0,0,0,0,0,0,0],"sum_hessian":[1.9889549E4,1.1415827E4,8.473721E3,9.440362E3,1.9754653E3,8.289223E3,1.8449792E2,9.009165E3,4.311973E2,5.7826337E2,1.3972019E3,1.69166E3,6.597563E3,1.3603308E2,4.8464832E1,8.476867E3,5.3229816E2,1.7176862E2,2.594287E2,5.646631E1,5.2179706E2,3.412353E2,1.0559667E3,9.4822723E2,7.434328E2,6.153533E3,4.4402972E2,1.1488326E2,2.1149824E1,1.8170456E1,3.0294376E1],"tree_param":{"num_deleted":"0","num_feature":"30","num_nodes":"31","size_leaf_vector":"1"}},{"base_weights":[-1.0804112E-2,-2.2876907E-2,6.531337E-1,1.026711E-1,-7.6235935E-2,-3.249652E-1,7.302463E-1,6.394168E-2,7.781427E-1,-5.738376E-2,-5.7879984E-1,-2.8071082E-1,1.6651505E-1,4.9940327E-1,6.873317E-1,5.9493505E-3,1.8297169E-1,3.3877292E-1,3.3043958E-3,-2.791777E-1,-1.2552527E-2,-2.0182595E-1,3.3043958E-3,4.667494E-2,2.0764023E-1],"categories":[],"categories_nodes":[],"categories_segments":[],"categories_sizes":[],"default_left":[0,0,0,0,0,0,0,0,0,0,0,0,0,0,0,0,0,0,0,0,0,0,0,0,0],"id":11,"left_children":[1,3,5,7,9,11,13,15,17,19,21,-1,-1,-1,23,-1,-1,-1,-1,-1,-1,-1,-1,-1,-1],"loss_changes":[1.58529E2,1.3012567E2,2.664235E1,1.515566E2,1.291464E2,2.0415264E1,1.7809036E1,1.4691904E2,1.5076624E2,9.98421E1,9.3443756E1,0E0,0E0,0E0,2.2705948E1,0E0,0E0,0E0,0E0,0E0,0E0,0E0,0E0,0E0,0E0],"parents":[2147483647,0,0,1,1,2,2,3,3,4,4,5,5,6,6,7,7,8,8,9,9,10,10,14,14],"right_children":[2,4,6,8,10,12,14,16,18,20,22,-1,-1,-1,24,-1,-1,-1,-1,-1,-1,-1,-1,-1,-1],"split_conditions":[1.3024892E2,1.3662047E-4,1.0759564E1,4.9840744E1,5.969174E-3,-6.3236535E-2,1.2662415E1,1.9954499E-4,-2.568774E-4,-3.504952E-1,7.9424455E-5,-2.8071082E-1,1.6651505E-1,4.9940327E-1,5.261723E0,5.9493505E-3,1.8297169E-1,3.3877292E-1,3.3043958E-3,-2.791777E-1,-1.2552527E-2,-2.0182595E-1,3.3043958E-3,4.667494E-2,2.0764023E-1],"split_indices":[19,2,4,4,25,8,4,21,16,9,21,0,0,0,3,0,0,0,0,0,0,0,0,0,0],"split_type":[0,0,0,0,0,0,0,0,0,0,0,0,0,0,0,0,0,0,0,0,0,0,0,0,0],"sum_hessian":[1.9777395E4,1.9424195E4,3.5319882E2,5.7932544E3,1.3630942E4,2.5808851E1,3.2738995E2,5.479103E3,3.1415115E2,1.3138109E4,4.9283206E2,1.4298989E1,1.1509863E1,1.0720985E1,3.1666898E2,5.168475E3,3.1062793E2,1.8581133E2,1.2833983E2,8.836932E1,1.304974E4,3.9535187E2,9.748022E1,7.044769E1,2.4622128E2],"tree_param":{"num_deleted":"0","num_feature":"30","num_nodes":"25","size_leaf_vector":"1"}},{"base_weights":[-6.141806E-3,-8.351226E-2,8.089291E-2,3.9171465E-2,-1.8264703E-1,-4.322011E-1,1.0940939E-1,-6.0713863E-1,8.7257504E-2,-3.0414507E-1,-1.2770342E-2,5.936401E-1,-5.940968E-1,-5.173098E-1,1.3180631E-1,4.9603167E-1,-1.7759106E-1,4.667623E-2,-7.103757E-2,1.7869478E-2,-1.12305224E-1,5.9019983E-2,-4.8524875E-2,5.2519846E-1,5.7683747E-2,3.0460738E-2,-2.1832947E-1,-2.4509497E-2,-3.0828157E-1,5.014721E-2,-2.1143505E-2],"categories":[],"categories_nodes":[],"categories_segments":[],"categories_sizes":[],"default_left":[0,0,0,0,0,0,0,0,0,0,0,0,0,0,0,0,0,0,0,0,0,0,0,0,0,0,0,0,0,0,0],"id":12,"left_children":[1,3,5,7,9,11,13,15,17,19,21,23,25,27,29,-1,-1,-1,-1,-1,-1,-1,-1,-1,-1,-1,-1,-1,-1,-1,-1],"loss_changes":[1.32524E2,1.2671221E2,1.3551291E2,1.447087E2,1.1893085E2,8.098835E1,1.23157364E2,8.625204E1,1.6007076E2,1.8307312E2,1.084236E2,3.635573E1,8.419641E1,9.08563E1,1.2607924E2,0E0,0E0,0E0,0E0,0E0,0E0,0E0,0E0,0E0,0E0,0E0,0E0,0E0,0E0,0E0,0E0],"parents":[2147483647,0,0,1,1,2,2,3,3,4,4,5,5,6,6,7,7,8,8,9,9,10,10,11,11,12,12,13,13,14,14],"right_children":[2,4,6,8,10,12,14,16,18,20,22,24,26,28,30,-1,-1,-1,-1,-1,-1,-1,-1,-1,-1,-1,-1,-1,-1,-1,-1],"split_conditions":[1.8590609E-4,-1.1236471E-3,-8.773239E-1,2.1401358E-5,-5.6057316E-1,6.857336E-5,2.137156E-1,2.2264433E0,1.9781837E-2,-1.8432498E-2,1.0148908E1,2.3736565E-4,-1.5061781E-2,-5.2424145E-1,4.796978E-1,4.9603167E-1,-1.7759106E-1,4.667623E-2,-7.103757E-2,1.7869478E-2,-1.12305224E-1,5.9019983E-2,-4.8524875E-2,5.2519846E-1,5.7683747E-2,3.0460738E-2,-2.1832947E-1,-2.4509497E-2,-3.0828157E-1,5.014721E-2,-2.1143505E-2],"split_indices":[17,22,5,29,5,29,7,4,20,20,4,11,20,5,7,0,0,0,0,0,0,0,0,0,0,0,0,0,0,0,0],"split_type":[0,0,0,0,0,0,0,0,0,0,0,0,0,0,0,0,0,0,0,0,0,0,0,0,0,0,0,0,0,0,0],"sum_hessian":[1.967997E4,1.0418425E4,9.261546E3,4.656176E3,5.762249E3,4.8762787E2,8.773918E3,3.2243085E2,4.3337446E3,3.359487E3,2.4027622E3,6.646468E1,4.2116318E2,3.0272928E2,8.471188E3,1.2351426E1,3.1007944E2,3.418437E3,9.153079E2,9.360077E2,2.4234792E3,1.01280664E3,1.3899557E3,1.2896957E1,5.3567722E1,1.18167206E2,3.0299597E2,1.9091107E2,1.11818214E2,6.4279087E3,2.0432795E3],"tree_param":{"num_deleted":"0","num_feature":"30","num_nodes":"31","size_leaf_vector":"1"}},{"base_weights":[-4.7738273E-3,-2.2252724E-2,3.1996927E-1,-4.444592E-1,-6.255194E-3,-1.1465002E-1,4.772129E-1,-5.234956E-1,1.4040161E0,2.3002934E-2,-2.3049358E-1,-7.2244483E-1,3.4239152E-1,3.6030275E-1,1.087812E0,-3.8562488E-2,-2.202696E-1,6.438051E-1,-1.6407688E-1,2.3274517E-2,-1.5770001E-2,-6.6711076E-2,2.7980322E-1,-3.9034843E-1,-4.7506664E-2,-4.7506664E-2,1.7938992E-1,1.311038E-1,-1.2834677E-1,3.3391142E-1,-2.710505E-1],"categories":[],"categories_nodes":[],"categories_segments":[],"categories_sizes":[],"default_left":[0,0,0,0,0,0,0,0,0,0,0,0,0,0,0,0,0,0,0,0,0,0,0,0,0,0,0,0,0,0,0],"id":13,"left_children":[1,3,5,7,9,11,13,15,17,19,21,23,25,27,29,-1,-1,-1,-1,-1,-1,-1,-1,-1,-1,-1,-1,-1,-1,-1,-1],"loss_changes":[1.1112532E2,1.2547836E2,6.833674E1,9.908847E1,1.1743539E2,7.379858E1,5.241635E1,8.58757E1,6.71156E1,9.553936E1,1.0136307E2,8.198334E1,5.455978E1,8.836558E1,6.352144E1,0E0,0E0,0E0,0E0,0E0,0E0,0E0,0E0,0E0,0E0,0E0,0E0,0E0,0E0,0E0,0E0],"parents":[2147483647,0,0,1,1,2,2,3,3,4,4,5,5,6,6,7,7,8,8,9,9,10,10,11,11,12,12,13,13,14,14],"right_children":[2,4,6,8,10,12,14,16,18,20,22,24,26,28,30,-1,-1,-1,-1,-1,-1,-1,-1,-1,-1,-1,-1,-1,-1,-1,-1],"split_conditions":[6.1853074E-2,1.1174395E-4,-6.1494526E-2,8.6090975E-2,6.840228E-2,6.034955E-1,4.5013584E-2,9.129057E-6,1.2586669E-4,3.4547255E-3,4.710716E-2,3.816035E0,-6.797277E-1,1.8972997E-2,2.4162805E-4,-3.8562488E-2,-2.202696E-1,6.438051E-1,-1.6407688E-1,2.3274517E-2,-1.5770001E-2,-6.6711076E-2,2.7980322E-1,-3.9034843E-1,-4.7506664E-2,-4.7506664E-2,1.7938992E-1,1.311038E-1,-1.2834677E-1,3.3391142E-1,-2.710505E-1],"split_indices":[22,25,16,20,24,0,20,21,29,2,9,3,5,20,15,0,0,0,0,0,0,0,0,0,0,0,0,0,0,0,0],"split_type":[0,0,0,0,0,0,0,0,0,0,0,0,0,0,0,0,0,0,0,0,0,0,0,0,0,0,0,0,0,0,0],"sum_hessian":[1.9577432E4,1.8577525E4,9.999054E2,6.782052E2,1.789932E4,2.656468E2,7.342586E2,6.50397E2,2.780819E1,1.5833403E4,2.0659175E3,1.1402119E2,1.5162561E2,6.1626697E2,1.1799164E2,3.1998343E2,3.3041357E2,1.773036E1,1.0077828E1,8.727142E3,7.106261E3,2.0117385E3,5.41791E1,6.077745E1,5.324374E1,3.321151E1,1.184141E2,5.1881604E2,9.745095E1,1.05908226E2,1.2083411E1],"tree_param":{"num_deleted":"0","num_feature":"30","num_nodes":"31","size_leaf_vector":"1"}},{"base_weights":[-8.81864E-3,-7.7645814E-1,-1.8328779E-3,5.9623086E-1,-1.1417236E0,-1.0727335E-2,5.522411E-1,-4.0883118E-1,8.1889343E-1,-4.0779576E-1,-1.2993633E0,2.3084709E-1,-2.9910026E-2,3.865423E-2,7.1266305E-1,-3.2616782E-1,2.696294E-1,1.0650988E-1,-2.503435E-1,-3.7932324E-1,-3.0107963E-1,9.7410426E-2,-7.712201E-2,9.494941E-2,-1.046125E-2,-3.5422745E-1,9.190549E-2,2.6575968E-1,9.449314E-2],"categories":[],"categories_nodes":[],"categories_segments":[],"categories_sizes":[],"default_left":[0,0,0,0,0,0,0,0,0,0,0,0,0,0,0,0,0,0,0,0,0,0,0,0,0,0,0,0,0],"id":14,"left_children":[1,3,5,7,9,11,13,15,-1,17,19,21,23,25,27,-1,-1,-1,-1,-1,-1,-1,-1,-1,-1,-1,-1,-1,-1],"loss_changes":[1.0440675E2,8.803877E1,9.508441E1,9.938744E1,1.6042984E1,8.7996155E1,2.5113617E1,3.5762722E1,0E0,1.21431675E1,2.3647614E0,1.1963913E2,8.602319E1,3.47471E1,2.7237389E1,0E0,0E0,0E0,0E0,0E0,0E0,0E0,0E0,0E0,0E0,0E0,0E0,0E0,0E0],"parents":[2147483647,0,0,1,1,2,2,3,3,4,4,5,5,6,6,7,7,9,9,10,10,11,11,12,12,13,13,14,14],"right_children":[2,4,6,8,10,12,14,16,-1,18,20,22,24,26,28,-1,-1,-1,-1,-1,-1,-1,-1,-1,-1,-1,-1,-1,-1],"split_conditions":[-2.1688956E-1,3.519837E0,1.3024892E2,1.6373613E1,-5.8972355E-2,-9.363443E-2,6.371935E-6,5.4317888E-2,8.1889343E-1,1.9810008E-5,4.6291137E-1,2.156073E-2,1.8470596E-1,4.324278E0,3.597766E-5,-3.2616782E-1,2.696294E-1,1.0650988E-1,-2.503435E-1,-3.7932324E-1,-3.0107963E-1,9.7410426E-2,-7.712201E-2,9.494941E-2,-1.046125E-2,-3.5422745E-1,9.190549E-2,2.6575968E-1,9.449314E-2],"split_indices":[8,3,19,4,24,24,21,26,0,21,7,20,6,3,21,0,0,0,0,0,0,0,0,0,0,0,0,0,0],"split_type":[0,0,0,0,0,0,0,0,0,0,0,0,0,0,0,0,0,0,0,0,0,0,0,0,0,0,0,0,0],"sum_hessian":[1.9469297E4,1.7557599E2,1.929372E4,3.6899452E1,1.3867653E2,1.89889E4,3.048215E2,2.6833103E1,1.0066348E1,2.4522207E1,1.1415433E2,1.3969164E3,1.7591982E4,7.255445E1,2.3226704E2,1.6747505E1,1.0085597E1,1.0195758E1,1.4326448E1,3.4659267E1,7.9495056E1,1.079181E3,3.1773538E2,4.979515E2,1.7094031E4,1.3373691E1,5.9180763E1,1.1347119E2,1.1879586E2],"tree_param":{"num_deleted":"0","num_feature":"30","num_nodes":"29","size_leaf_vector":"1"}},{"base_weights":[-2.2248838E-3,-3.1475708E-2,2.0715849E-1,-3.9729267E-1,-1.0887074E-2,5.169186E-1,-2.248491E-2,-5.60472E-1,1.6666514E-1,9.3132234E-1,-1.9341722E-2,7.797001E-1,4.6563116E-1,2.3676105E-1,-5.3118706E-1,-3.547736E-2,-2.1069454E-1,3.7881595E-1,-8.947986E-2,-3.9732653E-1,3.2773954E-1,1.2550283E-2,-2.8215121E-2,2.1089843E-1,3.0311476E-2,-1.23414144E-1,1.5881519E-1,1.21512935E-1,-1.9127065E-1],"categories":[],"categories_nodes":[],"categories_segments":[],"categories_sizes":[],"default_left":[0,0,0,0,0,0,0,0,0,0,0,0,0,0,0,0,0,0,0,0,0,0,0,0,0,0,0,0,0],"id":15,"left_children":[1,3,5,7,9,11,13,15,17,19,21,-1,23,25,27,-1,-1,-1,-1,-1,-1,-1,-1,-1,-1,-1,-1,-1,-1],"loss_changes":[1.1891854E2,1.2831297E2,1.6929987E2,8.353763E1,1.2848357E2,1.3521661E2,1.8024623E2,8.318965E1,1.4412183E2,1.3726535E2,1.0396141E2,0E0,1.2933888E2,2.635225E2,1.0978029E2,0E0,0E0,0E0,0E0,0E0,0E0,0E0,0E0,0E0,0E0,0E0,0E0,0E0,0E0],"parents":[2147483647,0,0,1,1,2,2,3,3,4,4,5,5,6,6,7,7,8,8,9,9,10,10,12,12,13,13,14,14],"right_children":[2,4,6,8,10,12,14,16,18,20,22,-1,24,26,28,-1,-1,-1,-1,-1,-1,-1,-1,-1,-1,-1,-1,-1,-1],"split_conditions":[4.8401884E-21,-8.8728106E-1,4.3514763E-7,2.717461E-3,-9.225399E-19,-9.472641E-1,1.8502475E-3,1.2662415E1,-9.8723036E-1,-6.055073E-2,5.617105E-4,7.797001E-1,2.094671E1,2.0544363E1,5.458845E-3,-3.547736E-2,-2.1069454E-1,3.7881595E-1,-8.947986E-2,-3.9732653E-1,3.2773954E-1,1.2550283E-2,-2.8215121E-2,2.1089843E-1,3.0311476E-2,-1.23414144E-1,1.5881519E-1,1.21512935E-1,-1.9127065E-1],"split_indices":[13,5,13,11,13,5,29,4,5,20,27,0,4,4,1,0,0,0,0,0,0,0,0,0,0,0,0,0,0],"split_type":[0,0,0,0,0,0,0,0,0,0,0,0,0,0,0,0,0,0,0,0,0,0,0,0,0,0,0,0,0],"sum_hessian":[1.9416314E4,1.703635E4,2.3799644E3,9.077323E2,1.6128617E4,1.0132403E3,1.3667241E3,7.0402814E2,2.037042E2,1.4343604E2,1.5985182E4,1.958571E1,9.9365454E2,9.053388E2,4.613853E2,2.83582E2,4.2044614E2,5.7048534E1,1.4665565E2,1.8774553E1,1.2466149E2,9.167774E3,6.817407E3,4.737298E2,5.199248E2,3.1957608E2,5.857627E2,8.625267E1,3.7513263E2],"tree_param":{"num_deleted":"0","num_feature":"30","num_nodes":"29","size_leaf_vector":"1"}},{"base_weights":[-5.6975516E-3,7.519005E-2,-5.6826346E-2,6.853838E-2,1.6344545E0,-8.911752E-2,1.536104E-1,8.744367E-2,-4.871265E-1,5.341218E-1,9.1928756E-1,-6.0652936E-1,-7.222636E-2,-8.412199E-2,4.329916E-1,8.596122E-3,6.935185E-2,1.1531294E-1,-1.8408768E-1,9.020743E-3,2.6045498E-1,4.1206438E-2,-1.9752815E-1,-1.9638367E-2,3.031005E-1,-8.199473E-2,1.3999216E-1,1.3383694E-1,-1.9619797E-1],"categories":[],"categories_nodes":[],"categories_segments":[],"categories_sizes":[],"default_left":[0,0,0,0,0,0,0,0,0,0,0,0,0,0,0,0,0,0,0,0,0,0,0,0,0,0,0,0,0],"id":16,"left_children":[1,3,5,7,9,11,13,15,17,19,-1,21,23,25,27,-1,-1,-1,-1,-1,-1,-1,-1,-1,-1,-1,-1,-1,-1],"loss_changes":[7.996873E1,7.7674194E1,8.050702E1,7.8336105E1,7.149725E1,8.9769394E1,1.04684326E2,7.268771E1,5.7995193E1,5.227453E0,0E0,4.5984253E1,8.084891E1,1.33748E2,9.032172E1,0E0,0E0,0E0,0E0,0E0,0E0,0E0,0E0,0E0,0E0,0E0,0E0,0E0,0E0],"parents":[2147483647,0,0,1,1,2,2,3,3,4,4,5,5,6,6,7,7,8,8,9,9,11,11,12,12,13,13,14,14],"right_children":[2,4,6,8,10,12,14,16,18,20,-1,22,24,26,28,-1,-1,-1,-1,-1,-1,-1,-1,-1,-1,-1,-1,-1,-1],"split_conditions":[-1.7435044E-2,8.8375324E-4,1.4520565E-21,-2.2875851E-1,4.8242353E-2,-9.184512E-1,-3.168605E-2,1.5753807E-1,9.754881E-5,2.0497622E-5,9.1928756E-1,-1.7668972E-2,2.031068E-1,-4.0378147E-1,5.8919513E-1,8.596122E-3,6.935185E-2,1.1531294E-1,-1.8408768E-1,9.020743E-3,2.6045498E-1,4.1206438E-2,-1.9752815E-1,-1.9638367E-2,3.031005E-1,-8.199473E-2,1.3999216E-1,1.3383694E-1,-1.9619797E-1],"split_indices":[24,13,13,5,20,5,9,19,27,21,0,20,20,5,6,0,0,0,0,0,0,0,0,0,0,0,0,0,0],"split_type":[0,0,0,0,0,0,0,0,0,0,0,0,0,0,0,0,0,0,0,0,0,0,0,0,0,0,0,0,0],"sum_hessian":[1.933614E4,7.4887E3,1.1847439E4,7.4568916E3,3.1808897E1,1.0271331E4,1.5761083E3,7.2115386E3,2.4535286E2,2.067376E1,1.1135138E1,3.2470795E2,9.946623E3,8.515204E2,7.2458795E2,5.637053E3,1.5744855E3,5.105666E1,1.9429619E2,1.0438436E1,1.0235324E1,6.2421467E1,2.6228647E2,9.897876E3,4.874765E1,6.1767E2,2.3385036E2,6.6840924E2,5.617871E1],"tree_param":{"num_deleted":"0","num_feature":"30","num_nodes":"29","size_leaf_vector":"1"}},{"base_weights":[-1.4918923E-3,3.3388796E-1,-1.3807192E-2,6.172522E-1,-7.55881E-2,-4.275332E-3,-6.019631E-1,-8.6272734E-1,7.9416853E-1,8.0805756E-2,-1.6040087E0,-1.8489603E-2,3.2425928E-1,4.2161906E-1,-7.564051E-1,-3.237298E-2,-3.8062614E-1,3.2900658E-1,9.855029E-2,3.7189198E-1,-2.8939143E-2,-3.5311937E-1,-4.7680652E-1,-2.7638827E-3,-3.2719415E-1,1.3647437E-1,-1.146175E-1,-2.865403E-1,1.6665855E-2],"categories":[],"categories_nodes":[],"categories_segments":[],"categories_sizes":[],"default_left":[0,0,0,0,0,0,0,0,0,0,0,0,0,0,0,0,0,0,0,0,0,0,0,0,0,0,0,0,0],"id":17,"left_children":[1,3,5,7,9,11,13,15,17,19,21,23,25,-1,27,-1,-1,-1,-1,-1,-1,-1,-1,-1,-1,-1,-1,-1,-1],"loss_changes":[7.9613014E1,7.9218956E1,1.04234535E2,1.0565288E2,6.6754364E1,8.544059E1,1.0480085E2,2.0841782E1,7.522795E1,7.005168E1,1.5055313E0,1.6822093E2,1.3163342E2,0E0,8.910936E1,0E0,0E0,0E0,0E0,0E0,0E0,0E0,0E0,0E0,0E0,0E0,0E0,0E0,0E0],"parents":[2147483647,0,0,1,1,2,2,3,3,4,4,5,5,6,6,7,7,8,8,9,9,10,10,11,11,12,12,14,14],"right_children":[2,4,6,8,10,12,14,16,18,20,22,24,26,-1,28,-1,-1,-1,-1,-1,-1,-1,-1,-1,-1,-1,-1,-1,-1],"split_conditions":[-5.1427E-22,2.4083042E-6,5.8805046E-4,4.0003812E-7,3.38492E-3,8.585402E1,-6.283109E-1,-6.9526947E-1,3.9763824E-4,2.612363E-1,3.1557407E-5,9.257159E-3,3.9960327E-5,4.2161906E-1,4.3604975E-3,-3.237298E-2,-3.8062614E-1,3.2900658E-1,9.855029E-2,3.7189198E-1,-2.8939143E-2,-3.5311937E-1,-4.7680652E-1,-2.7638827E-3,-3.2719415E-1,1.3647437E-1,-1.146175E-1,-2.865403E-1,1.6665855E-2],"split_indices":[13,23,15,15,27,4,5,5,27,6,23,27,21,0,29,0,0,0,0,0,0,0,0,0,0,0,0,0,0],"split_type":[0,0,0,0,0,0,0,0,0,0,0,0,0,0,0,0,0,0,0,0,0,0,0,0,0,0,0,0,0],"sum_hessian":[1.9275139E4,6.827154E2,1.8592424E4,4.0349542E2,2.7921994E2,1.8295918E4,2.9650613E2,4.3082153E1,3.6041327E2,2.5329984E2,2.5920097E1,1.7537168E4,7.5875037E2,1.8744547E1,2.777616E2,2.0406792E1,2.2675362E1,1.563759E2,2.0403738E2,3.1055147E1,2.2224469E2,1.5890352E1,1.0029745E1,1.7436707E4,1.0046092E2,5.9131586E2,1.6743452E2,1.8850137E2,8.926022E1],"tree_param":{"num_deleted":"0","num_feature":"30","num_nodes":"29","size_leaf_vector":"1"}},{"base_weights":[-1.5615236E-3,1.03910886E-1,-4.679336E-2,1.826533E-1,-4.0696514E-1,-6.2191755E-2,5.0060594E-1,1.9897026E-1,-7.0207524E-1,-5.1806194E-1,5.1174176E-1,-3.2274854E-1,-3.5442345E-2,1.0207431E0,-3.4694943E-1,2.9356383E-2,9.767868E-2,-2.6910174E-1,1.4775658E-1,3.2574394E-1,-1.3947468E-1,-1.1305975E-1,2.1138166E-1,-9.197157E-2,2.783953E-1,9.329607E-3,-3.451321E-2,5.3617907E-1,1.5701284E-1,2.2875112E-1,-2.055666E-1],"categories":[],"categories_nodes":[],"categories_segments":[],"categories_sizes":[],"default_left":[0,0,0,0,0,0,0,0,0,0,0,0,0,0,0,0,0,0,0,0,0,0,0,0,0,0,0,0,0,0,0],"id":18,"left_children":[1,3,5,7,9,11,13,15,17,19,21,23,25,27,29,-1,-1,-1,-1,-1,-1,-1,-1,-1,-1,-1,-1,-1,-1,-1,-1],"loss_changes":[9.180748E1,2.323471E2,1.1352489E2,7.224655E1,7.872989E1,9.130141E1,1.624521E2,7.6831345E1,4.38712E1,4.9924194E1,2.6778662E1,7.9074814E1,8.869707E1,1.0079106E2,8.4063484E1,0E0,0E0,0E0,0E0,0E0,0E0,0E0,0E0,0E0,0E0,0E0,0E0,0E0,0E0,0E0,0E0],"parents":[2147483647,0,0,1,1,2,2,3,3,4,4,5,5,6,6,7,7,8,8,9,9,10,10,11,11,12,12,13,13,14,14],"right_children":[2,4,6,8,10,12,14,16,18,20,22,24,26,28,30,-1,-1,-1,-1,-1,-1,-1,-1,-1,-1,-1,-1,-1,-1,-1,-1],"split_conditions":[5.8651605E-4,3.1860854E-2,1.0052323E-1,5.0131854E-4,1.7911967E-4,-1.1596798E-1,2.0018654E1,5.474016E-4,3.5927724E-3,-9.225399E-19,5.2706753E-5,1.9581714E-3,3.7815261E-3,-5.4047944E-4,1.6530014E-30,2.9356383E-2,9.767868E-2,-2.6910174E-1,1.4775658E-1,3.2574394E-1,-1.3947468E-1,-1.1305975E-1,2.1138166E-1,-9.197157E-2,2.783953E-1,9.329607E-3,-3.451321E-2,5.3617907E-1,1.5701284E-1,2.2875112E-1,-2.055666E-1],"split_indices":[11,20,20,15,23,9,4,17,20,13,21,15,24,2,13,0,0,0,0,0,0,0,0,0,0,0,0,0,0,0,0],"split_type":[0,0,0,0,0,0,0,0,0,0,0,0,0,0,0,0,0,0,0,0,0,0,0,0,0,0,0,0,0,0,0],"sum_hessian":[1.9243867E4,5.7757705E3,1.3468096E4,5.004431E3,7.713391E2,1.3099606E4,3.6848898E2,4.913809E3,9.0622375E1,6.8812805E2,8.321102E1,1.2196201E3,1.1879986E4,2.2835329E2,1.4013568E2,3.4476226E3,1.4661864E3,7.027941E1,2.0342966E1,1.4729892E1,6.733982E2,2.1400084E1,6.1810936E1,1.182462E3,3.7158154E1,6.951019E3,4.928968E3,5.912325E1,1.6923004E2,3.8339775E1,1.0179591E2],"tree_param":{"num_deleted":"0","num_feature":"30","num_nodes":"31","size_leaf_vector":"1"}},{"base_weights":[-1.0828733E-3,-3.773861E-1,9.953414E-3,2.3159357E-2,-7.4576163E-1,-6.674637E-1,1.53733315E-2,-2.515424E-1,1.3298509E0,-4.9225768E-1,-1.1575474E0,7.5395674E-1,-9.5205253E-1,1.1844823E-2,1.4188492E0,-2.4920425E-1,1.1761934E-1,7.986659E-1,-2.8450996E-1,-2.3828584E-1,2.1274488E-2,1.2979198E-2,-3.205484E-1,5.2376837E-1,-8.04911E-2,-4.0389283E-4,-2.743004E-1,-1.51212765E-2,1.6250873E-2,1.3940603E-1,8.199186E-1],"categories":[],"categories_nodes":[],"categories_segments":[],"categories_sizes":[],"default_left":[0,0,0,0,0,0,0,0,0,0,0,0,0,0,0,0,0,0,0,0,0,0,0,0,0,0,0,0,0,0,0],"id":19,"left_children":[1,3,5,7,9,11,13,15,17,19,21,23,25,27,29,-1,-1,-1,-1,-1,-1,-1,-1,-1,-1,-1,-1,-1,-1,-1,-1],"loss_changes":[7.965991E1,8.064208E1,6.841786E1,9.39904E1,2.9719131E1,5.9834908E1,9.1550575E1,1.16419464E2,2.0933382E2,4.6894527E1,1.6356995E1,3.5610542E1,1.6998566E1,7.090138E1,7.429606E1,0E0,0E0,0E0,0E0,0E0,0E0,0E0,0E0,0E0,0E0,0E0,0E0,0E0,0E0,0E0,0E0],"parents":[2147483647,0,0,1,1,2,2,3,3,4,4,5,5,6,6,7,7,8,8,9,9,10,10,11,11,12,12,13,13,14,14],"right_children":[2,4,6,8,10,12,14,16,18,20,22,24,26,28,30,-1,-1,-1,-1,-1,-1,-1,-1,-1,-1,-1,-1,-1,-1,-1,-1],"split_conditions":[9.623543E-5,7.707243E-6,-2.1688956E-1,-3.3059272E-1,1.1882531E-4,-8.235204E-1,1.6791953E-1,1.8630782E-4,7.042272E-4,6.5565786E0,-2.9729161E-2,4.843115E-7,4.872705E-4,2.5432535E-6,3.425264E-3,-2.4920425E-1,1.1761934E-1,7.986659E-1,-2.8450996E-1,-2.3828584E-1,2.1274488E-2,1.2979198E-2,-3.205484E-1,5.2376837E-1,-8.04911E-2,-4.0389283E-4,-2.743004E-1,-1.51212765E-2,1.6250873E-2,1.3940603E-1,8.199186E-1],"split_indices":[25,21,8,5,29,5,1,29,11,4,22,15,25,15,25,0,0,0,0,0,0,0,0,0,0,0,0,0,0,0,0],"split_type":[0,0,0,0,0,0,0,0,0,0,0,0,0,0,0,0,0,0,0,0,0,0,0,0,0,0,0,0,0,0,0],"sum_hessian":[1.9180707E4,5.46513E2,1.8634195E4,2.618211E2,2.8469193E2,1.4790277E2,1.8486291E4,2.1633907E2,4.5482033E1,1.7621552E2,1.08476395E2,2.4671135E1,1.2323164E2,1.8439934E4,4.6358585E1,1.0645673E2,1.0988234E2,2.5906914E1,1.957512E1,9.799389E1,7.822163E1,1.0133251E1,9.834315E1,1.098306E1,1.3688075E1,1.6328468E1,1.06903175E2,7.8113877E3,1.0628546E4,3.1692114E1,1.466647E1],"tree_param":{"num_deleted":"0","num_feature":"30","num_nodes":"31","size_leaf_vector":"1"}},{"base_weights":[-2.4702398E-3,-3.6139405E-1,7.550875E-3,-6.301362E-1,4.7334403E-1,4.7494598E-2,-8.7738186E-2,-7.6326257E-1,2.2833529E-1,-1.3187488E0,1.1298898E0,8.4325254E-2,-1.6071106E-1,1.1801308E-1,-2.2507729E-1,-2.9211006E-1,-1.15467295E-1,4.5061225E-1,-5.3730145E-2,-2.2291343E-1,-3.749302E-1,4.320794E-1,-6.036695E-3,-2.4864284E-2,3.4667283E-2,4.3055728E-2,-7.463965E-2,-2.5108455E-2,1.2629744E-1,-4.3706354E-2,-2.4944541E-1],"categories":[],"categories_nodes":[],"categories_segments":[],"categories_sizes":[],"default_left":[0,0,0,0,0,0,0,0,0,0,0,0,0,0,0,0,0,0,0,0,0,0,0,0,0,0,0,0,0,0,0],"id":20,"left_children":[1,3,5,7,9,11,13,15,17,19,21,23,25,27,29,-1,-1,-1,-1,-1,-1,-1,-1,-1,-1,-1,-1,-1,-1,-1,-1],"loss_changes":[6.882502E1,1.1659288E2,7.085126E1,4.4934265E1,1.4893161E2,1.0058186E2,1.55367E2,4.1565674E1,3.683829E1,2.622448E0,6.398137E1,1.1131011E2,9.048085E1,1.8615085E2,1.2803368E2,0E0,0E0,0E0,0E0,0E0,0E0,0E0,0E0,0E0,0E0,0E0,0E0,0E0,0E0,0E0,0E0],"parents":[2147483647,0,0,1,1,2,2,3,3,4,4,5,5,6,6,7,7,8,8,9,9,10,10,11,11,12,12,13,13,14,14],"right_children":[2,4,6,8,10,12,14,16,18,20,22,24,26,28,30,-1,-1,-1,-1,-1,-1,-1,-1,-1,-1,-1,-1,-1,-1,-1,-1],"split_conditions":[2.0884842E-1,-4.231427E-2,-3.5611473E-2,2.2488204E-3,3.5323002E-4,5.0967507E-2,9.34773E-4,1.539897E-4,7.857139E-5,7.7489174E-5,-9.7651867E-4,4.1826555E-4,-1.585985E-2,2.7218193E1,2.888971E-4,-2.9211006E-1,-1.15467295E-1,4.5061225E-1,-5.3730145E-2,-2.2291343E-1,-3.749302E-1,4.320794E-1,-6.036695E-3,-2.4864284E-2,3.4667283E-2,4.3055728E-2,-7.463965E-2,-2.5108455E-2,1.2629744E-1,-4.3706354E-2,-2.4944541E-1],"split_indices":[7,8,8,25,25,24,25,27,27,17,20,25,18,4,15,0,0,0,0,0,0,0,0,0,0,0,0,0,0,0,0],"split_type":[0,0,0,0,0,0,0,0,0,0,0,0,0,0,0,0,0,0,0,0,0,0,0,0,0,0,0,0,0,0,0],"sum_hessian":[1.913429E4,5.197231E2,1.8614566E4,3.9315152E2,1.26571556E2,1.3116396E4,5.49817E3,3.4037152E2,5.2780003E1,3.39363E1,9.263526E1,1.1144921E4,1.9714758E3,2.2009111E3,3.2972585E3,1.4518486E2,1.9518666E2,1.1597934E1,4.1182068E1,1.0103848E1,2.3832449E1,6.100367E1,3.163159E1,2.5434233E3,8.601497E3,5.772546E2,1.3942213E3,1.4070444E3,7.938669E2,3.095922E3,2.0133649E2],"tree_param":{"num_deleted":"0","num_feature":"30","num_nodes":"31","size_leaf_vector":"1"}},{"base_weights":[-5.572252E-3,-2.4379307E-1,9.067883E-3,1.6571444E0,-2.8475586E-1,4.9635433E-2,-7.965114E-2,9.463498E-1,-3.8077906E-2,-5.076704E-1,-3.6619287E-2,-2.4445179E-1,8.695264E-2,2.0829272E-1,-2.1518673E-1,-1.5205148E-1,9.487758E-2,1.6031325E-1,-7.663948E-2,-1.0008193E-1,4.0104393E-2,5.8370546E-2,5.9909797E-3,1.5463462E-1,-2.7651118E-2,-3.6815338E-2,-1.9971332E-1],"categories":[],"categories_nodes":[],"categories_segments":[],"categories_sizes":[],"default_left":[0,0,0,0,0,0,0,0,0,0,0,0,0,0,0,0,0,0,0,0,0,0,0,0,0,0,0],"id":21,"left_children":[1,3,5,7,9,11,13,-1,-1,15,17,19,21,23,25,-1,-1,-1,-1,-1,-1,-1,-1,-1,-1,-1,-1],"loss_changes":[6.654844E1,8.602998E1,6.469916E1,8.975777E1,5.9819023E1,1.3537926E2,2.2013458E2,0E0,0E0,5.0814117E1,9.365127E1,8.7663055E1,1.0103478E2,2.3618103E2,1.5205484E2,0E0,0E0,0E0,0E0,0E0,0E0,0E0,0E0,0E0,0E0,0E0,0E0],"parents":[2147483647,0,0,1,1,2,2,3,3,4,4,5,5,6,6,9,9,10,10,11,11,12,12,13,13,14,14],"right_children":[2,4,6,8,10,12,14,-1,-1,16,18,20,22,24,26,-1,-1,-1,-1,-1,-1,-1,-1,-1,-1,-1,-1],"split_conditions":[7.937323E-6,1.4138377E-8,9.859901E-3,4.872705E-4,4.7019517E-1,4.8558715E-5,2.3501847E0,9.463498E-1,-3.8077906E-2,6.9265354E-1,-2.4932039E-3,5.0047386E-1,1.3662047E-4,3.8771343E-1,5.443266E-1,-1.5205148E-1,9.487758E-2,1.6031325E-1,-7.663948E-2,-1.0008193E-1,4.0104393E-2,5.8370546E-2,5.9909797E-3,1.5463462E-1,-2.7651118E-2,-3.6815338E-2,-1.9971332E-1],"split_indices":[17,15,20,25,6,29,3,0,0,0,22,6,2,6,6,0,0,0,0,0,0,0,0,0,0,0,0],"split_type":[0,0,0,0,0,0,0,0,0,0,0,0,0,0,0,0,0,0,0,0,0,0,0,0,0,0,0],"sum_hessian":[1.9081047E4,1.104763E3,1.7976285E4,2.3302883E1,1.08146E3,1.2335702E4,5.640582E3,1.0708711E1,1.2594172E1,5.696781E2,5.1178192E2,1.389033E3,1.0946669E4,1.8052761E3,3.835306E3,5.1169525E2,5.7982857E1,1.457542E2,3.660277E2,1.00291376E3,3.861192E2,3.2909512E3,7.6557183E3,7.8955676E2,1.01571936E3,3.435497E3,3.9980896E2],"tree_param":{"num_deleted":"0","num_feature":"30","num_nodes":"27","size_leaf_vector":"1"}},{"base_weights":[-4.368925E-3,3.5663716E-2,-8.455663E-2,1.9267057E-1,3.965521E-3,-4.8292643E-1,-6.2191565E-2,6.717059E-1,1.3509192E-1,3.8804471E-1,-1.2209439E-2,-6.366578E-1,1.654104E0,2.812679E-1,-8.633118E-2,7.368695E-2,2.7668744E-1,-1.1816131E-2,7.680565E-2,7.695327E-2,6.343346E-1,-8.327996E-3,7.553828E-2,-2.8819075E-1,-5.927553E-2,1.9315547E-1,6.9049346E-1,1.7001754E-2,2.8620943E-1,-1.1682238E-2,-7.242541E-2],"categories":[],"categories_nodes":[],"categories_segments":[],"categories_sizes":[],"default_left":[0,0,0,0,0,0,0,0,0,0,0,0,0,0,0,0,0,0,0,0,0,0,0,0,0,0,0,0,0,0,0],"id":22,"left_children":[1,3,5,7,9,11,13,15,17,19,21,23,25,27,29,-1,-1,-1,-1,-1,-1,-1,-1,-1,-1,-1,-1,-1,-1,-1,-1],"loss_changes":[6.1065525E1,6.3147152E1,5.6437836E1,5.8787285E1,6.5586716E1,1.10626274E2,4.9727844E1,3.750303E1,5.9723442E1,7.35727E1,6.720323E1,6.4775604E1,2.206668E1,7.253575E1,4.5133377E1,0E0,0E0,0E0,0E0,0E0,0E0,0E0,0E0,0E0,0E0,0E0,0E0,0E0,0E0,0E0,0E0],"parents":[2147483647,0,0,1,1,2,2,3,3,4,4,5,5,6,6,7,7,8,8,9,9,10,10,11,11,12,12,13,13,14,14],"right_children":[2,4,6,8,10,12,14,16,18,20,22,24,26,28,30,-1,-1,-1,-1,-1,-1,-1,-1,-1,-1,-1,-1,-1,-1,-1,-1],"split_conditions":[3.772999E-2,-3.4779094E-2,4.2997084E0,-8.911227E-2,-5.1427E-22,7.014756E-4,2.5009652E-4,4.865741E-1,-6.555586E-2,1.1494905E-2,7.462434E-3,2.7043725E-6,2.3548039E-2,5.443266E-1,3.0077975E-3,7.368695E-2,2.7668744E-1,-1.1816131E-2,7.680565E-2,7.695327E-2,6.343346E-1,-8.327996E-3,7.553828E-2,-2.8819075E-1,-5.927553E-2,1.9315547E-1,6.9049346E-1,1.7001754E-2,2.8620943E-1,-1.1682238E-2,-7.242541E-2],"split_indices":[10,18,4,24,13,27,11,6,8,27,17,15,18,6,25,0,0,0,0,0,0,0,0,0,0,0,0,0,0,0,0],"split_type":[0,0,0,0,0,0,0,0,0,0,0,0,0,0,0,0,0,0,0,0,0,0,0,0,0,0,0,0,0,0,0],"sum_hessian":[1.9022582E4,1.268816E4,6.334423E3,2.131313E3,1.0556847E4,3.3671448E2,5.9977085E3,2.286855E2,1.9026273E3,4.266261E2,1.0130221E4,3.1411884E2,2.2595657E1,3.9385327E2,5.603855E3,1.2252498E2,1.0616052E2,9.238651E2,9.7876227E2,4.112746E2,1.5351514E1,9.492982E3,6.372382E2,1.3706566E2,1.7705316E2,1.2584678E1,1.0010981E1,3.1585474E2,7.799852E1,4.6904897E3,9.133655E2],"tree_param":{"num_deleted":"0","num_feature":"30","num_nodes":"31","size_leaf_vector":"1"}},{"base_weights":[-3.6711167E-3,-4.0993494E-1,3.3177705E-3,-5.3248036E-1,1.1057901E0,-1.3199652E-2,2.3300749E-1,4.5375612E-1,-7.711109E-1,1.8651962E-1,3.504519E-1,4.1524835E-2,-1.1767333E-1,-2.897877E-1,3.4462076E-1,-2.8095376E-1,3.7402922E-1,1.16023615E-1,-2.4370883E-1,1.5318458E-2,-9.985368E-2,-6.5701224E-2,1.448127E-2,-3.7804845E-1,-4.1184068E-2,-1.5899727E-1,9.6057735E-2],"categories":[],"categories_nodes":[],"categories_segments":[],"categories_sizes":[],"default_left":[0,0,0,0,0,0,0,0,0,0,0,0,0,0,0,0,0,0,0,0,0,0,0,0,0,0,0],"id":23,"left_children":[1,3,5,7,9,11,13,15,17,-1,-1,19,21,23,25,-1,-1,-1,-1,-1,-1,-1,-1,-1,-1,-1,-1],"loss_changes":[5.3788673E1,5.9511482E1,7.065422E1,6.976219E1,2.5514336E0,9.932926E1,7.290347E1,9.4966E1,6.0061646E1,0E0,0E0,9.928472E1,1.5220053E2,3.3602043E1,3.9992958E1,0E0,0E0,0E0,0E0,0E0,0E0,0E0,0E0,0E0,0E0,0E0,0E0],"parents":[2147483647,0,0,1,1,2,2,3,3,4,4,5,5,6,6,7,7,8,8,11,11,12,12,13,13,14,14],"right_children":[2,4,6,8,10,12,14,16,18,-1,-1,20,22,24,26,-1,-1,-1,-1,-1,-1,-1,-1,-1,-1,-1,-1],"split_conditions":[-1.0718218E-1,7.3428852E-3,7.462434E-3,-1.2688987E-1,2.6768541E-5,2.9990016E-3,2.8891012E-1,2.3235357E0,1.7202251E0,1.8651962E-1,3.504519E-1,1.1485578E-2,-5.4944205E-1,-4.7790177E-2,8.440131E0,-2.8095376E-1,3.7402922E-1,1.16023615E-1,-2.4370883E-1,1.5318458E-2,-9.985368E-2,-6.5701224E-2,1.448127E-2,-3.7804845E-1,-4.1184068E-2,-1.5899727E-1,9.6057735E-2],"split_indices":[16,29,17,22,15,16,7,3,3,0,0,1,5,20,4,0,0,0,0,0,0,0,0,0,0,0,0],"split_type":[0,0,0,0,0,0,0,0,0,0,0,0,0,0,0,0,0,0,0,0,0,0,0,0,0,0,0],"sum_hessian":[1.8943143E4,3.2037E2,1.8622771E4,2.964072E2,2.396282E1,1.7373408E4,1.2493646E3,5.7744656E1,2.3866252E2,1.0821098E1,1.3141721E1,1.1401271E4,5.972136E3,2.1980066E2,1.029564E3,2.2973295E1,3.477136E1,3.3788376E1,2.0487415E2,1.0912522E4,4.887497E2,3.2697283E3,2.7024077E3,2.0396997E1,1.9940366E2,3.9970707E1,9.895932E2],"tree_param":{"num_deleted":"0","num_feature":"30","num_nodes":"27","size_leaf_vector":"1"}},{"base_weights":[-3.9805225E-3,-2.5202176E-2,1.4752474E-1,-5.2874756E-1,-1.6838944E-2,-4.7345567E-1,2.1152884E-1,-1.2375704E0,7.423291E-1,-3.1645138E-2,3.6397797E-1,5.421576E-2,-1.2958317E0,1.7677588E0,1.9243208E-1,-3.43577E-2,-3.8195068E-1,6.9513696E-1,5.841302E-2,-1.9185738E-4,-5.0464984E-2,1.856484E-1,-2.4992442E-2,9.351636E-2,-2.764547E-1,-4.3579626E-1,-3.0251777E-1,7.139033E-2,7.8704315E-1,2.0868279E-2,1.2564613E-1],"categories":[],"categories_nodes":[],"categories_segments":[],"categories_sizes":[],"default_left":[0,0,0,0,0,0,0,0,0,0,0,0,0,0,0,0,0,0,0,0,0,0,0,0,0,0,0,0,0,0,0],"id":24,"left_children":[1,3,5,7,9,11,13,15,17,19,21,23,25,27,29,-1,-1,-1,-1,-1,-1,-1,-1,-1,-1,-1,-1,-1,-1,-1,-1],"loss_changes":[6.0716427E1,6.975633E1,9.2216095E1,2.4381567E2,9.187013E1,9.408019E1,6.251265E1,5.546878E1,1.0044672E2,8.2430664E1,1.0711495E2,4.9001392E1,3.251648E0,5.2166016E1,7.0219025E1,0E0,0E0,0E0,0E0,0E0,0E0,0E0,0E0,0E0,0E0,0E0,0E0,0E0,0E0,0E0,0E0],"parents":[2147483647,0,0,1,1,2,2,3,3,4,4,5,5,6,6,7,7,8,8,9,9,10,10,11,11,12,12,13,13,14,14],"right_children":[2,4,6,8,10,12,14,16,18,20,22,24,26,28,30,-1,-1,-1,-1,-1,-1,-1,-1,-1,-1,-1,-1,-1,-1,-1,-1],"split_conditions":[4.8401884E-21,-1.0478909E-1,-2.0295218E-1,2.341962E-3,2.1168673E-4,2.5507743E-3,1.18183695E-1,3.1020613E-7,8.657557E-5,5.0171274E-1,-3.991836E-2,9.324502E-2,-2.4311226E-2,2.7990078E-3,5.359674E-1,-3.43577E-2,-3.8195068E-1,6.9513696E-1,5.841302E-2,-1.9185738E-4,-5.0464984E-2,1.856484E-1,-2.4992442E-2,9.351636E-2,-2.764547E-1,-4.3579626E-1,-3.0251777E-1,7.139033E-2,7.8704315E-1,2.0868279E-2,1.2564613E-1],"split_indices":[13,20,9,25,21,27,6,15,27,7,20,28,18,11,7,0,0,0,0,0,0,0,0,0,0,0,0,0,0,0,0],"split_type":[0,0,0,0,0,0,0,0,0,0,0,0,0,0,0,0,0,0,0,0,0,0,0,0,0,0,0,0,0,0,0],"sum_hessian":[1.8884074E4,1.6563945E4,2.3201304E3,2.7060654E2,1.6293338E4,2.1678671E2,2.1033438E3,1.7372798E2,9.6878555E1,1.5683565E4,6.0977234E2,1.3205307E2,8.473364E1,2.5496128E1,2.0778477E3,3.6266388E1,1.374616E2,1.9348097E1,7.753046E1,1.3275369E4,2.4081965E3,3.3576678E2,2.7400555E2,1.0351378E2,2.8539286E1,1.3626536E1,7.11071E1,1.2295595E1,1.3200532E1,1.5376622E3,5.4018536E2],"tree_param":{"num_deleted":"0","num_feature":"30","num_nodes":"31","size_leaf_vector":"1"}},{"base_weights":[-2.2702403E-3,-1.1952881E0,-3.9723196E-5,-3.1846565E-1,-1.1631914E0,-1.1309113E-2,2.5694337E-1,-3.018313E-1,-2.833468E-1,-1.370855E-3,-3.7175605E-1,4.3665352E-1,-1.0698639E0,1.746183E-3,-1.2834609E-1,3.8448956E-2,-2.4185073E-1,1.4195396E-1,-2.012661E-1,1.07750334E-1,-3.2077694E-1],"categories":[],"categories_nodes":[],"categories_segments":[],"categories_sizes":[],"default_left":[0,0,0,0,0,0,0,0,0,0,0,0,0,0,0,0,0,0,0,0,0],"id":25,"left_children":[1,3,5,-1,7,9,11,-1,-1,13,15,17,19,-1,-1,-1,-1,-1,-1,-1,-1],"loss_changes":[5.013274E1,8.875275E-2,5.4455845E1,0E0,3.2878876E-2,6.45286E1,1.883547E2,0E0,0E0,7.500012E1,1.5130943E2,1.1330974E2,3.0162392E1,0E0,0E0,0E0,0E0,0E0,0E0,0E0,0E0],"parents":[2147483647,0,0,1,1,2,2,4,4,5,5,6,6,9,9,10,10,11,11,12,12],"right_children":[2,4,6,-1,8,10,12,-1,-1,14,16,18,20,-1,-1,-1,-1,-1,-1,-1,-1],"split_conditions":[-4.264939E-1,-1.1218553E-3,8.585402E1,-3.1846565E-1,-1.2113088E-2,-2.200479E-1,4.6078274E-3,-3.018313E-1,-2.833468E-1,7.292643E1,3.3475805E-4,3.7234303E-2,-5.639098E-2,1.746183E-3,-1.2834609E-1,3.8448956E-2,-2.4185073E-1,1.4195396E-1,-2.012661E-1,1.07750334E-1,-3.2077694E-1],"split_indices":[9,16,4,0,24,5,25,0,0,4,29,20,8,0,0,0,0,0,0,0,0],"split_type":[0,0,0,0,0,0,0,0,0,0,0,0,0,0,0,0,0,0,0,0,0],"sum_hessian":[1.883846E4,3.515354E1,1.8803309E4,1.0174374E1,2.4979166E1,1.8013383E4,7.899256E2,1.0037967E1,1.4941199E1,1.7530049E4,4.8333292E2,6.956981E2,9.422748E1,1.7248564E4,2.814851E2,2.5677292E2,2.2656E2,6.292342E2,6.6463974E1,1.1721035E1,8.250645E1],"tree_param":{"num_deleted":"0","num_feature":"30","num_nodes":"21","size_leaf_vector":"1"}},{"base_weights":[-4.972071E-4,-1.9434689E-1,1.3843544E-2,-8.567293E-1,-1.0225975E-1,7.72667E-2,-3.62711E-2,-1.1389579E0,9.0878654E-1,8.4697984E-2,-4.1724965E-1,1.7123094E-2,5.60392E-1,-2.8913674E-1,2.988824E-2,-3.0671605E-1,-8.916255E-2,8.200948E-1,-3.0864123E-1,3.725503E-1,-7.953268E-4,-2.87158E-1,-7.282942E-2,1.2416011E-2,-1.9649792E-1,4.3633455E-1,7.254714E-2,-3.823423E-2,-1.639682E-1,7.13743E-2,-9.598264E-3],"categories":[],"categories_nodes":[],"categories_segments":[],"categories_sizes":[],"default_left":[0,0,0,0,0,0,0,0,0,0,0,0,0,0,0,0,0,0,0,0,0,0,0,0,0,0,0,0,0,0,0],"id":26,"left_children":[1,3,5,7,9,11,13,15,17,19,21,23,25,27,29,-1,-1,-1,-1,-1,-1,-1,-1,-1,-1,-1,-1,-1,-1,-1,-1],"loss_changes":[5.230079E1,7.904779E1,5.567763E1,7.8818665E1,6.700387E1,2.2466763E2,1.6370293E2,9.376663E0,1.1082645E2,8.8195274E1,3.9032684E1,1.7969969E2,2.740656E2,1.0136102E2,1.3536896E2,0E0,0E0,0E0,0E0,0E0,0E0,0E0,0E0,0E0,0E0,0E0,0E0,0E0,0E0,0E0,0E0],"parents":[2147483647,0,0,1,1,2,2,3,3,4,4,5,5,6,6,7,7,8,8,9,9,10,10,11,11,12,12,13,13,14,14],"right_children":[2,4,6,8,10,12,14,16,18,20,22,24,26,28,30,-1,-1,-1,-1,-1,-1,-1,-1,-1,-1,-1,-1,-1,-1,-1,-1],"split_conditions":[3.8684614E-4,1.7521749E0,1.3167755E1,1.6144487E-4,1.3474487E-3,2.7379615E0,3.2785947E0,3.338699E-4,1.892853E-4,-2.2078632E-21,-7.869033E-1,8.5785857E-4,-8.1318045E-1,9.982162E-4,-1.2675943E-5,-3.0671605E-1,-8.916255E-2,8.200948E-1,-3.0864123E-1,3.725503E-1,-7.953268E-4,-2.87158E-1,-7.282942E-2,1.2416011E-2,-1.9649792E-1,4.3633455E-1,7.254714E-2,-3.823423E-2,-1.639682E-1,7.13743E-2,-9.598264E-3],"split_indices":[19,3,4,29,11,3,3,19,29,13,5,29,5,27,2,0,0,0,0,0,0,0,0,0,0,0,0,0,0,0,0],"split_type":[0,0,0,0,0,0,0,0,0,0,0,0,0,0,0,0,0,0,0,0,0,0,0,0,0,0,0,0,0,0,0],"sum_hessian":[1.8813082E4,1.2959098E3,1.7517172E4,1.5816983E2,1.13774E3,7.7319546E3,9.785217E3,1.3637134E2,2.1798498E1,7.139675E2,4.237724E2,6.8759785E3,8.5597626E2,2.0292637E3,7.755953E3,1.2259289E2,1.3778447E1,1.034877E1,1.1449728E1,4.201551E1,6.71952E2,6.2245777E1,3.6152664E2,6.6082266E3,2.6775208E2,1.5894275E2,6.970335E2,1.4797242E3,5.4953937E2,1.6350873E3,6.120866E3],"tree_param":{"num_deleted":"0","num_feature":"30","num_nodes":"31","size_leaf_vector":"1"}},{"base_weights":[-7.2847647E-3,-1.3658092E-2,3.8014072E-1,-3.8659292E-1,-2.2285671E-3,-1.1156332E-1,8.3469903E-1,-8.3414274E-1,-2.9824726E-2,5.0205904E-1,-8.700094E-3,-3.732544E-1,1.2535338E0,1.278815E0,1.1960278E-1,1.11715615E-1,-2.5373906E-1,-1.3103744E-1,1.1078148E-1,-3.0138367E-1,1.8116015E-1,-5.3469336E-4,-1.2392072E-1,8.457157E-2,-2.3916325E-1,5.719994E-1,1.2042127E-1,8.894026E-2,4.2791992E-1,-2.7020347E-1,2.222771E-1],"categories":[],"categories_nodes":[],"categories_segments":[],"categories_sizes":[],"default_left":[0,0,0,0,0,0,0,0,0,0,0,0,0,0,0,0,0,0,0,0,0,0,0,0,0,0,0,0,0,0,0],"id":27,"left_children":[1,3,5,7,9,11,13,15,17,19,21,23,25,27,29,-1,-1,-1,-1,-1,-1,-1,-1,-1,-1,-1,-1,-1,-1,-1,-1],"loss_changes":[4.628149E1,7.860022E1,6.78029E1,8.755221E1,5.8390484E1,5.2058544E1,5.0059006E1,5.633853E1,7.1336494E1,8.6165085E1,5.6444756E1,5.0763256E1,1.8715073E1,3.8849533E1,5.5793114E1,0E0,0E0,0E0,0E0,0E0,0E0,0E0,0E0,0E0,0E0,0E0,0E0,0E0,0E0,0E0,0E0],"parents":[2147483647,0,0,1,1,2,2,3,3,4,4,5,5,6,6,7,7,8,8,9,9,10,10,11,11,12,12,13,13,14,14],"right_children":[2,4,6,8,10,12,14,16,18,20,22,24,26,28,30,-1,-1,-1,-1,-1,-1,-1,-1,-1,-1,-1,-1,-1,-1,-1,-1],"split_conditions":[3.6355658E-4,-8.006973E-2,-1.1174717E-2,6.924082E-4,-7.301462E-2,2.031068E-1,-6.957979E-2,1.09532955E-7,5.508507E-30,1.0563441E1,8.47366E-3,2.271131E-4,9.754881E-5,6.088951E-4,1.3094142E-1,1.11715615E-1,-2.5373906E-1,-1.3103744E-1,1.1078148E-1,-3.0138367E-1,1.8116015E-1,-5.3469336E-4,-1.2392072E-1,8.457157E-2,-2.3916325E-1,5.719994E-1,1.2042127E-1,8.894026E-2,4.2791992E-1,-2.7020347E-1,2.222771E-1],"split_indices":[21,20,14,27,20,20,20,15,13,4,11,29,27,27,20,0,0,0,0,0,0,0,0,0,0,0,0,0,0,0,0],"split_type":[0,0,0,0,0,0,0,0,0,0,0,0,0,0,0,0,0,0,0,0,0,0,0,0,0,0,0,0,0,0,0],"sum_hessian":[1.8743219E4,1.843988E4,3.033386E2,5.483255E2,1.7891555E4,1.4571307E2,1.5762552E2,2.4321574E2,3.0510974E2,2.2668883E2,1.7664865E4,1.2227454E2,2.3438522E1,9.723425E1,6.0391273E1,3.0081982E1,2.1313376E2,1.4918616E2,1.559236E2,2.6139833E1,2.00549E2,1.743003E4,2.3483728E2,5.508561E1,6.718894E1,1.0014155E1,1.3424367E1,3.1042843E1,6.619141E1,2.3589323E1,3.680195E1],"tree_param":{"num_deleted":"0","num_feature":"30","num_nodes":"31","size_leaf_vector":"1"}},{"base_weights":[2.9543362E-4,-4.0615177E-1,6.2688524E-3,2.011803E-1,-8.669713E-1,4.5531207E-1,-3.349422E-4,-1.4618533E0,5.7192075E-1,-1.0649377E0,-6.1521586E-2,1.8697864E-1,1.0431486E0,-5.645328E-2,5.2181818E-2,-4.1280007E-1,-3.2303348E-1,-3.3773777E-1,2.4733478E-1,-1.6609901E-1,-3.2534522E-1,2.3055944E-1,-2.9076216E-1,-5.7404168E-2,2.0386104E-1,3.3289823E-1,-1.438245E-1,5.0837854E-3,-8.929342E-2,-5.2677274E-2,2.6995992E-2],"categories":[],"categories_nodes":[],"categories_segments":[],"categories_sizes":[],"default_left":[0,0,0,0,0,0,0,0,0,0,0,0,0,0,0,0,0,0,0,0,0,0,0,0,0,0,0,0,0,0,0],"id":28,"left_children":[1,3,5,7,9,11,13,15,17,19,21,23,25,27,29,-1,-1,-1,-1,-1,-1,-1,-1,-1,-1,-1,-1,-1,-1,-1,-1],"loss_changes":[4.5460957E1,7.590302E1,5.4723312E1,7.2139854E1,2.458561E1,4.2186962E1,5.3596004E1,6.853523E-1,7.679492E1,1.1721527E1,3.2978554E1,4.8082344E1,3.913482E1,2.0301018E2,1.3781256E2,0E0,0E0,0E0,0E0,0E0,0E0,0E0,0E0,0E0,0E0,0E0,0E0,0E0,0E0,0E0,0E0],"parents":[2147483647,0,0,1,1,2,2,3,3,4,4,5,5,6,6,7,7,8,8,9,9,10,10,11,11,12,12,13,13,14,14],"right_children":[2,4,6,8,10,12,14,16,18,20,22,24,26,28,30,-1,-1,-1,-1,-1,-1,-1,-1,-1,-1,-1,-1,-1,-1,-1,-1],"split_conditions":[1.9180562E-1,9.270022E0,-1.5716934E-1,-1.846443E0,2.6539743E-1,2.995123E-3,-5.933859E-1,-1.6511925E-2,-7.789053E-1,-3.8721794E-1,-9.497915E-3,2.574566E-1,4.8718033E-3,1.5436999E-3,3.699514E-7,-4.1280007E-1,-3.2303348E-1,-3.3773777E-1,2.4733478E-1,-1.6609901E-1,-3.2534522E-1,2.3055944E-1,-2.9076216E-1,-5.7404168E-2,2.0386104E-1,3.3289823E-1,-1.438245E-1,5.0837854E-3,-8.929342E-2,-5.2677274E-2,2.6995992E-2],"split_indices":[7,4,24,12,28,27,5,20,5,14,20,28,1,27,15,0,0,0,0,0,0,0,0,0,0,0,0,0,0,0,0],"split_type":[0,0,0,0,0,0,0,0,0,0,0,0,0,0,0,0,0,0,0,0,0,0,0,0,0,0,0,0,0,0,0],"sum_hessian":[1.8724154E4,2.711914E2,1.8452963E4,1.16994644E2,1.5419676E2,2.6744797E2,1.8185516E4,2.1326042E1,9.56686E1,1.2377263E2,3.0424128E1,1.8362941E2,8.381855E1,8.791326E3,9.394188E3,1.0073735E1,1.1252306E1,1.7062645E1,7.860596E1,4.594692E1,7.782571E1,1.6070078E1,1.435405E1,1.1042656E2,7.320285E1,7.114101E1,1.2677539E1,7.003092E3,1.7882346E3,1.6448856E3,7.7493027E3],"tree_param":{"num_deleted":"0","num_feature":"30","num_nodes":"31","size_leaf_vector":"1"}},{"base_weights":[-2.3119801E-3,-1.2153378E0,-2.2840714E-4,-1.1547604E0,-3.3383474E-1,-2.4788516E-2,1.0734081E-1,-2.9812667E-1,-2.79962E-1,-1.1157256E-2,-7.958563E-1,-4.6980176E-2,4.2205477E-1,2.2786455E-3,-5.178412E-2,-2.7041644E-1,2.5673702E-1,-5.098208E-2,1.2607494E-1,2.0214085E-1,-1.7123856E-2],"categories":[],"categories_nodes":[],"categories_segments":[],"categories_sizes":[],"default_left":[0,0,0,0,0,0,0,0,0,0,0,0,0,0,0,0,0,0,0,0,0],"id":29,"left_children":[1,3,5,7,-1,9,11,-1,-1,13,15,17,19,-1,-1,-1,-1,-1,-1,-1,-1],"loss_changes":[4.7219288E1,2.3297119E-1,4.927106E1,2.8059006E-2,0E0,1.5958516E2,1.6836285E2,0E0,0E0,5.927371E1,1.3741158E2,2.012529E2,2.1625717E2,0E0,0E0,0E0,0E0,0E0,0E0,0E0,0E0],"parents":[2147483647,0,0,1,1,2,2,3,3,5,5,6,6,9,9,10,10,11,11,12,12],"right_children":[2,4,6,8,-1,10,12,-1,-1,14,16,18,20,-1,-1,-1,-1,-1,-1,-1,-1],"split_conditions":[-2.7538607E-1,2.0206885E-6,4.5470705E0,3.9407395E-2,-3.3383474E-1,3.797865E-3,-1.9727733E-2,-2.9812667E-1,-2.79962E-1,-4.997949E-3,-2.8836548E-1,-3.51139E-1,8.1895314E-2,2.2786455E-3,-5.178412E-2,-2.7041644E-1,2.5673702E-1,-5.098208E-2,1.2607494E-1,2.0214085E-1,-1.7123856E-2],"split_indices":[8,23,3,1,0,29,9,0,0,8,5,5,8,0,0,0,0,0,0,0,0],"split_type":[0,0,0,0,0,0,0,0,0,0,0,0,0,0,0,0,0,0,0,0,0],"sum_hessian":[1.8681648E4,3.2031914E1,1.8649617E4,2.1299131E1,1.0732782E1,1.5183057E4,3.4665605E3,1.0202575E1,1.1096556E1,1.491931E4,2.6374683E2,2.3259944E3,1.140566E3,1.352073E4,1.3985786E3,2.2799869E2,3.5748154E1,1.8105416E3,5.154529E2,6.379358E2,5.026303E2],"tree_param":{"num_deleted":"0","num_feature":"30","num_nodes":"21","size_leaf_vector":"1"}},{"base_weights":[-5.3106155E-3,-6.68979E-2,3.5238456E-2,-3.4676874E-1,1.8587587E-2,2.165856E-1,-3.540995E-2,1.0798616E0,-3.9157295E-1,-2.6151863E-1,1.4059798E-1,2.894998E-1,-4.9957561E-1,1.5757373E-1,-1.0626753E-1,-2.2030973E-1,4.3510684E-1,-1.5175596E-1,-4.1118026E-2,1.1826681E-1,-9.0734325E-2,1.8785287E-2,1.303808E-1,1.00307934E-1,-3.5932813E-2,-2.7119136E-1,-4.841393E-3,3.022246E-1,2.802351E-2,-7.2521814E-3,-8.470881E-2],"categories":[],"categories_nodes":[],"categories_segments":[],"categories_sizes":[],"default_left":[0,0,0,0,0,0,0,0,0,0,0,0,0,0,0,0,0,0,0,0,0,0,0,0,0,0,0,0,0,0,0],"id":30,"left_children":[1,3,5,7,9,11,13,15,17,19,21,23,25,27,29,-1,-1,-1,-1,-1,-1,-1,-1,-1,-1,-1,-1,-1,-1,-1,-1],"loss_changes":[4.646405E1,1.7672473E2,1.4373663E2,1.1047499E2,1.9337733E2,1.6424391E2,1.1040227E2,6.818016E1,8.198935E1,1.2790711E2,9.827699E1,1.3818341E2,8.1673134E1,1.0367482E2,1.0610718E2,0E0,0E0,0E0,0E0,0E0,0E0,0E0,0E0,0E0,0E0,0E0,0E0,0E0,0E0,0E0,0E0],"parents":[2147483647,0,0,1,1,2,2,3,3,4,4,5,5,6,6,7,7,8,8,9,9,10,10,11,11,12,12,13,13,14,14],"right_children":[2,4,6,8,10,12,14,16,18,20,22,24,26,28,30,-1,-1,-1,-1,-1,-1,-1,-1,-1,-1,-1,-1,-1,-1,-1,-1],"split_conditions":[3.5306755E-1,3.3913335E-1,6.658374E-4,1.6022701E0,4.789624E-4,4.714366E1,-9.93339E-2,3.6041852E-4,1.9152403E-5,3.7396172E-1,5.5493814E-1,4.743953E-1,5.886242E1,6.562815E-5,9.875257E-3,-2.2030973E-1,4.3510684E-1,-1.5175596E-1,-4.1118026E-2,1.1826681E-1,-9.0734325E-2,1.8785287E-2,1.303808E-1,1.00307934E-1,-3.5932813E-2,-2.7119136E-1,-4.841393E-3,3.022246E-1,2.802351E-2,-7.2521814E-3,-8.470881E-2],"split_indices":[7,6,25,3,25,4,8,25,21,6,6,7,4,27,18,0,0,0,0,0,0,0,0,0,0,0,0,0,0,0,0],"split_type":[0,0,0,0,0,0,0,0,0,0,0,0,0,0,0,0,0,0,0,0,0,0,0,0,0,0,0,0,0,0,0],"sum_hessian":[1.8605453E4,7.3865586E3,1.12188955E4,1.7283015E3,5.6582573E3,3.145291E3,8.073604E3,5.2624092E1,1.6756774E3,1.7168251E3,3.941432E3,2.8546545E3,2.9063638E2,2.1682498E3,5.9053545E3,1.3258508E1,3.9365585E1,8.5988916E2,8.157882E2,2.082714E2,1.5085537E3,3.363471E3,5.7796094E2,2.2693784E3,5.852762E2,1.3099702E2,1.5963936E2,8.9905754E1,2.078344E3,4.432794E3,1.4725607E3],"tree_param":{"num_deleted":"0","num_feature":"30","num_nodes":"31","size_leaf_vector":"1"}},{"base_weights":[-1.8092421E-3,1.7629562E-2,-1.203582E-1,-3.4422794E-1,2.8760398E-2,-6.299448E-1,3.101069E-2,-1.1663064E0,-7.407655E-2,3.955144E-2,-3.5094106E-1,-5.3013988E-2,-9.059959E-1,-3.1292853E-1,2.830777E-1,-3.1765696E-1,-1.8338172E-1,4.4377783E-1,-7.486412E-2,1.1759184E-2,-1.21148385E-1,-2.1964988E-1,-2.8448364E-2,8.662146E-2,-2.9941553E-1,-2.3887324E-1,2.2626334E-1,4.4691393E-1,-9.373596E-2,1.6713053E-1,9.340904E-3],"categories":[],"categories_nodes":[],"categories_segments":[],"categories_sizes":[],"default_left":[0,0,0,0,0,0,0,0,0,0,0,0,0,0,0,0,0,0,0,0,0,0,0,0,0,0,0,0,0,0,0],"id":31,"left_children":[1,3,5,7,9,11,13,15,17,19,21,23,25,27,29,-1,-1,-1,-1,-1,-1,-1,-1,-1,-1,-1,-1,-1,-1,-1,-1],"loss_changes":[4.2851097E1,6.43449E1,2.0206009E2,1.0587549E2,6.3503464E1,9.5542114E1,1.750922E2,5.322708E0,1.4954933E2,5.9126823E1,5.3592873E1,8.879159E1,3.6377197E1,1.1127188E2,1.10379456E2,0E0,0E0,0E0,0E0,0E0,0E0,0E0,0E0,0E0,0E0,0E0,0E0,0E0,0E0,0E0,0E0],"parents":[2147483647,0,0,1,1,2,2,3,3,4,4,5,5,6,6,7,7,8,8,9,9,10,10,11,11,12,12,13,13,14,14],"right_children":[2,4,6,8,10,12,14,16,18,20,22,24,26,28,30,-1,-1,-1,-1,-1,-1,-1,-1,-1,-1,-1,-1,-1,-1,-1,-1],"split_conditions":[3.3754956E-2,1.6770629E0,-6.3066334E-1,3.4645174E-4,6.7377505E-3,5.3446303E-4,1.0578027E-3,2.574566E-1,2.2264433E0,6.976101E-1,9.872896E0,1.6506748E1,2.4726067E-1,1.6547147E0,2.427742E0,-3.1765696E-1,-1.8338172E-1,4.4377783E-1,-7.486412E-2,1.1759184E-2,-1.21148385E-1,-2.1964988E-1,-2.8448364E-2,8.662146E-2,-2.9941553E-1,-2.3887324E-1,2.2626334E-1,4.4691393E-1,-9.373596E-2,1.6713053E-1,9.340904E-3],"split_indices":[20,3,5,25,11,25,11,28,4,7,4,4,17,3,3,0,0,0,0,0,0,0,0,0,0,0,0,0,0,0,0],"split_type":[0,0,0,0,0,0,0,0,0,0,0,0,0,0,0,0,0,0,0,0,0,0,0,0,0,0,0,0,0,0,0],"sum_hessian":[1.8594564E4,1.5975069E4,2.619496E3,4.7672693E2,1.5498343E4,5.99908E2,2.019588E3,1.1791122E2,3.588157E2,1.5070061E4,4.282822E2,1.941513E2,4.0575668E2,8.5413403E2,1.165454E3,9.500496E1,2.2906258E1,3.898044E1,3.1983527E2,1.485788E4,2.1218048E2,1.3279681E2,2.9548538E2,1.4391928E2,5.0232037E1,3.9496335E2,1.0793328E1,2.449232E1,8.296417E2,4.5371512E2,7.117389E2],"tree_param":{"num_deleted":"0","num_feature":"30","num_nodes":"31","size_leaf_vector":"1"}},{"base_weights":[-4.3880492E-3,-2.6080507E-1,3.7579131E-3,-5.445639E-1,5.9811544E-1,-2.640242E-2,9.075135E-2,-7.3745185E-1,6.0699576E-1,8.486878E-1,-3.10256E-1,-2.170464E-1,1.1105633E-3,6.8006724E-2,1.6151036E0,-2.1546076E-1,2.9115036E-1,3.2977527E-1,-2.7400744E-1,-4.9530815E-2,3.5422456E-1,-1.7721297E-1,-5.875161E-3,1.2922367E-2,-3.551392E-2,8.3319336E-2,-1.7311404E-2,7.32479E-1,-2.8201735E-1],"categories":[],"categories_nodes":[],"categories_segments":[],"categories_sizes":[],"default_left":[0,0,0,0,0,0,0,0,0,0,0,0,0,0,0,0,0,0,0,0,0,0,0,0,0,0,0,0,0],"id":32,"left_children":[1,3,5,7,9,11,13,15,17,19,-1,21,23,25,27,-1,-1,-1,-1,-1,-1,-1,-1,-1,-1,-1,-1,-1,-1],"loss_changes":[3.8733566E1,1.3915945E2,4.7154655E1,9.533193E1,6.534378E1,6.999945E1,1.6041724E2,8.6978455E1,7.467834E1,7.422727E1,0E0,1.6020486E2,8.4448616E1,1.6598161E2,2.4534297E2,0E0,0E0,0E0,0E0,0E0,0E0,0E0,0E0,0E0,0E0,0E0,0E0,0E0,0E0],"parents":[2147483647,0,0,1,1,2,2,3,3,4,4,5,5,6,6,7,7,8,8,9,9,11,11,12,12,13,13,14,14],"right_children":[2,4,6,8,10,12,14,16,18,20,-1,22,24,26,28,-1,-1,-1,-1,-1,-1,-1,-1,-1,-1,-1,-1,-1,-1],"split_conditions":[-9.242E-1,2.717461E-3,4.9201205E-1,1.4520565E-21,1.6834548E-3,2.7148503E-1,5.724759E-3,6.5761983E-1,2.3857327E1,6.5726676E-4,-3.10256E-1,-8.0131456E-2,4.337258E-1,-1.8896975E-2,5.359054E-1,-2.1546076E-1,2.9115036E-1,3.2977527E-1,-2.7400744E-1,-4.9530815E-2,3.5422456E-1,-1.7721297E-1,-5.875161E-3,1.2922367E-2,-3.551392E-2,8.3319336E-2,-1.7311404E-2,7.32479E-1,-2.8201735E-1],"split_indices":[5,11,6,13,25,7,25,6,4,25,0,8,6,20,6,0,0,0,0,0,0,0,0,0,0,0,0,0,0],"split_type":[0,0,0,0,0,0,0,0,0,0,0,0,0,0,0,0,0,0,0,0,0,0,0,0,0,0,0,0,0],"sum_hessian":[1.8542926E4,5.709501E2,1.7971977E4,4.2916943E2,1.4178065E2,1.334521E4,4.626766E3,3.6759818E2,6.1571255E1,1.2478117E2,1.6999483E1,1.683049E3,1.1662161E4,4.558747E3,6.801887E1,3.450347E2,2.2563494E1,4.3417816E1,1.8153439E1,4.3900146E1,8.088103E1,4.7529593E2,1.2077529E3,8.617661E3,3.0444998E3,1.5544479E3,3.004299E3,4.5980892E1,2.2037971E1],"tree_param":{"num_deleted":"0","num_feature":"30","num_nodes":"29","size_leaf_vector":"1"}},{"base_weights":[-9.79667E-4,-2.3941917E-2,1.2690562E-1,-3.590102E-2,3.8329753E-1,4.6129945E-1,-9.0682335E-2,1.5124761E-2,-1.389655E-1,1.602374E-1,1.4075454E0,1.2725657E0,2.2811338E-1,5.874958E-1,-1.9528368E-1,-1.6187418E-1,7.960319E-3,-4.810901E-2,1.0222926E-1,2.659714E-1,-5.5486586E-2,1.3172448E-1,6.5304434E-1,3.7143342E-2,5.11767E-1,-1.0934999E-1,1.19434655E-1,9.013337E-2,4.9883437E-1,-2.3250037E-1,-2.5190098E-2],"categories":[],"categories_nodes":[],"categories_segments":[],"categories_sizes":[],"default_left":[0,0,0,0,0,0,0,0,0,0,0,0,0,0,0,0,0,0,0,0,0,0,0,0,0,0,0,0,0,0,0],"id":33,"left_children":[1,3,5,7,9,11,13,15,17,19,21,23,25,27,29,-1,-1,-1,-1,-1,-1,-1,-1,-1,-1,-1,-1,-1,-1,-1,-1],"loss_changes":[5.430231E1,7.635138E1,2.0481067E2,8.009322E1,1.0218115E2,2.0991039E2,1.20969315E2,1.12834885E2,1.4774583E2,1.2684268E2,8.484665E1,2.1565533E2,1.431846E2,7.281183E1,1.02602234E2,0E0,0E0,0E0,0E0,0E0,0E0,0E0,0E0,0E0,0E0,0E0,0E0,0E0,0E0,0E0,0E0],"parents":[2147483647,0,0,1,1,2,2,3,3,4,4,5,5,6,6,7,7,8,8,9,9,10,10,11,11,12,12,13,13,14,14],"right_children":[2,4,6,8,10,12,14,16,18,20,22,24,26,28,30,-1,-1,-1,-1,-1,-1,-1,-1,-1,-1,-1,-1,-1,-1,-1,-1],"split_conditions":[2.3198545E-3,6.557565E0,3.6827782E-1,5.617105E-4,4.5140243E-1,3.5698924E0,3.4265333E-1,-8.006973E-2,3.387292E-3,7.380956E-4,1.2171486E-2,-1.3591484E-2,7.9428E-4,4.2013903E-3,3.266151E0,-1.6187418E-1,7.960319E-3,-4.810901E-2,1.0222926E-1,2.659714E-1,-5.5486586E-2,1.3172448E-1,6.5304434E-1,3.7143342E-2,5.11767E-1,-1.0934999E-1,1.19434655E-1,9.013337E-2,4.9883437E-1,-2.3250037E-1,-2.5190098E-2],"split_indices":[27,3,6,27,6,3,7,20,1,29,20,20,29,11,3,0,0,0,0,0,0,0,0,0,0,0,0,0,0,0,0],"split_type":[0,0,0,0,0,0,0,0,0,0,0,0,0,0,0,0,0,0,0,0,0,0,0,0,0,0,0,0,0,0,0],"sum_hessian":[1.8491822E4,1.5676982E4,2.814839E3,1.5229747E4,4.472353E2,1.109597E3,1.705242E3,1.01865205E4,5.043226E3,3.672566E2,7.99787E1,2.477282E2,8.6186884E2,2.2786534E2,1.4773767E3,2.50657E2,9.935863E3,4.5948013E3,4.48425E2,1.0916029E2,2.580963E2,4.6203495E1,3.3775204E1,1.0106342E2,1.4666476E2,2.350922E2,6.267767E2,1.9623186E2,3.1633482E1,1.684E2,1.3089767E3],"tree_param":{"num_deleted":"0","num_feature":"30","num_nodes":"31","size_leaf_vector":"1"}},{"base_weights":[-2.005425E-3,-1.2629852E-1,1.5474717E-2,-1.4370279E-1,6.002161E-1,5.2521423E-2,-7.9333246E-2,-2.6304036E-1,1.669198E-1,1.0689756E-1,-4.0110365E-2,2.5657102E-1,-1.3611053E-1,-4.8068807E-2,-2.260558E-1,-7.372569E-3,1.9092375E-1,2.1496466E-3,6.1743397E-2,-6.538479E-2,2.417461E-2,-3.6098637E-2,1.5472405E-1,-2.7234552E-2,-1.8788716E-1],"categories":[],"categories_nodes":[],"categories_segments":[],"categories_sizes":[],"default_left":[0,0,0,0,0,0,0,0,0,0,0,0,0,0,0,0,0,0,0,0,0,0,0,0,0],"id":34,"left_children":[1,3,5,7,-1,9,11,13,15,17,19,21,23,-1,-1,-1,-1,-1,-1,-1,-1,-1,-1,-1,-1],"loss_changes":[4.007282E1,1.0002698E2,5.67935E1,8.372203E1,0E0,5.8562996E1,8.66461E1,7.403493E1,7.347985E1,1.0087508E2,1.3027794E2,9.543428E1,6.499033E1,0E0,0E0,0E0,0E0,0E0,0E0,0E0,0E0,0E0,0E0,0E0,0E0],"parents":[2147483647,0,0,1,1,2,2,3,3,5,5,6,6,7,7,8,8,9,9,10,10,11,11,12,12],"right_children":[2,4,6,8,-1,10,12,14,16,18,20,22,24,-1,-1,-1,-1,-1,-1,-1,-1,-1,-1,-1,-1],"split_conditions":[4.8558715E-5,1.0286742E-2,9.261074E-3,2.2149595E-2,6.002161E-1,-5.221111E-1,1.08638786E-4,3.1202538E0,5.051987E-1,1.6437088E-4,3.8224253E-1,-5.3746724E-1,-2.5834426E-1,-4.8068807E-2,-2.260558E-1,-7.372569E-3,1.9092375E-1,2.1496466E-3,6.1743397E-2,-6.538479E-2,2.417461E-2,-3.6098637E-2,1.5472405E-1,-2.7234552E-2,-1.8788716E-1],"split_indices":[29,1,18,18,0,5,27,3,6,17,7,5,5,0,0,0,0,0,0,0,0,0,0,0,0],"split_type":[0,0,0,0,0,0,0,0,0,0,0,0,0,0,0,0,0,0,0,0,0,0,0,0,0],"sum_hessian":[1.844371E4,2.274061E3,1.6169649E4,2.2585078E3,1.5553175E1,1.1626542E4,4.5431074E3,1.6316531E3,6.2685474E2,7.326065E3,4.300477E3,6.5687585E2,3.8862317E3,1.4694757E3,1.6217741E2,4.7162885E2,1.5522585E2,4.3050166E3,3.0210483E3,1.6423328E3,2.658144E3,3.118083E2,3.450676E2,3.7219087E3,1.6432297E2],"tree_param":{"num_deleted":"0","num_feature":"30","num_nodes":"25","size_leaf_vector":"1"}},{"base_weights":[-3.680466E-3,-3.2447067E-1,3.8699056E-3,-4.4278443E-1,1.1552454E0,4.5285803E-1,-4.8381886E-3,-8.649411E-1,-1.1485915E-1,4.1508076E-1,1.5122397E-1,1.2342637E0,3.1801167E-1,-7.32882E-4,-6.47411E-1,-2.8754652E-1,1.3007419E-1,3.6947888E-1,-6.651357E-2,1.4670974E-1,4.4903582E-1,5.2142896E-2,2.8669408E-1,-4.1406013E-2,3.666193E-3,-2.4605858E-1,2.7890936E-1],"categories":[],"categories_nodes":[],"categories_segments":[],"categories_sizes":[],"default_left":[0,0,0,0,0,0,0,0,0,0,0,0,0,0,0,0,0,0,0,0,0,0,0,0,0,0,0],"id":35,"left_children":[1,3,5,7,9,11,13,15,17,-1,-1,19,21,23,25,-1,-1,-1,-1,-1,-1,-1,-1,-1,-1,-1,-1],"loss_changes":[4.451009E1,7.3983795E1,7.019739E1,5.41681E1,8.696003E0,3.5993942E1,4.6460377E1,6.759696E1,5.3038937E1,0E0,0E0,1.8286316E1,2.6423832E1,4.4432297E1,6.639767E1,0E0,0E0,0E0,0E0,0E0,0E0,0E0,0E0,0E0,0E0,0E0,0E0],"parents":[2147483647,0,0,1,1,2,2,3,3,4,4,5,5,6,6,7,7,8,8,11,11,12,12,13,13,14,14],"right_children":[2,4,6,8,10,12,14,16,18,-1,-1,20,22,24,26,-1,-1,-1,-1,-1,-1,-1,-1,-1,-1,-1,-1],"split_conditions":[-7.538538E-2,5.53784E-3,-1.12453625E-1,3.17488E-4,2.602686E-3,4.1383453E-7,9.112837E-3,1.741528E-3,4.2363858E-1,4.1508076E-1,1.5122397E-1,1.4046983E-15,3.5563504E-4,-8.4143174E-1,3.38492E-3,-2.8754652E-1,1.3007419E-1,3.6947888E-1,-6.651357E-2,1.4670974E-1,4.4903582E-1,5.2142896E-2,2.8669408E-1,-4.1406013E-2,3.666193E-3,-2.4605858E-1,2.7890936E-1],"split_indices":[16,25,18,23,29,15,25,29,19,0,0,1,15,5,27,0,0,0,0,0,0,0,0,0,0,0,0],"split_type":[0,0,0,0,0,0,0,0,0,0,0,0,0,0,0,0,0,0,0,0,0,0,0,0,0,0,0],"sum_hessian":[1.8375846E4,4.2256964E2,1.7953277E4,3.9128516E2,3.1284462E1,3.415827E2,1.7611693E4,1.7106131E2,2.2022386E2,1.6311018E1,1.4973445E1,5.0268803E1,2.913139E2,1.7499893E4,1.1180077E2,1.4185294E2,2.9208376E1,1.9091196E1,2.0113266E2,2.3358318E1,2.6910482E1,2.5733505E2,3.3978848E1,1.4945995E3,1.6005294E4,9.386881E1,1.793196E1],"tree_param":{"num_deleted":"0","num_feature":"30","num_nodes":"27","size_leaf_vector":"1"}},{"base_weights":[-2.9105034E-3,-5.7939744E-1,8.406529E-4,-8.566779E-1,4.8252425E-1,-1.5899395E-3,9.964824E-1,9.5237754E-2,-1.0142064E0,-1.5811948E-1,3.228196E-1,5.293214E-3,-4.3274996E-1,1.606765E-1,5.9704393E-1,-3.0541873E-1,-1.2495206E-1,-6.771666E-3,1.9546326E-2,-3.1381705E-1,-5.6235004E-2,-2.514002E-1,2.992969E-1],"categories":[],"categories_nodes":[],"categories_segments":[],"categories_sizes":[],"default_left":[0,0,0,0,0,0,0,0,0,0,0,0,0,0,0,0,0,0,0,0,0,0,0],"id":36,"left_children":[1,3,5,7,9,11,13,-1,15,-1,-1,17,19,21,-1,-1,-1,-1,-1,-1,-1,-1,-1],"loss_changes":[3.9722664E1,3.4968697E1,4.416782E1,1.836158E1,2.2177256E1,5.4027447E1,5.1695847E1,0E0,8.913757E0,0E0,0E0,4.229096E1,4.889533E1,3.3576904E1,0E0,0E0,0E0,0E0,0E0,0E0,0E0,0E0,0E0],"parents":[2147483647,0,0,1,1,2,2,3,3,4,4,5,5,6,6,8,8,11,11,12,12,13,13],"right_children":[2,4,6,8,10,12,14,-1,16,-1,-1,18,20,22,-1,-1,-1,-1,-1,-1,-1,-1,-1],"split_conditions":[-2.1688956E-1,1.8216795E-1,1.6791953E-1,3.1859876E-4,5.461729E-3,2.9057194E-2,4.3134246E-2,9.5237754E-2,-4.0098593E-1,-1.5811948E-1,3.228196E-1,3.6775784E0,-7.000418E-1,8.380415E1,5.9704393E-1,-3.0541873E-1,-1.2495206E-1,-6.771666E-3,1.9546326E-2,-3.1381705E-1,-5.6235004E-2,-2.514002E-1,2.992969E-1],"split_indices":[8,26,1,25,20,1,20,0,5,0,0,3,5,4,0,0,0,0,0,0,0,0,0],"split_type":[0,0,0,0,0,0,0,0,0,0,0,0,0,0,0,0,0,0,0,0,0,0,0],"sum_hessian":[1.8367092E4,1.1874456E2,1.8248348E4,9.4160324E1,2.4584232E1,1.8203904E4,4.444224E1,1.0630092E1,8.3530235E1,1.0334113E1,1.425012E1,1.7917854E4,2.860507E2,2.7767586E1,1.6674656E1,5.952E1,2.4010237E1,1.2406604E4,5.511251E3,5.769218E1,2.2835852E2,1.3064861E1,1.4702724E1],"tree_param":{"num_deleted":"0","num_feature":"30","num_nodes":"23","size_leaf_vector":"1"}},{"base_weights":[-4.8637115E-3,2.6847498E-4,-3.325121E-1,2.5742248E-1,-6.2979474E-3,-9.5762545E-1,2.74506E-1,1.1544662E0,-6.707013E-2,-2.321221E-3,-5.2616066E-1,-1.0954026E0,1.8239939E-1,9.013888E-1,-7.696652E-1,-3.2181242E-1,3.8696086E-1,-3.4249088E-1,3.5769355E-2,-1.9704403E-2,6.035206E-3,-2.0869732E-1,8.568689E-2,-3.2724437E-1,-1.373582E-1,3.127061E-1,-3.2958925E-1,1.4310127E-1,-3.0111548E-1],"categories":[],"categories_nodes":[],"categories_segments":[],"categories_sizes":[],"default_left":[0,0,0,0,0,0,0,0,0,0,0,0,0,0,0,0,0,0,0,0,0,0,0,0,0,0,0,0,0],"id":37,"left_children":[1,3,5,7,9,11,13,15,17,19,21,23,-1,25,27,-1,-1,-1,-1,-1,-1,-1,-1,-1,-1,-1,-1,-1,-1],"loss_changes":[3.0778732E1,3.043027E1,1.0711414E2,1.3061497E2,3.6327538E1,3.2331657E1,9.374511E1,1.14496735E2,9.022668E1,3.5299595E1,3.5775116E1,1.4990814E1,0E0,6.941685E1,3.1353764E1,0E0,0E0,0E0,0E0,0E0,0E0,0E0,0E0,0E0,0E0,0E0,0E0,0E0,0E0],"parents":[2147483647,0,0,1,1,2,2,3,3,4,4,5,5,6,6,7,7,8,8,9,9,10,10,11,11,13,13,14,14],"right_children":[2,4,6,8,10,12,14,16,18,20,22,24,-1,26,28,-1,-1,-1,-1,-1,-1,-1,-1,-1,-1,-1,-1,-1,-1],"split_conditions":[5.8805046E-4,1.8470596E-1,2.792038E-3,1.2021436E-4,7.148733E-1,5.6051165E-1,6.8146416E1,2.1445937E0,1.124348E1,5.7224137E-1,9.017331E-3,5.043513E1,1.8239939E-1,5.7477425E-3,1.3685669E-1,-3.2181242E-1,3.8696086E-1,-3.4249088E-1,3.5769355E-2,-1.9704403E-2,6.035206E-3,-2.0869732E-1,8.568689E-2,-3.2724437E-1,-1.373582E-1,3.127061E-1,-3.2958925E-1,1.4310127E-1,-3.0111548E-1],"split_indices":[15,6,29,27,7,18,4,3,4,0,29,4,0,27,6,0,0,0,0,0,0,0,0,0,0,0,0,0,0],"split_type":[0,0,0,0,0,0,0,0,0,0,0,0,0,0,0,0,0,0,0,0,0,0,0,0,0,0,0,0,0],"sum_hessian":[1.8302414E4,1.8020145E4,2.822691E2,4.486955E2,1.757145E4,1.3906369E2,1.4320543E2,1.191947E2,3.295008E2,1.743806E4,1.3338927E2,1.2856642E2,1.0497262E1,8.9484406E1,5.3721024E1,1.65378E1,1.026569E2,4.5766148E1,2.8373465E2,4.481896E3,1.2956164E4,9.8430305E1,3.4958954E1,9.241206E1,3.615436E1,7.7314476E1,1.2169926E1,1.3144168E1,4.057686E1],"tree_param":{"num_deleted":"0","num_feature":"30","num_nodes":"29","size_leaf_vector":"1"}},{"base_weights":[-3.007351E-3,6.934439E-2,-3.4499455E-2,-2.032518E-1,1.3131645E-1,-3.9902374E-1,-1.6862592E-2,2.1259223E-1,-4.0022153E-1,5.578166E-1,8.9168385E-2,-2.5860715E-1,-8.634207E-1,7.7368416E-2,-7.6238565E-2,-3.2814676E-1,9.280639E-2,-2.3961273E-1,-5.9951615E-2,4.5381767E-1,9.444712E-2,1.0869931E-1,6.4898035E-3,2.2899556E-1,-8.317367E-2,-2.4822176E-1,1.2218107E-1,1.3216495E-2,3.9464653E-1,-2.344876E-2,1.13669716E-1],"categories":[],"categories_nodes":[],"categories_segments":[],"categories_sizes":[],"default_left":[0,0,0,0,0,0,0,0,0,0,0,0,0,0,0,0,0,0,0,0,0,0,0,0,0,0,0,0,0,0,0],"id":38,"left_children":[1,3,5,7,9,11,13,15,17,19,21,23,25,27,29,-1,-1,-1,-1,-1,-1,-1,-1,-1,-1,-1,-1,-1,-1,-1,-1],"loss_changes":[4.1649418E1,9.364705E1,8.187952E1,8.410538E1,8.119158E1,3.8327446E1,6.796918E1,7.985246E1,6.2395096E1,9.19557E1,8.979975E1,3.9276405E1,2.38908E1,1.7272826E2,6.9464005E1,0E0,0E0,0E0,0E0,0E0,0E0,0E0,0E0,0E0,0E0,0E0,0E0,0E0,0E0,0E0,0E0],"parents":[2147483647,0,0,1,1,2,2,3,3,4,4,5,5,6,6,7,7,8,8,9,9,10,10,11,11,12,12,13,13,14,14],"right_children":[2,4,6,8,10,12,14,16,18,20,22,24,26,28,30,-1,-1,-1,-1,-1,-1,-1,-1,-1,-1,-1,-1,-1,-1,-1,-1],"split_conditions":[5.8651605E-4,3.243836E-1,6.553253E-4,4.587298E-6,3.521116E-1,8.247018E-2,1.7673093E-4,-5.2656424E-1,3.2162488E-1,7.544547E-7,-3.8963396E-2,-1.6914663E-1,8.221477E1,8.697215E-6,1.0052323E-1,-3.2814676E-1,9.280639E-2,-2.3961273E-1,-5.9951615E-2,4.5381767E-1,9.444712E-2,1.0869931E-1,6.4898035E-3,2.2899556E-1,-8.317367E-2,-2.4822176E-1,1.2218107E-1,1.3216495E-2,3.9464653E-1,-2.344876E-2,1.13669716E-1],"split_indices":[11,6,11,21,6,12,29,5,7,21,20,9,12,13,20,0,0,0,0,0,0,0,0,0,0,0,0,0,0,0,0],"split_type":[0,0,0,0,0,0,0,0,0,0,0,0,0,0,0,0,0,0,0,0,0,0,0,0,0,0,0,0,0,0,0],"sum_hessian":[1.827908E4,5.5433657E3,1.2735714E4,1.0267908E3,4.516575E3,5.877514E2,1.2147963E4,3.300259E2,6.9676483E2,4.0619516E2,4.11038E3,4.5129987E2,1.3645155E2,4.6957163E3,7.452246E3,3.109064E1,2.9893527E2,1.5552794E2,5.412369E2,5.0869667E1,3.553255E2,6.354874E2,3.4748923E3,2.677506E1,4.245248E2,1.2452968E2,1.1921876E1,4.6203066E3,7.5409775E1,7.2137065E3,2.3853983E2],"tree_param":{"num_deleted":"0","num_feature":"30","num_nodes":"31","size_leaf_vector":"1"}},{"base_weights":[-2.6736571E-3,4.0003303E-2,-5.2548517E-2,6.780123E-2,-1.3758434E-1,-9.156464E-3,-1.5030633E-1,-1.9705908E-1,9.109302E-2,-6.81648E-1,6.607013E-3,4.7738038E-2,-1.7430978E-1,-3.0535257E-1,8.3923616E-2,-3.6107346E-1,-3.8491316E-2,-1.9039685E-1,2.4602406E-2,1.4249994E-1,-1.9827531E-1,8.781901E-2,-4.504433E-2,-1.2426088E-2,7.016997E-2,-9.045467E-2,1.01763895E-2,-9.195712E-2,8.824442E-2,-1.6261643E-2,8.673653E-2],"categories":[],"categories_nodes":[],"categories_segments":[],"categories_sizes":[],"default_left":[0,0,0,0,0,0,0,0,0,0,0,0,0,0,0,0,0,0,0,0,0,0,0,0,0,0,0,0,0,0,0],"id":39,"left_children":[1,3,5,7,9,11,13,15,17,19,21,23,25,27,29,-1,-1,-1,-1,-1,-1,-1,-1,-1,-1,-1,-1,-1,-1,-1,-1],"loss_changes":[3.88375E1,4.8539726E1,3.56898E1,5.244888E1,1.0440265E2,5.4754627E1,9.393321E1,3.693872E1,4.875505E1,3.8897003E1,6.772753E1,9.8377655E1,6.0198288E1,6.4012344E1,4.0366802E1,0E0,0E0,0E0,0E0,0E0,0E0,0E0,0E0,0E0,0E0,0E0,0E0,0E0,0E0,0E0,0E0],"parents":[2147483647,0,0,1,1,2,2,3,3,4,4,5,5,6,6,7,7,8,8,9,9,10,10,11,11,12,12,13,13,14,14],"right_children":[2,4,6,8,10,12,14,16,18,20,22,24,26,28,30,-1,-1,-1,-1,-1,-1,-1,-1,-1,-1,-1,-1,-1,-1,-1,-1],"split_conditions":[6.61103E-3,3.3754956E-2,5.8340193E-3,2.2383353E-4,-6.283109E-1,-4.6846712E-1,6.025367E-4,1.826016E0,5.3553078E-5,1.669474E-4,2.341761E0,-5.8607745E-1,8.706816E-2,4.2761322E-2,-1.2471462E-2,-3.6107346E-1,-3.8491316E-2,-1.9039685E-1,2.4602406E-2,1.4249994E-1,-1.9827531E-1,8.781901E-2,-4.504433E-2,-1.2426088E-2,7.016997E-2,-9.045467E-2,1.01763895E-2,-9.195712E-2,8.824442E-2,-1.6261643E-2,8.673653E-2],"split_indices":[10,20,22,11,5,5,17,3,25,25,3,5,10,22,9,0,0,0,0,0,0,0,0,0,0,0,0,0,0,0,0],"split_type":[0,0,0,0,0,0,0,0,0,0,0,0,0,0,0,0,0,0,0,0,0,0,0,0,0,0,0,0,0,0,0],"sum_hessian":[1.8246148E4,9.832565E3,8.413583E3,8.501787E3,1.3307782E3,5.82711E3,2.5864734E3,6.8720483E2,7.814582E3,2.7880508E2,1.0519731E3,4.33404E3,1.4930693E3,1.5563032E3,1.0301702E3,2.2949183E1,6.642557E2,6.648155E1,7.7481006E3,2.2794674E1,2.560104E2,3.6973026E2,6.8224286E2,3.0557664E3,1.2782738E3,7.975547E2,6.955147E2,1.4214138E3,1.3488947E2,6.57671E2,3.7249918E2],"tree_param":{"num_deleted":"0","num_feature":"30","num_nodes":"31","size_leaf_vector":"1"}},{"base_weights":[3.2570597E-4,-2.6060067E-2,6.987737E-2,-1.6063076E-1,1.1090073E-2,3.123631E-1,-9.2238706E-4,-4.3949467E-1,-6.0642704E-2,2.4025057E-1,-3.1002525E-2,-8.848725E-1,3.7697697E-1,1.13549545E-1,-1.957173E-1,3.4105408E-1,-1.2911378E-1,1.4529689E-1,-3.7884917E-2,-1.609561E-2,1.458987E-1,-3.505872E-1,-5.467543E-3,6.089059E-2,-3.0946147E-1,1.2350726E-1,-4.9624756E-2,-1.589604E-1,4.048313E-2,2.1414965E-2,-7.7434614E-2],"categories":[],"categories_nodes":[],"categories_segments":[],"categories_sizes":[],"default_left":[0,0,0,0,0,0,0,0,0,0,0,0,0,0,0,0,0,0,0,0,0,0,0,0,0,0,0,0,0,0,0],"id":40,"left_children":[1,3,5,7,9,11,13,15,17,19,21,23,25,27,29,-1,-1,-1,-1,-1,-1,-1,-1,-1,-1,-1,-1,-1,-1,-1,-1],"loss_changes":[3.3439075E1,6.603986E1,8.6036125E1,7.968391E1,9.985465E1,8.761317E1,8.64935E1,1.0470247E2,1.2272388E2,1.6802094E2,1.095273E2,2.3102837E1,7.2383545E1,8.8583466E1,4.6063236E1,0E0,0E0,0E0,0E0,0E0,0E0,0E0,0E0,0E0,0E0,0E0,0E0,0E0,0E0,0E0,0E0],"parents":[2147483647,0,0,1,1,2,2,3,3,4,4,5,5,6,6,7,7,8,8,9,9,10,10,11,11,12,12,13,13,14,14],"right_children":[2,4,6,8,10,12,14,16,18,20,22,24,26,28,30,-1,-1,-1,-1,-1,-1,-1,-1,-1,-1,-1,-1,-1,-1,-1,-1],"split_conditions":[7.9220295E-2,4.1826555E-4,4.5549916E-4,2.0894172E0,6.292294E0,2.1401358E-5,3.2662835E-3,-9.069771E-1,2.220977E0,9.856797E-5,2.0288618E0,1.3850602E-30,7.106053E-4,2.3809014E-1,-2.6730819E-2,3.4105408E-1,-1.2911378E-1,1.4529689E-1,-3.7884917E-2,-1.609561E-2,1.458987E-1,-3.505872E-1,-5.467543E-3,6.089059E-2,-3.0946147E-1,1.2350726E-1,-4.9624756E-2,-1.589604E-1,4.048313E-2,2.1414965E-2,-7.7434614E-2],"split_indices":[26,25,25,3,4,29,22,5,3,29,3,13,29,6,18,0,0,0,0,0,0,0,0,0,0,0,0,0,0,0,0],"split_type":[0,0,0,0,0,0,0,0,0,0,0,0,0,0,0,0,0,0,0,0,0,0,0,0,0,0,0,0,0,0,0],"sum_hessian":[1.8220904E4,1.3209567E4,5.011338E3,2.8577751E3,1.0351792E4,1.1325256E3,3.8788125E3,7.542289E2,2.1035464E3,1.6063821E3,8.74541E3,5.7989956E1,1.0745356E3,2.4431025E3,1.4357098E3,3.0863167E1,7.233657E2,2.6094797E2,1.8425983E3,8.5117145E2,7.552106E2,5.7852314E1,8.687558E3,1.3815655E1,4.41743E1,8.9291943E2,1.8161621E2,1.4816505E2,2.2949375E3,4.1401035E2,1.02169946E3],"tree_param":{"num_deleted":"0","num_feature":"30","num_nodes":"31","size_leaf_vector":"1"}},{"base_weights":[-2.5110107E-3,3.442679E-2,-5.3160593E-2,-4.1759107E-1,5.4906487E-2,3.2302073E-1,-1.0073915E-1,-6.5466607E-1,1.8719238E-1,6.234944E-2,-7.567602E-1,2.2465244E-1,1.8912215E0,-2.1985631E-2,-2.1447352E-1,3.984888E-1,-1.8286946E-1,-4.74892E-2,3.9968303E-1,9.318174E-3,8.467605E-2,-2.9782254E-1,1.8577962E-1,-7.880565E-3,1.8174589E-1,6.8971044E-1,1.589441E-1,-3.680827E-2,9.337319E-2,-9.526196E-2,9.862539E-3],"categories":[],"categories_nodes":[],"categories_segments":[],"categories_sizes":[],"default_left":[0,0,0,0,0,0,0,0,0,0,0,0,0,0,0,0,0,0,0,0,0,0,0,0,0,0,0,0,0,0,0],"id":41,"left_children":[1,3,5,7,9,11,13,15,17,19,21,23,25,27,29,-1,-1,-1,-1,-1,-1,-1,-1,-1,-1,-1,-1,-1,-1,-1,-1],"loss_changes":[3.4011242E1,9.731676E1,1.372187E2,6.533236E1,6.0756947E1,1.3278754E2,6.095941E1,5.654251E1,6.8317726E1,6.9061676E1,5.9562386E1,1.04234634E2,5.5338882E1,1.9918831E2,1.1777721E2,0E0,0E0,0E0,0E0,0E0,0E0,0E0,0E0,0E0,0E0,0E0,0E0,0E0,0E0,0E0,0E0],"parents":[2147483647,0,0,1,1,2,2,3,3,4,4,5,5,6,6,7,7,8,8,9,9,10,10,11,11,12,12,13,13,14,14],"right_children":[2,4,6,8,10,12,14,16,18,20,22,24,26,28,30,-1,-1,-1,-1,-1,-1,-1,-1,-1,-1,-1,-1,-1,-1,-1,-1],"split_conditions":[1.286232E-3,4.0142768E-5,1.08638786E-4,7.2442525E-4,6.717689E-1,3.8604852E-4,-5.3099185E-1,-1.6021478E-1,3.2030458E-3,1.9544445E-3,8.634877E0,6.54063E-1,5.85719E-5,-5.983444E-1,1.3395272E-3,3.984888E-1,-1.8286946E-1,-4.74892E-2,3.9968303E-1,9.318174E-3,8.467605E-2,-2.9782254E-1,1.8577962E-1,-7.880565E-3,1.8174589E-1,6.8971044E-1,1.589441E-1,-3.680827E-2,9.337319E-2,-9.526196E-2,9.862539E-3],"split_indices":[25,27,27,25,7,15,5,8,11,29,3,0,17,5,27,0,0,0,0,0,0,0,0,0,0,0,0,0,0,0,0],"split_type":[0,0,0,0,0,0,0,0,0,0,0,0,0,0,0,0,0,0,0,0,0,0,0,0,0,0,0,0,0,0,0],"sum_hessian":[1.8179002E4,1.0512434E4,7.6665684E3,4.5564084E2,1.0056793E4,8.6077527E2,6.805793E3,3.2733096E2,1.2830988E2,9.965413E3,9.1379616E1,8.0996985E2,5.0805374E1,4.0213171E3,2.784476E3,1.0811139E1,3.165198E2,1.0125417E2,2.7055704E1,9.136377E3,8.2903687E2,7.085402E1,2.0525597E1,5.364109E2,2.7355896E2,3.0041965E1,2.0763409E1,3.0540952E3,9.67222E2,1.6814507E3,1.1030253E3],"tree_param":{"num_deleted":"0","num_feature":"30","num_nodes":"31","size_leaf_vector":"1"}},{"base_weights":[-1.0456583E-3,-2.3317307E-1,6.1121373E-3,-7.229617E-1,-2.2929326E-2,5.407218E-1,1.959796E-3,-9.237821E-1,3.3843812E-1,-2.0213549E-1,8.274355E-1,1.983108E0,2.5261652E-1,8.87322E-2,-2.0510139E-2,-9.754244E-3,-2.7236462E-1,8.910482E-2,-1.457948E-1,6.8675674E-2,5.259015E-1,8.194133E-1,2.7946556E-1,-2.895173E-1,1.415899E-1,2.9114513E-2,-2.6895577E-1,-4.751832E-2,3.8578217E-3],"categories":[],"categories_nodes":[],"categories_segments":[],"categories_sizes":[],"default_left":[0,0,0,0,0,0,0,0,0,0,0,0,0,0,0,0,0,0,0,0,0,0,0,0,0,0,0,0,0],"id":42,"left_children":[1,3,5,7,9,11,13,15,-1,17,19,21,23,25,27,-1,-1,-1,-1,-1,-1,-1,-1,-1,-1,-1,-1,-1,-1],"loss_changes":[3.0143887E1,5.5882805E1,3.9068253E1,6.797688E1,5.7865253E1,5.6365864E1,3.404962E1,2.1782509E1,0E0,6.675037E1,4.6618385E1,3.1342789E1,5.0041637E1,1.1598179E2,8.453638E1,0E0,0E0,0E0,0E0,0E0,0E0,0E0,0E0,0E0,0E0,0E0,0E0,0E0,0E0],"parents":[2147483647,0,0,1,1,2,2,3,3,4,4,5,5,6,6,7,7,9,9,10,10,11,11,12,12,13,13,14,14],"right_children":[2,4,6,8,10,12,14,16,-1,18,20,22,24,26,28,-1,-1,-1,-1,-1,-1,-1,-1,-1,-1,-1,-1,-1,-1],"split_conditions":[1.7645682E-4,-7.1004283E-1,3.2735427E-6,5.4119885E-1,6.974097E-1,-3.0401745E-3,-7.5004506E-1,2.647595E-5,3.3843812E-1,7.8748735E-6,7.937323E-6,7.615715E-4,-1.0606289E-1,4.8242353E-2,-6.613473E-1,-9.754244E-3,-2.7236462E-1,8.910482E-2,-1.457948E-1,6.8675674E-2,5.259015E-1,8.194133E-1,2.7946556E-1,-2.895173E-1,1.415899E-1,2.9114513E-2,-2.6895577E-1,-4.751832E-2,3.8578217E-3],"split_indices":[19,5,17,7,14,2,5,29,0,21,17,25,9,20,5,0,0,0,0,0,0,0,0,0,0,0,0,0,0],"split_type":[0,0,0,0,0,0,0,0,0,0,0,0,0,0,0,0,0,0,0,0,0,0,0,0,0,0,0,0,0],"sum_hessian":[1.8141379E4,5.42677E2,1.7598703E4,1.6298123E2,3.7969574E2,1.3563231E2,1.746307E4,1.4861147E2,1.436977E1,3.136085E2,6.608726E1,2.2579756E1,1.1305255E2,3.5919807E3,1.387109E4,2.344128E1,1.2517019E2,1.2717799E2,1.864305E2,4.6115566E1,1.9971693E1,1.0341763E1,1.2237993E1,2.0567482E1,9.248507E1,3.5084531E3,8.3527664E1,2.4259756E3,1.1445114E4],"tree_param":{"num_deleted":"0","num_feature":"30","num_nodes":"29","size_leaf_vector":"1"}},{"base_weights":[-4.78019E-3,-1.1221123E0,-3.3723346E-3,-2.7397937E-1,-2.8861177E-1,-8.224855E-3,3.0860615E-1,5.4983605E-2,-3.5966232E-2,5.152476E-2,1.1079106E0,1.6906204E-2,-1.7885578E-1,5.268204E-3,-3.200803E-2,-7.2367445E-2,1.7489676E-1,-1.174896E-1,3.4740043E-1],"categories":[],"categories_nodes":[],"categories_segments":[],"categories_sizes":[],"default_left":[0,0,0,0,0,0,0,0,0,0,0,0,0,0,0,0,0,0,0],"id":43,"left_children":[1,3,5,-1,-1,7,9,11,13,15,17,-1,-1,-1,-1,-1,-1,-1,-1],"loss_changes":[2.8521149E1,1.9321442E-2,2.7412258E1,0E0,0E0,3.126411E1,5.6985153E1,5.296466E1,6.507114E1,4.637423E1,3.000045E1,0E0,0E0,0E0,0E0,0E0,0E0,0E0,0E0],"parents":[2147483647,0,0,1,1,2,2,5,5,6,6,7,7,8,8,9,9,10,10],"right_children":[2,4,6,-1,-1,8,10,12,14,16,18,-1,-1,-1,-1,-1,-1,-1,-1],"split_conditions":[-4.264939E-1,7.3016934E-5,3.6355658E-4,-2.7397937E-1,-2.8861177E-1,5.8651605E-4,-3.8835872E-3,6.5084943E-3,2.8540848E-3,1.666206E-3,-4.061153E-3,1.6906204E-2,-1.7885578E-1,5.268204E-3,-3.200803E-2,-7.2367445E-2,1.7489676E-1,-1.174896E-1,3.4740043E-1],"split_indices":[9,17,21,0,0,11,9,25,22,25,22,0,0,0,0,0,0,0,0],"split_type":[0,0,0,0,0,0,0,0,0,0,0,0,0,0,0,0,0,0,0],"sum_hessian":[1.8129584E4,2.2812746E1,1.8106771E4,1.2642199E1,1.0170548E1,1.7829459E4,2.7731244E2,5.4382886E3,1.239117E4,2.0982805E2,6.7484406E1,5.350498E3,8.779061E1,7.6509995E3,4.7401704E3,1.3748387E2,7.234418E1,1.0221486E1,5.726292E1],"tree_param":{"num_deleted":"0","num_feature":"30","num_nodes":"19","size_leaf_vector":"1"}},{"base_weights":[-1.1708322E-3,-1.6767031E-1,8.436472E-3,-7.599613E-1,-7.9169296E-2,5.820653E-1,2.4938276E-3,-9.281632E-1,3.0375567E-1,-5.840229E-1,1.7352724E-2,9.042607E-1,-5.3842294E-1,-2.218262E-1,1.2376408E-2,7.675363E-3,-2.6718265E-1,-2.1945317E-1,6.908065E-2,1.7244798E-1,-2.1030305E-2,1.7262062E-1,6.151709E-1,5.6848887E-2,-2.957101E-1,-8.416406E-2,2.317368E-1,3.3035193E-2,-3.00934E-3],"categories":[],"categories_nodes":[],"categories_segments":[],"categories_sizes":[],"default_left":[0,0,0,0,0,0,0,0,0,0,0,0,0,0,0,0,0,0,0,0,0,0,0,0,0,0,0,0,0],"id":44,"left_children":[1,3,5,7,9,11,13,15,-1,17,19,21,23,25,27,-1,-1,-1,-1,-1,-1,-1,-1,-1,-1,-1,-1,-1,-1],"loss_changes":[2.8964233E1,5.1779076E1,5.8356205E1,4.266149E1,4.188068E1,6.337075E1,3.756089E1,1.5952164E1,0E0,3.4868694E1,4.9232437E1,4.5361877E1,1.9350498E1,9.431243E1,4.745017E1,0E0,0E0,0E0,0E0,0E0,0E0,0E0,0E0,0E0,0E0,0E0,0E0,0E0,0E0],"parents":[2147483647,0,0,1,1,2,2,3,3,4,4,5,5,6,6,7,7,9,9,10,10,11,11,12,12,13,13,14,14],"right_children":[2,4,6,8,10,12,14,16,-1,18,20,22,24,26,28,-1,-1,-1,-1,-1,-1,-1,-1,-1,-1,-1,-1,-1,-1],"split_conditions":[7.937323E-6,3.0247902E-4,9.031923E-6,9.964196E-1,3.3913335E-1,2.0375908E1,-8.914106E-1,-9.013732E-1,3.0375567E-1,1.9223193E-15,2.1230719E-7,3.9633475E-2,-1.4169922E-1,7.4944365E-1,-7.5004506E-1,7.675363E-3,-2.6718265E-1,-2.1945317E-1,6.908065E-2,1.7244798E-1,-2.1030305E-2,1.7262062E-1,6.151709E-1,5.6848887E-2,-2.957101E-1,-8.416406E-2,2.317368E-1,3.3035193E-2,-3.00934E-3],"split_indices":[17,11,17,28,6,4,5,5,0,1,15,20,14,0,5,0,0,0,0,0,0,0,0,0,0,0,0,0,0],"split_type":[0,0,0,0,0,0,0,0,0,0,0,0,0,0,0,0,0,0,0,0,0,0,0,0,0,0,0,0,0],"sum_hessian":[1.8106318E4,9.877825E2,1.7118535E4,1.2840553E2,8.5937695E2,1.755212E2,1.6943014E4,1.18329056E2,1.0076472E1,1.3793556E2,7.214414E2,1.3632353E2,3.9197666E1,7.149298E2,1.6228085E4,1.5126837E1,1.0320222E2,1.02825485E2,3.511007E1,9.45969E1,6.268445E2,1.1986174E2,1.6461794E1,1.7910036E1,2.128763E1,6.4996234E2,6.4967476E1,2.747927E3,1.3480158E4],"tree_param":{"num_deleted":"0","num_feature":"30","num_nodes":"29","size_leaf_vector":"1"}},{"base_weights":[-4.8108576E-3,4.8754972E-1,-8.867205E-3,-3.6394638E-1,7.011546E-1,3.4877744E-2,-4.371633E-2,1.0768186E0,-3.5948893E-1,2.1929007E-2,1.1857175E0,4.413467E-2,-1.3847102E-1,3.3171237E-1,-4.361348E-2,-3.768066E-1,4.443911E-1,-2.1480288E-2,3.0497262E-2,3.922487E-1,-3.832434E-1,-4.6015996E-3,1.6897693E-1,-1.4954388E-1,-2.1148097E-2],"categories":[],"categories_nodes":[],"categories_segments":[],"categories_sizes":[],"default_left":[0,0,0,0,0,0,0,0,0,0,0,0,0,0,0,0,0,0,0,0,0,0,0,0,0],"id":45,"left_children":[1,3,5,-1,7,9,11,13,15,17,19,21,23,-1,-1,-1,-1,-1,-1,-1,-1,-1,-1,-1,-1],"loss_changes":[3.6105785E1,6.1322548E1,2.7334213E1,0E0,5.3032578E1,1.1847691E2,8.307544E1,3.0751892E1,8.538626E1,8.484163E1,9.218076E1,2.0461719E2,1.1891947E2,0E0,0E0,0E0,0E0,0E0,0E0,0E0,0E0,0E0,0E0,0E0,0E0],"parents":[2147483647,0,0,1,1,2,2,4,4,5,5,6,6,7,7,8,8,9,9,10,10,11,11,12,12],"right_children":[2,4,6,-1,8,10,12,14,16,18,20,22,24,-1,-1,-1,-1,-1,-1,-1,-1,-1,-1,-1,-1],"split_conditions":[-9.225399E-19,-6.055073E-2,-1.0431916E-2,-3.6394638E-1,9.859901E-3,6.4639866E-1,2.9468155E0,1.0756408E-5,1.3094142E-1,3.0138488E0,1.5776193E-5,2.8029315E0,1.6254513E1,3.3171237E-1,-4.361348E-2,-3.768066E-1,4.443911E-1,-2.1480288E-2,3.0497262E-2,3.922487E-1,-3.832434E-1,-4.6015996E-3,1.6897693E-1,-1.4954388E-1,-2.1148097E-2],