{"learner":{"attributes":{"best_iteration":"475","best_score":"0.9378165027219415"},"feature_names":["Hurst","CorrDim","Lyapunov","Skewness","Kurtosis","PSD","ACF_1","WL_C1","WL_C2","WL_C3","Hurst_8_dyn","Hurst_8_Variance","CorrDim_8_dyn","CorrDim_8_Variance","Lyapunov_8_dyn","Lyapunov_8_Variance","Skewness_8_dyn","Skewness_8_Variance","Kurtosis_8_dyn","Kurtosis_8_Variance","PSD_8_dyn","PSD_8_Variance","ACF_1_8_dyn","ACF_1_8_Variance","WL_C1_8_dyn","WL_C1_8_Variance","WL_C2_8_dyn","WL_C2_8_Variance","WL_C3_8_dyn","WL_C3_8_Variance"],"feature_types":["float","float","float","float","float","float","float","float","float","float","float","float","float","float","float","float","float","float","float","float","float","float","float","float","float","float","float","float","float","float"],"gradient_booster":{"model":{"gbtree_model_param":{"num_parallel_tree":"1","num_trees":"500"},"iteration_indptr":[0,1,2,3,4,5,6,7,8,9,10,11,12,13,14,15,16,17,18,19,20,21,22,23,24,25,26,27,28,29,30,31,32,33,34,35,36,37,38,39,40,41,42,43,44,45,46,47,48,49,50,51,52,53,54,55,56,57,58,59,60,61,62,63,64,65,66,67,68,69,70,71,72,73,74,75,76,77,78,79,80,81,82,83,84,85,86,87,88,89,90,91,92,93,94,95,96,97,98,99,100,101,102,103,104,105,106,107,108,109,110,111,112,113,114,115,116,117,118,119,120,121,122,123,124,125,126,127,128,129,130,131,132,133,134,135,136,137,138,139,140,141,142,143,144,145,146,147,148,149,150,151,152,153,154,155,156,157,158,159,160,161,162,163,164,165,166,167,168,169,170,171,172,173,174,175,176,177,178,179,180,181,182,183,184,185,186,187,188,189,190,191,192,193,194,195,196,197,198,199,200,201,202,203,204,205,206,207,208,209,210,211,212,213,214,215,216,217,218,219,220,221,222,223,224,225,226,227,228,229,230,231,232,233,234,235,236,237,238,239,240,241,242,243,244,245,246,247,248,249,250,251,252,253,254,255,256,257,258,259,260,261,262,263,264,265,266,267,268,269,270,271,272,273,274,275,276,277,278,279,280,281,282,283,284,285,286,287,288,289,290,291,292,293,294,295,296,297,298,299,300,301,302,303,304,305,306,307,308,309,310,311,312,313,314,315,316,317,318,319,320,321,322,323,324,325,326,327,328,329,330,331,332,333,334,335,336,337,338,339,340,341,342,343,344,345,346,347,348,349,350,351,352,353,354,355,356,357,358,359,360,361,362,363,364,365,366,367,368,369,370,371,372,373,374,375,376,377,378,379,380,381,382,383,384,385,386,387,388,389,390,391,392,393,394,395,396,397,398,399,400,401,402,403,404,405,406,407,408,409,410,411,412,413,414,415,416,417,418,419,420,421,422,423,424,425,426,427,428,429,430,431,432,433,434,435,436,437,438,439,440,441,442,443,444,445,446,447,448,449,450,451,452,453,454,455,456,457,458,459,460,461,462,463,464,465,466,467,468,469,470,471,472,473,474,475,476,477,478,479,480,481,482,483,484,485,486,487,488,489,490,491,492,493,494,495,496,497,498,499,500],"tree_info":[0,0,0,0,0,0,0,0,0,0,0,0,0,0,0,0,0,0,0,0,0,0,0,0,0,0,0,0,0,0,0,0,0,0,0,0,0,0,0,0,0,0,0,0,0,0,0,0,0,0,0,0,0,0,0,0,0,0,0,0,0,0,0,0,0,0,0,0,0,0,0,0,0,0,0,0,0,0,0,0,0,0,0,0,0,0,0,0,0,0,0,0,0,0,0,0,0,0,0,0,0,0,0,0,0,0,0,0,0,0,0,0,0,0,0,0,0,0,0,0,0,0,0,0,0,0,0,0,0,0,0,0,0,0,0,0,0,0,0,0,0,0,0,0,0,0,0,0,0,0,0,0,0,0,0,0,0,0,0,0,0,0,0,0,0,0,0,0,0,0,0,0,0,0,0,0,0,0,0,0,0,0,0,0,0,0,0,0,0,0,0,0,0,0,0,0,0,0,0,0,0,0,0,0,0,0,0,0,0,0,0,0,0,0,0,0,0,0,0,0,0,0,0,0,0,0,0,0,0,0,0,0,0,0,0,0,0,0,0,0,0,0,0,0,0,0,0,0,0,0,0,0,0,0,0,0,0,0,0,0,0,0,0,0,0,0,0,0,0,0,0,0,0,0,0,0,0,0,0,0,0,0,0,0,0,0,0,0,0,0,0,0,0,0,0,0,0,0,0,0,0,0,0,0,0,0,0,0,0,0,0,0,0,0,0,0,0,0,0,0,0,0,0,0,0,0,0,0,0,0,0,0,0,0,0,0,0,0,0,0,0,0,0,0,0,0,0,0,0,0,0,0,0,0,0,0,0,0,0,0,0,0,0,0,0,0,0,0,0,0,0,0,0,0,0,0,0,0,0,0,0,0,0,0,0,0,0,0,0,0,0,0,0,0,0,0,0,0,0,0,0,0,0,0,0,0,0,0,0,0,0,0,0,0,0,0,0,0,0,0,0,0,0,0,0,0,0,0,0,0,0,0,0,0,0,0,0,0,0,0,0,0,0,0,0,0,0,0,0,0,0,0,0,0,0,0,0,0,0,0,0,0,0,0,0,0,0,0,0,0,0,0,0,0,0,0,0,0,0,0,0,0,0,0,0,0,0,0,0,0,0,0,0,0,0,0,0,0,0,0],"trees":[{"base_weights":[-9.921503E-2,-7.31705E-1,3.0187733E0,1.3612491E-1,-9.394323E-1,1.8849142E0,3.4474697E0,4.3462528E-4,2.010929E0,-9.665758E-1,2.442534E0,8.3912313E-1,2.5375657E0,5.317381E-1,3.477444E0,2.740613E-1,-6.297099E-2,1.6470854E-1,6.131695E-1,-2.4770252E-1,-2.31326E-2,3.714065E-1,8.020534E-1,-2.2661445E-1,4.1722125E-1,3.8612255E-1,7.298196E-1,8.358264E-1,8.935495E-1],"categories":[],"categories_nodes":[],"categories_segments":[],"categories_sizes":[],"default_left":[0,0,0,0,0,0,0,0,0,0,0,0,0,0,0,0,0,0,0,0,0,0,0,0,0,0,0,0,0],"id":0,"left_children":[1,3,5,7,9,11,13,15,17,19,21,23,25,-1,27,-1,-1,-1,-1,-1,-1,-1,-1,-1,-1,-1,-1,-1,-1],"loss_changes":[9.739764E3,7.401804E2,4.048501E2,2.0173431E2,3.0412695E2,1.5596497E2,2.391748E1,2.0446648E2,3.1963684E1,6.961279E1,1.9325409E1,1.2719423E2,5.333374E1,0E0,7.6694336E0,0E0,0E0,0E0,0E0,0E0,0E0,0E0,0E0,0E0,0E0,0E0,0E0,0E0,0E0],"parents":[2147483647,0,0,1,1,2,2,3,3,4,4,5,5,6,6,7,7,8,8,9,9,10,10,11,11,12,12,14,14],"right_children":[2,4,6,8,10,12,14,16,18,20,22,24,26,-1,28,-1,-1,-1,-1,-1,-1,-1,-1,-1,-1,-1,-1,-1,-1],"split_conditions":[2.0152419E-4,-2.1026865E-2,1.3872898E-1,2.9776065E0,4.229355E-2,4.947745E-4,4.229355E-2,-3.7859023E-2,7.569503E-4,4.634661E-3,4.001876E-1,-3.8842127E-2,2.297453E1,5.317381E-1,1.4923148E0,2.740613E-1,-6.297099E-2,1.6470854E-1,6.131695E-1,-2.4770252E-1,-2.31326E-2,3.714065E-1,8.020534E-1,-2.2661445E-1,4.1722125E-1,3.8612255E-1,7.298196E-1,8.358264E-1,8.935495E-1],"split_indices":[23,18,16,19,17,29,17,20,27,17,16,16,4,0,17,0,0,0,0,0,0,0,0,0,0,0,0,0,0],"split_type":[0,0,0,0,0,0,0,0,0,0,0,0,0,0,0,0,0,0,0,0,0,0,0,0,0,0,0,0,0],"sum_hessian":[4.9387803E3,4.1058926E3,8.328876E2,7.9298773E2,3.312905E3,2.2850912E2,6.043785E2,7.3946936E2,5.3518387E1,3.2865283E3,2.6376804E1,8.780935E1,1.4069978E2,1.3415868E1,5.909626E2,1.3840228E2,6.010671E2,1.3180625E1,4.0337765E1,3.1978599E3,8.866843E1,1.172567E1,1.4651134E1,2.8290823E1,5.9518528E1,3.906726E1,1.01632515E2,2.4764955E2,3.4331305E2],"tree_param":{"num_deleted":"0","num_feature":"30","num_nodes":"29","size_leaf_vector":"1"}},{"base_weights":[-8.882382E-2,-6.7511946E-1,1.571027E0,-1.1218795E-1,-8.524659E-1,7.132418E-1,1.9387535E0,8.4483546E-1,-3.1662333E-1,-9.131504E-1,-2.25822E-1,1.1915195E0,2.296024E-1,9.4127333E-1,1.9921595E0,5.030857E-1,8.455294E-2,-9.694481E-2,2.7465153E-1,3.2388407E-1,-2.3062192E-1,-1.3679379E-1,1.778442E-1,1.4933659E-1,3.8433293E-1,-1.9928727E-2,4.2515287E-1,-3.308113E-1,4.577646E-1,3.1301007E-1,5.023224E-1],"categories":[],"categories_nodes":[],"categories_segments":[],"categories_sizes":[],"default_left":[0,0,0,0,0,0,0,0,0,0,0,0,0,0,0,0,0,0,0,0,0,0,0,0,0,0,0,0,0,0,0],"id":1,"left_children":[1,3,5,7,9,11,13,15,17,19,21,23,25,27,29,-1,-1,-1,-1,-1,-1,-1,-1,-1,-1,-1,-1,-1,-1,-1,-1],"loss_changes":[4.6642144E3,3.5359045E2,3.9461377E2,1.6601245E2,1.0241797E2,8.683229E1,4.6645264E1,8.8338806E1,7.040984E1,5.0644897E1,7.162152E1,3.8779846E1,8.493813E1,8.968132E1,1.0535889E1,0E0,0E0,0E0,0E0,0E0,0E0,0E0,0E0,0E0,0E0,0E0,0E0,0E0,0E0,0E0,0E0],"parents":[2147483647,0,0,1,1,2,2,3,3,4,4,5,5,6,6,7,7,8,8,9,9,10,10,11,11,12,12,13,13,14,14],"right_children":[2,4,6,8,10,12,14,16,18,20,22,24,26,28,30,-1,-1,-1,-1,-1,-1,-1,-1,-1,-1,-1,-1,-1,-1,-1,-1],"split_conditions":[3.749563E-3,-8.025739E-3,4.557182E-4,-4.3359257E-2,2.1291758E-5,-1.3041518E-2,-1.02884434E-1,1.2443427E-6,1.3093305E-4,-6.681243E-2,1.3292892E-3,-3.7096065E-2,2.1707608E-1,5.222404E-4,1.0340341E-2,5.030857E-1,8.455294E-2,-9.694481E-2,2.7465153E-1,3.2388407E-1,-2.3062192E-1,-1.3679379E-1,1.778442E-1,1.4933659E-1,3.8433293E-1,-1.9928727E-2,4.2515287E-1,-3.308113E-1,4.577646E-1,3.1301007E-1,5.023224E-1],"split_indices":[17,16,23,20,23,24,16,23,23,22,17,28,16,29,17,0,0,0,0,0,0,0,0,0,0,0,0,0,0,0,0],"split_type":[0,0,0,0,0,0,0,0,0,0,0,0,0,0,0,0,0,0,0,0,0,0,0,0,0,0,0,0,0,0,0],"sum_hessian":[4.7928306E3,3.5417932E3,1.2510375E3,8.485015E2,2.6932917E3,3.753876E2,8.756499E2,1.493479E2,6.991536E2,2.4554968E3,2.3779509E2,1.8873763E2,1.8664998E2,4.450268E1,8.311472E2,4.5194126E1,1.0415378E2,6.656854E2,3.346818E1,1.0335904E1,2.445161E3,1.7707935E2,6.071574E1,6.943732E1,1.1930031E2,1.5421979E2,3.2430202E1,1.255286E1,3.1949823E1,1.8804705E1,8.123425E2],"tree_param":{"num_deleted":"0","num_feature":"30","num_nodes":"31","size_leaf_vector":"1"}},{"base_weights":[-8.368234E-2,-5.329943E-1,1.3050259E0,3.0046898E-1,-6.640496E-1,6.599548E-1,1.4969262E0,-2.0558366E-1,6.538325E-1,-6.907356E-1,6.1387336E-1,-2.2473137E-1,1.0909278E0,-6.452162E-2,1.5285228E0,9.134026E-2,-1.8728076E-1,2.1703891E-1,-2.9628506E-1,-5.9791524E-2,-1.9209604E-1,2.3363619E-1,-1.3765346E-1,-1.742732E-1,1.8345821E-1,-2.1006644E-1,3.1926778E-1,3.1876302E-1,3.98038E-1],"categories":[],"categories_nodes":[],"categories_segments":[],"categories_sizes":[],"default_left":[0,0,0,0,0,0,0,0,0,0,0,0,0,0,0,0,0,0,0,0,0,0,0,0,0,0,0,0,0],"id":2,"left_children":[1,3,5,7,9,11,13,15,17,19,21,23,25,-1,27,-1,-1,-1,-1,-1,-1,-1,-1,-1,-1,-1,-1,-1,-1],"loss_changes":[2.7712725E3,3.665428E2,1.3439893E2,8.153769E1,9.889099E1,9.491791E1,4.6405884E1,5.8183083E1,1.0582451E2,9.9594604E1,2.2153202E1,3.6926933E1,6.0179825E1,0E0,1.3256714E1,0E0,0E0,0E0,0E0,0E0,0E0,0E0,0E0,0E0,0E0,0E0,0E0,0E0,0E0],"parents":[2147483647,0,0,1,1,2,2,3,3,4,4,5,5,6,6,7,7,8,8,9,9,10,10,11,11,12,12,14,14],"right_children":[2,4,6,8,10,12,14,16,18,20,22,24,26,-1,28,-1,-1,-1,-1,-1,-1,-1,-1,-1,-1,-1,-1,-1,-1],"split_conditions":[1.3093305E-4,-1.7905897E-2,4.229355E-2,1.53271055E1,6.3750386E-2,-6.6626724E-3,9.217511E0,2.2097467E-2,3.180845E-2,-3.7859023E-2,9.5923024E-4,4.4425535E0,-1.7054455E-15,-6.452162E-2,4.3292336E0,9.134026E-2,-1.8728076E-1,2.1703891E-1,-2.9628506E-1,-5.9791524E-2,-1.9209604E-1,2.3363619E-1,-1.3765346E-1,-1.742732E-1,1.8345821E-1,-2.1006644E-1,3.1926778E-1,3.1876302E-1,3.98038E-1],"split_indices":[23,16,17,4,16,22,4,19,20,20,29,3,1,0,3,0,0,0,0,0,0,0,0,0,0,0,0,0,0],"split_type":[0,0,0,0,0,0,0,0,0,0,0,0,0,0,0,0,0,0,0,0,0,0,0,0,0,0,0,0,0],"sum_hessian":[4.441393E3,3.3556768E3,1.0857164E3,4.55955E2,2.8997217E3,2.489351E2,8.367813E2,1.8747096E2,2.6848404E2,2.8404092E3,5.931248E1,8.154242E1,1.6739268E2,1.4797444E1,8.219838E2,9.142846E1,9.6042496E1,2.4046077E2,2.8023268E1,4.1675806E2,2.4236511E3,4.6507435E1,1.2805047E1,5.4626133E1,2.6916286E1,1.4715048E1,1.5267763E2,1.6494618E2,6.5703766E2],"tree_param":{"num_deleted":"0","num_feature":"30","num_nodes":"29","size_leaf_vector":"1"}},{"base_weights":[-7.799919E-2,-4.551455E-1,1.0783696E0,-7.99202E-1,-2.8092685E-1,4.3283293E-1,1.2879653E0,4.972703E-1,-8.288305E-1,-6.4534225E-2,-6.543645E-1,-2.7684507E-1,5.560526E-1,1.0443375E0,1.3502194E0,5.236744E-1,-1.8200904E-1,-2.1513441E-1,-3.0204982E-2,8.557029E-2,-7.070053E-2,-1.9489115E-1,-3.5413876E-2,-2.2172627E-1,1.6552211E-1,2.9503545E-1,-1.8163292E-2,2.553161E-1,3.4128648E-1],"categories":[],"categories_nodes":[],"categories_segments":[],"categories_sizes":[],"default_left":[0,0,0,0,0,0,0,0,0,0,0,0,0,0,0,0,0,0,0,0,0,0,0,0,0,0,0,0,0],"id":3,"left_children":[1,3,5,7,9,11,13,15,17,19,21,-1,23,25,27,-1,-1,-1,-1,-1,-1,-1,-1,-1,-1,-1,-1,-1,-1],"loss_changes":[1.7855459E3,1.8505353E2,1.3623364E2,3.986676E1,1.6561662E2,4.6842472E1,1.1527954E1,4.5394432E1,2.2775146E1,1.1522085E2,4.8263977E1,0E0,3.4968185E1,2.34711E1,2.9718018E0,0E0,0E0,0E0,0E0,0E0,0E0,0E0,0E0,0E0,0E0,0E0,0E0,0E0,0E0],"parents":[2147483647,0,0,1,1,2,2,3,3,4,4,5,5,6,6,7,7,8,8,9,9,10,10,12,12,13,13,14,14],"right_children":[2,4,6,8,10,12,14,16,18,20,22,-1,24,26,28,-1,-1,-1,-1,-1,-1,-1,-1,-1,-1,-1,-1,-1,-1],"split_conditions":[7.411525E-3,5.5720473E-5,4.557182E-4,1.7596848E-1,7.7174404E-3,7.7058835E0,4.1327157E0,-6.06384E-16,5.412453E-3,9.4684097E-4,1.599954E-2,-2.7684507E-1,-9.325999E-2,4.350701E-2,4.229355E-2,5.236744E-1,-1.8200904E-1,-2.1513441E-1,-3.0204982E-2,8.557029E-2,-7.070053E-2,-1.9489115E-1,-3.5413876E-2,-2.2172627E-1,1.6552211E-1,2.9503545E-1,-1.8163292E-2,2.553161E-1,3.4128648E-1],"split_indices":[17,17,23,6,20,4,3,1,25,2,22,0,24,24,17,0,0,0,0,0,0,0,0,0,0,0,0,0,0],"split_type":[0,0,0,0,0,0,0,0,0,0,0,0,0,0,0,0,0,0,0,0,0,0,0,0,0,0,0,0,0],"sum_hessian":[4.0941477E3,3.0872517E3,1.00689606E3,1.037778E3,2.0494736E3,2.4679611E2,7.601E2,2.3184874E1,1.014593E3,1.2975817E3,7.51892E2,1.8280172E1,2.2851595E2,1.5470561E2,6.0539435E2,1.0065013E1,1.3119861E1,9.711005E2,4.3492496E1,4.5308865E2,8.4449304E2,6.043173E2,1.475747E2,1.5641507E1,2.1287444E2,1.379372E2,1.6768421E1,2.6284433E1,5.791099E2],"tree_param":{"num_deleted":"0","num_feature":"30","num_nodes":"29","size_leaf_vector":"1"}},{"base_weights":[-6.0906675E-2,-3.9994282E-1,8.6928886E-1,4.9719475E-2,-6.186311E-1,4.2473146E-1,1.174961E0,-1.0742716E-2,1.8092737E0,-6.4857835E-1,7.021506E-1,6.412127E-1,-1.5979417E-1,9.562957E-1,1.2325156E0,5.266862E-2,-1.045657E-1,1.0993741E-1,8.0933946E-1,-4.2074494E-2,-1.7835677E-1,4.6970123E-1,-3.0128965E-1,2.6818117E-2,2.8735086E-1,-2.6326612E-1,1.143723E-1,2.8306684E-1,1.099946E-1,2.3271866E-1,3.1119612E-1],"categories":[],"categories_nodes":[],"categories_segments":[],"categories_sizes":[],"default_left":[0,0,0,0,0,0,0,0,0,0,0,0,0,0,0,0,0,0,0,0,0,0,0,0,0,0,0,0,0,0,0],"id":4,"left_children":[1,3,5,7,9,11,13,15,17,19,21,23,25,27,29,-1,-1,-1,-1,-1,-1,-1,-1,-1,-1,-1,-1,-1,-1,-1,-1],"loss_changes":[1.1906344E3,2.7208597E2,1.3703876E2,9.6327736E1,7.363434E1,5.1996384E1,7.5202026E0,7.897963E1,5.882486E1,5.6692566E1,9.263443E1,8.136102E1,6.1237804E1,1.1312965E1,1.75E0,0E0,0E0,0E0,0E0,0E0,0E0,0E0,0E0,0E0,0E0,0E0,0E0,0E0,0E0,0E0,0E0],"parents":[2147483647,0,0,1,1,2,2,3,3,4,4,5,5,6,6,7,7,8,8,9,9,10,10,11,11,12,12,13,13,14,14],"right_children":[2,4,6,8,10,12,14,16,18,20,22,24,26,28,30,-1,-1,-1,-1,-1,-1,-1,-1,-1,-1,-1,-1,-1,-1,-1,-1],"split_conditions":[7.4061085E-5,-1.0977054E-2,1.3872898E-1,-4.6364515E-4,-1.7224424E-1,4.752261E-2,4.0976605E0,5.230028E-3,4.6241218E-1,1.0909887E-30,1.1581336E-3,3.5480103E0,6.3750386E-2,8.343636E-3,2.1707608E-1,5.266862E-2,-1.045657E-1,1.0993741E-1,8.0933946E-1,-4.2074494E-2,-1.7835677E-1,4.6970123E-1,-3.0128965E-1,2.6818117E-2,2.8735086E-1,-2.6326612E-1,1.143723E-1,2.8306684E-1,1.099946E-1,2.3271866E-1,3.1119612E-1],"split_indices":[23,18,16,16,5,18,3,20,6,13,29,3,16,24,16,0,0,0,0,0,0,0,0,0,0,0,0,0,0,0,0],"split_type":[0,0,0,0,0,0,0,0,0,0,0,0,0,0,0,0,0,0,0,0,0,0,0,0,0,0,0,0,0,0,0],"sum_hessian":[3.7753445E3,2.7668794E3,1.00846515E3,9.05336E2,1.8615433E3,4.108902E2,5.9757495E2,8.7525885E2,3.0077127E1,1.8202723E3,4.12709E1,2.998453E2,1.1104489E2,1.2452235E2,4.7305258E2,5.671206E2,3.0813828E2,1.5354177E1,1.4722949E1,2.1654443E2,1.6037279E3,2.5525158E1,1.5745743E1,1.462205E2,1.536248E2,4.5379684E1,6.566521E1,9.286694E1,3.1655409E1,1.8496134E1,4.5455646E2],"tree_param":{"num_deleted":"0","num_feature":"30","num_nodes":"31","size_leaf_vector":"1"}},{"base_weights":[-5.1254638E-2,-2.752995E-1,9.531686E-1,-3.9902943E-1,2.0857106E-1,1.3439809E-1,1.014049E0,-2.0475835E-2,-5.590096E-1,2.781898E-1,-1.2036445E0,8.1650573E-1,-1.811812E-1,-8.976474E-2,1.0462779E0,1.4413199E-1,-4.935879E-2,-1.4842594E-1,1.7724676E-1,1.7630774E-1,1.587957E-2,-1.7341843E-1,-3.7568623E-1,2.8915705E-2,3.2560143E-1,2.3565777E-1,2.9253867E-1],"categories":[],"categories_nodes":[],"categories_segments":[],"categories_sizes":[],"default_left":[0,0,0,0,0,0,0,0,0,0,0,0,0,0,0,0,0,0,0,0,0,0,0,0,0,0,0],"id":5,"left_children":[1,3,5,7,9,11,13,15,17,19,21,23,-1,-1,25,-1,-1,-1,-1,-1,-1,-1,-1,-1,-1,-1,-1],"loss_changes":[7.858578E2,1.7094337E2,3.174524E1,1.3770416E2,5.7167946E1,2.5838871E1,2.6237E1,7.13637E1,7.031729E1,5.0798164E1,4.1659164E0,8.367767E0,0E0,0E0,7.4367676E0,0E0,0E0,0E0,0E0,0E0,0E0,0E0,0E0,0E0,0E0,0E0,0E0],"parents":[2147483647,0,0,1,1,2,2,3,3,4,4,5,5,6,6,7,7,8,8,9,9,10,10,11,11,14,14],"right_children":[2,4,6,8,10,12,14,16,18,20,22,24,-1,-1,26,-1,-1,-1,-1,-1,-1,-1,-1,-1,-1,-1,-1],"split_conditions":[3.7279385E-4,1.3292892E-3,-1.02884434E-1,-6.758193E-3,7.080081E-1,2.458832E-30,2.6669282E-1,-4.1271154E-2,-1.7224424E-1,-2.404555E-2,5.049102E-1,2.3379837E-1,-1.811812E-1,-8.976474E-2,1.4923148E0,1.4413199E-1,-4.935879E-2,-1.4842594E-1,1.7724676E-1,1.7630774E-1,1.587957E-2,-1.7341843E-1,-3.7568623E-1,2.8915705E-2,3.2560143E-1,2.3565777E-1,2.9253867E-1],"split_indices":[23,17,16,16,26,13,19,20,5,20,19,17,0,0,17,0,0,0,0,0,0,0,0,0,0,0,0],"split_type":[0,0,0,0,0,0,0,0,0,0,0,0,0,0,0,0,0,0,0,0,0,0,0,0,0,0,0],"sum_hessian":[3.492128E3,2.8552444E3,6.368835E2,2.2738147E3,5.814297E2,4.40812E1,5.9280225E2,6.754778E2,1.598337E3,5.541148E2,2.7314867E1,2.4573519E1,1.9507683E1,1.3593233E1,5.7920905E2,1.5443861E2,5.210391E2,1.5557708E3,4.256619E1,1.8536392E2,3.687509E2,1.0100699E1,1.7214167E1,1.00633135E1,1.4510205E1,3.1536438E2,2.6384467E2],"tree_param":{"num_deleted":"0","num_feature":"30","num_nodes":"27","size_leaf_vector":"1"}},{"base_weights":[-5.216824E-2,-2.3177823E-1,8.774549E-1,1.46169E-1,-4.0570262E-1,-1.424663E-1,9.586297E-1,7.933746E-2,1.4807849E0,-4.34902E-1,7.207445E-1,-3.381379E-1,6.5151024E-1,8.2155144E-1,1.1154456E0,-8.997565E-3,1.6106223E-1,1.4315867E-1,4.4714972E-1,1.5274188E-1,-1.147786E-1,2.6127523E-1,-5.0971504E-2,3.5362116E-1,-5.033932E-2,1.2228856E-1,2.326961E-1,3.626696E-1,2.7405047E-1],"categories":[],"categories_nodes":[],"categories_segments":[],"categories_sizes":[],"default_left":[0,0,0,0,0,0,0,0,0,0,0,0,0,0,0,0,0,0,0,0,0,0,0,0,0,0,0,0,0],"id":6,"left_children":[1,3,5,7,9,11,13,15,17,19,21,-1,23,25,27,-1,-1,-1,-1,-1,-1,-1,-1,-1,-1,-1,-1,-1,-1],"loss_changes":[5.4094556E2,1.7848203E2,4.3434692E1,7.632598E1,6.1164093E1,3.7165016E1,1.0445374E1,5.3094124E1,1.14051285E1,4.5900513E1,1.4094423E1,0E0,1.5201026E1,9.413727E0,1.4627075E0,0E0,0E0,0E0,0E0,0E0,0E0,0E0,0E0,0E0,0E0,0E0,0E0,0E0,0E0],"parents":[2147483647,0,0,1,1,2,2,3,3,4,4,5,5,6,6,7,7,8,8,9,9,10,10,12,12,13,13,14,14],"right_children":[2,4,6,8,10,12,14,16,18,20,22,-1,24,26,28,-1,-1,-1,-1,-1,-1,-1,-1,-1,-1,-1,-1,-1,-1],"split_conditions":[4.229355E-2,-1.8324103E-2,-3.5286167E-1,8.273917E-3,9.419633E-2,5.222404E-4,3.6914E2,3.9039E1,-9.890238E-1,-1.9360754E-20,2.0018979E-5,-3.381379E-1,9.918579E-6,-8.839371E-2,3.7279385E-4,-8.997565E-3,1.6106223E-1,1.4315867E-1,4.4714972E-1,1.5274188E-1,-1.147786E-1,2.6127523E-1,-5.0971504E-2,3.5362116E-1,-5.033932E-2,1.2228856E-1,2.326961E-1,3.626696E-1,2.7405047E-1],"split_indices":[17,18,18,16,22,29,19,4,12,13,21,0,15,22,23,0,0,0,0,0,0,0,0,0,0,0,0,0,0],"split_type":[0,0,0,0,0,0,0,0,0,0,0,0,0,0,0,0,0,0,0,0,0,0,0,0,0,0,0,0,0],"sum_hessian":[3.2397646E3,2.7151753E3,5.245893E2,8.556934E2,1.8594819E3,3.867161E1,4.8591766E2,8.1488916E2,4.0804253E1,1.8125009E3,4.6981052E1,1.5322199E1,2.3349413E1,2.592835E2,2.2663416E2,6.767295E2,1.3815964E2,1.0331241E1,3.0473011E1,4.1008698E1,1.7714922E3,3.4782112E1,1.2198941E1,1.232561E1,1.1023803E1,6.413647E1,1.9514705E2,1.2296932E1,2.1433722E2],"tree_param":{"num_deleted":"0","num_feature":"30","num_nodes":"29","size_leaf_vector":"1"}},{"base_weights":[-3.493062E-2,-1.7919472E-1,7.890411E-1,5.4585766E-2,-4.0533996E-1,-1.6067846E-1,8.6541724E-1,-4.6747473E-1,1.6764975E-1,-1.01541005E-1,-5.5532247E-1,-7.324988E-1,2.905048E-1,6.273093E-1,9.9311465E-1,-2.78917E-1,-1.6308831E-2,1.1532335E-1,-9.8595945E-3,5.4013114E-2,-2.1615873E-1,-1.485138E-1,9.969888E-2,5.5411965E-2,-3.6353245E-1,1.7703485E-1,-7.5134404E-2,2.23319E-1,2.7632695E-1],"categories":[],"categories_nodes":[],"categories_segments":[],"categories_sizes":[],"default_left":[0,0,0,0,0,0,0,0,0,0,0,0,0,0,0,0,0,0,0,0,0,0,0,0,0,0,0,0,0],"id":7,"left_children":[1,3,5,7,9,11,13,15,17,19,21,23,-1,25,27,-1,-1,-1,-1,-1,-1,-1,-1,-1,-1,-1,-1,-1,-1],"loss_changes":[3.6063034E2,1.3649667E2,3.2790863E1,7.493321E1,5.9795197E1,2.5453253E1,1.2720886E1,5.8920933E1,6.3456223E1,1.051272E2,3.2470703E1,1.618119E1,0E0,1.0956688E1,3.0503845E0,0E0,0E0,0E0,0E0,0E0,0E0,0E0,0E0,0E0,0E0,0E0,0E0,0E0,0E0],"parents":[2147483647,0,0,1,1,2,2,3,3,4,4,5,5,6,6,7,7,8,8,9,9,10,10,11,11,13,13,14,14],"right_children":[2,4,6,8,10,12,14,16,18,20,22,24,-1,26,28,-1,-1,-1,-1,-1,-1,-1,-1,-1,-1,-1,-1,-1,-1],"split_conditions":[4.229355E-2,-3.994051E-3,-3.5286167E-1,7.726386E-5,-1.9842278E-2,6.302579E-2,8.159173E1,4.8355176E-3,-1.5487422E-2,3.9663558E0,2.2049675E-2,-7.8576705E-16,2.905048E-1,2.8649895E-3,1.3046921E-3,-2.78917E-1,-1.6308831E-2,1.1532335E-1,-9.8595945E-3,5.4013114E-2,-2.1615873E-1,-1.485138E-1,9.969888E-2,5.5411965E-2,-3.6353245E-1,1.7703485E-1,-7.5134404E-2,2.23319E-1,2.7632695E-1],"split_indices":[17,18,18,29,24,20,19,19,20,3,1,1,0,11,11,0,0,0,0,0,0,0,0,0,0,0,0,0,0],"split_type":[0,0,0,0,0,0,0,0,0,0,0,0,0,0,0,0,0,0,0,0,0,0,0,0,0,0,0,0,0],"sum_hessian":[3.033809E3,2.5817834E3,4.5202567E2,1.2694565E3,1.3123268E3,3.364374E1,4.1838193E2,2.2598329E2,1.0434733E3,4.337514E2,8.7857544E2,2.3490295E1,1.0153444E1,1.460574E2,2.7232452E2,8.6533E1,1.3945029E2,4.315548E2,6.119185E2,3.06278E2,1.274734E2,8.443031E2,3.4272343E1,1.0114136E1,1.337616E1,1.343554E2,1.1702006E1,1.441069E2,1.2821762E2],"tree_param":{"num_deleted":"0","num_feature":"30","num_nodes":"29","size_leaf_vector":"1"}},{"base_weights":[-3.529317E-2,-1.6153994E-1,6.884831E-1,-2.766882E-2,-4.233789E-1,4.7266868E-1,8.893103E-1,-4.7667417E-1,5.892811E-2,-2.920538E-1,-8.3451986E-1,2.850781E-2,6.6634804E-1,2.709205E-1,9.700412E-1,-2.7219883E-1,-4.9167592E-2,7.738548E-2,-2.1783257E-2,4.0023845E-1,-8.227156E-2,-2.6328886E-1,-3.050988E-2,-1.1973663E-1,2.0138942E-1,-5.903429E-2,1.871958E-1,1.7626116E-1,-9.888394E-2,2.1591684E-1,2.70323E-1],"categories":[],"categories_nodes":[],"categories_segments":[],"categories_sizes":[],"default_left":[0,0,0,0,0,0,0,0,0,0,0,0,0,0,0,0,0,0,0,0,0,0,0,0,0,0,0,0,0,0,0],"id":8,"left_children":[1,3,5,7,9,11,13,15,17,19,21,23,25,27,29,-1,-1,-1,-1,-1,-1,-1,-1,-1,-1,-1,-1,-1,-1,-1,-1],"loss_changes":[2.6265558E2,8.5793564E1,1.8503204E1,6.297486E1,4.4707794E1,1.7702126E1,1.1038406E1,4.4881416E1,4.969995E1,4.399871E1,3.1223618E1,2.4647493E1,1.06633415E1,7.393422E0,2.3146973E0,0E0,0E0,0E0,0E0,0E0,0E0,0E0,0E0,0E0,0E0,0E0,0E0,0E0,0E0,0E0,0E0],"parents":[2147483647,0,0,1,1,2,2,3,3,4,4,5,5,6,6,7,7,8,8,9,9,10,10,11,11,12,12,13,13,14,14],"right_children":[2,4,6,8,10,12,14,16,18,20,22,24,26,28,30,-1,-1,-1,-1,-1,-1,-1,-1,-1,-1,-1,-1,-1,-1,-1,-1],"split_conditions":[3.7279385E-4,7.967598E-3,8.159173E1,6.8766427E0,-2.7875062E-2,-4.580974E-2,3.8389374E1,3.7715203E-1,2.816309E-4,-3.1461223E-20,1.5086174E-5,6.6236575E-30,-2.1554345E-1,3.8058595E-30,1.3046921E-3,-2.7219883E-1,-4.9167592E-2,7.738548E-2,-2.1783257E-2,4.0023845E-1,-8.227156E-2,-2.6328886E-1,-3.050988E-2,-1.1973663E-1,2.0138942E-1,-5.903429E-2,1.871958E-1,1.7626116E-1,-9.888394E-2,2.1591684E-1,2.70323E-1],"split_indices":[23,20,19,4,8,22,4,6,29,13,23,13,18,13,11,0,0,0,0,0,0,0,0,0,0,0,0,0,0,0,0],"split_type":[0,0,0,0,0,0,0,0,0,0,0,0,0,0,0,0,0,0,0,0,0,0,0,0,0,0,0,0,0,0,0],"sum_hessian":[2.8744702E3,2.447552E3,4.2691818E2,1.6195361E3,8.2801587E2,2.0578615E2,2.2113203E2,2.6185315E2,1.357683E3,6.2756647E2,2.004494E2,6.2490276E1,1.4329587E2,2.5538479E1,1.9559355E2,8.218308E1,1.7967006E2,4.999232E2,8.5775977E2,1.204018E1,6.155263E2,1.5337935E2,4.707005E1,3.780118E1,2.4689095E1,1.1991149E1,1.3130472E2,1.5466899E1,1.0071581E1,9.9998924E1,9.559463E1],"tree_param":{"num_deleted":"0","num_feature":"30","num_nodes":"31","size_leaf_vector":"1"}},{"base_weights":[-2.5726335E-2,-2.0717803E-1,3.4863275E-1,-2.0075822E-2,-4.6505722E-1,-9.0525824E-1,4.1093394E-1,2.2188404E-1,-2.5816357E-1,6.504754E-1,-5.398515E-1,2.4091888E-2,-1.2179317E0,2.7437955E-1,8.646537E-1,-1.6932666E-1,9.575019E-2,7.559845E-2,-9.842316E-2,6.627489E-1,-1.6874574E-1,-6.677963E-2,-1.8387477E-1,-3.2616547E-1,-2.8789023E-1,2.6126912E-2,1.6848275E-1,4.5266682E-1,1.834286E-1],"categories":[],"categories_nodes":[],"categories_segments":[],"categories_sizes":[],"default_left":[0,0,0,0,0,0,0,0,0,0,0,0,0,0,0,0,0,0,0,0,0,0,0,0,0,0,0,0,0],"id":9,"left_children":[1,3,5,7,9,11,13,15,17,19,21,-1,23,25,27,-1,-1,-1,-1,-1,-1,-1,-1,-1,-1,-1,-1,-1,-1],"loss_changes":[1.876743E2,8.978606E1,7.0462685E1,6.2127666E1,6.528572E1,1.3374657E1,5.323816E1,7.749049E1,4.1297924E1,1.3037585E2,3.9126816E1,0E0,1.8733215E-1,4.4829086E1,2.4624512E1,0E0,0E0,0E0,0E0,0E0,0E0,0E0,0E0,0E0,0E0,0E0,0E0,0E0,0E0],"parents":[2147483647,0,0,1,1,2,2,3,3,4,4,5,5,6,6,7,7,8,8,9,9,10,10,12,12,13,13,14,14],"right_children":[2,4,6,8,10,12,14,16,18,20,22,-1,24,26,28,-1,-1,-1,-1,-1,-1,-1,-1,-1,-1,-1,-1,-1,-1],"split_conditions":[2.0345773E-5,-6.968634E-4,1.510477E-4,-9.19389E-1,1.8013606E-4,-2.5354905E0,2.8101514E-15,7.726386E-5,-4.533139E-2,7.53977E-4,1.2705954E1,2.4091888E-2,-1.8324103E-2,2.9937798E-1,3.1356594E-5,-1.6932666E-1,9.575019E-2,7.559845E-2,-9.842316E-2,6.627489E-1,-1.6874574E-1,-6.677963E-2,-1.8387477E-1,-3.2616547E-1,-2.8789023E-1,2.6126912E-2,1.6848275E-1,4.5266682E-1,1.834286E-1],"split_indices":[23,18,17,12,11,12,1,29,18,25,4,0,18,18,23,0,0,0,0,0,0,0,0,0,0,0,0,0,0],"split_type":[0,0,0,0,0,0,0,0,0,0,0,0,0,0,0,0,0,0,0,0,0,0,0,0,0,0,0,0,0],"sum_hessian":[2.7628066E3,1.8608564E3,9.0195026E2,1.0784236E3,7.824328E2,4.2691555E1,8.5925867E2,5.348577E2,5.435659E2,4.9162292E1,7.332705E2,1.0154638E1,3.253692E1,6.6048114E2,1.9877757E2,8.127098E1,4.5358673E2,1.0582983E2,4.377361E2,1.9592684E1,2.956961E1,3.0629987E2,4.2697067E2,1.4090066E1,1.8446852E1,4.6344864E2,1.9703247E2,2.4165863E1,1.7461171E2],"tree_param":{"num_deleted":"0","num_feature":"30","num_nodes":"29","size_leaf_vector":"1"}},{"base_weights":[-2.1373728E-2,-9.861426E-2,6.236937E-1,-3.8750115E-1,-5.0499253E-3,4.6298537E-1,8.773539E-1,4.8381683E-1,-4.5028827E-1,9.025505E-1,-4.393522E-2,6.436008E-1,-4.0569685E-2,1.00579396E-1,9.4118786E-1,3.5105616E-1,-2.9171664E-1,-1.269757E-1,1.7087524E-1,7.614539E-1,1.2370158E-1,3.949763E-3,-1.2942417E-1,5.2211355E-2,1.950366E-1,-2.0372355E-1,7.717242E-2,1.8603183E-1,2.5897005E-1],"categories":[],"categories_nodes":[],"categories_segments":[],"categories_sizes":[],"default_left":[0,0,0,0,0,0,0,0,0,0,0,0,0,0,0,0,0,0,0,0,0,0,0,0,0,0,0,0,0],"id":10,"left_children":[1,3,5,7,9,11,13,15,17,19,21,23,25,-1,27,-1,-1,-1,-1,-1,-1,-1,-1,-1,-1,-1,-1,-1,-1],"loss_changes":[1.3223132E2,6.406221E1,1.1568954E1,3.172277E1,6.3184437E1,1.5803116E1,3.3364258E0,5.9218365E1,3.533248E1,6.427785E1,4.858574E1,7.5901756E0,1.2408487E1,0E0,1.8101044E0,0E0,0E0,0E0,0E0,0E0,0E0,0E0,0E0,0E0,0E0,0E0,0E0,0E0,0E0],"parents":[2147483647,0,0,1,1,2,2,3,3,4,4,5,5,6,6,7,7,8,8,9,9,10,10,11,11,12,12,14,14],"right_children":[2,4,6,8,10,12,14,16,18,20,22,24,26,-1,28,-1,-1,-1,-1,-1,-1,-1,-1,-1,-1,-1,-1,-1,-1],"split_conditions":[5.589088E-4,5.5720473E-5,2.73757E0,2.1510437E-1,3.6301182E-7,2.2009844E-2,-1.2577526E-1,1.3822024E-3,5.412453E-3,1.056394E1,6.780561E-2,3.263976E-1,-3.522936E-1,1.00579396E-1,6.749056E1,3.5105616E-1,-2.9171664E-1,-1.269757E-1,1.7087524E-1,7.614539E-1,1.2370158E-1,3.949763E-3,-1.2942417E-1,5.2211355E-2,1.950366E-1,-2.0372355E-1,7.717242E-2,1.8603183E-1,2.5897005E-1],"split_indices":[23,17,18,6,23,24,8,11,25,4,24,7,14,0,4,0,0,0,0,0,0,0,0,0,0,0,0,0,0],"split_type":[0,0,0,0,0,0,0,0,0,0,0,0,0,0,0,0,0,0,0,0,0,0,0,0,0,0,0,0,0],"sum_hessian":[2.6538562E3,2.3700674E3,2.8378888E2,5.798164E2,1.790251E3,1.7372997E2,1.1005891E2,3.8970688E1,5.408457E2,7.3548004E1,1.716703E3,1.2787E2,4.5859962E1,1.3041695E1,9.701721E1,2.5020721E1,1.3949967E1,5.146932E2,2.6152563E1,1.1754744E1,6.1793262E1,1.5244835E3,1.9221948E2,3.0565983E1,9.730402E1,1.4257327E1,3.1602636E1,3.1496128E1,6.552109E1],"tree_param":{"num_deleted":"0","num_feature":"30","num_nodes":"29","size_leaf_vector":"1"}},{"base_weights":[-1.8402176E-2,-7.914342E-2,5.9778583E-1,5.9308786E-2,-2.918935E-1,-1.463322E-2,7.305829E-1,1.143933E-4,9.782851E-1,-1.8151028E-1,-7.89439E-1,-3.370843E-1,4.9425974E-1,8.8500917E-1,4.9870488E-1,7.132428E-2,-3.7843615E-2,-1.4472443E-1,3.2579395E-1,6.527598E-2,-9.254707E-2,-2.820828E-1,-1.07610926E-1,3.1893662E-1,-3.958845E-2,2.348298E-1,1.3384208E-1,2.3702903E-2,1.8063664E-1],"categories":[],"categories_nodes":[],"categories_segments":[],"categories_sizes":[],"default_left":[0,0,0,0,0,0,0,0,0,0,0,0,0,0,0,0,0,0,0,0,0,0,0,0,0,0,0,0,0],"id":11,"left_children":[1,3,5,7,9,11,13,15,17,19,21,-1,23,25,27,-1,-1,-1,-1,-1,-1,-1,-1,-1,-1,-1,-1,-1,-1],"loss_changes":[9.6182884E1,6.890393E1,1.8755028E1,7.708498E1,5.0646866E1,2.7896343E1,6.7853165E0,5.7515564E1,4.3387283E1,6.3030937E1,2.0370369E1,0E0,1.51735E1,2.1590881E0,6.8486824E0,0E0,0E0,0E0,0E0,0E0,0E0,0E0,0E0,0E0,0E0,0E0,0E0,0E0,0E0],"parents":[2147483647,0,0,1,1,2,2,3,3,4,4,5,5,6,6,7,7,8,8,9,9,10,10,12,12,13,13,14,14],"right_children":[2,4,6,8,10,12,14,16,18,20,22,-1,24,26,28,-1,-1,-1,-1,-1,-1,-1,-1,-1,-1,-1,-1,-1,-1],"split_conditions":[1.3872898E-1,-6.968634E-4,3.2909718E0,6.5986224E-4,1.4159897E-3,2.3052914E-3,3.2007763E-5,1.0075854E-3,2.1231582E-4,-2.8425252E-2,4.0417635E-3,-3.370843E-1,-8.1148945E-2,1.0657021E-3,-1.3479728E-1,7.132428E-2,-3.7843615E-2,-1.4472443E-1,3.2579395E-1,6.527598E-2,-9.254707E-2,-2.820828E-1,-1.07610926E-1,3.1893662E-1,-3.958845E-2,2.348298E-1,1.3384208E-1,2.3702903E-2,1.8063664E-1],"split_indices":[16,18,3,16,29,22,21,2,27,24,24,0,8,29,22,0,0,0,0,0,0,0,0,0,0,0,0,0,0],"split_type":[0,0,0,0,0,0,0,0,0,0,0,0,0,0,0,0,0,0,0,0,0,0,0,0,0,0,0,0,0],"sum_hessian":[2.5697607E3,2.339178E3,2.3058269E2,1.4170126E3,9.2216547E2,4.108664E1,1.8949605E2,1.3312638E3,8.574873E1,7.5472925E2,1.6743623E2,1.1348645E1,2.9737993E1,1.1373852E2,7.575753E1,4.6184344E2,8.6942035E2,1.4801059E1,7.094768E1,2.2556671E2,5.2916254E2,8.612639E1,8.1309845E1,1.3534407E1,1.6203587E1,9.8441025E1,1.5297488E1,2.7017744E1,4.8739788E1],"tree_param":{"num_deleted":"0","num_feature":"30","num_nodes":"29","size_leaf_vector":"1"}},{"base_weights":[-1.0228068E-2,-1.4168875E-1,2.1093604E-1,1.6418291E-2,-3.36919E-1,-6.974177E-1,2.782049E-1,-2.8283313E-1,2.1789262E-1,-3.930332E-1,8.234768E-1,-1.1452719E0,7.936078E-2,3.5808924E-1,-2.684436E-1,-1.6627893E-1,-1.7398403E-3,1.5601282E-1,-1.7571606E-2,-1.9188906E-3,-1.4096276E-1,6.3966364E-1,-1.7887503E-1,-3.5584542E-1,-4.5513656E-2,3.1085107E-1,7.0017934E-2,9.451959E-2,-1.9142255E-1],"categories":[],"categories_nodes":[],"categories_segments":[],"categories_sizes":[],"default_left":[0,0,0,0,0,0,0,0,0,0,0,0,0,0,0,0,0,0,0,0,0,0,0,0,0,0,0,0,0],"id":12,"left_children":[1,3,5,7,9,11,13,15,17,19,21,23,-1,25,27,-1,-1,-1,-1,-1,-1,-1,-1,-1,-1,-1,-1,-1,-1],"loss_changes":[7.2909744E1,4.85494E1,5.7126167E1,5.239596E1,4.5829353E1,2.9301252E1,3.8011192E1,3.687538E1,6.0792152E1,4.4189606E1,8.6700455E1,1.197868E1,0E0,5.245568E1,3.5681183E1,0E0,0E0,0E0,0E0,0E0,0E0,0E0,0E0,0E0,0E0,0E0,0E0,0E0,0E0],"parents":[2147483647,0,0,1,1,2,2,3,3,4,4,5,5,6,6,7,7,8,8,9,9,10,10,11,11,13,13,14,14],"right_children":[2,4,6,8,10,12,14,16,18,20,22,24,-1,26,28,-1,-1,-1,-1,-1,-1,-1,-1,-1,-1,-1,-1,-1,-1],"split_conditions":[1.043046E-1,-1.8842802E-3,-8.5750675E-1,-5.7977056E-17,1.079374E-1,9.61003E-2,3.3554465E-3,2.5495539E0,9.4684097E-4,7.800251E0,2.3545635E0,2.7329013E-2,7.936078E-2,1.3330507E-1,2.280786E-4,-1.6627893E-1,-1.7398403E-3,1.5601282E-1,-1.7571606E-2,-1.9188906E-3,-1.4096276E-1,6.3966364E-1,-1.7887503E-1,-3.5584542E-1,-4.5513656E-2,3.1085107E-1,7.0017934E-2,9.451959E-2,-1.9142255E-1],"split_indices":[19,20,5,1,20,16,11,3,2,4,3,8,0,19,29,0,0,0,0,0,0,0,0,0,0,0,0,0,0],"split_type":[0,0,0,0,0,0,0,0,0,0,0,0,0,0,0,0,0,0,0,0,0,0,0,0,0,0,0,0,0],"sum_hessian":[2.5076487E3,1.5727883E3,9.348603E2,8.690098E2,7.037785E2,6.4455956E1,8.704043E2,3.4965424E2,5.193556E2,6.71317E2,3.246144E1,4.472239E1,1.9733568E1,7.5942944E2,1.10974846E2,1.465581E2,2.0309615E2,2.1555748E2,3.037981E2,2.0618532E2,4.651317E2,1.5258804E1,1.7202639E1,3.4700836E1,1.0021554E1,6.15016E1,6.9792786E2,4.824366E1,6.273119E1],"tree_param":{"num_deleted":"0","num_feature":"30","num_nodes":"29","size_leaf_vector":"1"}},{"base_weights":[-1.555239E-2,-5.177222E-2,5.9550714E-1,4.041575E-2,-2.584619E-1,2.8183874E-1,8.9724594E-1,-5.1535094E-1,9.471888E-2,1.1740804E-1,-4.4807738E-1,-1.952625E-1,5.47629E-1,9.838046E-1,1.2535183E-1,-2.540068E-1,3.8055931E-3,8.186407E-3,1.1988689E-1,1.15273416E-1,-1.1578303E-1,-4.4406403E-2,-1.9513673E-1,8.188642E-2,2.6389143E-1,1.864144E-1,2.5861675E-1],"categories":[],"categories_nodes":[],"categories_segments":[],"categories_sizes":[],"default_left":[0,0,0,0,0,0,0,0,0,0,0,0,0,0,0,0,0,0,0,0,0,0,0,0,0,0,0],"id":13,"left_children":[1,3,5,7,9,11,13,15,17,19,21,-1,23,25,-1,-1,-1,-1,-1,-1,-1,-1,-1,-1,-1,-1,-1],"loss_changes":[5.4248463E1,4.409058E1,1.2980431E1,4.829389E1,5.0868866E1,1.9002234E1,2.3942528E0,3.7839886E1,3.476602E1,4.775232E1,4.2656525E1,0E0,6.014595E0,6.915245E-1,0E0,0E0,0E0,0E0,0E0,0E0,0E0,0E0,0E0,0E0,0E0,0E0,0E0],"parents":[2147483647,0,0,1,1,2,2,3,3,4,4,5,5,6,6,7,7,8,8,9,9,10,10,12,12,13,13],"right_children":[2,4,6,8,10,12,14,16,18,20,22,-1,24,26,-1,-1,-1,-1,-1,-1,-1,-1,-1,-1,-1,-1,-1],"split_conditions":[4.001876E-1,8.2338825E-3,6.1913513E1,1.9899234E0,2.4163582E0,-1.3479728E-1,1.0414916E-3,1.4252055E-3,7.9461175E-4,4.4604918E-1,-1.4536158E-3,-1.952625E-1,2.9486611E-2,-7.915224E-1,1.2535183E-1,-2.540068E-1,3.8055931E-3,8.186407E-3,1.1988689E-1,1.15273416E-1,-1.1578303E-1,-4.4406403E-2,-1.9513673E-1,8.188642E-2,2.6389143E-1,1.864144E-1,2.5861675E-1],"split_indices":[16,20,4,3,3,22,29,11,20,6,18,0,20,5,0,0,0,0,0,0,0,0,0,0,0,0,0],"split_type":[0,0,0,0,0,0,0,0,0,0,0,0,0,0,0,0,0,0,0,0,0,0,0,0,0,0,0],"sum_hessian":[2.4510059E3,2.3138584E3,1.3714746E2,1.6001476E3,7.1371075E2,6.724816E1,6.989929E1,1.4242754E2,1.45772E3,2.3931358E2,4.743972E2,1.3450663E1,5.3797497E1,5.7352207E1,1.2547087E1,7.328054E1,6.914699E1,1.2555334E3,2.0218658E2,1.5032413E2,8.8989456E1,2.6160114E2,2.1279604E2,3.7537457E1,1.6260042E1,1.0068562E1,4.7283646E1],"tree_param":{"num_deleted":"0","num_feature":"30","num_nodes":"27","size_leaf_vector":"1"}},{"base_weights":[-1.6355807E-2,-9.882126E-2,1.968923E-1,8.844876E-4,-3.4488901E-1,-2.9196212E-1,2.3105955E-1,2.8243035E-1,-1.7689484E-1,-3.2023627E-2,-5.2096164E-1,1.6152363E-1,7.96316E-1,1.3191938E-2,2.051507E-1,-1.6853754E-1,-1.4385717E-2,-8.2453646E-2,2.0249665E-1,-8.587287E-2,-2.744999E-1,-1.9173082E-2,9.123129E-2,2.9002824E-1,1.0449816E-1],"categories":[],"categories_nodes":[],"categories_segments":[],"categories_sizes":[],"default_left":[0,0,0,0,0,0,0,0,0,0,0,0,0,0,0,0,0,0,0,0,0,0,0,0,0],"id":14,"left_children":[1,3,5,7,9,-1,11,13,15,17,19,21,23,-1,-1,-1,-1,-1,-1,-1,-1,-1,-1,-1,-1],"loss_changes":[4.2462955E1,4.2722107E1,3.1401083E1,6.202484E1,2.7659023E1,0E0,2.582106E1,6.050166E1,4.5077744E1,4.534282E1,3.2902687E1,2.8344677E1,9.90321E0,0E0,0E0,0E0,0E0,0E0,0E0,0E0,0E0,0E0,0E0,0E0,0E0],"parents":[2147483647,0,0,1,1,2,2,3,3,4,4,6,6,7,7,8,8,9,9,10,10,11,11,12,12],"right_children":[2,4,6,8,10,-1,12,14,16,18,20,22,24,-1,-1,-1,-1,-1,-1,-1,-1,-1,-1,-1,-1],"split_conditions":[2.9725357E-5,8.2338825E-3,1.2161891E-4,8.357729E-4,2.3996763E0,-2.9196212E-1,8.764777E1,3.156312E-2,9.347103E0,2.255368E0,5.8808757E-5,1.599954E-2,9.1722445E-4,1.3191938E-2,2.051507E-1,-1.6853754E-1,-1.4385717E-2,-8.2453646E-2,2.0249665E-1,-8.587287E-2,-2.744999E-1,-1.9173082E-2,9.123129E-2,2.9002824E-1,1.0449816E-1],"split_indices":[23,20,17,2,3,0,4,19,4,3,21,22,29,0,0,0,0,0,0,0,0,0,0,0,0],"split_type":[0,0,0,0,0,0,0,0,0,0,0,0,0,0,0,0,0,0,0,0,0,0,0,0,0],"sum_hessian":[2.4145837E3,1.7412382E3,6.733457E2,1.2391356E3,5.0210248E2,1.6444302E1,6.5690137E2,4.7960574E2,7.595299E2,1.8081798E2,3.212845E2,5.8494727E2,7.195415E1,3.3408298E2,1.4552277E2,1.4701271E2,6.125172E2,1.3357846E2,4.723953E1,2.4571724E2,7.5567245E1,2.694116E2,3.1553564E2,3.6678207E1,3.5275944E1],"tree_param":{"num_deleted":"0","num_feature":"30","num_nodes":"25","size_leaf_vector":"1"}},{"base_weights":[-1.0162249E-2,1.05656534E-1,-1.293463E-1,1.7808592E-2,8.168691E-1,-2.4334578E-1,1.6575673E-1,-4.1029978E-1,1.141311E-1,1.5384773E0,-6.529052E-2,-3.222596E-1,3.1198674E-1,-3.211262E-1,5.112226E-1,-1.4209206E-1,2.0651579E-1,-4.7410768E-2,7.5789765E-2,6.8459195E-1,2.0923275E-1,-3.2104528E-1,7.8131214E-2,-2.3774514E-2,-1.3883181E-1,-1.336785E-1,1.7044608E-1,2.0940067E-1,-1.603102E-1,-2.705532E-1,1.5703328E-1],"categories":[],"categories_nodes":[],"categories_segments":[],"categories_sizes":[],"default_left":[0,0,0,0,0,0,0,0,0,0,0,0,0,0,0,0,0,0,0,0,0,0,0,0,0,0,0,0,0,0,0],"id":15,"left_children":[1,3,5,7,9,11,13,15,17,19,21,23,25,27,29,-1,-1,-1,-1,-1,-1,-1,-1,-1,-1,-1,-1,-1,-1,-1,-1],"loss_changes":[3.25529E1,7.4723785E1,3.9100327E1,4.389734E1,8.370412E1,3.674173E1,5.44764E1,3.821256E1,4.990021E1,6.0881058E1,2.7252296E1,3.886389E1,3.266372E1,4.9862198E1,3.5295467E1,0E0,0E0,0E0,0E0,0E0,0E0,0E0,0E0,0E0,0E0,0E0,0E0,0E0,0E0,0E0,0E0],"parents":[2147483647,0,0,1,1,2,2,3,3,4,4,5,5,6,6,7,7,8,8,9,9,10,10,11,11,12,12,13,13,14,14],"right_children":[2,4,6,8,10,12,14,16,18,20,22,24,26,28,30,-1,-1,-1,-1,-1,-1,-1,-1,-1,-1,-1,-1,-1,-1,-1,-1],"split_conditions":[5.301064E-4,1.0657021E-3,5.13485E0,3.1256133E-1,-9.19389E-1,1.5387312E0,-8.661193E-2,8.4832214E-2,-8.857123E-17,1.2764455E-3,-8.310192E-2,1.13521E-3,3.0572025E-6,-3.2056507E-2,2.8137014E-5,-1.4209206E-1,2.0651579E-1,-4.7410768E-2,7.5789765E-2,6.8459195E-1,2.0923275E-1,-3.2104528E-1,7.8131214E-2,-2.3774514E-2,-1.3883181E-1,-1.336785E-1,1.7044608E-1,2.0940067E-1,-1.603102E-1,-2.705532E-1,1.5703328E-1],"split_indices":[27,29,3,6,12,14,9,20,1,29,28,25,23,16,17,0,0,0,0,0,0,0,0,0,0,0,0,0,0,0,0],"split_type":[0,0,0,0,0,0,0,0,0,0,0,0,0,0,0,0,0,0,0,0,0,0,0,0,0,0,0,0,0,0,0],"sum_hessian":[2.358186E3,1.1959681E3,1.162218E3,1.0644874E3,1.3148071E2,8.3836285E2,3.238552E2,1.9551062E2,8.6897675E2,7.232297E1,5.915774E1,7.340562E2,1.0430666E2,1.3441316E2,1.8944203E2,1.7334978E2,2.216084E1,3.3331555E2,5.356612E2,2.6682774E1,4.5640198E1,1.3999435E1,4.5158306E1,3.7174316E2,3.6231305E2,3.1705809E1,7.260085E1,2.9093899E1,1.0531926E2,1.2947942E1,1.7649408E2],"tree_param":{"num_deleted":"0","num_feature":"30","num_nodes":"31","size_leaf_vector":"1"}},{"base_weights":[-1.5717754E-2,-9.026412E-1,3.926642E-3,-1.2445165E0,-4.5191947E-2,-3.7272748E-1,3.608163E-2,-4.0182877E-1,-1.052398E0,-7.376648E-1,5.999709E-1,6.2465393E-3,4.3647867E-1,-3.207909E-1,-1.9205426E-1,-2.8719833E-1,-3.7637677E-2,-1.725862E-1,2.7090013E-1,1.999199E-2,-4.225794E-2,1.6348155E-1,-1.3023996E-2],"categories":[],"categories_nodes":[],"categories_segments":[],"categories_sizes":[],"default_left":[0,0,0,0,0,0,0,0,0,0,0,0,0,0,0,0,0,0,0,0,0,0,0],"id":16,"left_children":[1,3,5,7,-1,9,11,-1,13,15,17,19,21,-1,-1,-1,-1,-1,-1,-1,-1,-1,-1],"loss_changes":[4.0578026E1,1.2452564E1,2.7592682E1,2.3870354E0,0E0,6.3610504E1,2.5075066E1,0E0,1.4682503E0,3.1451477E1,3.0511505E1,2.52427E1,1.546595E1,0E0,0E0,0E0,0E0,0E0,0E0,0E0,0E0,0E0,0E0],"parents":[2147483647,0,0,1,1,2,2,3,3,5,5,6,6,8,8,9,9,10,10,11,11,12,12],"right_children":[2,4,6,8,-1,10,12,-1,14,16,18,20,22,-1,-1,-1,-1,-1,-1,-1,-1,-1,-1],"split_conditions":[-1.3995144E0,1.5804735E-1,-8.6235404E-1,-1.6527213E-2,-4.5191947E-2,7.187748E-30,2.5941355E1,-4.0182877E-1,1.4159897E-3,7.820771E-16,7.4554987E-6,7.7174404E-3,1.0190211E-2,-3.207909E-1,-1.9205426E-1,-2.8719833E-1,-3.7637677E-2,-1.725862E-1,2.7090013E-1,1.999199E-2,-4.225794E-2,1.6348155E-1,-1.3023996E-2],"split_indices":[26,14,5,20,0,13,19,0,29,1,21,20,24,0,0,0,0,0,0,0,0,0,0],"split_type":[0,0,0,0,0,0,0,0,0,0,0,0,0,0,0,0,0,0,0,0,0,0,0],"sum_hessian":[2.3286301E3,5.046154E1,2.2781685E3,3.4241684E1,1.6219852E1,1.7918434E2,2.0989841E3,1.1850712E1,2.2390974E1,1.303005E2,4.888384E1,1.9534323E3,1.4555186E2,1.2352334E1,1.003864E1,7.6633644E1,5.366686E1,1.3325883E1,3.5557957E1,1.3750883E3,5.783441E2,1.0072663E2,4.4825233E1],"tree_param":{"num_deleted":"0","num_feature":"30","num_nodes":"23","size_leaf_vector":"1"}},{"base_weights":[-6.3596796E-3,2.8995225E-1,-5.579296E-2,1.1334174E0,5.375427E-3,-1.3920037E-1,1.1813967E-1,2.1330016E0,4.9961123E-1,2.467579E-1,-7.007901E-1,-1.9578147E-1,3.5374087E-1,7.1328552E-3,5.470589E-1,1.5362284E-1,8.4198475E-1,-6.971831E-2,4.1251916E-1,1.5556878E-1,-9.559236E-2,-2.861647E-1,1.4069398E-1,-6.8291746E-2,6.1417587E-2,1.7943618E-1,-2.593334E-1,-1.3834818E-2,2.0257767E-1,3.0635682E-1,1.9990556E-2],"categories":[],"categories_nodes":[],"categories_segments":[],"categories_sizes":[],"default_left":[0,0,0,0,0,0,0,0,0,0,0,0,0,0,0,0,0,0,0,0,0,0,0,0,0,0,0,0,0,0,0],"id":17,"left_children":[1,3,5,7,9,11,13,15,17,19,21,23,25,27,29,-1,-1,-1,-1,-1,-1,-1,-1,-1,-1,-1,-1,-1,-1,-1,-1],"loss_changes":[3.3672447E1,7.888985E1,2.8581684E1,5.2528366E1,4.189277E1,3.714053E1,3.0402834E1,6.0327667E1,4.5453644E1,4.3272575E1,3.5116135E1,4.0807003E1,6.942706E1,2.5457626E1,4.1596558E1,0E0,0E0,0E0,0E0,0E0,0E0,0E0,0E0,0E0,0E0,0E0,0E0,0E0,0E0,0E0,0E0],"parents":[2147483647,0,0,1,1,2,2,3,3,4,4,5,5,6,6,7,7,8,8,9,9,10,10,11,11,12,12,13,13,14,14],"right_children":[2,4,6,8,10,12,14,16,18,20,22,24,26,28,30,-1,-1,-1,-1,-1,-1,-1,-1,-1,-1,-1,-1,-1,-1,-1,-1],"split_conditions":[1.2774141E-30,2.6292723E-6,2.0345773E-5,-7.0683855E-1,1.07349815E-5,1.2904126E-4,9.680377E-21,4.0158266E-6,6.429747E-4,6.6053644E-3,4.4962967E1,5.1542305E1,1.561271E-5,6.8439984E0,4.0114466E-7,1.5362284E-1,8.4198475E-1,-6.971831E-2,4.1251916E-1,1.5556878E-1,-9.559236E-2,-2.861647E-1,1.4069398E-1,-6.8291746E-2,6.1417587E-2,1.7943618E-1,-2.593334E-1,-1.3834818E-2,2.0257767E-1,3.0635682E-1,1.9990556E-2],"split_indices":[13,21,23,5,15,21,13,15,17,24,4,4,15,3,13,0,0,0,0,0,0,0,0,0,0,0,0,0,0,0,0],"split_type":[0,0,0,0,0,0,0,0,0,0,0,0,0,0,0,0,0,0,0,0,0,0,0,0,0,0,0,0,0,0,0],"sum_hessian":[2.2987563E3,3.2866043E2,1.970096E3,8.29108E1,2.4574965E2,1.3315698E3,6.38526E2,3.217055E1,5.0740246E1,1.8314874E2,6.2600906E1,1.1944701E3,1.3709978E2,5.0725165E2,1.3127437E2,1.4429516E1,1.7741034E1,3.0261347E1,2.0478899E1,1.1469347E2,6.845528E1,4.632837E1,1.6272535E1,1.01631714E3,1.7815295E2,1.0866654E2,2.8433235E1,4.7064172E2,3.6609913E1,5.3528934E1,7.774544E1],"tree_param":{"num_deleted":"0","num_feature":"30","num_nodes":"31","size_leaf_vector":"1"}},{"base_weights":[-1.5533439E-2,3.9943674E-1,-2.2791443E-2,-4.3737388E-1,1.0734611E-2,-6.368653E-1,9.6842223E-1,2.806714E-2,-9.3513215E-1,-1.9136257E-1,2.8157932E-1,8.230419E-2,4.1047534E-1,-7.287464E-2,1.7589357E-2,-2.9308933E-1,-7.338569E-2],"categories":[],"categories_nodes":[],"categories_segments":[],"categories_sizes":[],"default_left":[0,0,0,0,0,0,0,0,0,0,0,0,0,0,0,0,0],"id":18,"left_children":[1,-1,3,5,7,9,11,13,15,-1,-1,-1,-1,-1,-1,-1,-1],"loss_changes":[2.6512018E1,0E0,3.1328459E1,4.7294044E1,3.4186348E1,3.3484425E1,9.020447E0,2.7673435E1,5.709503E0,0E0,0E0,0E0,0E0,0E0,0E0,0E0,0E0],"parents":[2147483647,0,0,2,2,3,3,4,4,5,5,6,6,7,7,8,8],"right_children":[2,-1,4,6,8,10,12,14,16,-1,-1,-1,-1,-1,-1,-1,-1],"split_conditions":[4.745896E-5,3.9943674E-1,-8.6235404E-1,1.6940659E-21,7.4372515E-3,5.3996397E-3,3.4258664E-3,2.734275E-5,7.6210425E-5,-1.9136257E-1,2.8157932E-1,8.230419E-2,4.1047534E-1,-7.287464E-2,1.7589357E-2,-2.9308933E-1,-7.338569E-2],"split_indices":[11,0,5,13,11,11,20,17,21,0,0,0,0,0,0,0,0],"split_type":[0,0,0,0,0,0,0,0,0,0,0,0,0,0,0,0,0],"sum_hessian":[2.2638855E3,1.0137982E1,2.2537476E3,1.6862334E2,2.0851243E3,1.476697E2,2.0953638E1,2.0476053E3,3.75189E1,1.3763368E2,1.0036016E1,1.0752114E1,1.0201523E1,2.3929831E2,1.808307E3,2.7388527E1,1.0130375E1],"tree_param":{"num_deleted":"0","num_feature":"30","num_nodes":"17","size_leaf_vector":"1"}},{"base_weights":[-7.7336133E-3,-1.47731835E-2,3.3605182E-1,-6.34835E-1,5.316088E-4,-1.1612692E0,1.7213175E-1,1.099313E0,-2.7191112E-2,-1.9992356E-1,-3.3592018E-1,5.463094E-1,8.432094E-2,-1.6964926E-1,-3.1412358E-3],"categories":[],"categories_nodes":[],"categories_segments":[],"categories_sizes":[],"default_left":[0,0,0,0,0,0,0,0,0,0,0,0,0,0,0],"id":19,"left_children":[1,3,-1,5,7,9,-1,11,13,-1,-1,-1,-1,-1,-1],"loss_changes":[2.1418953E1,2.1248365E1,0E0,3.75757E1,6.655523E1,2.5442314E0,0E0,4.4492157E1,2.0303782E1,0E0,0E0,0E0,0E0,0E0,0E0],"parents":[2147483647,0,0,1,1,3,3,4,4,5,5,7,7,8,8],"right_children":[2,4,-1,6,8,10,-1,12,14,-1,-1,-1,-1,-1,-1],"split_conditions":[2.0358945E-1,-1.8209597E-1,3.3605182E-1,1.3093305E-4,-1.6148676E-1,6.926784E-6,1.7213175E-1,4.303406E-6,-1.02884434E-1,-1.9992356E-1,-3.3592018E-1,5.463094E-1,8.432094E-2,-1.6964926E-1,-3.1412358E-3],"split_indices":[1,8,0,23,8,21,0,21,16,0,0,0,0,0,0],"split_type":[0,0,0,0,0,0,0,0,0,0,0,0,0,0,0],"sum_hessian":[2.2502495E3,2.238595E3,1.1654685E1,5.3927147E1,2.1846677E3,3.8581238E1,1.5345909E1,5.3765633E1,2.130902E3,1.2941421E1,2.5639818E1,2.2169754E1,3.1595877E1,4.6791496E1,2.0841106E3],"tree_param":{"num_deleted":"0","num_feature":"30","num_nodes":"15","size_leaf_vector":"1"}},{"base_weights":[-9.487347E-3,-7.8812385E-1,5.988959E-3,6.8455726E-2,-1.1245643E0,2.9702796E-2,-4.2929727E-1,-3.8193524E-1,-9.4705963E-1,1.1666174E-2,6.29618E-1,-3.4705244E-3,-1.2349943E0,-2.8931025E-1,-1.6821162E-1,-8.706261E-2,1.0657204E-2,3.3729652E-1,-1.21286124E-1,-1.24226086E-1,2.586707E-1,-2.6679087E-1,-4.272026E-1],"categories":[],"categories_nodes":[],"categories_segments":[],"categories_sizes":[],"default_left":[0,0,0,0,0,0,0,0,0,0,0,0,0,0,0,0,0,0,0,0,0,0,0],"id":20,"left_children":[1,3,5,-1,7,9,11,-1,13,15,17,19,21,-1,-1,-1,-1,-1,-1,-1,-1,-1,-1],"loss_changes":[2.704577E1,1.5630308E1,2.271234E1,0E0,2.377491E0,2.257859E1,3.899845E1,0E0,1.3291836E0,2.257471E1,4.885639E1,3.8100353E1,3.1259346E0,0E0,0E0,0E0,0E0,0E0,0E0,0E0,0E0,0E0,0E0],"parents":[2147483647,0,0,1,1,2,2,4,4,5,5,6,6,8,8,9,9,10,10,11,11,12,12],"right_children":[2,4,6,-1,8,10,12,-1,14,16,18,20,22,-1,-1,-1,-1,-1,-1,-1,-1,-1,-1],"split_conditions":[-1.3995144E0,-2.904969E-2,5.5565746E-3,6.8455726E-2,-4.363553E-2,4.352743E-3,-6.968634E-4,-3.8193524E-1,-9.1094285E-2,-3.8842127E-2,1.1582818E-5,1.2047616E-2,6.2849805E-2,-2.8931025E-1,-1.6821162E-1,-8.706261E-2,1.0657204E-2,3.3729652E-1,-1.21286124E-1,-1.24226086E-1,2.586707E-1,-2.6679087E-1,-4.272026E-1],"split_indices":[26,16,27,0,10,27,18,0,12,16,15,27,18,0,0,0,0,0,0,0,0,0,0],"split_type":[0,0,0,0,0,0,0,0,0,0,0,0,0,0,0,0,0,0,0,0,0,0,0],"sum_hessian":[2.243939E3,4.3734547E1,2.2002043E3,1.0520538E1,3.321401E1,2.0865376E3,1.1366664E2,1.0149012E1,2.3064997E1,2.0256401E3,6.0897625E1,7.436573E1,3.9300907E1,1.3052234E1,1.0012763E1,1.6045078E2,1.8651893E3,3.701005E1,2.3887571E1,5.0408703E1,2.3957027E1,2.9024847E1,1.0276058E1],"tree_param":{"num_deleted":"0","num_feature":"30","num_nodes":"23","size_leaf_vector":"1"}},{"base_weights":[-1.1107952E-2,-4.204213E-1,2.2041759E-2,-8.0722594E-1,4.5223087E-1,-3.1356923E-2,2.0555691E-1,2.353125E-2,-9.271143E-1,-6.498545E-1,1.5784847E0,-9.57979E-1,-2.4722896E-3,-1.3898903E-1,3.6694425E-1,-2.5872746E-1,1.2993313E-4,-3.0762225E-1,6.140857E-2,6.635201E-1,1.8304893E-1,-2.9975805E-1,-2.2494914E-2,1.1638609E-2,-1.4081118E-1,-2.4786332E-1,3.346713E-2,1.3834438E-1,-7.8761615E-2],"categories":[],"categories_nodes":[],"categories_segments":[],"categories_sizes":[],"default_left":[0,0,0,0,0,0,0,0,0,0,0,0,0,0,0,0,0,0,0,0,0,0,0,0,0,0,0,0,0],"id":21,"left_children":[1,3,5,7,9,11,13,-1,15,17,19,21,23,25,27,-1,-1,-1,-1,-1,-1,-1,-1,-1,-1,-1,-1,-1,-1],"loss_changes":[3.0426218E1,5.6709496E1,2.0327364E1,1.2581215E1,6.404739E1,4.300492E1,2.5998384E1,0E0,1.0276062E1,1.3563589E1,2.3227856E1,1.0160389E1,4.284075E1,3.4693993E1,4.048466E1,0E0,0E0,0E0,0E0,0E0,0E0,0E0,0E0,0E0,0E0,0E0,0E0,0E0,0E0],"parents":[2147483647,0,0,1,1,2,2,3,3,4,4,5,5,6,6,8,8,9,9,10,10,11,11,12,12,13,13,14,14],"right_children":[2,4,6,8,10,12,14,-1,16,18,20,22,24,26,28,-1,-1,-1,-1,-1,-1,-1,-1,-1,-1,-1,-1,-1,-1],"split_conditions":[-4.1380054E-1,2.5918573E-1,1.599954E-2,-1.7921127E0,6.276762E-1,1.0673777E-4,3.263976E-1,2.353125E-2,7.6142676E-2,5.049102E-1,4.264967E-1,3.012283E-2,3.109138E-3,-2.7445532E-2,2.1400934E-2,-2.5872746E-1,1.2993313E-4,-3.0762225E-1,6.140857E-2,6.635201E-1,1.8304893E-1,-2.9975805E-1,-2.2494914E-2,1.1638609E-2,-1.4081118E-1,-2.4786332E-1,3.346713E-2,1.3834438E-1,-7.8761615E-2],"split_indices":[26,28,22,28,0,25,7,0,16,19,28,24,29,16,24,0,0,0,0,0,0,0,0,0,0,0,0,0,0],"split_type":[0,0,0,0,0,0,0,0,0,0,0,0,0,0,0,0,0,0,0,0,0,0,0,0,0,0,0,0,0],"sum_hessian":[2.2421836E3,1.6799149E2,2.0741921E3,1.1639972E2,5.159176E1,1.6066744E3,4.6751773E2,1.3662507E1,1.0273721E2,2.6074636E1,2.5517124E1,4.8566807E1,1.5581077E3,1.4912868E2,3.1838907E2,9.2043755E1,1.0693459E1,1.5819699E1,1.0254938E1,1.1235093E1,1.428203E1,3.800872E1,1.0558084E1,1.432835E3,1.2527272E2,3.6161358E1,1.12967316E2,2.5003993E2,6.834914E1],"tree_param":{"num_deleted":"0","num_feature":"30","num_nodes":"29","size_leaf_vector":"1"}},{"base_weights":[-3.309917E-3,9.0719804E-2,-1.0586246E-1,3.9594423E-2,8.266005E-1,2.1804832E-1,-1.8664256E-1,-4.6385285E-1,9.922841E-2,2.8450176E-1,7.338781E-1,-1.217246E0,3.8521358E-1,-3.0859533E-1,1.13597065E-1,5.6090068E-2,-2.3298466E-1,1.2072028E-1,-1.6452974E-3,-1.7603895E-1,2.4689917E-1,-2.2803123E-1,-3.7123543E-1,2.728194E-1,1.2762033E-2,4.9406126E-2,-1.0287804E-1,-3.0271977E-3,3.3232588E-1],"categories":[],"categories_nodes":[],"categories_segments":[],"categories_sizes":[],"default_left":[0,0,0,0,0,0,0,0,0,0,0,0,0,0,0,0,0,0,0,0,0,0,0,0,0,0,0,0,0],"id":22,"left_children":[1,3,5,7,9,11,13,15,17,19,-1,21,23,25,27,-1,-1,-1,-1,-1,-1,-1,-1,-1,-1,-1,-1,-1,-1],"loss_changes":[2.1429295E1,4.3614906E1,2.7813343E1,3.2544266E1,8.609378E1,5.090934E1,3.1152224E1,3.6984352E1,3.9344646E1,4.1648964E1,0E0,1.8075562E0,4.4837715E1,3.152251E1,3.756331E1,0E0,0E0,0E0,0E0,0E0,0E0,0E0,0E0,0E0,0E0,0E0,0E0,0E0,0E0],"parents":[2147483647,0,0,1,1,2,2,3,3,4,4,5,5,6,6,7,7,8,8,9,9,11,11,12,12,13,13,14,14],"right_children":[2,4,6,8,10,12,14,16,18,20,-1,22,24,26,28,-1,-1,-1,-1,-1,-1,-1,-1,-1,-1,-1,-1,-1,-1],"split_conditions":[5.301064E-4,4.969236E-3,2.9448465E-1,-4.6699256E-1,5.0360864E-1,3.206191E-4,-6.9324E-3,1.850326E-6,-4.6447936E-2,5.165003E-2,7.338781E-1,1.5681115E-3,1.9930759E-4,3.1467865E-4,4.070579E0,5.6090068E-2,-2.3298466E-1,1.2072028E-1,-1.6452974E-3,-1.7603895E-1,2.4689917E-1,-2.2803123E-1,-3.7123543E-1,2.728194E-1,1.2762033E-2,4.9406126E-2,-1.0287804E-1,-3.0271977E-3,3.3232588E-1],"split_indices":[27,25,6,28,6,11,9,15,24,19,0,27,17,11,14,0,0,0,0,0,0,0,0,0,0,0,0,0,0],"split_type":[0,0,0,0,0,0,0,0,0,0,0,0,0,0,0,0,0,0,0,0,0,0,0,0,0,0,0,0,0],"sum_hessian":[2.2221716E3,1.1592452E3,1.0629263E3,1.0839414E3,7.530382E1,2.121644E2,8.507619E2,1.1479243E2,9.69149E2,5.9905994E1,1.5397824E1,2.2131115E1,1.9003328E2,6.0501965E2,2.4574222E2,4.6467587E1,6.832484E1,2.0951062E2,7.5963837E2,2.4895672E1,3.5010323E1,1.0346592E1,1.1784523E1,6.1044476E1,1.2898882E2,1.02217476E2,5.028022E2,2.2271162E2,2.3030584E1],"tree_param":{"num_deleted":"0","num_feature":"30","num_nodes":"29","size_leaf_vector":"1"}},{"base_weights":[-8.322193E-3,-2.6845637E-1,-9.08765E-4,-1.4168589E-2,6.08758E-1,8.4536115E-4,-5.6604874E-1,9.251566E-1,4.2052504E-2,3.61234E-3,-2.094716E-1,7.984217E-3,-2.6187363E-1,2.6791015E-1,1.686085E-1],"categories":[],"categories_nodes":[],"categories_segments":[],"categories_sizes":[],"default_left":[0,0,0,0,0,0,0,0,0,0,0,0,0,0,0],"id":23,"left_children":[1,-1,3,5,7,9,11,13,-1,-1,-1,-1,-1,-1,-1],"loss_changes":[1.7512598E1,0E0,1.779805E1,1.7856443E1,6.5310307E0,2.3934837E1,1.6434172E1,1.0012226E0,0E0,0E0,0E0,0E0,0E0,0E0,0E0],"parents":[2147483647,0,0,2,2,3,3,4,4,5,5,6,6,7,7],"right_children":[2,-1,4,6,8,10,12,14,-1,-1,-1,-1,-1,-1,-1],"split_conditions":[-6.530757E0,-2.6845637E-1,3.6914E2,6.50026E-3,7.02548E-30,7.4372515E-3,2.33961E1,-1.0923287E-1,4.2052504E-2,3.61234E-3,-2.094716E-1,7.984217E-3,-2.6187363E-1,2.6791015E-1,1.686085E-1],"split_indices":[28,0,19,25,13,11,4,22,0,0,0,0,0,0,0],"split_type":[0,0,0,0,0,0,0,0,0,0,0,0,0,0,0],"sum_hessian":[2.21675E3,1.5314721E1,2.2014353E3,2.1545786E3,4.685681E1,2.0975115E3,5.7067127E1,2.726795E1,1.9588861E1,2.0640361E3,3.347536E1,2.545085E1,3.1616278E1,1.720615E1,1.0061799E1],"tree_param":{"num_deleted":"0","num_feature":"30","num_nodes":"15","size_leaf_vector":"1"}},{"base_weights":[-6.6490937E-3,-7.068528E-1,5.199876E-3,-1.1560681E0,1.7507413E-2,2.2957878E-2,-4.5024118E-1,-3.0892786E-1,-2.735977E-1,2.769475E-1,-1.2642537E-2,-1.2313982E0,-1.0556154E-1,5.1991075E-1,3.9735876E-2,7.071024E-3,-6.8611376E-2,-2.5928807E-1,-3.772547E-1,-1.6257454E-1,1.6836481E-1],"categories":[],"categories_nodes":[],"categories_segments":[],"categories_sizes":[],"default_left":[0,0,0,0,0,0,0,0,0,0,0,0,0,0,0,0,0,0,0,0,0],"id":24,"left_children":[1,3,5,7,-1,9,11,-1,-1,13,15,17,19,-1,-1,-1,-1,-1,-1,-1,-1],"loss_changes":[1.82811E1,1.2798641E1,1.7520613E1,1.14141464E-1,0E0,1.8853699E1,2.1887312E1,0E0,0E0,5.4527832E1,1.9594603E1,1.3420906E0,2.39405E1,0E0,0E0,0E0,0E0,0E0,0E0,0E0,0E0],"parents":[2147483647,0,0,1,1,2,2,3,3,5,5,6,6,9,9,10,10,11,11,12,12],"right_children":[2,4,6,8,-1,10,12,-1,-1,14,16,18,20,-1,-1,-1,-1,-1,-1,-1,-1],"split_conditions":[1.1991644E-7,1.21747985E-1,1.16619505E-1,-5.401977E-3,1.7507413E-2,1.0909887E-30,-2.061119E-1,-3.0892786E-1,-2.735977E-1,3.0727983E-7,7.96019E-3,1.1342779E-3,1.2087687E-1,5.1991075E-1,3.9735876E-2,7.071024E-3,-6.8611376E-2,-2.5928807E-1,-3.772547E-1,-1.6257454E-1,1.6836481E-1],"split_indices":[21,19,24,18,0,13,28,0,0,21,9,27,26,0,0,0,0,0,0,0,0],"split_type":[0,0,0,0,0,0,0,0,0,0,0,0,0,0,0,0,0,0,0,0,0],"sum_hessian":[2.2028381E3,3.6659706E1,2.1661785E3,2.3230257E1,1.342945E1,2.0848918E3,8.128654E1,1.0122234E1,1.3108022E1,2.5631165E2,1.8285803E3,2.4884176E1,5.640236E1,1.5746084E1,2.4056557E2,1.5813633E3,2.4721707E2,1.464537E1,1.0238806E1,3.319407E1,2.3208288E1],"tree_param":{"num_deleted":"0","num_feature":"30","num_nodes":"21","size_leaf_vector":"1"}},{"base_weights":[-9.676478E-3,5.167554E-1,-2.2038355E-2,1.438206E0,-8.3531076E-1,-2.98606E-1,1.7636824E-2,1.5417205E-1,7.18698E-1,-2.7953655E-1,-1.3652064E-1,7.3763776E-1,-4.5423296E-1,3.683487E-1,8.579647E-3,7.192672E-2,4.3276075E-1,1.395796E-1,-1.4281292E-1,-1.1299855E-1,9.747358E-3],"categories":[],"categories_nodes":[],"categories_segments":[],"categories_sizes":[],"default_left":[0,0,0,0,0,0,0,0,0,0,0,0,0,0,0,0,0,0,0,0,0],"id":25,"left_children":[1,3,5,7,9,11,13,-1,-1,-1,-1,15,17,-1,19,-1,-1,-1,-1,-1,-1],"loss_changes":[1.4318034E1,6.288951E1,2.3588219E1,3.5426064E1,1.6732664E0,4.3493977E1,2.4788898E1,0E0,0E0,0E0,0E0,1.5739344E1,2.7784683E1,0E0,2.616722E1,0E0,0E0,0E0,0E0,0E0,0E0],"parents":[2147483647,0,0,1,1,2,2,3,3,4,4,5,5,6,6,11,11,12,12,14,14],"right_children":[2,4,6,8,10,12,14,-1,-1,-1,-1,16,18,-1,20,-1,-1,-1,-1,-1,-1],"split_conditions":[2.1275396E-8,-5.020522E-3,4.2950225E-7,4.7252008E-5,-7.969546E-4,-6.252146E-2,4.499032E-7,1.5417205E-1,7.18698E-1,-2.7953655E-1,-1.3652064E-1,-7.0002764E-2,-7.9085404E-1,3.683487E-1,-7.7264494E-1,7.192672E-2,4.3276075E-1,1.395796E-1,-1.4281292E-1,-1.1299855E-1,9.747358E-3],"split_indices":[15,18,15,21,26,18,15,0,0,0,0,18,14,0,28,0,0,0,0,0,0],"split_type":[0,0,0,0,0,0,0,0,0,0,0,0,0,0,0,0,0,0,0,0,0],"sum_hessian":[2.1999749E3,5.0471123E1,2.1495037E3,3.001631E1,2.0454813E1,2.6967953E2,1.8798241E3,1.9097137E1,1.0919173E1,1.0337685E1,1.0117129E1,3.5211124E1,2.3446841E2,1.1621671E1,1.8682024E3,2.4236362E1,1.0974764E1,2.428792E1,2.101805E2,1.1570517E2,1.7524973E3],"tree_param":{"num_deleted":"0","num_feature":"30","num_nodes":"21","size_leaf_vector":"1"}},{"base_weights":[-8.266792E-3,-2.647428E-2,3.534213E-1,-7.85563E-3,-5.0200623E-1,1.143053E0,-5.835139E-2,1.0399917E-2,-7.3222154E-1,2.0322186E-1,-7.707024E-1,8.418249E-2,1.6736228E0,-5.521734E-1,7.558982E-1,-2.9011706E-3,1.7978325E-1,-2.8701767E-1,4.967536E-2,1.21258155E-1,-2.5737798E-1,5.7537425E-1,2.6245436E-1,1.0173662E-1,-2.475805E-1,4.777169E-1,-2.3050317E-1],"categories":[],"categories_nodes":[],"categories_segments":[],"categories_sizes":[],"default_left":[0,0,0,0,0,0,0,0,0,0,0,0,0,0,0,0,0,0,0,0,0,0,0,0,0,0,0],"id":26,"left_children":[1,3,5,7,9,11,13,15,17,-1,19,-1,21,23,25,-1,-1,-1,-1,-1,-1,-1,-1,-1,-1,-1,-1],"loss_changes":[1.4400521E1,1.8432703E1,3.407919E1,2.649676E1,2.771583E1,1.5365654E1,2.7698732E1,3.0479921E1,1.907108E1,0E0,2.1170502E1,0E0,8.4843025E0,1.8022419E1,5.0396473E1,0E0,0E0,0E0,0E0,0E0,0E0,0E0,0E0,0E0,0E0,0E0,0E0],"parents":[2147483647,0,0,1,1,2,2,3,3,4,4,5,5,6,6,7,7,8,8,10,10,12,12,13,13,14,14],"right_children":[2,4,6,8,10,12,14,16,18,-1,20,-1,22,24,26,-1,-1,-1,-1,-1,-1,-1,-1,-1,-1,-1,-1],"split_conditions":[8.764777E1,5.2673803E-3,1.1865841E-3,3.48348E-2,-1.0278655E-1,-5.6369156E-1,7.551547E-3,4.0741586E-3,7.650182E-2,2.0322186E-1,4.9401494E-3,8.418249E-2,2.738976E-2,-2.9324207E-2,-2.164314E-3,-2.9011706E-3,1.7978325E-1,-2.8701767E-1,4.967536E-2,1.21258155E-1,-2.5737798E-1,5.7537425E-1,2.6245436E-1,1.0173662E-1,-2.475805E-1,4.777169E-1,-2.3050317E-1],"split_indices":[4,27,29,9,18,5,9,27,9,0,19,0,18,18,20,0,0,0,0,0,0,0,0,0,0,0,0],"split_type":[0,0,0,0,0,0,0,0,0,0,0,0,0,0,0,0,0,0,0,0,0,0,0,0,0,0,0],"sum_hessian":[2.186579E3,2.0817876E3,1.047915E2,2.0033545E3,7.843314E1,3.5918427E1,6.887307E1,1.9541039E3,4.925068E1,1.33067255E1,6.512642E1,1.4256587E1,2.1661839E1,4.287392E1,2.599915E1,1.8952571E3,5.884677E1,3.4045013E1,1.5205668E1,1.112747E1,5.399895E1,1.0793873E1,1.0867966E1,1.3442558E1,2.9431364E1,1.5400064E1,1.0599085E1],"tree_param":{"num_deleted":"0","num_feature":"30","num_nodes":"27","size_leaf_vector":"1"}},{"base_weights":[-5.0768526E-3,-4.313671E-2,1.9878887E-1,-3.5337618E-1,1.8532569E-2,4.9535474E-1,-5.5748574E-2,-1.782189E-1,-1.1222378E0,3.267961E-1,2.1462885E-3,3.6796725E-1,3.6035463E-1,3.4716353E-1,-3.9649755E-1,-1.783227E-1,2.7995804E-2,-1.6499253E-1,-3.0554366E-1,1.1917745E-2,-1.1822027E-1,-1.9148044E-2,2.0103239E-1,3.2708737E-1,1.1779941E-2,-2.0873973E-1,7.8611724E-2],"categories":[],"categories_nodes":[],"categories_segments":[],"categories_sizes":[],"default_left":[0,0,0,0,0,0,0,0,0,0,0,0,0,0,0,0,0,0,0,0,0,0,0,0,0,0,0],"id":27,"left_children":[1,3,5,7,9,11,13,15,17,-1,19,-1,21,23,25,-1,-1,-1,-1,-1,-1,-1,-1,-1,-1,-1,-1],"loss_changes":[1.6848604E1,3.501004E1,2.578838E1,4.0863026E1,3.2233883E1,2.0801289E1,2.5239838E1,3.8377205E1,2.5998611E0,0E0,3.259527E1,0E0,2.688215E1,2.4291162E1,3.1050322E1,0E0,0E0,0E0,0E0,0E0,0E0,0E0,0E0,0E0,0E0,0E0,0E0],"parents":[2147483647,0,0,1,1,2,2,3,3,4,4,5,5,6,6,7,7,8,8,10,10,12,12,13,13,14,14],"right_children":[2,4,6,8,10,12,14,16,18,-1,20,-1,22,24,26,-1,-1,-1,-1,-1,-1,-1,-1,-1,-1,-1,-1],"split_conditions":[2.761824E-2,7.926479E-5,2.0304874E-4,1.0986563E-5,8.284172E-5,3.488666E-2,-1.616039E-2,2.0210378E0,1.3488755E-30,3.267961E-1,1.2193316E-2,3.6796725E-1,1.2620704E-3,1.5779658E-1,1.3872898E-1,-1.783227E-1,2.7995804E-2,-1.6499253E-1,-3.0554366E-1,1.1917745E-2,-1.1822027E-1,-1.9148044E-2,2.0103239E-1,3.2708737E-1,1.1779941E-2,-2.0873973E-1,7.8611724E-2],"split_indices":[16,29,29,15,29,16,20,3,13,0,16,0,11,19,16,0,0,0,0,0,0,0,0,0,0,0,0],"split_type":[0,0,0,0,0,0,0,0,0,0,0,0,0,0,0,0,0,0,0,0,0,0,0,0,0,0,0],"sum_hessian":[2.17137E3,1.8297786E3,3.415916E2,3.034169E2,1.5263616E3,1.5777466E2,1.8381694E2,2.4712206E2,5.6294834E1,1.9163494E1,1.5071981E3,1.916061E1,1.3861404E2,8.422271E1,9.959424E1,8.6901596E1,1.6022046E2,1.0010996E1,4.628384E1,1.3753911E3,1.3180707E2,6.984176E1,6.877229E1,2.0034576E1,6.418813E1,6.1604225E1,3.7990013E1],"tree_param":{"num_deleted":"0","num_feature":"30","num_nodes":"27","size_leaf_vector":"1"}},{"base_weights":[-8.310592E-3,-1.1625808E-1,4.7629137E-2,-4.2162338E-1,7.965976E-2,4.585243E-1,-1.2648132E-2,-6.229858E-1,1.7262608E-1,1.3598679E-1,-1.0676204E0,8.497284E-1,-4.3441838E-1,-6.28394E-1,3.0677496E-2,-9.2650875E-2,-2.5714475E-1,-1.3430512E-1,3.9324632E-1,-1.2506391E-1,5.9417047E-2,-1.4755447E-1,-3.7675175E-1,5.6656563E-1,1.567632E-1,3.154645E-2,-2.7022895E-1,-2.2197784E-1,-1.0216066E-2,1.4478921E-2,-2.5030908E-1],"categories":[],"categories_nodes":[],"categories_segments":[],"categories_sizes":[],"default_left":[0,0,0,0,0,0,0,0,0,0,0,0,0,0,0,0,0,0,0,0,0,0,0,0,0,0,0,0,0,0,0],"id":28,"left_children":[1,3,5,7,9,11,13,15,17,19,21,23,25,27,29,-1,-1,-1,-1,-1,-1,-1,-1,-1,-1,-1,-1,-1,-1,-1,-1],"loss_changes":[1.3030328E1,4.4065205E1,3.520285E1,3.44474E1,2.8996168E1,6.351867E1,3.306811E1,2.200924E1,7.242795E1,2.766903E1,4.4037647E0,3.988285E1,2.0080002E1,1.2422443E1,3.254839E1,0E0,0E0,0E0,0E0,0E0,0E0,0E0,0E0,0E0,0E0,0E0,0E0,0E0,0E0,0E0,0E0],"parents":[2147483647,0,0,1,1,2,2,3,3,4,4,5,5,6,6,7,7,8,8,9,9,10,10,11,11,12,12,13,13,14,14],"right_children":[2,4,6,8,10,12,14,16,18,20,22,24,26,28,30,-1,-1,-1,-1,-1,-1,-1,-1,-1,-1,-1,-1,-1,-1,-1,-1],"split_conditions":[1.894254E-6,1.0831419E-2,6.0417295E-7,5.8808757E-5,5.5565746E-3,2.7638076E-5,-8.6235404E-1,4.288615E-2,1.2982516E-1,3.5403817E-4,1.5099414E-6,-3.013356E-2,-4.229799E-2,1.2140673E-3,2.8748384E-2,-9.2650875E-2,-2.5714475E-1,-1.3430512E-1,3.9324632E-1,-1.2506391E-1,5.9417047E-2,-1.4755447E-1,-3.7675175E-1,5.6656563E-1,1.567632E-1,3.154645E-2,-2.7022895E-1,-2.2197784E-1,-1.0216066E-2,1.4478921E-2,-2.5030908E-1],"split_indices":[15,19,23,21,27,21,5,28,12,11,23,20,20,27,1,0,0,0,0,0,0,0,0,0,0,0,0,0,0,0,0],"split_type":[0,0,0,0,0,0,0,0,0,0,0,0,0,0,0,0,0,0,0,0,0,0,0,0,0,0,0,0,0,0,0],"sum_hessian":[2.1577124E3,7.3650726E2,1.4212051E3,2.8785568E2,4.4865158E2,1.8182014E2,1.2393849E3,2.1500479E2,7.285088E1,4.2765726E2,2.099432E1,1.2643201E2,5.538814E1,8.147736E1,1.1579075E3,1.3253804E2,8.246676E1,4.8343685E1,2.4507195E1,5.892546E1,3.687318E2,1.0064388E1,1.0929932E1,1.7173529E1,1.09258484E2,2.9662796E1,2.5725346E1,5.6511715E1,2.4965647E1,1.1281318E3,2.9775715E1],"tree_param":{"num_deleted":"0","num_feature":"30","num_nodes":"31","size_leaf_vector":"1"}},{"base_weights":[-1.1727093E-2,7.3835246E-2,-9.17449E-2,1.87365E-2,5.181741E-1,-4.1060645E-2,-6.426116E-1,-2.6575434E-1,8.875937E-2,1.8135807E-1,1.6194979E0,-7.7384144E-2,5.953247E-1,-8.167629E-1,1.1437257E-1,-1.4032276E-1,1.3349013E-1,4.394202E-2,-7.724914E-2,3.016962E-1,-3.6135532E-2,2.8102592E-2,7.2672886E-1,3.1199977E-3,-1.1725758E-1,5.835774E-1,3.126722E-2,-2.5926626E-1,3.920171E-2],"categories":[],"categories_nodes":[],"categories_segments":[],"categories_sizes":[],"default_left":[0,0,0,0,0,0,0,0,0,0,0,0,0,0,0,0,0,0,0,0,0,0,0,0,0,0,0,0,0],"id":29,"left_children":[1,3,5,7,9,11,13,15,17,19,21,23,25,27,-1,-1,-1,-1,-1,-1,-1,-1,-1,-1,-1,-1,-1,-1,-1],"loss_changes":[1.464742E1,2.5311255E1,3.0866356E1,1.8323677E1,4.2306885E1,2.340264E1,1.7847721E1,4.293927E1,2.5545927E1,2.9195261E1,5.1820908E1,3.3708344E1,4.470099E1,1.7250397E1,0E0,0E0,0E0,0E0,0E0,0E0,0E0,0E0,0E0,0E0,0E0,0E0,0E0,0E0,0E0],"parents":[2147483647,0,0,1,1,2,2,3,3,4,4,5,5,6,6,7,7,8,8,9,9,10,10,11,11,12,12,13,13],"right_children":[2,4,6,8,10,12,14,16,18,20,22,24,26,28,-1,-1,-1,-1,-1,-1,-1,-1,-1,-1,-1,-1,-1,-1,-1],"split_conditions":[9.7507524E-4,8.61564E-4,4.0323082E-2,-2.0726218E0,2.7181918E-3,2.9486611E-2,3.150147E-4,5.8808757E-5,6.8941E-5,-1.9382464E-3,3.8539807E-3,2.4627706E-3,1.4557318E-4,4.9144828E-1,1.1437257E-1,-1.4032276E-1,1.3349013E-1,4.394202E-2,-7.724914E-2,3.016962E-1,-3.6135532E-2,2.8102592E-2,7.2672886E-1,3.1199977E-3,-1.1725758E-1,5.835774E-1,3.126722E-2,-2.5926626E-1,3.920171E-2],"split_indices":[25,25,20,12,11,20,23,21,21,2,22,11,27,6,0,0,0,0,0,0,0,0,0,0,0,0,0,0,0],"split_type":[0,0,0,0,0,0,0,0,0,0,0,0,0,0,0,0,0,0,0,0,0,0,0,0,0,0,0,0,0],"sum_hessian":[2.1392908E3,1.033814E3,1.1054768E3,9.1976654E2,1.1404739E2,1.0123376E3,9.31392E1,1.8166406E2,7.381025E2,8.73388E1,2.6708595E1,9.5767896E2,5.4658638E1,8.041172E1,1.2727473E1,1.3264691E2,4.9017143E1,6.0562775E2,1.3247472E2,2.1065228E1,6.6273575E1,1.2305368E1,1.4403227E1,7.789429E2,1.787361E2,1.1633515E1,4.3025124E1,6.557547E1,1.4836256E1],"tree_param":{"num_deleted":"0","num_feature":"30","num_nodes":"29","size_leaf_vector":"1"}},{"base_weights":[-1.3286319E-2,-3.1143626E-2,3.210183E-1,7.4795885E-3,-2.9576817E-1,5.641063E-1,-2.6559633E-1,-2.7091585E-2,4.6337742E-1,-1.2522143E0,-1.5330541E-1,3.4115037E-1,4.614743E-1,-2.1456731E-2,5.354233E-2,4.4140148E-1,4.142765E-2,-4.3579945E-1,-2.4667394E-1,-3.0098557E-1,6.396608E-4,-7.652222E-3,2.3714274E-1],"categories":[],"categories_nodes":[],"categories_segments":[],"categories_sizes":[],"default_left":[0,0,0,0,0,0,0,0,0,0,0,0,0,0,0,0,0,0,0,0,0,0,0],"id":30,"left_children":[1,3,5,7,9,11,-1,13,15,17,19,21,-1,-1,-1,-1,-1,-1,-1,-1,-1,-1,-1],"loss_changes":[1.2718519E1,2.0671305E1,3.633002E1,2.7817087E1,3.5099236E1,2.6258821E1,0E0,2.3245504E1,4.8221096E1,4.3534775E0,3.6720093E1,1.7678118E1,0E0,0E0,0E0,0E0,0E0,0E0,0E0,0E0,0E0,0E0,0E0],"parents":[2147483647,0,0,1,1,2,2,3,3,4,4,5,5,7,7,8,8,9,9,10,10,11,11],"right_children":[2,4,6,8,10,12,-1,14,16,18,20,22,-1,-1,-1,-1,-1,-1,-1,-1,-1,-1,-1],"split_conditions":[2.040691E-4,7.4574105E-5,2.8150265E-5,5.8808757E-5,2.923138E-1,4.1899708E-1,-2.6559633E-1,4.372186E1,2.1309454E0,3.41401E-1,7.926479E-5,5.06045E-6,4.614743E-1,-2.1456731E-2,5.354233E-2,4.4140148E-1,4.142765E-2,-4.3579945E-1,-2.4667394E-1,-3.0098557E-1,6.396608E-4,-7.652222E-3,2.3714274E-1],"split_indices":[21,21,15,21,6,26,0,4,3,7,29,15,0,0,0,0,0,0,0,0,0,0,0],"split_type":[0,0,0,0,0,0,0,0,0,0,0,0,0,0,0,0,0,0,0,0,0,0,0],"sum_hessian":[2.1303352E3,2.0223173E3,1.0801781E2,1.7647369E3,2.5758038E2,9.1875374E1,1.6142433E1,1.640343E3,1.24393814E2,3.3390682E1,2.2418971E2,7.826388E1,1.3611495E1,1.319193E3,3.211501E2,2.3142519E1,1.0125129E2,1.1716484E1,2.16742E1,2.8964247E1,1.9522546E2,4.8547577E1,2.97163E1],"tree_param":{"num_deleted":"0","num_feature":"30","num_nodes":"23","size_leaf_vector":"1"}},{"base_weights":[-3.2263382E-3,-7.734784E-1,7.88231E-3,-3.2252994E-1,-9.726038E-2,-1.1394207E-1,6.144327E-2,-5.825984E-2,-1.2389361E0,2.320606E-2,5.5716103E-1,-2.950425E-2,1.7190571E-1,-3.7871397E-1,-2.670798E-1,1.7896949E-1,-1.0249277E-3,4.4597194E-1,1.3109137E-2],"categories":[],"categories_nodes":[],"categories_segments":[],"categories_sizes":[],"default_left":[0,0,0,0,0,0,0,0,0,0,0,0,0,0,0,0,0,0,0],"id":31,"left_children":[1,3,5,-1,-1,7,9,11,13,15,17,-1,-1,-1,-1,-1,-1,-1,-1],"loss_changes":[1.8139782E1,5.9854717E0,1.3633102E1,0E0,0E0,3.9969715E1,2.7508919E1,2.7098974E1,1.4166756E0,2.5487755E1,6.434479E1,0E0,0E0,0E0,0E0,0E0,0E0,0E0,0E0],"parents":[2147483647,0,0,1,1,2,2,5,5,6,6,7,7,8,8,9,9,10,10],"right_children":[2,4,6,-1,-1,8,10,12,14,16,18,-1,-1,-1,-1,-1,-1,-1,-1],"split_conditions":[-1.3995144E0,6.193277E-1,3.2998982E-1,-3.2252994E-1,-9.726038E-2,-2.7789706E-1,-2.4374805E-1,2.1662806E-4,-5.7082634E-2,5.194785E0,5.632932E-4,-2.950425E-2,1.7190571E-1,-3.7871397E-1,-2.670798E-1,1.7896949E-1,-1.0249277E-3,4.4597194E-1,1.3109137E-2],"split_indices":[26,0,7,0,0,5,5,21,20,4,25,0,0,0,0,0,0,0,0],"split_type":[0,0,0,0,0,0,0,0,0,0,0,0,0,0,0,0,0,0,0],"sum_hessian":[2.1193896E3,3.0134398E1,2.0892554E3,1.285402E1,1.7280378E1,6.38025E2,1.4512303E3,6.079368E2,3.0088142E1,1.3473102E3,1.039202E2,5.6284686E2,4.5089985E1,1.149121E1,1.8596931E1,5.110106E1,1.2962091E3,3.0291796E1,7.36284E1],"tree_param":{"num_deleted":"0","num_feature":"30","num_nodes":"19","size_leaf_vector":"1"}},{"base_weights":[-8.48142E-3,-6.2203415E-2,1.1756825E-1,-3.5485353E-2,-6.468865E-1,-6.379891E-2,3.8419223E-1,-4.14964E-1,9.512619E-3,-1.0107877E0,6.844153E-2,2.897789E-1,-2.412421E-1,7.5782025E-1,8.254975E-2,1.00119956E-1,-1.9482218E-1,8.910033E-3,-2.03462E-1,-3.0619395E-1,-8.875543E-2,-3.7062682E-2,2.840322E-1,-1.354836E-1,5.4102503E-2,1.5385891E-1,5.557463E-1,2.1694808E-1,-3.448741E-2],"categories":[],"categories_nodes":[],"categories_segments":[],"categories_sizes":[],"default_left":[0,0,0,0,0,0,0,0,0,0,0,0,0,0,0,0,0,0,0,0,0,0,0,0,0,0,0,0,0],"id":32,"left_children":[1,3,5,7,9,11,13,15,17,19,-1,21,23,25,27,-1,-1,-1,-1,-1,-1,-1,-1,-1,-1,-1,-1,-1,-1],"loss_changes":[1.4308977E1,2.3145597E1,3.0535616E1,2.4195988E1,2.1694221E1,2.3578842E1,2.8810406E1,4.4626656E1,2.7250042E1,6.510338E0,0E0,4.6557587E1,3.4436462E1,2.3824348E1,2.4496422E1,0E0,0E0,0E0,0E0,0E0,0E0,0E0,0E0,0E0,0E0,0E0,0E0,0E0,0E0],"parents":[2147483647,0,0,1,1,2,2,3,3,4,4,5,5,6,6,7,7,8,8,9,9,11,11,12,12,13,13,14,14],"right_children":[2,4,6,8,10,12,14,16,18,20,-1,22,24,26,28,-1,-1,-1,-1,-1,-1,-1,-1,-1,-1,-1,-1,-1,-1],"split_conditions":[5.402129E-30,4.8896604E-30,6.007164E-2,-5.372929E-2,3.749563E-3,3.627528E-1,-4.17286E-2,-5.753671E-1,9.084105E-2,2.7633964E-3,6.844153E-2,1.9741878E-3,1.4403468E-5,7.3705924E-1,-4.3464056E-4,1.00119956E-1,-1.9482218E-1,8.910033E-3,-2.03462E-1,-3.0619395E-1,-8.875543E-2,-3.7062682E-2,2.840322E-1,-1.354836E-1,5.4102503E-2,1.5385891E-1,5.557463E-1,2.1694808E-1,-3.448741E-2],"split_indices":[13,13,28,20,17,6,26,5,8,25,0,11,23,0,2,0,0,0,0,0,0,0,0,0,0,0,0,0,0],"split_type":[0,0,0,0,0,0,0,0,0,0,0,0,0,0,0,0,0,0,0,0,0,0,0,0,0,0,0,0,0],"sum_hessian":[2.112977E3,1.4815591E3,6.3141797E2,1.4168191E3,6.473997E1,3.757862E2,2.5563176E2,1.5019972E2,1.2666194E3,4.6401566E1,1.83384E1,1.2556644E2,2.5021977E2,1.1418699E2,1.4144476E2,4.638129E1,1.03818436E2,1.2276649E3,3.8954422E1,3.4982616E1,1.1418949E1,8.274101E1,4.2825424E1,1.5100777E2,9.9212006E1,1.040746E2,1.0112386E1,3.1012691E1,1.10432076E2],"tree_param":{"num_deleted":"0","num_feature":"30","num_nodes":"29","size_leaf_vector":"1"}},{"base_weights":[-1.397128E-2,-3.7154086E-2,2.6331833E-1,1.8431121E-2,-2.1622106E-1,-1.10641845E-1,3.4649712E-1,-1.8347789E-2,8.129474E-1,-5.793206E-2,-7.878313E-1,6.533336E-2,6.035889E-1,-2.1763426E-1,1.209099E-4,8.778387E-2,5.0048214E-1,-2.0129927E-1,4.404214E-3,-2.3580006E-1,9.902459E-2,-2.4389611E-1,9.7637974E-2,2.1298899E-1,7.7809684E-2],"categories":[],"categories_nodes":[],"categories_segments":[],"categories_sizes":[],"default_left":[0,0,0,0,0,0,0,0,0,0,0,0,0,0,0,0,0,0,0,0,0,0,0,0,0],"id":33,"left_children":[1,3,5,7,9,-1,11,13,15,17,19,21,23,-1,-1,-1,-1,-1,-1,-1,-1,-1,-1,-1,-1],"loss_changes":[1.3475196E1,1.9255106E1,9.497247E0,4.3140583E1,4.146151E1,0E0,1.045747E1,2.2646837E1,3.586334E1,2.0264774E1,1.8282612E1,2.3398348E1,5.4867744E0,0E0,0E0,0E0,0E0,0E0,0E0,0E0,0E0,0E0,0E0,0E0,0E0],"parents":[2147483647,0,0,1,1,2,2,3,3,4,4,6,6,7,7,8,8,9,9,10,10,11,11,12,12],"right_children":[2,4,6,8,10,-1,12,14,16,18,20,22,24,-1,-1,-1,-1,-1,-1,-1,-1,-1,-1,-1,-1],"split_conditions":[5.589088E-4,1.1655326E-2,-1.02884434E-1,7.457284E-3,7.6321006E-4,-1.10641845E-1,3.772432E-1,-1.8209597E-1,7.861591E-4,-4.7288824E-2,9.61003E-2,-2.3318563E-2,-1.0338306E-2,-2.1763426E-1,1.209099E-4,8.778387E-2,5.0048214E-1,-2.0129927E-1,4.404214E-3,-2.3580006E-1,9.902459E-2,-2.4389611E-1,9.7637974E-2,2.1298899E-1,7.7809684E-2],"split_indices":[23,18,16,16,29,0,7,8,29,20,16,9,20,0,0,0,0,0,0,0,0,0,0,0,0],"split_type":[0,0,0,0,0,0,0,0,0,0,0,0,0,0,0,0,0,0,0,0,0,0,0,0,0],"sum_hessian":[2.0960898E3,1.9343746E3,1.617152E2,1.4761436E3,4.5823096E2,1.7044212E1,1.4467097E2,1.410832E3,6.5311615E1,3.5886023E2,9.937074E1,6.910474E1,7.5566246E1,3.050474E1,1.3803273E3,4.704199E1,1.8269629E1,3.2952507E1,3.259077E2,8.784468E1,1.152606E1,1.6449198E1,5.2655537E1,4.0852238E1,3.4714005E1],"tree_param":{"num_deleted":"0","num_feature":"30","num_nodes":"25","size_leaf_vector":"1"}},{"base_weights":[-9.890876E-3,-7.369185E-1,-1.7448439E-3,-2.745401E-1,-6.9176614E-2,1.1938222E-1,-4.7184993E-2,7.23359E-1,2.4639284E-3,-8.906037E-2,2.798717E-1,-1.8320116E-1,2.6280215E-1,1.4861664E-1,-4.09642E-2,-7.590557E-2,5.0610946E-3,-2.9130864E-1,1.0303765E-1],"categories":[],"categories_nodes":[],"categories_segments":[],"categories_sizes":[],"default_left":[0,0,0,0,0,0,0,0,0,0,0,0,0,0,0,0,0,0,0],"id":34,"left_children":[1,3,5,-1,-1,7,9,11,13,15,17,-1,-1,-1,-1,-1,-1,-1,-1],"loss_changes":[1.2275093E1,3.8167791E0,1.1280669E1,0E0,0E0,3.9480785E1,2.0412241E1,4.3291927E1,4.6124733E1,3.0987133E1,3.2339283E1,0E0,0E0,0E0,0E0,0E0,0E0,0E0,0E0],"parents":[2147483647,0,0,1,1,2,2,5,5,6,6,7,7,8,8,9,9,10,10],"right_children":[2,4,6,-1,-1,8,10,12,14,16,18,-1,-1,-1,-1,-1,-1,-1,-1],"split_conditions":[1.0008723E-7,9.994667E-4,-9.653432E-2,-2.745401E-1,-6.9176614E-2,1.1193716E-4,-3.095165E-1,1.8724963E-6,2.4454018E-6,-1.7138555E-16,6.649488E0,-1.8320116E-1,2.6280215E-1,1.4861664E-1,-4.09642E-2,-7.590557E-2,5.0610946E-3,-2.9130864E-1,1.0303765E-1],"split_indices":[21,29,8,0,0,27,5,23,21,1,4,0,0,0,0,0,0,0,0],"split_type":[0,0,0,0,0,0,0,0,0,0,0,0,0,0,0,0,0,0,0],"sum_hessian":[2.072381E3,2.2959732E1,2.0494214E3,1.2860188E1,1.0099545E1,5.59076E2,1.4903455E3,9.0670494E1,4.684055E2,1.321191E3,1.6915443E2,1.6661308E1,7.4009186E1,1.0273694E2,3.6566855E2,4.45908E2,8.75283E2,1.4183767E1,1.5497066E2],"tree_param":{"num_deleted":"0","num_feature":"30","num_nodes":"19","size_leaf_vector":"1"}},{"base_weights":[-3.1052334E-3,6.356327E-3,-6.1120474E-1,-1.7218566E-2,3.1702396E-1,-2.972073E-1,5.462282E-2,5.3157103E-1,-3.3700865E-2,1.0847913E0,1.2702306E-1,-2.266322E-1,2.683127E-1,-1.7378473E-1,-5.456939E-3,-2.914584E-2,6.7613095E-1,-3.4597266E-2,2.694281E-1],"categories":[],"categories_nodes":[],"categories_segments":[],"categories_sizes":[],"default_left":[0,0,0,0,0,0,0,0,0,0,0,0,0,0,0,0,0,0,0],"id":35,"left_children":[1,3,5,7,9,-1,-1,11,13,15,17,-1,-1,-1,-1,-1,-1,-1,-1],"loss_changes":[1.1862256E1,1.4865512E1,1.5140591E1,1.7063238E1,2.0882954E1,0E0,0E0,4.284836E1,1.4383048E1,5.526733E1,2.8961672E1,0E0,0E0,0E0,0E0,0E0,0E0,0E0,0E0],"parents":[2147483647,0,0,1,1,2,2,3,3,4,4,7,7,8,8,9,9,10,10],"right_children":[2,4,6,8,10,-1,-1,12,14,16,18,-1,-1,-1,-1,-1,-1,-1,-1],"split_conditions":[3.750013E0,7.541428E-1,2.1291758E-5,-1.9360754E-20,-2.7287674E-1,-2.972073E-1,5.462282E-2,2.5552017E-6,1.4010033E-7,6.617918E-1,4.4334564E-1,-2.266322E-1,2.683127E-1,-1.7378473E-1,-5.456939E-3,-2.914584E-2,6.7613095E-1,-3.4597266E-2,2.694281E-1],"split_indices":[28,28,23,13,26,0,0,15,21,0,26,0,0,0,0,0,0,0,0],"split_type":[0,0,0,0,0,0,0,0,0,0,0,0,0,0,0,0,0,0,0],"sum_hessian":[2.0609922E3,2.0294124E3,3.1579844E1,1.8862664E3,1.4314594E2,1.861975E1,1.2960094E1,5.4996033E1,1.8312704E3,2.8394722E1,1.1475121E2,1.5046092E1,3.994994E1,3.2289047E1,1.7989813E3,1.6301962E1,1.2092759E1,8.970508E1,2.5046135E1],"tree_param":{"num_deleted":"0","num_feature":"30","num_nodes":"19","size_leaf_vector":"1"}},{"base_weights":[-8.7006984E-4,1.0430541E-2,-5.149255E-1,-1.0207833E-3,7.910819E-1,-9.0420276E-1,1.2871517E-1,-2.9339892E-1,2.6275363E-2,-4.188911E-2,3.5667616E-1,-1.2207118E0,-5.9360348E-2,-5.31165E-4,-2.5230113E-1,-4.3457545E-2,1.5970536E-2,-3.5409424E-1,-2.6256424E-1],"categories":[],"categories_nodes":[],"categories_segments":[],"categories_sizes":[],"default_left":[0,0,0,0,0,0,0,0,0,0,0,0,0,0,0,0,0,0,0],"id":36,"left_children":[1,3,5,7,9,11,-1,13,15,-1,-1,17,-1,-1,-1,-1,-1,-1,-1],"loss_changes":[1.1947038E1,1.7989428E1,1.773534E1,1.5825317E1,1.7729914E1,6.7730217E0,0E0,3.5299675E1,1.3646871E1,0E0,0E0,7.2589874E-1,0E0,0E0,0E0,0E0,0E0,0E0,0E0],"parents":[2147483647,0,0,1,1,2,2,3,3,4,4,5,5,7,7,8,8,11,11],"right_children":[2,4,6,8,10,12,-1,14,16,-1,-1,18,-1,-1,-1,-1,-1,-1,-1],"split_conditions":[6.717723E-1,6.4368546E-1,1.3244761E-2,2.466671E-1,2.5283657E-3,-1.5583664E-1,1.2871517E-1,2.7132552E-5,4.3172764E-5,-4.188911E-2,3.5667616E-1,-1.8231657E-3,-5.9360348E-2,-5.31165E-4,-2.5230113E-1,-4.3457545E-2,1.5970536E-2,-3.5409424E-1,-2.6256424E-1],"split_indices":[7,7,22,6,25,9,0,21,17,0,0,18,0,0,0,0,0,0,0],"split_type":[0,0,0,0,0,0,0,0,0,0,0,0,0,0,0,0,0,0,0],"sum_hessian":[2.0559817E3,2.0117523E3,4.42293E1,1.9826659E3,2.9086515E1,3.209794E1,1.2131364E1,1.6930177E2,1.813364E3,1.1595196E1,1.749132E1,2.1763468E1,1.0334473E1,1.2033748E2,4.896429E1,2.8686984E2,1.5264943E3,1.012616E1,1.1637308E1],"tree_param":{"num_deleted":"0","num_feature":"30","num_nodes":"19","size_leaf_vector":"1"}},{"base_weights":[-1.2837277E-2,7.572442E-2,-6.845164E-2,-1.8808426E-2,3.915576E-1,-1.1107039E-1,4.0775722E-1,4.8253447E-1,-1.1386988E-1,7.593757E-1,1.7624715E-2,-4.391185E-2,-3.9148042E-1,9.3224055E-1,-3.2674798E-1,3.0839756E-1,-2.3576245E-2,-8.109734E-2,4.904009E-2,2.5753862E-1,-1.6587162E-1,-1.3264145E-1,1.2293448E-1,-1.9259067E-2,2.210039E-1,2.1533677E-2,-1.5688045E-1,4.331375E-1,2.7853826E-2,-2.47705E-1,1.9205365E-1],"categories":[],"categories_nodes":[],"categories_segments":[],"categories_sizes":[],"default_left":[0,0,0,0,0,0,0,0,0,0,0,0,0,0,0,0,0,0,0,0,0,0,0,0,0,0,0,0,0,0,0],"id":37,"left_children":[1,3,5,7,9,11,13,15,17,19,21,23,25,27,29,-1,-1,-1,-1,-1,-1,-1,-1,-1,-1,-1,-1,-1,-1,-1,-1],"loss_changes":[1.0073299E1,2.3555002E1,2.5497263E1,2.8936596E1,2.4994808E1,2.1714634E1,3.975715E1,4.1929707E1,3.3312176E1,3.5300827E1,2.3426662E1,2.8595795E1,2.511938E1,3.9548084E1,3.1263329E1,0E0,0E0,0E0,0E0,0E0,0E0,0E0,0E0,0E0,0E0,0E0,0E0,0E0,0E0,0E0,0E0],"parents":[2147483647,0,0,1,1,2,2,3,3,4,4,5,5,6,6,7,7,8,8,9,9,10,10,11,11,12,12,13,13,14,14],"right_children":[2,4,6,8,10,12,14,16,18,20,22,24,26,28,30,-1,-1,-1,-1,-1,-1,-1,-1,-1,-1,-1,-1,-1,-1,-1,-1],"split_conditions":[-2.0312624E-2,5.154612E-1,1.7752199E-1,-1.0447283E-1,3.927457E-6,-1.5908383E-2,4.0108053E-4,1.5265417E-3,1.0004336E-3,1.4097292E-3,3.2909718E0,-2.1814844E-2,3.3871868E-1,1.5434154E-4,1.8956443E-2,3.0839756E-1,-2.3576245E-2,-8.109734E-2,4.904009E-2,2.5753862E-1,-1.6587162E-1,-1.3264145E-1,1.2293448E-1,-1.9259067E-2,2.210039E-1,2.1533677E-2,-1.5688045E-1,4.331375E-1,2.7853826E-2,-2.47705E-1,1.9205365E-1],"split_indices":[24,6,10,10,23,8,27,2,17,27,3,8,6,17,8,0,0,0,0,0,0,0,0,0,0,0,0,0,0,0,0],"split_type":[0,0,0,0,0,0,0,0,0,0,0,0,0,0,0,0,0,0,0,0,0,0,0,0,0,0,0,0,0,0,0],"sum_hessian":[2.0450958E3,7.8885785E2,1.256238E3,6.071292E2,1.8172865E2,1.1530496E3,1.03188416E2,9.676706E1,5.1036215E2,9.16103E1,9.0118355E1,9.3025946E2,2.227901E2,6.020286E1,4.2985554E1,4.2037457E1,5.4729607E1,3.039671E2,2.0639505E2,7.696503E1,1.4645272E1,4.17919E1,4.832645E1,8.981987E2,3.206072E1,7.368447E1,1.4910564E2,3.0480953E1,2.9721909E1,2.6758917E1,1.6226637E1],"tree_param":{"num_deleted":"0","num_feature":"30","num_nodes":"31","size_leaf_vector":"1"}},{"base_weights":[-3.0564324E-3,8.244477E-3,-4.5176148E-1,-6.3657663E-3,7.5327414E-1,9.89888E-2,-8.9560884E-1,-5.314621E-2,1.1304526E-1,-8.55527E-2,1.7091216E0,2.7002764E-1,-1.7585313E-1,-8.228054E-2,-3.078673E-1,-2.1196233E-2,1.0375266E-1,3.0940858E-1,1.2831156E-2,6.0370344E-1,2.4987824E-1],"categories":[],"categories_nodes":[],"categories_segments":[],"categories_sizes":[],"default_left":[0,0,0,0,0,0,0,0,0,0,0,0,0,0,0,0,0,0,0,0,0],"id":38,"left_children":[1,3,5,7,9,11,13,15,17,-1,19,-1,-1,-1,-1,-1,-1,-1,-1,-1,-1],"loss_changes":[1.0288851E1,2.1542326E1,1.2186994E1,1.0840656E1,3.9859863E1,1.7515532E1,5.2505226E0,2.0653816E1,3.7915764E1,0E0,1.0178146E1,0E0,0E0,0E0,0E0,0E0,0E0,0E0,0E0,0E0,0E0],"parents":[2147483647,0,0,1,1,2,2,3,3,4,4,5,5,6,6,7,7,8,8,10,10],"right_children":[2,4,6,8,10,12,14,16,18,-1,20,-1,-1,-1,-1,-1,-1,-1,-1,-1,-1],"split_conditions":[6.50026E-3,5.7364535E-3,2.037493E-4,-4.524795E-3,6.280669E-2,-5.5512097E-2,-3.831751E-2,-2.4374805E-1,-4.0178066E-3,-8.55527E-2,6.8580615E-4,2.7002764E-1,-1.7585313E-1,-8.228054E-2,-3.078673E-1,-2.1196233E-2,1.0375266E-1,3.0940858E-1,1.2831156E-2,6.0370344E-1,2.4987824E-1],"split_indices":[25,25,17,9,28,10,18,5,9,0,11,0,0,0,0,0,0,0,0,0,0],"split_type":[0,0,0,0,0,0,0,0,0,0,0,0,0,0,0,0,0,0,0,0,0],"sum_hessian":[2.0284368E3,1.9785994E3,4.9837315E1,1.9405417E3,3.8057632E1,2.2238016E1,2.7599298E1,1.3943217E3,5.462201E2,1.7732384E1,2.032525E1,1.0006093E1,1.2231923E1,1.0275207E1,1.7324093E1,1.306061E3,8.826061E1,2.8416485E1,5.178036E2,1.018912E1,1.0136131E1],"tree_param":{"num_deleted":"0","num_feature":"30","num_nodes":"21","size_leaf_vector":"1"}},{"base_weights":[1.8086579E-3,2.2634652E-1,-3.7908081E-3,-2.3301078E-1,2.3769932E-2,-1.0882057E0,-1.0409704E-1,3.0130452E-1,-1.7866384E-2,-2.7678213E-1,-2.6705518E-1,3.603128E-1,-4.8202354E-2,1.0555049E-2,1.9274105E-1,-6.71852E-2,5.9977914E-3],"categories":[],"categories_nodes":[],"categories_segments":[],"categories_sizes":[],"default_left":[0,0,0,0,0,0,0,0,0,0,0,0,0,0,0,0,0],"id":39,"left_children":[1,-1,3,5,7,9,11,13,15,-1,-1,-1,-1,-1,-1,-1,-1],"loss_changes":[1.0280016E1,0E0,1.2750724E1,2.3882328E1,2.0818758E1,1.0715485E-2,2.5810114E1,2.8596811E1,1.645105E1,0E0,0E0,0E0,0E0,0E0,0E0,0E0,0E0],"parents":[2147483647,0,0,2,2,3,3,4,4,5,5,6,6,7,7,8,8],"right_children":[2,-1,4,6,8,10,12,14,16,-1,-1,-1,-1,-1,-1,-1,-1],"split_conditions":[4.745896E-5,2.2634652E-1,-7.48726E-2,4.599897E-5,-4.6447936E-2,-4.788026E-3,5.9170587E-5,-5.0560415E-2,-7.855359E-1,-2.7678213E-1,-2.6705518E-1,3.603128E-1,-4.8202354E-2,1.0555049E-2,1.9274105E-1,-6.71852E-2,5.9977914E-3],"split_indices":[11,0,24,17,24,20,17,12,5,0,0,0,0,0,0,0,0],"split_type":[0,0,0,0,0,0,0,0,0,0,0,0,0,0,0,0,0],"sum_hessian":[2.0305763E3,1.2508479E1,2.0180679E3,2.1661179E2,1.801456E3,2.837282E1,1.8823897E2,2.3500978E2,1.5664463E3,1.4514689E1,1.385813E1,1.0217998E1,1.7802097E2,1.5146184E2,8.3547935E1,2.2399294E2,1.3424534E3],"tree_param":{"num_deleted":"0","num_feature":"30","num_nodes":"17","size_leaf_vector":"1"}},{"base_weights":[-2.1441786E-3,1.2850115E-2,-3.415169E-1,-3.934417E-3,9.046285E-1,-5.4482716E-1,1.313396E-1,2.4112504E-2,-2.0469606E-1,5.765101E-1,1.5155809E-1,-5.3790916E-2,-1.1315554E0,-1.5387671E-3,1.4036329E-1,-1.255437E-1,2.011514E-1,3.321879E-1,-2.0024876E-1,-2.717952E-1,8.82738E-2,-3.592072E-1,-1.8119258E-1],"categories":[],"categories_nodes":[],"categories_segments":[],"categories_sizes":[],"default_left":[0,0,0,0,0,0,0,0,0,0,0,0,0,0,0,0,0,0,0,0,0,0,0],"id":40,"left_children":[1,3,5,7,9,11,-1,13,15,-1,17,19,21,-1,-1,-1,-1,-1,-1,-1,-1,-1,-1],"loss_changes":[1.0308582E1,2.9038677E1,1.5108278E1,1.0721222E1,3.7820007E1,2.0001755E1,0E0,2.7171478E1,7.007376E1,0E0,2.614892E1,1.5900353E1,3.927353E0,0E0,0E0,0E0,0E0,0E0,0E0,0E0,0E0,0E0,0E0],"parents":[2147483647,0,0,1,1,2,2,3,3,4,4,5,5,7,7,8,8,10,10,11,11,12,12],"right_children":[2,4,6,8,10,12,-1,14,16,-1,18,20,22,-1,-1,-1,-1,-1,-1,-1,-1,-1,-1],"split_conditions":[-2.1950312E-1,-2.4374805E-1,7.5387907E0,-3.7971383E-1,5.558128E-4,3.162407E-4,1.313396E-1,-4.0610728E-1,1.99421E-3,5.765101E-1,-1.5981063E-1,3.081927E-6,-5.020522E-3,-1.5387671E-3,1.4036329E-1,-1.255437E-1,2.011514E-1,3.321879E-1,-2.0024876E-1,-2.717952E-1,8.82738E-2,-3.592072E-1,-1.8119258E-1],"split_indices":[5,5,3,5,25,29,0,5,29,0,26,15,18,0,0,0,0,0,0,0,0,0,0],"split_type":[0,0,0,0,0,0,0,0,0,0,0,0,0,0,0,0,0,0,0,0,0,0,0],"sum_hessian":[2.025333E3,1.9396288E3,8.570414E1,1.9037942E3,3.5834656E1,6.942449E1,1.6279644E1,1.6704207E3,2.3337347E2,1.2524456E1,2.33102E1,3.779639E1,3.1628103E1,1.5813419E3,8.90788E1,1.8024951E2,5.3123966E1,1.0426821E1,1.2883379E1,1.0679276E1,2.7117113E1,1.8065294E1,1.3562809E1],"tree_param":{"num_deleted":"0","num_feature":"30","num_nodes":"23","size_leaf_vector":"1"}},{"base_weights":[-2.8394777E-3,-1.3073947E-2,5.0140303E-1,6.456258E-3,-3.3313978E-1,4.735274E-3,7.288509E-1,3.0135125E-2,-3.4684387E-1,-1.1601306E-1,-1.206751E0,1.0226255E-1,2.2899772E-1,7.74685E-2,-1.0595218E-3,-1.7276806E-1,8.714845E-2,1.9091273E-2,-3.38595E-1,-2.2372836E-1,-3.8029864E-1],"categories":[],"categories_nodes":[],"categories_segments":[],"categories_sizes":[],"default_left":[0,0,0,0,0,0,0,0,0,0,0,0,0,0,0,0,0,0,0,0,0],"id":41,"left_children":[1,3,5,7,9,-1,11,13,15,17,19,-1,-1,-1,-1,-1,-1,-1,-1,-1,-1],"loss_changes":[1.0377974E1,1.2321287E1,4.3882875E0,1.55395355E1,2.1501207E1,0E0,1.6262217E0,1.674014E1,2.7931461E1,2.1636822E1,2.2121887E0,0E0,0E0,0E0,0E0,0E0,0E0,0E0,0E0,0E0,0E0],"parents":[2147483647,0,0,1,1,2,2,3,3,4,4,6,6,7,7,8,8,9,9,10,10],"right_children":[2,4,6,8,10,-1,12,14,16,18,20,-1,-1,-1,-1,-1,-1,-1,-1,-1,-1],"split_conditions":[1.4923148E0,3.3618E-4,-3.784687E-2,3.4873225E-3,2.887481E-2,4.735274E-3,7.011649E0,2.2938963E-4,-1.8442444E-3,-2.821154E-3,1.2770826E-2,1.0226255E-1,2.2899772E-1,7.74685E-2,-1.0595218E-3,-1.7276806E-1,8.714845E-2,1.9091273E-2,-3.38595E-1,-2.2372836E-1,-3.8029864E-1],"split_indices":[17,15,10,29,24,0,3,11,9,8,28,0,0,0,0,0,0,0,0,0,0],"split_type":[0,0,0,0,0,0,0,0,0,0,0,0,0,0,0,0,0,0,0,0,0],"sum_hessian":[2.0107429E3,1.9707478E3,3.9995174E1,1.8574032E3,1.1334465E2,1.2817271E1,2.7177904E1,1.7407417E3,1.16661446E2,9.078391E1,2.2560738E1,1.0037397E1,1.7140507E1,1.9049623E2,1.5502455E3,7.8037605E1,3.8623837E1,7.857551E1,1.22084055E1,1.1330978E1,1.122976E1],"tree_param":{"num_deleted":"0","num_feature":"30","num_nodes":"21","size_leaf_vector":"1"}},{"base_weights":[-5.5473857E-3,-3.4558615E-1,9.590678E-3,-8.651659E-1,1.4461733E-1,6.143031E-1,-6.170009E-3,-1.255747E0,-2.0627936E-2,-3.6291498E-1,1.8898802E-1,-7.514691E-2,1.0317526E0,-2.7499355E-2,3.049134E-1,-4.042505E-1,-1.556068E-1,-2.5736025E-1,1.02032416E-1,3.500486E-1,1.6807063E-1,-1.5965635E-1,-3.607736E-3,1.4921308E-1,-1.4602021E-2],"categories":[],"categories_nodes":[],"categories_segments":[],"categories_sizes":[],"default_left":[0,0,0,0,0,0,0,0,0,0,0,0,0,0,0,0,0,0,0,0,0,0,0,0,0],"id":42,"left_children":[1,3,5,7,9,11,13,15,-1,17,-1,-1,19,21,23,-1,-1,-1,-1,-1,-1,-1,-1,-1,-1],"loss_changes":[1.0326794E1,2.1779482E1,1.8305128E1,1.2686676E1,1.365339E1,1.8634727E1,1.2418208E1,6.3335266E0,0E0,1.2356932E1,0E0,0E0,4.436535E0,1.398851E1,1.273882E1,0E0,0E0,0E0,0E0,0E0,0E0,0E0,0E0,0E0,0E0],"parents":[2147483647,0,0,1,1,2,2,3,3,4,4,5,5,6,6,7,7,9,9,12,12,13,13,14,14],"right_children":[2,4,6,8,10,12,14,16,-1,18,-1,-1,20,22,24,-1,-1,-1,-1,-1,-1,-1,-1,-1,-1],"split_conditions":[-6.1254766E-2,-5.9340715E-2,-1.1846096E-1,2.5941355E1,3.278001E-2,3.2481668E0,6.7801006E-2,-1.4503446E-2,-2.0627936E-2,1.1341921E-3,1.8898802E-1,-7.514691E-2,-5.967526E-2,1.684469E0,1.4086112E-5,-4.042505E-1,-1.556068E-1,-2.5736025E-1,1.02032416E-1,3.500486E-1,1.6807063E-1,-1.5965635E-1,-3.607736E-3,1.4921308E-1,-1.4602021E-2],"split_indices":[16,8,18,19,10,3,22,9,0,29,0,0,26,3,21,0,0,0,0,0,0,0,0,0,0],"split_type":[0,0,0,0,0,0,0,0,0,0,0,0,0,0,0,0,0,0,0,0,0,0,0,0,0],"sum_hessian":[2.0057053E3,8.5492004E1,1.9202134E3,4.150471E1,4.3987293E1,4.8779163E1,1.8714342E3,2.7685448E1,1.3819263E1,2.4032057E1,1.9955238E1,1.5281794E1,3.349737E1,1.75136E3,1.2007415E2,1.7627075E1,1.0058373E1,1.2891243E1,1.1140814E1,1.6539095E1,1.6958277E1,3.6663578E1,1.7146964E3,6.6580864E1,5.349329E1],"tree_param":{"num_deleted":"0","num_feature":"30","num_nodes":"25","size_leaf_vector":"1"}},{"base_weights":[-6.6757314E-3,-2.682659E-1,1.07641285E-2,-1.3185152E-1,-2.5808716E-1,2.1851052E-1,-2.409023E-2,-5.9464645E-1,1.975751E-1,6.25571E-2,8.6510295E-1,7.154412E-2,-1.2883565E-1,-3.2478303E-1,-5.86881E-2,-2.1447621E-1,1.0101048E-1,-2.290793E-2,1.8367282E-1,-8.354379E-2,2.9162523E-1,-1.4928207E-2,8.135839E-2,-1.03452215E-2,-1.436241E-1],"categories":[],"categories_nodes":[],"categories_segments":[],"categories_sizes":[],"default_left":[0,0,0,0,0,0,0,0,0,0,0,0,0,0,0,0,0,0,0,0,0,0,0,0,0],"id":43,"left_children":[1,3,5,7,-1,9,11,13,15,17,19,21,23,-1,-1,-1,-1,-1,-1,-1,-1,-1,-1,-1,-1],"loss_changes":[9.082284E0,1.2969164E1,1.3512959E1,1.60985E1,0E0,2.7035547E1,1.6007538E1,1.1131405E1,1.3442431E1,2.2390472E1,1.8834938E1,2.7837116E1,2.9724642E1,0E0,0E0,0E0,0E0,0E0,0E0,0E0,0E0,0E0,0E0,0E0,0E0],"parents":[2147483647,0,0,1,1,2,2,3,3,5,5,6,6,7,7,8,8,9,9,10,10,11,11,12,12],"right_children":[2,4,6,8,-1,10,12,14,16,18,20,22,24,-1,-1,-1,-1,-1,-1,-1,-1,-1,-1,-1,-1],"split_conditions":[-4.6717316E-2,-1.0278655E-1,-4.732552E-2,-7.552362E-3,-2.5808716E-1,-1.6319152E-2,-8.5217314E-4,3.018434E-4,5.5090296E-1,4.9049535E0,1.9482272E-6,-6.3277567E-3,-4.29293E-3,-3.2478303E-1,-5.86881E-2,-2.1447621E-1,1.0101048E-1,-2.290793E-2,1.8367282E-1,-8.354379E-2,2.9162523E-1,-1.4928207E-2,8.135839E-2,-1.03452215E-2,-1.436241E-1],"split_indices":[16,18,18,28,0,16,22,29,19,3,15,22,8,0,0,0,0,0,0,0,0,0,0,0,0],"split_type":[0,0,0,0,0,0,0,0,0,0,0,0,0,0,0,0,0,0,0,0,0,0,0,0,0],"sum_hessian":[1.9904115E3,1.24412346E2,1.8659991E3,1.0556794E2,1.884441E1,2.680968E2,1.5979023E3,4.3900814E1,6.166712E1,2.1600218E2,5.209462E1,8.352673E2,7.626351E2,1.4841834E1,2.905898E1,1.0087525E1,5.1579594E1,1.7569421E2,4.030797E1,1.0461235E1,4.1633385E1,5.506043E2,2.8466296E2,6.3753314E2,1.2510192E2],"tree_param":{"num_deleted":"0","num_feature":"30","num_nodes":"25","size_leaf_vector":"1"}},{"base_weights":[1.4104741E-3,-3.449002E-3,2.3587556E-1,5.625071E-3,-5.87512E-1,-4.7529358E-1,1.4888218E-2,-2.4962598E-1,1.3794434E-4,-5.755067E-2,-3.2638314E-1,1.7818731E-1,1.9338721E-3],"categories":[],"categories_nodes":[],"categories_segments":[],"categories_sizes":[],"default_left":[0,0,0,0,0,0,0,0,0,0,0,0,0],"id":44,"left_children":[1,3,-1,5,7,9,11,-1,-1,-1,-1,-1,-1],"loss_changes":[9.05247E0,1.0422422E1,0E0,8.624449E0,7.273573E0,9.895739E0,9.481374E0,0E0,0E0,0E0,0E0,0E0,0E0],"parents":[2147483647,0,0,1,1,3,3,4,4,5,5,6,6],"right_children":[2,4,-1,6,8,10,12,-1,-1,-1,-1,-1,-1],"split_conditions":[2.0358945E-1,6.717723E-1,2.3587556E-1,4.4166976E-1,1.731055E-1,8.88858E-16,-2.42722E-1,-2.4962598E-1,1.3794434E-4,-5.755067E-2,-3.2638314E-1,1.7818731E-1,1.9338721E-3],"split_indices":[1,7,0,0,14,1,10,0,0,0,0,0,0],"split_type":[0,0,0,0,0,0,0,0,0,0,0,0,0],"sum_hessian":[1.9759401E3,1.9657977E3,1.0142349E1,1.9357202E3,3.0077486E1,3.6575348E1,1.8991449E3,1.7706484E1,1.2371003E1,2.6120764E1,1.0454584E1,1.9264553E1,1.8798804E3],"tree_param":{"num_deleted":"0","num_feature":"30","num_nodes":"13","size_leaf_vector":"1"}},{"base_weights":[-3.319706E-3,-2.0168965E-1,2.0901468E-2,-3.4857552E-2,-9.1229653E-1,3.3175156E-1,-1.7517332E-2,-4.596817E-1,4.5780817E-1,-9.616155E-2,-1.0851455E0,1.2486183E-2,7.695806E-1,-3.668587E-1,1.28681455E-2,1.1033118E-1,-2.6872507E-1,-1.8176994E-1,2.0284534E-1,-2.8033644E-1,-2.667791E-1,-1.1915798E-1,1.4023884E-1,7.3613346E-2,3.2271165E-1,5.9699126E-2,-1.8327546E-1,2.7779636E-1,9.424073E-4],"categories":[],"categories_nodes":[],"categories_segments":[],"categories_sizes":[],"default_left":[0,0,0,0,0,0,0,0,0,0,0,0,0,0,0,0,0,0,0,0,0,0,0,0,0,0,0,0,0],"id":45,"left_children":[1,3,5,7,9,11,13,15,17,-1,19,21,23,25,27,-1,-1,-1,-1,-1,-1,-1,-1,-1,-1,-1,-1,-1,-1],"loss_changes":[9.484807E0,2.546424E1,2.100868E1,3.6410732E1,3.7235298E0,2.704689E1,1.6619875E1,5.1783623E1,3.3747143E1,0E0,2.0103455E-2,3.002338E1,2.0207558E1,2.7791946E1,1.4394538E1,0E0,0E0,0E0,0E0,0E0,0E0,0E0,0E0,0E0,0E0,0E0,0E0,0E0,0E0],"parents":[2147483647,0,0,1,1,2,2,3,3,4,4,5,5,6,6,7,7,8,8,10,10,11,11,12,12,13,13,14,14],"right_children":[2,4,6,8,10,12,14,16,18,-1,20,22,24,26,28,-1,-1,-1,-1,-1,-1,-1,-1,-1,-1,-1,-1,-1,-1],"split_conditions":[2.734275E-5,2.3652996E1,6.942352E-7,2.7574756E0,9.4889214E-7,9.228139E-2,2.4218564E-1,-2.9817848E-3,2.063657E-4,-9.616155E-2,-1.9571607E-3,1.2604756E-3,4.0417635E-3,-9.405599E-2,7.3127557E-9,1.1033118E-1,-2.6872507E-1,-1.8176994E-1,2.0284534E-1,-2.8033644E-1,-2.667791E-1,-1.1915798E-1,1.4023884E-1,7.3613346E-2,3.2271165E-1,5.9699126E-2,-1.8327546E-1,2.7779636E-1,9.424073E-4],"split_indices":[17,4,23,3,15,28,6,22,29,0,18,27,24,28,15,0,0,0,0,0,0,0,0,0,0,0,0,0,0],"split_type":[0,0,0,0,0,0,0,0,0,0,0,0,0,0,0,0,0,0,0,0,0,0,0,0,0,0,0,0,0],"sum_hessian":[1.9737518E3,2.1478337E2,1.7589685E3,1.7394809E2,4.083528E1,1.9348915E2,1.5654792E3,9.340762E1,8.0540474E1,1.0079421E1,3.075586E1,1.1189815E2,8.159101E1,1.2527458E2,1.4402047E3,3.789927E1,5.5508354E1,1.8508535E1,6.2031933E1,1.018273E1,2.0573128E1,5.9147217E1,5.275093E1,4.2686874E1,3.8904133E1,4.720522E1,7.806936E1,1.1830632E1,1.4283741E3],"tree_param":{"num_deleted":"0","num_feature":"30","num_nodes":"29","size_leaf_vector":"1"}},{"base_weights":[-3.6450855E-3,1.2980712E-2,-2.862136E-1,-1.1020165E-2,2.3515353E-1,7.2678286E-1,-5.309258E-1,-1.1319598E-1,5.856708E-2,-5.965761E-1,4.9089035E-1,3.99484E-1,-4.3880668E-2,-8.88644E-1,6.0765557E-2,6.48443E-3,-1.2328895E-1,1.3990235E-1,2.514283E-3,-2.6333997E-1,1.3087836E-1,4.8112938E-1,8.507226E-2,-3.1135365E-1,-4.317413E-2,-1.19325355E-1,2.5934112E-1],"categories":[],"categories_nodes":[],"categories_segments":[],"categories_sizes":[],"default_left":[0,0,0,0,0,0,0,0,0,0,0,0,0,0,0,0,0,0,0,0,0,0,0,0,0,0,0],"id":46,"left_children":[1,3,5,7,9,11,13,15,17,19,21,-1,-1,23,25,-1,-1,-1,-1,-1,-1,-1,-1,-1,-1,-1,-1],"loss_changes":[9.252283E0,9.917582E0,2.7129204E1,1.1933683E1,3.8569397E1,1.6741901E1,1.8658258E1,3.594836E1,2.4266201E1,2.182022E1,2.9943798E1,0E0,0E0,1.4029804E1,1.745631E1,0E0,0E0,0E0,0E0,0E0,0E0,0E0,0E0,0E0,0E0,0E0,0E0],"parents":[2147483647,0,0,1,1,2,2,3,3,4,4,5,5,6,6,7,7,8,8,9,9,10,10,13,13,14,14],"right_children":[2,4,6,8,10,12,14,16,18,20,22,-1,-1,24,26,-1,-1,-1,-1,-1,-1,-1,-1,-1,-1,-1,-1],"split_conditions":[8.317797E0,8.680542E-1,-8.2146627E-1,-4.463954E-2,3.7587445E-6,-1.6868504E-2,9.40381E-3,-1.3197501E-1,-2.2462746E-2,7.7339486E-30,1.9942863E-5,3.99484E-1,-4.3880668E-2,4.3317083E-5,1.537664E-3,6.48443E-3,-1.2328895E-1,1.3990235E-1,2.514283E-3,-2.6333997E-1,1.3087836E-1,4.8112938E-1,8.507226E-2,-3.1135365E-1,-4.317413E-2,-1.19325355E-1,2.5934112E-1],"split_indices":[12,12,5,28,21,24,16,28,28,13,17,0,0,21,27,0,0,0,0,0,0,0,0,0,0,0,0],"split_type":[0,0,0,0,0,0,0,0,0,0,0,0,0,0,0,0,0,0,0,0,0,0,0,0,0,0,0],"sum_hessian":[1.9690192E3,1.859596E3,1.09423195E2,1.678284E3,1.8131189E2,2.1288633E1,8.813456E1,6.799451E2,9.98339E2,4.263657E1,1.3867532E2,1.0832579E1,1.0456055E1,5.4929657E1,3.3204906E1,4.9769363E2,1.8225148E2,8.812097E1,9.10218E2,3.0287191E1,1.2349379E1,1.3181421E1,1.254939E2,3.6658707E1,1.8270948E1,2.1407753E1,1.17971525E1],"tree_param":{"num_deleted":"0","num_feature":"30","num_nodes":"27","size_leaf_vector":"1"}},{"base_weights":[-7.938824E-3,-2.1491508E-1,-3.0284056E-3,-1.2249701E-2,5.0159395E-1,3.2739244E-2,-1.3643676E-1,-2.4828311E-2,7.4895424E-1,-2.6087986E-2,3.3217173E-2,1.5981019E-2,-1.268999E-1,2.5591725E-1,1.0520766E-1],"categories":[],"categories_nodes":[],"categories_segments":[],"categories_sizes":[],"default_left":[0,0,0,0,0,0,0,0,0,0,0,0,0,0,0],"id":47,"left_children":[1,-1,3,5,7,9,11,-1,13,-1,-1,-1,-1,-1,-1],"loss_changes":[8.204997E0,0E0,9.0757065E0,1.0700923E1,5.2043133E0,1.929868E1,3.7878307E1,0E0,2.2345285E0,0E0,0E0,0E0,0E0,0E0,0E0],"parents":[2147483647,0,0,2,2,3,3,4,4,5,5,6,6,8,8],"right_children":[2,-1,4,6,8,10,12,-1,14,-1,-1,-1,-1,-1,-1],"split_conditions":[-6.530757E0,-2.1491508E-1,1.4923148E0,1.5231417E-5,6.1913513E1,1.1306417E-5,2.7132552E-5,-2.4828311E-2,1.9298464E-29,-2.6087986E-2,3.3217173E-2,1.5981019E-2,-1.268999E-1,2.5591725E-1,1.0520766E-1],"split_indices":[28,0,17,15,4,21,21,0,13,0,0,0,0,0,0],"split_type":[0,0,0,0,0,0,0,0,0,0,0,0,0,0,0],"sum_hessian":[1.9613715E3,1.1240369E1,1.9501311E3,1.915139E3,3.499205E1,1.405833E3,5.093061E2,1.0201214E1,2.4790836E1,5.933842E2,8.124487E2,3.3075305E2,1.7855302E2,1.3489793E1,1.13010435E1],"tree_param":{"num_deleted":"0","num_feature":"30","num_nodes":"15","size_leaf_vector":"1"}},{"base_weights":[-1.6456828E-3,7.6665725E-3,-4.4157103E-1,-6.076538E-3,4.506221E-1,-2.9364192E-1,1.9031307E-2,2.852136E-3,-6.320959E-1,-1.8110612E-1,1.04692E0,1.4709294E-1,-1.6546316E-1,-4.1714264E-3,7.002588E-2,-2.6146588E-1,9.14094E-3,-2.2715667E-1,1.3436976E-1,4.015789E-1,9.919956E-2],"categories":[],"categories_nodes":[],"categories_segments":[],"categories_sizes":[],"default_left":[0,0,0,0,0,0,0,0,0,0,0,0,0,0,0,0,0,0,0,0,0],"id":48,"left_children":[1,3,5,7,9,-1,11,13,15,17,19,-1,-1,-1,-1,-1,-1,-1,-1,-1,-1],"loss_changes":[8.038991E0,1.1696729E1,1.3735899E1,1.0418115E1,2.178222E1,0E0,9.685842E0,9.952186E0,7.253812E0,1.4680644E1,1.0815659E1,0E0,0E0,0E0,0E0,0E0,0E0,0E0,0E0,0E0,0E0],"parents":[2147483647,0,0,1,1,2,2,3,3,4,4,6,6,7,7,8,8,9,9,10,10],"right_children":[2,4,6,8,10,-1,12,14,16,18,20,-1,-1,-1,-1,-1,-1,-1,-1,-1,-1],"split_conditions":[6.50026E-3,5.412453E-3,2.6639216E-6,7.4372515E-3,6.280669E-2,-2.9364192E-1,3.5679963E0,4.3939087E-3,4.8044434E-1,1.043046E-1,3.670687E-1,1.4709294E-1,-1.6546316E-1,-4.1714264E-3,7.002588E-2,-2.6146588E-1,9.14094E-3,-2.2715667E-1,1.3436976E-1,4.015789E-1,9.919956E-2],"split_indices":[25,25,23,11,28,0,3,11,6,19,6,0,0,0,0,0,0,0,0,0,0],"split_type":[0,0,0,0,0,0,0,0,0,0,0,0,0,0,0,0,0,0,0,0,0],"sum_hessian":[1.9615686E3,1.9209021E3,4.0666473E1,1.8630928E3,5.7809345E1,1.5694845E1,2.4971628E1,1.8368903E3,2.6202505E1,2.8068872E1,2.9740475E1,1.3601613E1,1.1370015E1,1.7159587E3,1.20931465E2,1.6188467E1,1.0014037E1,1.3949298E1,1.4119574E1,1.5983757E1,1.3756718E1],"tree_param":{"num_deleted":"0","num_feature":"30","num_nodes":"21","size_leaf_vector":"1"}},{"base_weights":[-6.322085E-3,-2.5367677E-1,1.2116742E-2,4.698647E-1,-5.370446E-1,-6.3251764E-1,2.511709E-2,3.4801903E-1,3.3476528E-2,-9.389835E-1,2.2686413E-1,-1.0979904E0,1.7358169E-2,-9.928308E-2,8.0838315E-2,-1.5425237E-1,1.5364423E-1,-2.790783E-1,3.2116254E-4,2.4804327E-1,-2.5206823E-2,-2.6458412E-1,-2.859179E-1,3.825956E-1,-3.2439876E-2,2.5690652E-2,-1.8002032E-1],"categories":[],"categories_nodes":[],"categories_segments":[],"categories_sizes":[],"default_left":[0,0,0,0,0,0,0,0,0,0,0,0,0,0,0,0,0,0,0,0,0,0,0,0,0,0,0],"id":49,"left_children":[1,3,5,7,9,11,13,-1,15,17,19,21,-1,23,25,-1,-1,-1,-1,-1,-1,-1,-1,-1,-1,-1,-1],"loss_changes":[8.907145E0,2.7777107E1,1.5229548E1,1.5342146E1,2.9892824E1,1.1740334E1,1.2347205E1,0E0,9.787028E0,1.06385765E1,8.421788E0,3.9121628E-2,0E0,2.7369947E1,2.1603203E1,0E0,0E0,0E0,0E0,0E0,0E0,0E0,0E0,0E0,0E0,0E0,0E0],"parents":[2147483647,0,0,1,1,2,2,3,3,4,4,5,5,6,6,8,8,9,9,10,10,11,11,13,13,14,14],"right_children":[2,4,6,8,10,12,14,-1,16,18,20,22,-1,24,26,-1,-1,-1,-1,-1,-1,-1,-1,-1,-1,-1,-1],"split_conditions":[-8.6235404E-1,1.3020926E-4,1.7299979E-7,2.2938963E-4,7.7339486E-30,6.592057E-1,3.3099088E-1,3.4801903E-1,7.543006E-5,3.0942764E-3,5.284664E-7,3.0201081E-5,1.7358169E-2,4.863706E-6,5.7413885E-3,-1.5425237E-1,1.5364423E-1,-2.790783E-1,3.2116254E-4,2.4804327E-1,-2.5206823E-2,-2.6458412E-1,-2.859179E-1,3.825956E-1,-3.2439876E-2,2.5690652E-2,-1.8002032E-1],"split_indices":[5,29,23,11,13,0,7,0,29,11,23,17,0,17,11,0,0,0,0,0,0,0,0,0,0,0,0],"split_type":[0,0,0,0,0,0,0,0,0,0,0,0,0,0,0,0,0,0,0,0,0,0,0,0,0,0,0],"sum_hessian":[1.9525416E3,1.3546178E2,1.8170798E3,3.8119835E1,9.7341934E1,3.5917168E1,1.7811627E3,1.2242569E1,2.5877268E1,6.3784184E1,3.355775E1,2.1598297E1,1.4318871E1,5.5099664E2,1.230166E3,1.2207835E1,1.3669432E1,5.366556E1,1.0118621E1,1.0063004E1,2.3494747E1,1.1588843E1,1.0009455E1,1.0113661E1,5.40883E2,1.1973916E3,3.2774414E1],"tree_param":{"num_deleted":"0","num_feature":"30","num_nodes":"27","size_leaf_vector":"1"}},{"base_weights":[-5.524528E-3,-4.1521657E-2,1.1509972E-1,-2.5912987E-2,-1.0530488E0,-6.2009934E-2,3.930563E-1,-4.1679937E-2,9.3759304E-1,-1.7935881E-1,-3.2930478E-1,-2.653675E-1,7.272667E-3,1.0105349E0,1.2358329E-1,-4.018741E-3,-1.7258447E-1,4.9918765E-1,-7.838186E-2,-6.1848022E-2,6.4673364E-2,1.7823838E-1,5.265126E-1,-1.1102172E-2,4.7732773E-1],"categories":[],"categories_nodes":[],"categories_segments":[],"categories_sizes":[],"default_left":[0,0,0,0,0,0,0,0,0,0,0,0,0,0,0,0,0,0,0,0,0,0,0,0,0],"id":50,"left_children":[1,3,5,7,9,11,13,15,17,-1,-1,-1,19,21,23,-1,-1,-1,-1,-1,-1,-1,-1,-1,-1],"loss_changes":[8.44318E0,2.3645569E1,2.2001083E1,2.2405869E1,2.0171833E0,1.8907082E1,2.8940668E1,2.4100826E1,3.1471355E1,0E0,0E0,0E0,1.6345331E1,1.7227562E1,3.63367E1,0E0,0E0,0E0,0E0,0E0,0E0,0E0,0E0,0E0,0E0],"parents":[2147483647,0,0,1,1,2,2,3,3,4,4,5,5,6,6,7,7,8,8,12,12,13,13,14,14],"right_children":[2,4,6,8,10,12,14,16,18,-1,-1,-1,20,22,24,-1,-1,-1,-1,-1,-1,-1,-1,-1,-1],"split_conditions":[4.4425535E0,3.48348E-2,-2.7090902E-2,2.8313342E-2,-3.0904712E-2,5.9057507E-3,4.5671562E1,2.9386763E1,2.3044124E-6,-1.7935881E-1,-3.2930478E-1,-2.653675E-1,2.6193019E-2,4.432714E1,6.564034E-1,-4.018741E-3,-1.7258447E-1,4.9918765E-1,-7.838186E-2,-6.1848022E-2,6.4673364E-2,1.7823838E-1,5.265126E-1,-1.1102172E-2,4.7732773E-1],"split_indices":[3,9,9,9,8,19,4,4,23,0,0,0,28,4,26,0,0,0,0,0,0,0,0,0,0],"split_type":[0,0,0,0,0,0,0,0,0,0,0,0,0,0,0,0,0,0,0,0,0,0,0,0,0],"sum_hessian":[1.94436E3,1.497492E3,4.4686807E2,1.4747378E3,2.275411E1,2.729441E2,1.7392398E2,1.4509958E3,2.3741919E1,1.0025708E1,1.2728402E1,1.7696077E1,2.5524802E2,5.2838875E1,1.210851E2,1.3958981E3,5.5097813E1,1.2858314E1,1.0883604E1,1.2680143E2,1.2844658E2,4.1553543E1,1.1285332E1,1.1067235E2,1.0412749E1],"tree_param":{"num_deleted":"0","num_feature":"30","num_nodes":"25","size_leaf_vector":"1"}},{"base_weights":[-1.1082106E-2,-1.09207146E-1,3.556377E-2,-5.1022434E-1,7.057381E-3,2.2364855E-1,-2.8772974E-2,-2.337088E-1,-9.837411E-1,4.8556992E-1,-9.201494E-2,1.1818981E-1,1.1767973E0,-1.8362306E-1,9.1491714E-2,-1.7601793E-1,1.0140319E-1,-1.3913897E-1,-3.275194E-1,1.8700601E-1,-2.0016174E-1,1.5873992E-1,-4.1920304E-2,-5.2409884E-2,1.17022045E-1,4.8826241E-1,-1.0149631E-1,1.4436387E-1,-7.589309E-2,1.682171E-1,4.396856E-3],"categories":[],"categories_nodes":[],"categories_segments":[],"categories_sizes":[],"default_left":[0,0,0,0,0,0,0,0,0,0,0,0,0,0,0,0,0,0,0,0,0,0,0,0,0,0,0,0,0,0,0],"id":51,"left_children":[1,3,5,7,9,11,13,15,17,19,21,23,25,27,29,-1,-1,-1,-1,-1,-1,-1,-1,-1,-1,-1,-1,-1,-1,-1,-1],"loss_changes":[8.84712E0,2.9038155E1,1.5853167E1,1.8327896E1,2.2890627E1,3.3564224E1,1.8178942E1,2.6579502E1,7.1933174E0,2.7960443E1,2.2003075E1,3.448789E1,4.0873997E1,3.895611E1,2.3606226E1,0E0,0E0,0E0,0E0,0E0,0E0,0E0,0E0,0E0,0E0,0E0,0E0,0E0,0E0,0E0,0E0],"parents":[2147483647,0,0,1,1,2,2,3,3,4,4,5,5,6,6,7,7,8,8,9,9,10,10,11,11,12,12,13,13,14,14],"right_children":[2,4,6,8,10,12,14,16,18,20,22,24,26,28,30,-1,-1,-1,-1,-1,-1,-1,-1,-1,-1,-1,-1,-1,-1,-1,-1],"split_conditions":[-3.8857643E-2,1.1426884E-4,1.12156245E-4,7.53977E-4,1.8119975E-4,1.0106238E-4,4.782988E-4,4.0570615E-4,8.646524E-6,2.572207E-2,-2.8918442E-15,2.7205894E-4,5.7150923E-2,-2.0759929E-2,5.683892E-4,-1.7601793E-1,1.0140319E-1,-1.3913897E-1,-3.275194E-1,1.8700601E-1,