{"learner":{"attributes":{"best_iteration":"439","best_score":"0.9916337346444873"},"feature_names":["Hurst","CorrDim","Lyapunov","Skewness","Kurtosis","PSD","ACF_1","WL_C1","WL_C2","WL_C3","Hurst_8_dyn","Hurst_8_Variance","CorrDim_8_dyn","CorrDim_8_Variance","Lyapunov_8_dyn","Lyapunov_8_Variance","Skewness_8_dyn","Skewness_8_Variance","Kurtosis_8_dyn","Kurtosis_8_Variance","PSD_8_dyn","PSD_8_Variance","ACF_1_8_dyn","ACF_1_8_Variance","WL_C1_8_dyn","WL_C1_8_Variance","WL_C2_8_dyn","WL_C2_8_Variance","WL_C3_8_dyn","WL_C3_8_Variance"],"feature_types":["float","float","float","float","float","float","float","float","float","float","float","float","float","float","float","float","float","float","float","float","float","float","float","float","float","float","float","float","float","float"],"gradient_booster":{"model":{"gbtree_model_param":{"num_parallel_tree":"1","num_trees":"500"},"iteration_indptr":[0,1,2,3,4,5,6,7,8,9,10,11,12,13,14,15,16,17,18,19,20,21,22,23,24,25,26,27,28,29,30,31,32,33,34,35,36,37,38,39,40,41,42,43,44,45,46,47,48,49,50,51,52,53,54,55,56,57,58,59,60,61,62,63,64,65,66,67,68,69,70,71,72,73,74,75,76,77,78,79,80,81,82,83,84,85,86,87,88,89,90,91,92,93,94,95,96,97,98,99,100,101,102,103,104,105,106,107,108,109,110,111,112,113,114,115,116,117,118,119,120,121,122,123,124,125,126,127,128,129,130,131,132,133,134,135,136,137,138,139,140,141,142,143,144,145,146,147,148,149,150,151,152,153,154,155,156,157,158,159,160,161,162,163,164,165,166,167,168,169,170,171,172,173,174,175,176,177,178,179,180,181,182,183,184,185,186,187,188,189,190,191,192,193,194,195,196,197,198,199,200,201,202,203,204,205,206,207,208,209,210,211,212,213,214,215,216,217,218,219,220,221,222,223,224,225,226,227,228,229,230,231,232,233,234,235,236,237,238,239,240,241,242,243,244,245,246,247,248,249,250,251,252,253,254,255,256,257,258,259,260,261,262,263,264,265,266,267,268,269,270,271,272,273,274,275,276,277,278,279,280,281,282,283,284,285,286,287,288,289,290,291,292,293,294,295,296,297,298,299,300,301,302,303,304,305,306,307,308,309,310,311,312,313,314,315,316,317,318,319,320,321,322,323,324,325,326,327,328,329,330,331,332,333,334,335,336,337,338,339,340,341,342,343,344,345,346,347,348,349,350,351,352,353,354,355,356,357,358,359,360,361,362,363,364,365,366,367,368,369,370,371,372,373,374,375,376,377,378,379,380,381,382,383,384,385,386,387,388,389,390,391,392,393,394,395,396,397,398,399,400,401,402,403,404,405,406,407,408,409,410,411,412,413,414,415,416,417,418,419,420,421,422,423,424,425,426,427,428,429,430,431,432,433,434,435,436,437,438,439,440,441,442,443,444,445,446,447,448,449,450,451,452,453,454,455,456,457,458,459,460,461,462,463,464,465,466,467,468,469,470,471,472,473,474,475,476,477,478,479,480,481,482,483,484,485,486,487,488,489,490,491,492,493,494,495,496,497,498,499,500],"tree_info":[0,0,0,0,0,0,0,0,0,0,0,0,0,0,0,0,0,0,0,0,0,0,0,0,0,0,0,0,0,0,0,0,0,0,0,0,0,0,0,0,0,0,0,0,0,0,0,0,0,0,0,0,0,0,0,0,0,0,0,0,0,0,0,0,0,0,0,0,0,0,0,0,0,0,0,0,0,0,0,0,0,0,0,0,0,0,0,0,0,0,0,0,0,0,0,0,0,0,0,0,0,0,0,0,0,0,0,0,0,0,0,0,0,0,0,0,0,0,0,0,0,0,0,0,0,0,0,0,0,0,0,0,0,0,0,0,0,0,0,0,0,0,0,0,0,0,0,0,0,0,0,0,0,0,0,0,0,0,0,0,0,0,0,0,0,0,0,0,0,0,0,0,0,0,0,0,0,0,0,0,0,0,0,0,0,0,0,0,0,0,0,0,0,0,0,0,0,0,0,0,0,0,0,0,0,0,0,0,0,0,0,0,0,0,0,0,0,0,0,0,0,0,0,0,0,0,0,0,0,0,0,0,0,0,0,0,0,0,0,0,0,0,0,0,0,0,0,0,0,0,0,0,0,0,0,0,0,0,0,0,0,0,0,0,0,0,0,0,0,0,0,0,0,0,0,0,0,0,0,0,0,0,0,0,0,0,0,0,0,0,0,0,0,0,0,0,0,0,0,0,0,0,0,0,0,0,0,0,0,0,0,0,0,0,0,0,0,0,0,0,0,0,0,0,0,0,0,0,0,0,0,0,0,0,0,0,0,0,0,0,0,0,0,0,0,0,0,0,0,0,0,0,0,0,0,0,0,0,0,0,0,0,0,0,0,0,0,0,0,0,0,0,0,0,0,0,0,0,0,0,0,0,0,0,0,0,0,0,0,0,0,0,0,0,0,0,0,0,0,0,0,0,0,0,0,0,0,0,0,0,0,0,0,0,0,0,0,0,0,0,0,0,0,0,0,0,0,0,0,0,0,0,0,0,0,0,0,0,0,0,0,0,0,0,0,0,0,0,0,0,0,0,0,0,0,0,0,0,0,0,0,0,0,0,0,0,0,0,0,0,0,0,0,0,0,0,0,0,0,0,0,0,0,0,0,0,0,0,0,0,0,0,0,0,0,0,0,0,0,0],"trees":[{"base_weights":[-7.659895E-2,-6.521713E-1,2.37798E0,-7.827954E-1,2.2684367E-1,3.1322465E0,1.5053598E0,-4.422481E-1,-9.174039E-1,2.2698784E0,3.0007442E-2,3.3488503E0,2.7310183E0,2.3365762E0,1.0388494E0,-1.23298824E-1,5.6745386E-1,-2.3351365E-1,3.3332044E-1,1.3604043E-1,7.659232E-1,3.7078443E-1,-5.7270452E-2,6.1824834E-1,8.441628E-1,7.135473E-1,2.4736024E-1,6.455999E-1,-1.2547588E-1,4.272515E-1,1.262394E-1],"categories":[],"categories_nodes":[],"categories_segments":[],"categories_sizes":[],"default_left":[0,0,0,0,0,0,0,0,0,0,0,0,0,0,0,0,0,0,0,0,0,0,0,0,0,0,0,0,0,0,0],"id":0,"left_children":[1,3,5,7,9,11,13,15,17,19,21,23,25,27,29,-1,-1,-1,-1,-1,-1,-1,-1,-1,-1,-1,-1,-1,-1,-1,-1],"loss_changes":[8.448526E3,5.56209E2,7.476333E2,1.9332788E2,2.520344E2,5.294922E1,2.042135E2,1.6509053E2,1.1328125E2,7.544354E1,2.1522894E2,9.6328125E0,4.5817017E1,1.3210449E2,1.2069E2,0E0,0E0,0E0,0E0,0E0,0E0,0E0,0E0,0E0,0E0,0E0,0E0,0E0,0E0,0E0,0E0],"parents":[2147483647,0,0,1,1,2,2,3,3,4,4,5,5,6,6,7,7,8,8,9,9,10,10,11,11,12,12,13,13,14,14],"right_children":[2,4,6,8,10,12,14,16,18,20,22,24,26,28,30,-1,-1,-1,-1,-1,-1,-1,-1,-1,-1,-1,-1,-1,-1,-1,-1],"split_conditions":[5.1957236E-6,1.4974895E-6,9.7243375E-1,-8.192157E-1,9.7622085E-1,9.57607E-1,4.2325918E-2,2.0149658E-2,1.9337282E-1,4.428249E0,-7.8092897E-1,3.7056918E-4,4.9710663E-5,1.62531E-2,9.798457E-1,-1.23298824E-1,5.6745386E-1,-2.3351365E-1,3.3332044E-1,1.3604043E-1,7.659232E-1,3.7078443E-1,-5.7270452E-2,6.1824834E-1,8.441628E-1,7.135473E-1,2.4736024E-1,6.455999E-1,-1.2547588E-1,4.272515E-1,1.262394E-1],"split_indices":[23,23,6,4,6,6,4,29,19,4,4,29,15,18,6,0,0,0,0,0,0,0,0,0,0,0,0,0,0,0,0],"split_type":[0,0,0,0,0,0,0,0,0,0,0,0,0,0,0,0,0,0,0,0,0,0,0,0,0,0,0,0,0,0,0],"sum_hessian":[5.980032E3,4.8441353E3,1.1358967E3,4.217418E3,6.267176E2,6.0926434E2,5.266323E2,1.1947711E3,3.0226467E3,5.5073895E1,5.716437E2,3.9566058E2,2.1360378E2,1.8931349E2,3.3731885E2,1.1727415E3,2.2029558E1,3.0004502E3,2.2196508E1,1.7352734E1,3.772116E1,8.6501175E1,4.851425E2,1.2175058E1,3.8348553E2,1.9949352E2,1.4110253E1,1.7422568E2,1.5087824E1,1.4956998E2,1.8774889E2],"tree_param":{"num_deleted":"0","num_feature":"30","num_nodes":"31","size_leaf_vector":"1"}},{"base_weights":[-7.61952E-2,1.6470212E0,-4.9524465E-1,1.9250227E0,1.1234372E0,-6.922641E-1,8.70883E-2,2.0074722E-1,1.9447933E0,-4.938896E-1,1.233939E0,-4.0173554E-1,-8.215283E-1,-1.5413032E-1,1.2154531E0,5.489218E-1,4.7213817E-1,-3.8442248E-1,2.6378554E-1,9.935182E-2,3.5727468E-1,-1.1773443E-1,3.846451E-1,-1.436263E-1,-2.4623919E-1,7.3868476E-2,-1.7907692E-1,-3.706079E-1,3.467754E-1],"categories":[],"categories_nodes":[],"categories_segments":[],"categories_sizes":[],"default_left":[0,0,0,0,0,0,0,0,0,0,0,0,0,0,0,0,0,0,0,0,0,0,0,0,0,0,0,0,0],"id":1,"left_children":[1,3,5,7,9,11,13,-1,15,17,19,21,23,25,27,-1,-1,-1,-1,-1,-1,-1,-1,-1,-1,-1,-1,-1,-1],"loss_changes":[4.2073403E3,1.658916E2,5.377134E2,1.6511719E1,7.064618E1,1.3151392E2,3.224883E2,0E0,1.0322754E1,4.0881958E1,6.0402405E1,1.4479677E2,9.784155E1,2.4672614E2,9.664172E1,0E0,0E0,0E0,0E0,0E0,0E0,0E0,0E0,0E0,0E0,0E0,0E0,0E0,0E0],"parents":[2147483647,0,0,1,1,2,2,3,3,4,4,5,5,6,6,8,8,9,9,10,10,11,11,12,12,13,13,14,14],"right_children":[2,4,6,8,10,12,14,-1,16,18,20,22,24,26,28,-1,-1,-1,-1,-1,-1,-1,-1,-1,-1,-1,-1,-1,-1],"split_conditions":[-5.5305674E-3,-1.2751014E-2,8.6511625E-7,8.1337637E-1,-6.4634853E-3,-8.192157E-1,4.0586553E0,2.0074722E-1,9.274976E-1,1.9602883E-3,8.352869E-1,1.2419018E-2,-2.619221E-4,2.122968E-3,-5.8156177E-3,5.489218E-1,4.7213817E-1,-3.8442248E-1,2.6378554E-1,9.935182E-2,3.5727468E-1,-1.1773443E-1,3.846451E-1,-1.436263E-1,-2.4623919E-1,7.3868476E-2,-1.7907692E-1,-3.706079E-1,3.467754E-1],"split_indices":[22,22,23,0,20,4,4,0,4,29,0,20,22,22,20,0,0,0,0,0,0,0,0,0,0,0,0,0,0],"split_type":[0,0,0,0,0,0,0,0,0,0,0,0,0,0,0,0,0,0,0,0,0,0,0,0,0,0,0,0,0],"sum_hessian":[5.8264204E3,1.1397073E3,4.686713E3,7.444373E2,3.9527E2,3.5019202E3,1.184793E3,1.2892146E1,7.3154517E2,2.5277834E1,3.6999216E2,1.0783304E3,2.4235896E3,9.7611896E2,2.0867397E2,1.3394876E2,5.9759644E2,1.510258E1,1.0175254E1,6.99917E1,3.0000046E2,1.0411969E3,3.7133537E1,9.6499994E2,1.4585897E3,5.4235986E2,4.3375912E2,1.248157E1,1.961924E2],"tree_param":{"num_deleted":"0","num_feature":"30","num_nodes":"29","size_leaf_vector":"1"}},{"base_weights":[-7.2305016E-2,-4.8303166E-1,1.0347193E0,-9.95833E-2,-6.0242057E-1,1.399014E0,4.6684968E-1,-5.683386E-1,3.3843887E-1,-7.0931846E-1,-1.0136933E-1,-2.891372E-1,1.4437866E0,-1.555764E-1,8.7166005E-1,2.79955E-1,-1.6444176E-1,2.3157267E-1,-4.6361253E-2,-1.8513295E-1,3.5112652E-1,2.4320844E-1,-1.2492166E-1,1.6972208E-1,3.689767E-1,1.442827E-1,-2.5201514E-1,3.0501798E-1,-1.663931E-1],"categories":[],"categories_nodes":[],"categories_segments":[],"categories_sizes":[],"default_left":[0,0,0,0,0,0,0,0,0,0,0,0,0,0,0,0,0,0,0,0,0,0,0,0,0,0,0,0,0],"id":2,"left_children":[1,3,5,7,9,11,13,15,17,19,21,-1,23,25,27,-1,-1,-1,-1,-1,-1,-1,-1,-1,-1,-1,-1,-1,-1],"loss_changes":[2.5000198E3,1.8359418E2,3.078119E2,1.9551477E2,1.638009E2,1.0372009E2,1.4652054E2,6.94453E1,1.5159645E2,1.6630505E2,2.3009036E2,0E0,2.188501E1,1.4314072E2,1.8871771E2,0E0,0E0,0E0,0E0,0E0,0E0,0E0,0E0,0E0,0E0,0E0,0E0,0E0,0E0],"parents":[2147483647,0,0,1,1,2,2,3,3,4,4,5,5,6,6,7,7,8,8,9,9,10,10,12,12,13,13,14,14],"right_children":[2,4,6,8,10,12,14,16,18,20,22,-1,24,26,28,-1,-1,-1,-1,-1,-1,-1,-1,-1,-1,-1,-1,-1,-1],"split_conditions":[3.7275454E-6,-1.1045024E-3,-8.723417E-3,9.899687E-1,9.960954E-1,-9.53219E-1,3.4154904E-1,9.7541857E-1,4.874628E-2,2.3514338E0,-1.8429059E-1,-2.891372E-1,-3.1691334E-1,5.1595096E-4,3.9092036E-5,2.79955E-1,-1.6444176E-1,2.3157267E-1,-4.6361253E-2,-1.8513295E-1,3.5112652E-1,2.4320844E-1,-1.2492166E-1,1.6972208E-1,3.689767E-1,1.442827E-1,-2.5201514E-1,3.0501798E-1,-1.663931E-1],"split_indices":[23,22,22,6,6,3,3,6,3,3,3,0,3,17,21,0,0,0,0,0,0,0,0,0,0,0,0,0,0],"split_type":[0,0,0,0,0,0,0,0,0,0,0,0,0,0,0,0,0,0,0,0,0,0,0,0,0,0,0,0,0],"sum_hessian":[5.498351E3,4.0104148E3,1.4879364E3,9.5219946E2,3.0582153E3,9.064407E2,5.8149567E2,4.5996597E2,4.922335E2,2.5204744E3,5.377409E2,1.5606229E1,8.908345E2,2.2915192E2,3.5234375E2,2.3139109E1,4.3682687E2,2.3195753E2,2.6027594E2,2.4837988E3,3.6675407E1,1.4545755E2,3.9228333E2,3.590397E1,8.549305E2,1.2323187E2,1.0592004E2,2.8724216E2,6.510159E1],"tree_param":{"num_deleted":"0","num_feature":"30","num_nodes":"29","size_leaf_vector":"1"}},{"base_weights":[-6.206571E-2,-4.5617026E-1,7.10767E-1,-8.338139E-1,-3.2570937E-1,9.027683E-1,-2.0790267E-1,-9.002963E-1,1.4377217E-1,1.7862022E-1,-4.657303E-1,1.0726334E0,2.3245667E-1,-8.220586E-1,8.4301794E-1,-2.3998637E-1,8.4803596E-2,-3.3457604E-1,4.1798267E-1,1.2898473E-1,-9.540104E-2,-3.2934424E-2,-1.5835953E-1,3.264599E-1,2.0880626E-1,-8.220974E-2,2.4121083E-1,-2.7479723E-1,4.445714E-1,2.6886913E-1,-2.1685518E-1],"categories":[],"categories_nodes":[],"categories_segments":[],"categories_sizes":[],"default_left":[0,0,0,0,0,0,0,0,0,0,0,0,0,0,0,0,0,0,0,0,0,0,0,0,0,0,0,0,0,0,0],"id":3,"left_children":[1,3,5,7,9,11,13,15,17,19,21,23,25,27,29,-1,-1,-1,-1,-1,-1,-1,-1,-1,-1,-1,-1,-1,-1,-1,-1],"loss_changes":[1.5741149E3,1.6863214E2,3.0787195E2,5.7119507E1,1.796466E2,1.6438208E2,1.9475153E2,6.0842407E1,1.26750305E2,1.0447005E2,1.1152902E2,6.377002E1,1.1999653E2,1.3724492E2,4.4255188E1,0E0,0E0,0E0,0E0,0E0,0E0,0E0,0E0,0E0,0E0,0E0,0E0,0E0,0E0,0E0,0E0],"parents":[2147483647,0,0,1,1,2,2,3,3,4,4,5,5,6,6,7,7,8,8,9,9,10,10,11,11,12,12,13,13,14,14],"right_children":[2,4,6,8,10,12,14,16,18,20,22,24,26,28,30,-1,-1,-1,-1,-1,-1,-1,-1,-1,-1,-1,-1,-1,-1,-1,-1],"split_conditions":[1.9749261E-6,9.902944E-1,-3.4538717E0,1.5666397E0,-8.592933E-4,2.122968E-3,1.5300457E0,1.3506544E0,4.476009E-3,1.1849954E-3,-1.8429059E-1,-1.2751014E-2,1.3460293E0,1.3044333E-2,8.7119966E-5,-2.3998637E-1,8.4803596E-2,-3.3457604E-1,4.1798267E-1,1.2898473E-1,-9.540104E-2,-3.2934424E-2,-1.5835953E-1,3.264599E-1,2.0880626E-1,-8.220974E-2,2.4121083E-1,-2.7479723E-1,4.445714E-1,2.6886913E-1,-2.1685518E-1],"split_indices":[23,6,5,3,22,22,3,7,20,12,3,22,3,20,11,0,0,0,0,0,0,0,0,0,0,0,0,0,0,0,0],"split_type":[0,0,0,0,0,0,0,0,0,0,0,0,0,0,0,0,0,0,0,0,0,0,0,0,0,0,0,0,0,0,0],"sum_hessian":[5.1681875E3,3.4227605E3,1.7454271E3,8.788233E2,2.543937E3,1.4436978E3,3.0172937E2,8.228653E2,5.5958027E1,5.5280804E2,1.991129E3,1.1518115E3,2.9188626E2,1.9043924E2,1.1129014E2,7.8508624E2,3.777901E1,2.840657E1,2.7551455E1,3.450518E2,2.077563E2,6.655967E2,1.3255323E3,5.8104297E2,5.707685E2,1.6524252E2,1.2664374E2,1.7209879E2,1.8340452E1,9.797597E1,1.3314166E1],"tree_param":{"num_deleted":"0","num_feature":"30","num_nodes":"31","size_leaf_vector":"1"}},{"base_weights":[-6.444151E-2,-3.8713294E-1,5.5489093E-1,-6.782076E-1,-2.1914294E-1,1.1014428E0,3.0073962E-1,-9.8234653E-1,-4.0858355E-1,2.2347942E-1,-4.5498842E-1,-4.151712E-1,1.1564142E0,4.8758715E-1,-5.607232E-1,-2.63238E-1,4.3622497E-1,-1.6677985E-2,-1.8472812E-1,2.9202519E-2,5.14804E-1,4.5968357E-2,-1.6126403E-1,3.0330455E-1,1.7914326E-3,1.414229E-1,-2.2557804E-1,-2.0364398E-1,3.2097128E-1],"categories":[],"categories_nodes":[],"categories_segments":[],"categories_sizes":[],"default_left":[0,0,0,0,0,0,0,0,0,0,0,0,0,0,0,0,0,0,0,0,0,0,0,0,0,0,0,0,0],"id":4,"left_children":[1,3,5,7,9,11,13,15,17,19,21,-1,23,25,27,-1,-1,-1,-1,-1,-1,-1,-1,-1,-1,-1,-1,-1,-1],"loss_changes":[9.6169684E2,1.5469495E2,2.289682E2,9.4935E1,2.0940431E2,7.944824E1,1.8111017E2,1.04763306E2,6.930219E1,1.3654565E2,1.5890848E2,0E0,3.3486755E1,1.0037695E2,9.391121E1,0E0,0E0,0E0,0E0,0E0,0E0,0E0,0E0,0E0,0E0,0E0,0E0,0E0,0E0],"parents":[2147483647,0,0,1,1,2,2,3,3,4,4,5,5,6,6,7,7,8,8,9,9,10,10,12,12,13,13,14,14],"right_children":[2,4,6,8,10,12,14,16,18,20,22,-1,24,26,28,-1,-1,-1,-1,-1,-1,-1,-1,-1,-1,-1,-1,-1,-1],"split_conditions":[1.9749261E-6,9.9184185E-1,9.6762073E-1,3.0598025E-7,-1.8429059E-1,-2.4568696E-1,-3.4591799E0,1.9768217E0,-3.6196628E0,2.7750042E-4,-2.1568919E-3,-4.151712E-1,-3.304026E0,1.0490066E-3,1.2419018E-2,-2.63238E-1,4.3622497E-1,-1.6677985E-2,-1.8472812E-1,2.9202519E-2,5.14804E-1,4.5968357E-2,-1.6126403E-1,3.0330455E-1,1.7914326E-3,1.414229E-1,-2.2557804E-1,-2.0364398E-1,3.2097128E-1],"split_indices":[23,6,6,23,3,3,5,1,5,13,2,0,5,13,20,0,0,0,0,0,0,0,0,0,0,0,0,0,0],"split_type":[0,0,0,0,0,0,0,0,0,0,0,0,0,0,0,0,0,0,0,0,0,0,0,0,0,0,0,0,0],"sum_hessian":[4.8119956E3,3.163643E3,1.6483525E3,1.1576978E3,2.0059453E3,5.23201E2,1.1251516E3,5.4402405E2,6.136737E2,6.9729297E2,1.3086523E3,1.020863E1,5.129924E2,9.246103E2,2.0054129E2,5.302961E2,1.3727953E1,3.015714E2,3.121023E2,6.590016E2,3.829142E1,3.0006198E2,1.0085904E3,4.8882895E2,2.4163414E1,8.754184E2,4.91919E1,1.7628273E2,2.4258564E1],"tree_param":{"num_deleted":"0","num_feature":"30","num_nodes":"29","size_leaf_vector":"1"}},{"base_weights":[-4.6357203E-2,8.163034E-1,-2.0237736E-1,-1.242681E0,9.175682E-1,-4.1036388E-1,6.437738E-2,-2.8705819E-2,-1.7453854E0,9.807908E-1,1.3391204E-1,-7.358969E-1,-1.9827661E-1,7.056481E-1,-1.355659E-1,-4.933768E-1,-3.8011825E-1,8.481451E-2,2.563727E-1,-3.818107E-1,1.931563E-1,-2.3125792E-1,-1.15878224E-1,6.86601E-2,-1.0964166E-1,2.5903232E-2,2.5603384E-1,4.7237366E-1,-4.533298E-2],"categories":[],"categories_nodes":[],"categories_segments":[],"categories_sizes":[],"default_left":[0,0,0,0,0,0,0,0,0,0,0,0,0,0,0,0,0,0,0,0,0,0,0,0,0,0,0,0,0],"id":5,"left_children":[1,3,5,7,9,11,13,-1,15,17,19,21,23,25,27,-1,-1,-1,-1,-1,-1,-1,-1,-1,-1,-1,-1,-1,-1],"loss_changes":[6.125249E2,1.4533496E2,2.138231E2,1.8523216E1,3.2912903E1,1.495098E2,2.1649008E2,0E0,1.1594315E0,1.762732E1,5.263205E1,4.400949E1,1.4900766E2,7.694731E1,1.19292496E2,0E0,0E0,0E0,0E0,0E0,0E0,0E0,0E0,0E0,0E0,0E0,0E0,0E0,0E0],"parents":[2147483647,0,0,1,1,2,2,3,3,4,4,5,5,6,6,8,8,9,9,10,10,11,11,12,12,13,13,14,14],"right_children":[2,4,6,8,10,12,14,-1,16,18,20,22,24,26,28,-1,-1,-1,-1,-1,-1,-1,-1,-1,-1,-1,-1,-1,-1],"split_conditions":[9.7622085E-1,-4.1552106E-1,4.2762974E-7,7.8480894E-5,-3.2966912E0,9.9324006E-1,-6.715047E-1,-2.8705819E-2,-3.5018754E0,2.034513E-2,6.8934393E0,8.7932244E-2,-1.9218011E-1,8.486921E-1,2.1160863E-8,-4.933768E-1,-3.8011825E-1,8.481451E-2,2.563727E-1,-3.818107E-1,1.931563E-1,-2.3125792E-1,-1.15878224E-1,6.86601E-2,-1.0964166E-1,2.5903232E-2,2.5603384E-1,4.7237366E-1,-4.533298E-2],"split_indices":[6,3,23,13,5,6,4,0,5,19,4,3,3,0,15,0,0,0,0,0,0,0,0,0,0,0,0,0,0],"split_type":[0,0,0,0,0,0,0,0,0,0,0,0,0,0,0,0,0,0,0,0,0,0,0,0,0,0,0,0,0],"sum_hessian":[4.550938E3,6.97015E2,3.853923E3,3.267253E1,6.6434247E2,2.165505E3,1.6884181E3,1.0074389E1,2.2598143E1,6.147442E2,4.9598278E1,8.5427155E2,1.3112334E3,4.0131302E2,1.2871051E3,1.1213938E1,1.1384204E1,4.004663E1,5.746976E2,1.3773303E1,3.5824974E1,5.0417795E2,3.5009363E2,4.4177072E2,8.694626E2,1.388509E2,2.6246213E2,2.8444372E1,1.2586608E3],"tree_param":{"num_deleted":"0","num_feature":"30","num_nodes":"29","size_leaf_vector":"1"}},{"base_weights":[-3.908107E-2,7.294242E-1,-1.9162686E-1,7.912866E-1,-3.7669045E-1,-1.1326521E-1,-6.207847E-1,1.0678005E0,6.621514E-1,-4.0231487E-1,5.2218765E-1,-9.9021024E-1,-5.4413572E-2,-6.901965E-1,4.19659E-1,2.267417E-1,2.9155707E-1,-2.6522747E-1,1.808983E-1,-7.450012E-2,3.3231032E-1,-2.8850004E-1,-1.3144077E-1,3.099725E-2,-7.9308465E-2,-2.88301E-1,-1.1433929E-1],"categories":[],"categories_nodes":[],"categories_segments":[],"categories_sizes":[],"default_left":[0,0,0,0,0,0,0,0,0,0,0,0,0,0,0,0,0,0,0,0,0,0,0,0,0,0,0],"id":6,"left_children":[1,3,5,7,9,11,13,15,17,-1,19,21,23,25,-1,-1,-1,-1,-1,-1,-1,-1,-1,-1,-1,-1,-1],"loss_changes":[5.0727222E2,4.9040955E1,1.2141669E2,2.4234894E1,4.2062687E1,1.575636E2,8.897795E1,3.4200134E0,4.898343E1,0E0,1.4535483E1,1.4604752E1,1.3414618E2,5.8335815E1,0E0,0E0,0E0,0E0,0E0,0E0,0E0,0E0,0E0,0E0,0E0,0E0,0E0],"parents":[2147483647,0,0,1,1,2,2,3,3,4,4,5,5,6,6,7,7,8,8,10,10,11,11,12,12,13,13],"right_children":[2,4,6,8,10,12,14,16,18,-1,20,22,24,26,-1,-1,-1,-1,-1,-1,-1,-1,-1,-1,-1,-1,-1],"split_conditions":[-7.281181E-3,-3.304026E0,-3.4667063E0,-3.4498427E-2,-3.1661124E0,5.2804396E-9,9.107325E-3,-3.6733708E0,-2.742448E0,-4.0231487E-1,4.1437936E-1,-3.678194E0,2.9253284E-4,8.395682E-1,4.19659E-1,2.267417E-1,2.9155707E-1,-2.6522747E-1,1.808983E-1,-7.450012E-2,3.3231032E-1,-2.8850004E-1,-1.3144077E-1,3.099725E-2,-7.9308465E-2,-2.88301E-1,-1.1433929E-1],"split_indices":[22,5,5,22,5,23,29,5,16,0,17,5,22,0,0,0,0,0,0,0,0,0,0,0,0,0,0],"split_type":[0,0,0,0,0,0,0,0,0,0,0,0,0,0,0,0,0,0,0,0,0,0,0,0,0,0,0],"sum_hessian":[4.327046E3,7.1664905E2,3.6103967E3,6.786934E2,3.7955635E1,3.0529514E3,5.574454E2,2.16051E2,4.626424E2,1.6007795E1,2.194784E1,1.9199567E2,2.8609558E3,5.41112E2,1.6333366E1,8.203192E1,1.3401909E2,1.5927851E1,4.4671454E2,1.0883941E1,1.1063899E1,1.4193614E2,5.0059525E1,1.7041613E3,1.1567944E3,1.8105978E2,3.6005225E2],"tree_param":{"num_deleted":"0","num_feature":"30","num_nodes":"27","size_leaf_vector":"1"}},{"base_weights":[-3.5370532E-2,6.2985283E-1,-1.474566E-1,-4.9269283E-1,7.039207E-1,-1.0117061E0,-1.0220707E-1,4.0607482E-1,-4.45101E-1,7.466392E-1,-1.4159614E-1,4.2082244E-1,-1.1740022E0,-2.1009417E-1,3.1398663E-1,-1.7195794E-1,3.6295497E-1,2.1643797E-1,1.1754427E-1,1.8289384E-1,-3.3928552E-1,-1.5789767E-1,-3.02822E-1,8.332821E-3,-1.13833055E-1,2.843696E-1,3.6800836E-4],"categories":[],"categories_nodes":[],"categories_segments":[],"categories_sizes":[],"default_left":[0,0,0,0,0,0,0,0,0,0,0,0,0,0,0,0,0,0,0,0,0,0,0,0,0,0,0],"id":7,"left_children":[1,3,5,7,9,11,13,15,-1,17,19,-1,21,23,25,-1,-1,-1,-1,-1,-1,-1,-1,-1,-1,-1,-1],"loss_changes":[3.0843317E2,4.959694E1,1.384432E2,4.2739014E1,2.0213074E1,7.704164E1,1.5104965E2,2.4881437E1,0E0,1.7539917E1,2.8570654E1,0E0,3.3585052E0,1.5948059E2,1.7821773E2,0E0,0E0,0E0,0E0,0E0,0E0,0E0,0E0,0E0,0E0,0E0,0E0],"parents":[2147483647,0,0,1,1,2,2,3,3,4,4,5,5,6,6,7,7,9,9,10,10,12,12,13,13,14,14],"right_children":[2,4,6,8,10,12,14,16,-1,18,20,-1,22,24,26,-1,-1,-1,-1,-1,-1,-1,-1,-1,-1,-1,-1],"split_conditions":[-7.890005E-3,-4.4095004E-1,-8.100006E-3,7.8480894E-5,-3.2892172E0,1.0439252E0,8.0845195E-1,1.7799599E0,-4.45101E-1,-1.2751014E-2,2.93635E-6,4.2082244E-1,-2.1176165E-1,-5.497215E-1,-2.8708244E-3,-1.7195794E-1,3.6295497E-1,2.1643797E-1,1.1754427E-1,1.8289384E-1,-3.3928552E-1,-1.5789767E-1,-3.02822E-1,8.332821E-3,-1.13833055E-1,2.843696E-1,3.6800836E-4],"split_indices":[22,3,20,13,5,1,3,1,0,22,15,0,9,4,20,0,0,0,0,0,0,0,0,0,0,0,0],"split_type":[0,0,0,0,0,0,0,0,0,0,0,0,0,0,0,0,0,0,0,0,0,0,0,0,0,0,0],"sum_hessian":[4.136554E3,5.964777E2,3.5400764E3,3.691881E1,5.5955896E2,1.7612386E2,3.3639526E3,2.1742031E1,1.5176782E1,5.3265027E2,2.6908646E1,1.0003145E1,1.6612071E2,2.6714548E3,6.924978E2,1.0625252E1,1.1116778E1,3.7225662E2,1.6039368E2,1.565861E1,1.1250035E1,1.0688744E1,1.5543196E2,1.3406772E3,1.3307775E3,1.9050366E2,5.0199414E2],"tree_param":{"num_deleted":"0","num_feature":"30","num_nodes":"27","size_leaf_vector":"1"}},{"base_weights":[-2.3662878E-2,-2.3567456E-1,2.5403383E-1,-6.6432863E-1,-1.1206534E-1,3.9204076E-1,-2.4896182E-1,-8.340737E-1,4.5714542E-1,-3.270964E-1,1.3518165E-1,3.4473446E-1,1.3244649E0,6.7722857E-1,-4.46633E-1,-1.4774053E-1,-2.547483E-1,-1.0957412E-1,4.416743E-1,-1.5772618E-1,4.927149E-2,1.1893929E-1,-1.0549353E-1,7.0331536E-2,2.750186E-1,1.1007708E-1,5.909802E-1,2.3880306E-1,-1.5231542E-1,4.812224E-1,-1.3332641E-1],"categories":[],"categories_nodes":[],"categories_segments":[],"categories_sizes":[],"default_left":[0,0,0,0,0,0,0,0,0,0,0,0,0,0,0,0,0,0,0,0,0,0,0,0,0,0,0,0,0,0,0],"id":8,"left_children":[1,3,5,7,9,11,13,15,17,19,21,23,25,27,29,-1,-1,-1,-1,-1,-1,-1,-1,-1,-1,-1,-1,-1,-1,-1,-1],"loss_changes":[2.3529185E2,1.20078964E2,1.2010643E2,9.6563065E1,9.352121E1,5.988887E1,6.820187E1,1.980542E1,7.8201454E1,1.4982698E2,1.5526154E2,6.188806E1,6.0246742E1,2.3434902E1,6.310612E1,0E0,0E0,0E0,0E0,0E0,0E0,0E0,0E0,0E0,0E0,0E0,0E0,0E0,0E0,0E0,0E0],"parents":[2147483647,0,0,1,1,2,2,3,3,4,4,5,5,6,6,7,7,8,8,9,9,10,10,11,11,12,12,13,13,14,14],"right_children":[2,4,6,8,10,12,14,16,18,20,22,24,26,28,30,-1,-1,-1,-1,-1,-1,-1,-1,-1,-1,-1,-1,-1,-1,-1,-1],"split_conditions":[8.410586E-7,9.911815E-1,3.1002434E-3,3.6202392E-1,8.438587E-8,9.935618E-1,9.7622085E-1,2.3916048E-6,3.4655786E-1,9.9600977E-1,7.047822E-4,1.3255907E0,3.0637503E-2,1.2156322E-3,2.1160863E-8,-1.4774053E-1,-2.547483E-1,-1.0957412E-1,4.416743E-1,-1.5772618E-1,4.927149E-2,1.1893929E-1,-1.0549353E-1,7.0331536E-2,2.750186E-1,1.1007708E-1,5.909802E-1,2.3880306E-1,-1.5231542E-1,4.812224E-1,-1.3332641E-1],"split_indices":[23,6,22,18,23,6,6,15,4,6,22,7,18,13,15,0,0,0,0,0,0,0,0,0,0,0,0,0,0,0,0],"split_type":[0,0,0,0,0,0,0,0,0,0,0,0,0,0,0,0,0,0,0,0,0,0,0,0,0,0,0,0,0,0,0],"sum_hessian":[3.9964326E3,2.2662437E3,1.7301891E3,5.0723325E2,1.7590104E3,1.3576854E3,3.725036E2,4.405536E2,6.667966E1,9.408024E2,8.1820795E2,1.292132E3,6.5553505E1,6.551602E1,3.0698758E2,1.9033492E2,2.5021867E2,3.9600197E1,2.7079458E1,5.956037E2,3.4519873E2,5.0780405E2,3.104039E2,1.192065E3,1.0006695E2,3.542412E1,3.0129387E1,5.3876266E1,1.1639754E1,1.082303E1,2.9616455E2],"tree_param":{"num_deleted":"0","num_feature":"30","num_nodes":"31","size_leaf_vector":"1"}},{"base_weights":[-3.2527633E-2,-1.9089495E-1,2.528086E-1,-1.1927766E-1,-7.6102966E-1,6.5191126E-1,1.22293E-1,-5.1599956E-1,-4.624438E-2,6.158411E-1,-9.161531E-1,8.8903165E-1,4.6618754E-1,-1.3225651E0,1.6855398E-1,-1.5311848E-1,4.8287573E-1,6.278831E-2,-6.2332813E-2,-2.8836927E-1,1.15287565E-1,2.5826767E-1,1.7984518E-1,2.271434E-1,5.0746102E-2,-2.863141E-1,-4.135419E-1,1.7507988E-1,1.067135E-2],"categories":[],"categories_nodes":[],"categories_segments":[],"categories_sizes":[],"default_left":[0,0,0,0,0,0,0,0,0,0,0,0,0,0,0,0,0,0,0,0,0,0,0,0,0,0,0,0,0],"id":9,"left_children":[1,3,5,7,9,11,13,15,17,-1,19,21,23,25,27,-1,-1,-1,-1,-1,-1,-1,-1,-1,-1,-1,-1,-1,-1],"loss_changes":[1.7446645E2,1.0137953E2,7.1780556E1,6.3910625E1,1.3859479E2,1.4955109E1,6.9413216E1,8.0979065E1,1.1251334E2,0E0,8.641417E1,3.6446E0,2.2174393E1,1.8944588E0,6.734984E1,0E0,0E0,0E0,0E0,0E0,0E0,0E0,0E0,0E0,0E0,0E0,0E0,0E0,0E0],"parents":[2147483647,0,0,1,1,2,2,3,3,4,4,5,5,6,6,7,7,8,8,10,10,11,11,12,12,13,13,14,14],"right_children":[2,4,6,8,10,12,14,16,18,-1,20,22,24,26,28,-1,-1,-1,-1,-1,-1,-1,-1,-1,-1,-1,-1,-1,-1],"split_conditions":[1.6065101E-6,1.8157254E0,-1.2751014E-2,3.838631E-4,7.580941E-8,-3.4498427E-2,-8.100006E-3,8.980191E-1,1.1164643E-3,6.158411E-1,1.9768217E0,8.3487167E-4,6.469597E-1,8.475147E-6,7.8219324E-5,-1.5311848E-1,4.8287573E-1,6.278831E-2,-6.2332813E-2,-2.8836927E-1,1.15287565E-1,2.5826767E-1,1.7984518E-1,2.271434E-1,5.0746102E-2,-2.863141E-1,-4.135419E-1,1.7507988E-1,1.067135E-2],"split_indices":[23,1,22,29,21,22,20,0,27,0,1,20,4,23,17,0,0,0,0,0,0,0,0,0,0,0,0,0,0],"split_type":[0,0,0,0,0,0,0,0,0,0,0,0,0,0,0,0,0,0,0,0,0,0,0,0,0,0,0,0,0],"sum_hessian":[3.8608691E3,2.4828474E3,1.3780219E3,2.205774E3,2.770735E2,3.395862E2,1.0384357E3,3.429289E2,1.862845E3,1.2717279E1,2.643562E2,1.4914932E2,1.904369E2,3.2215225E1,1.0062204E3,3.2992502E2,1.3003868E1,7.559017E2,1.1069432E3,2.2550157E2,3.885465E1,8.065615E1,6.8493164E1,7.103467E1,1.1940224E2,2.0995707E1,1.1219519E1,1.9258311E2,8.1363727E2],"tree_param":{"num_deleted":"0","num_feature":"30","num_nodes":"29","size_leaf_vector":"1"}},{"base_weights":[-2.6160879E-2,5.313395E-1,-8.926994E-2,1.6514356E-1,7.2033244E-1,-9.3907523E-1,-5.0198555E-2,-2.3492587E-1,6.102924E-1,-1.0318439E-1,7.9045576E-1,3.393422E-1,-1.1684717E0,-2.6457688E-1,6.624666E-2,-1.7975555E-1,5.5158533E-2,2.2205609E-1,1.5423565E-2,2.1053657E-1,-1.325538E-2,-2.965758E-1,-2.3872349E-1,-1.9256353E-1,-3.2562904E-2,4.9466826E-2,-2.4791278E-2],"categories":[],"categories_nodes":[],"categories_segments":[],"categories_sizes":[],"default_left":[0,0,0,0,0,0,0,0,0,0,0,0,0,0,0,0,0,0,0,0,0,0,0,0,0,0,0],"id":10,"left_children":[1,3,5,7,9,11,13,15,17,-1,19,-1,21,23,25,-1,-1,-1,-1,-1,-1,-1,-1,-1,-1,-1,-1],"loss_changes":[1.317E2,2.6342957E1,1.1164926E2,2.3080547E1,1.9950974E1,7.786836E1,8.0252884E1,1.5054049E1,9.351486E0,0E0,1.0310593E1,0E0,5.11322E-1,7.68621E1,7.333002E1,0E0,0E0,0E0,0E0,0E0,0E0,0E0,0E0,0E0,0E0,0E0,0E0],"parents":[2147483647,0,0,1,1,2,2,3,3,4,4,5,5,6,6,7,7,8,8,10,10,12,12,13,13,14,14],"right_children":[2,4,6,8,10,12,14,16,18,-1,20,-1,22,24,26,-1,-1,-1,-1,-1,-1,-1,-1,-1,-1,-1,-1],"split_conditions":[9.742259E-1,5.3573017E0,-7.91818E-3,6.390326E-5,5.2540447E-4,-3.6921075E-1,8.478169E-1,-1.21434005E-2,3.9172966E-2,-1.0318439E-1,2.933291E-2,3.393422E-1,7.6213723E-1,4.837445E-4,3.3125828E-4,-1.7975555E-1,5.5158533E-2,2.2205609E-1,1.5423565E-2,2.1053657E-1,-1.325538E-2,-2.965758E-1,-2.3872349E-1,-1.9256353E-1,-3.2562904E-2,4.9466826E-2,-2.4791278E-2],"split_indices":[6,4,20,23,29,8,0,14,18,0,2,0,14,29,17,0,0,0,0,0,0,0,0,0,0,0,0],"split_type":[0,0,0,0,0,0,0,0,0,0,0,0,0,0,0,0,0,0,0,0,0,0,0,0,0,0,0],"sum_hessian":[3.7432012E3,3.8063812E2,3.362563E3,1.2957787E2,2.5106026E2,1.4780196E2,3.214761E3,6.824172E1,6.133614E1,1.4630146E1,2.3643011E2,1.3422442E1,1.3437952E2,1.1315574E3,2.0832036E3,3.308708E1,3.5154644E1,4.070826E1,2.0627882E1,2.2278026E2,1.3649854E1,1.240148E2,1.0364711E1,2.3749039E2,8.94067E2,1.4771693E3,6.060343E2],"tree_param":{"num_deleted":"0","num_feature":"30","num_nodes":"27","size_leaf_vector":"1"}},{"base_weights":[-1.729616E-2,-1.2333662E-1,2.9215676E-1,-1.0814413E-3,-4.7305623E-1,1.7729545E0,2.1309514E-1,-2.384186E-1,1.602582E-1,-3.098527E-2,-6.977173E-1,9.0240127E-1,6.464295E-1,-8.514323E-1,3.767828E-1,-8.037108E-2,2.5713068E-1,1.14354566E-1,-6.03596E-2,2.2651029E-1,-1.1335953E-1,-1.9962072E-1,1.3529602E-1,-2.1304366E-1,4.643325E-1,-2.5204194E-1,2.0277038E-1,4.9906874E-1,7.346526E-2],"categories":[],"categories_nodes":[],"categories_segments":[],"categories_sizes":[],"default_left":[0,0,0,0,0,0,0,0,0,0,0,0,0,0,0,0,0,0,0,0,0,0,0,0,0,0,0,0,0],"id":11,"left_children":[1,3,5,7,9,11,13,15,17,19,21,-1,23,25,27,-1,-1,-1,-1,-1,-1,-1,-1,-1,-1,-1,-1,-1,-1],"loss_changes":[1.21004166E2,1.1742202E2,1.1018134E2,7.792566E1,7.065169E1,9.869049E1,1.5567819E2,8.667252E1,1.4461151E2,9.489467E1,5.88869E1,0E0,5.3662636E1,3.1029915E1,1.039898E2,0E0,0E0,0E0,0E0,0E0,0E0,0E0,0E0,0E0,0E0,0E0,0E0,0E0,0E0],"parents":[2147483647,0,0,1,1,2,2,3,3,4,4,5,5,6,6,7,7,8,8,9,9,10,10,12,12,13,13,14,14],"right_children":[2,4,6,8,10,12,14,16,18,20,22,-1,24,26,28,-1,-1,-1,-1,-1,-1,-1,-1,-1,-1,-1,-1,-1,-1],"split_conditions":[8.0845195E-1,5.593364E-4,8.422969E-1,1.361887E-7,-7.9126745E-2,9.242036E-5,6.1223396E-8,2.155819E-2,-2.5539422E-1,-3.7512968E0,7.0167807E-6,9.0240127E-1,-3.754721E-4,1.8084266E-4,-1.7782524E-1,-8.037108E-2,2.5713068E-1,1.14354566E-1,-6.03596E-2,2.2651029E-1,-1.1335953E-1,-1.9962072E-1,1.3529602E-1,-2.1304366E-1,4.643325E-1,-2.5204194E-1,2.0277038E-1,4.9906874E-1,7.346526E-2],"split_indices":[3,22,3,23,16,17,23,8,4,5,23,0,12,11,4,0,0,0,0,0,0,0,0,0,0,0,0,0,0],"split_type":[0,0,0,0,0,0,0,0,0,0,0,0,0,0,0,0,0,0,0,0,0,0,0,0,0,0,0,0,0],"sum_hessian":[3.6874744E3,2.7463784E3,9.4109607E2,2.0349915E3,7.113869E2,4.7698067E1,8.93398E2,8.23542E2,1.2114495E3,2.3971135E2,4.7167557E2,1.8132828E1,2.9565239E1,1.190638E2,7.743342E2,7.728713E2,5.0670704E1,6.963337E2,5.151158E2,7.448768E1,1.6522366E2,4.3619928E2,3.5476273E1,1.3212112E1,1.6353127E1,1.0880724E2,1.025655E1,3.7715202E1,7.36619E2],"tree_param":{"num_deleted":"0","num_feature":"30","num_nodes":"29","size_leaf_vector":"1"}},{"base_weights":[-2.9397413E-2,-1.555455E-1,1.5018572E-1,2.497647E-2,-4.875749E-1,2.2123271E-1,-1.0906807E0,-3.8516337E-1,1.7889805E-1,-5.9466016E-1,5.975724E-1,1.3444506E0,1.6794465E-1,-1.2958533E0,-6.115158E-1,1.3744152E-1,-1.5076824E-1,6.8688296E-2,-2.857744E-1,-8.76962E-2,-2.5959855E-1,4.0178078E-1,-2.7945948E-1,7.9178363E-1,-7.354487E-2,6.5035E-2,-9.058994E-2,-4.632047E-1,-2.92971E-1,-3.102614E-1,6.7091905E-2],"categories":[],"categories_nodes":[],"categories_segments":[],"categories_sizes":[],"default_left":[0,0,0,0,0,0,0,0,0,0,0,0,0,0,0,0,0,0,0,0,0,0,0,0,0,0,0,0,0,0,0],"id":12,"left_children":[1,3,5,7,9,11,13,15,17,19,21,23,25,27,29,-1,-1,-1,-1,-1,-1,-1,-1,-1,-1,-1,-1,-1,-1,-1,-1],"loss_changes":[8.147689E1,1.2662648E2,1.3082832E2,8.639488E1,8.6464615E1,8.401311E1,7.899872E0,7.608356E1,1.2609906E2,7.328691E1,1.1574368E2,1.8988582E2,6.551755E1,3.8858948E0,1.33539E1,0E0,0E0,0E0,0E0,0E0,0E0,0E0,0E0,0E0,0E0,0E0,0E0,0E0,0E0,0E0,0E0],"parents":[2147483647,0,0,1,1,2,2,3,3,4,4,5,5,6,6,7,7,8,8,9,9,10,10,11,11,12,12,13,13,14,14],"right_children":[2,4,6,8,10,12,14,16,18,20,22,24,26,28,30,-1,-1,-1,-1,-1,-1,-1,-1,-1,-1,-1,-1,-1,-1,-1,-1],"split_conditions":[3.662544E-1,2.812295E-3,-1.9576127E-2,-2.0348898E-1,-2.3509737E-2,-1.036659E0,3.66007E-2,-1.1024334E-2,4.2371056E-3,3.917218E-3,1.9501203E-4,2.5867544E-6,-3.4591799E0,-2.0107673E-3,3.5542026E-4,1.3744152E-1,-1.5076824E-1,6.8688296E-2,-2.857744E-1,-8.76962E-2,-2.5959855E-1,4.0178078E-1,-2.7945948E-1,7.9178363E-1,-7.354487E-2,6.5035E-2,-9.058994E-2,-4.632047E-1,-2.92971E-1,-3.102614E-1,6.7091905E-2],"split_indices":[3,16,8,16,8,4,24,22,19,12,19,21,5,22,17,0,0,0,0,0,0,0,0,0,0,0,0,0,0,0,0],"split_type":[0,0,0,0,0,0,0,0,0,0,0,0,0,0,0,0,0,0,0,0,0,0,0,0,0,0,0,0,0,0,0],"sum_hessian":[3.5965112E3,2.1125583E3,1.4839528E3,1.3685052E3,7.4405316E2,1.4035907E3,8.0362076E1,3.7343488E2,9.950704E2,6.772249E2,6.6828255E1,6.3571568E1,1.3400192E3,5.6265205E1,2.4096869E1,7.058466E1,3.0285022E2,9.277993E2,6.727104E1,4.3703598E2,2.401889E2,4.2070385E1,2.475787E1,3.0096245E1,3.3475323E1,1.1415592E3,1.9845993E2,1.0240124E1,4.602508E1,1.4048319E1,1.004855E1],"tree_param":{"num_deleted":"0","num_feature":"30","num_nodes":"31","size_leaf_vector":"1"}},{"base_weights":[-2.1463612E-2,-8.0316466E-1,6.3948524E-3,-1.0486852E0,2.1719828E-1,4.0183422E-1,-4.2667303E-2,-3.8129373E-3,-1.1561838E0,5.881793E-1,1.718873E-1,-4.843294E-1,2.0154838E-3,-3.431869E-1,-2.8277078E-1,1.9416502E-1,-1.895935E-2,-9.931497E-2,1.0330792E-1,5.9045E-1,-1.5114893E-1,8.6760685E-2,-2.0168502E-2],"categories":[],"categories_nodes":[],"categories_segments":[],"categories_sizes":[],"default_left":[0,0,0,0,0,0,0,0,0,0,0,0,0,0,0,0,0,0,0,0,0,0,0],"id":13,"left_children":[1,3,5,7,-1,9,11,-1,13,15,17,19,21,-1,-1,-1,-1,-1,-1,-1,-1,-1,-1],"loss_changes":[7.72742E1,5.012858E1,6.6472595E1,1.1825859E1,0E0,1.620391E1,6.015292E1,0E0,5.246277E-1,2.6144966E1,2.3255627E1,9.5860275E1,7.897078E1,0E0,0E0,0E0,0E0,0E0,0E0,0E0,0E0,0E0,0E0],"parents":[2147483647,0,0,1,1,2,2,3,3,5,5,6,6,8,8,9,9,10,10,11,11,12,12],"right_children":[2,4,6,8,-1,10,12,-1,14,16,18,20,22,-1,-1,-1,-1,-1,-1,-1,-1,-1,-1],"split_conditions":[-8.100006E-3,3.2493934E-2,-8.723417E-3,-1.1024334E-2,2.1719828E-1,-1.7976226E-2,-2.0348898E-1,-3.8129373E-3,9.81873E-1,-3.5129673E0,6.262851E-1,2.2130609E-5,-7.9126745E-2,-3.431869E-1,-2.8277078E-1,1.9416502E-1,-1.895935E-2,-9.931497E-2,1.0330792E-1,5.9045E-1,-1.5114893E-1,8.6760685E-2,-2.0168502E-2],"split_indices":[20,10,22,22,0,18,16,0,6,5,3,17,16,0,0,0,0,0,0,0,0,0,0],"split_type":[0,0,0,0,0,0,0,0,0,0,0,0,0,0,0,0,0,0,0,0,0,0,0],"sum_hessian":[3.548184E3,1.2210249E2,3.4260815E3,1.0646927E2,1.5633229E1,3.7816122E2,3.0479204E3,1.0033538E1,9.643573E1,2.0887915E2,1.6928207E2,2.8003143E2,2.767889E3,1.0006844E1,8.642889E1,1.6270021E2,4.6178932E1,5.0405197E1,1.1887688E2,1.135251E1,2.6867892E2,5.351149E2,2.232774E3],"tree_param":{"num_deleted":"0","num_feature":"30","num_nodes":"23","size_leaf_vector":"1"}},{"base_weights":[-1.8076286E-2,-7.3288935E-1,1.2461983E-2,-1.8685512E-1,-1.0673177E0,-2.1223376E-2,5.8818114E-1,3.1955507E-1,-5.434362E-1,-1.3869174E-1,-1.1343819E0,-2.065782E-1,1.0303026E-1,1.7691936E0,1.7933644E-1,2.3032418E-3,-2.867788E-1,-3.023619E-1,-2.7565175E-1,-1.5282254E-1,-1.099512E-2,-1.6824451E-1,3.4933858E-2,6.1774766E-1,9.1975905E-2,2.5308067E-1,-1.5435427E-1],"categories":[],"categories_nodes":[],"categories_segments":[],"categories_sizes":[],"default_left":[0,0,0,0,0,0,0,0,0,0,0,0,0,0,0,0,0,0,0,0,0,0,0,0,0,0,0],"id":14,"left_children":[1,3,5,7,9,11,13,-1,15,-1,17,19,21,23,25,-1,-1,-1,-1,-1,-1,-1,-1,-1,-1,-1,-1],"loss_changes":[7.59925E1,2.6044304E1,6.474635E1,2.8308607E1,3.039322E0,7.263789E1,8.910501E1,0E0,1.4542337E1,0E0,1.8663025E-1,8.329198E1,5.3782436E1,4.666516E1,9.098703E1,0E0,0E0,0E0,0E0,0E0,0E0,0E0,0E0,0E0,0E0,0E0,0E0],"parents":[2147483647,0,0,1,1,2,2,3,3,4,4,5,5,6,6,8,8,10,10,11,11,12,12,13,13,14,14],"right_children":[2,4,6,8,10,12,14,-1,16,-1,18,20,22,24,26,-1,-1,-1,-1,-1,-1,-1,-1,-1,-1,-1,-1],"split_conditions":[5.2804396E-9,1.1783723E0,9.9685895E-1,1.0553556E-6,2.6046553E-8,3.6220433E-7,-5.3810466E-2,3.1955507E-1,-1.4853986E-1,-1.3869174E-1,-1.9218011E-1,9.923556E-1,8.1337637E-1,1.6440601E-4,-1.6307722E-1,2.3032418E-3,-2.867788E-1,-3.023619E-1,-2.7565175E-1,-1.5282254E-1,-1.099512E-2,-1.6824451E-1,3.4933858E-2,6.1774766E-1,9.1975905E-2,2.5308067E-1,-1.5435427E-1],"split_indices":[23,7,6,21,15,23,24,0,8,0,3,6,0,20,26,0,0,0,0,0,0,0,0,0,0,0,0],"split_type":[0,0,0,0,0,0,0,0,0,0,0,0,0,0,0,0,0,0,0,0,0,0,0,0,0,0,0],"sum_hessian":[3.481011E3,1.4262578E2,3.3383853E3,5.4176517E1,8.844927E1,3.1538494E3,1.8453584E2,1.0603551E1,4.3572968E1,1.0237955E1,7.821131E1,1.2657262E3,1.8881232E3,4.745345E1,1.370824E2,2.2745968E1,2.0826998E1,2.3238937E1,5.4972378E1,3.6276816E2,9.02958E2,8.527188E1,1.8028513E3,3.1617208E1,1.583624E1,6.701878E1,7.0063614E1],"tree_param":{"num_deleted":"0","num_feature":"30","num_nodes":"27","size_leaf_vector":"1"}},{"base_weights":[-2.0350423E-2,-7.0266265E-1,4.936447E-3,2.7358977E-2,-9.72622E-1,4.537933E-2,-4.817183E-1,-2.825256E-1,2.611965E-1,-1.1116638E0,-6.249455E-1,5.8949727E-1,1.415854E-2,-7.861286E-1,3.7883618E-1,-2.9020318E-1,-2.7198914E-1,2.0652153E-2,-2.7084193E-1,1.9826458E-1,6.947475E-2,6.907727E-2,-1.602886E-2,-2.9353687E-1,1.0479788E-1,-2.6888339E-2,4.1271377E-1],"categories":[],"categories_nodes":[],"categories_segments":[],"categories_sizes":[],"default_left":[0,0,0,0,0,0,0,0,0,0,0,0,0,0,0,0,0,0,0,0,0,0,0,0,0,0,0],"id":15,"left_children":[1,3,5,7,9,11,13,-1,-1,15,17,19,21,23,25,-1,-1,-1,-1,-1,-1,-1,-1,-1,-1,-1,-1],"loss_changes":[5.915483E1,2.4148731E1,6.5064644E1,3.895745E1,4.3233643E0,5.1850143E1,6.644777E1,0E0,0E0,7.448578E-2,8.294198E0,1.0504913E1,5.9231945E1,8.7633224E1,4.1013985E1,0E0,0E0,0E0,0E0,0E0,0E0,0E0,0E0,0E0,0E0,0E0,0E0],"parents":[2147483647,0,0,1,1,2,2,3,3,4,4,5,5,6,6,9,9,10,10,11,11,12,12,13,13,14,14],"right_children":[2,4,6,8,10,12,14,-1,-1,16,18,20,22,24,26,-1,-1,-1,-1,-1,-1,-1,-1,-1,-1,-1,-1],"split_conditions":[5.2804396E-9,8.495866E-4,-3.3618665E0,-3.6799343E0,4.570109E-2,9.6762073E-1,-9.6293606E-2,-2.825256E-1,2.611965E-1,-1.8429059E-1,3.4426667E-2,9.569115E-1,4.34886E-6,6.8934393E0,1.0986024E-2,-2.9020318E-1,-2.7198914E-1,2.0652153E-2,-2.7084193E-1,1.9826458E-1,6.947475E-2,6.907727E-2,-1.602886E-2,-2.9353687E-1,1.0479788E-1,-2.6888339E-2,4.1271377E-1],"split_indices":[23,25,5,5,9,6,8,0,0,3,3,18,13,4,20,0,0,0,0,0,0,0,0,0,0,0,0],"split_type":[0,0,0,0,0,0,0,0,0,0,0,0,0,0,0,0,0,0,0,0,0,0,0,0,0,0,0],"sum_hessian":[3.4282878E3,1.22517044E2,3.3057708E3,3.3072968E1,8.944408E1,3.0521316E3,2.5363916E2,1.5470698E1,1.7602268E1,6.3887684E1,2.5556393E1,1.6562012E2,2.8865115E3,1.8736414E2,6.627503E1,2.0757341E1,4.3130344E1,1.0045944E1,1.55104475E1,1.0017221E2,6.544791E1,6.637038E2,2.2228076E3,1.417376E2,4.5626534E1,4.7941547E1,1.8333487E1],"tree_param":{"num_deleted":"0","num_feature":"30","num_nodes":"27","size_leaf_vector":"1"}},{"base_weights":[-1.7534055E-2,-8.150041E-1,3.5816797E-3,-1.1052818E0,1.7061493E-1,-5.066965E-1,3.062066E-2,-1.1701832E0,-1.770675E-1,-6.720063E-1,3.2035843E-1,6.0710043E-2,-4.241641E-1,-2.745562E-1,-3.8579324E-1,2.2768751E-1,-2.2703977E-1,-1.697206E-2,5.0609324E-2,-1.6766553E-1,1.4242758E-1],"categories":[],"categories_nodes":[],"categories_segments":[],"categories_sizes":[],"default_left":[0,0,0,0,0,0,0,0,0,0,0,0,0,0,0,0,0,0,0,0,0],"id":16,"left_children":[1,3,5,7,-1,9,11,13,-1,15,-1,17,19,-1,-1,-1,-1,-1,-1,-1,-1],"loss_changes":[5.6705452E1,3.7761597E1,4.5260788E1,1.8739395E0,0E0,4.8798283E1,4.263051E1,1.6789627E0,0E0,5.6481995E1,0E0,5.3255573E1,4.7363487E1,0E0,0E0,0E0,0E0,0E0,0E0,0E0,0E0],"parents":[2147483647,0,0,1,1,2,2,3,3,5,5,6,6,7,7,9,9,11,11,12,12],"right_children":[2,4,6,8,-1,10,12,14,-1,16,-1,18,20,-1,-1,-1,-1,-1,-1,-1,-1],"split_conditions":[-8.506509E-3,1.5337013E-2,2.1097697E-4,4.0371478E-1,1.7061493E-1,4.040576E-2,-3.348598E0,3.7275454E-6,-1.770675E-1,-3.8882344E0,3.2035843E-1,-3.6816533E0,4.0786634E-3,-2.745562E-1,-3.8579324E-1,2.2768751E-1,-2.2703977E-1,-1.697206E-2,5.0609324E-2,-1.6766553E-1,1.4242758E-1],"split_indices":[20,29,29,18,0,12,5,23,0,5,0,5,29,0,0,0,0,0,0,0,0],"split_type":[0,0,0,0,0,0,0,0,0,0,0,0,0,0,0,0,0,0,0,0,0],"sum_hessian":[3.3671462E3,8.685961E1,3.2802866E3,7.275739E1,1.4102218E1,1.6506696E2,3.1152195E3,6.2529606E1,1.0227787E1,1.5109935E2,1.3967609E1,2.921906E3,1.9331355E2,5.2422295E1,1.0107314E1,1.9616283E1,1.3148306E2,1.531899E3,1.390007E3,1.5489839E2,3.841517E1],"tree_param":{"num_deleted":"0","num_feature":"30","num_nodes":"21","size_leaf_vector":"1"}},{"base_weights":[-1.2029697E-2,7.853704E-2,-1.6211455E-1,-1.3610248E-1,2.3223796E-1,-3.166835E-1,2.439655E-1,-9.078926E-1,-6.968031E-2,-3.4554884E-1,3.119205E-1,-6.6243166E-1,-2.8500676E-2,7.825137E-2,1.0334493E0,-6.1166763E-2,-2.9529205E-1,3.341294E-1,-2.6780963E-2,2.5401738E-1,-1.3251802E-1,1.2010339E-1,-1.903454E-2,-5.1649953E-3,-1.9386445E-1,-1.0530812E-1,1.6152641E-1,-1.2927745E-1,9.199327E-2,8.255068E-1,1.4240587E-1],"categories":[],"categories_nodes":[],"categories_segments":[],"categories_sizes":[],"default_left":[0,0,0,0,0,0,0,0,0,0,0,0,0,0,0,0,0,0,0,0,0,0,0,0,0,0,0,0,0,0,0],"id":17,"left_children":[1,3,5,7,9,11,13,15,17,19,21,23,25,27,29,-1,-1,-1,-1,-1,-1,-1,-1,-1,-1,-1,-1,-1,-1,-1,-1],"loss_changes":[4.553927E1,6.893038E1,7.914011E1,4.4695797E1,5.605603E1,9.099195E1,4.5477257E1,1.2520214E1,4.2271194E1,3.7077682E1,6.996212E1,3.0111954E1,1.3196416E2,4.9558987E1,6.345468E1,0E0,0E0,0E0,0E0,0E0,0E0,0E0,0E0,0E0,0E0,0E0,0E0,0E0,0E0,0E0,0E0],"parents":[2147483647,0,0,1,1,2,2,3,3,4,4,5,5,6,6,7,7,8,8,9,9,10,10,11,11,12,12,13,13,14,14],"right_children":[2,4,6,8,10,12,14,16,18,20,22,24,26,28,30,-1,-1,-1,-1,-1,-1,-1,-1,-1,-1,-1,-1,-1,-1,-1,-1],"split_conditions":[3.2218225E-6,-2.0253772E-1,2.4036663E-3,5.968999E-6,3.838631E-4,1.65259E-5,5.4584205E-1,8.5331016E-4,6.015513E-8,-3.8882344E0,2.0413606E-3,-1.0012172E0,1.4624966E-3,-1.5270219E-2,-2.1992868E-1,-6.1166763E-2,-2.9529205E-1,3.341294E-1,-2.6780963E-2,2.5401738E-1,-1.3251802E-1,1.2010339E-1,-1.903454E-2,-5.1649953E-3,-1.9386445E-1,-1.0530812E-1,1.6152641E-1,-1.2927745E-1,9.199327E-2,8.255068E-1,1.4240587E-1],"split_indices":[15,28,29,17,29,15,18,27,21,5,27,4,27,24,4,0,0,0,0,0,0,0,0,0,0,0,0,0,0,0,0],"split_type":[0,0,0,0,0,0,0,0,0,0,0,0,0,0,0,0,0,0,0,0,0,0,0,0,0,0,0,0,0,0,0],"sum_hessian":[3.3501836E3,2.0893672E3,1.2608164E3,8.7184393E2,1.2175232E3,9.132179E2,3.4759854E2,6.908449E1,8.0275946E2,1.4755522E2,1.069968E3,4.1514206E2,4.9807587E2,2.872972E2,6.0301323E1,2.0161642E1,4.8922848E1,2.0819475E1,7.8194E2,1.7608398E1,1.2994682E2,7.46045E2,3.23923E2,6.216787E1,3.5297418E2,3.1480878E2,1.8326709E2,9.4040855E1,1.9325636E2,1.0235308E1,5.0066013E1],"tree_param":{"num_deleted":"0","num_feature":"30","num_nodes":"31","size_leaf_vector":"1"}},{"base_weights":[-9.856056E-3,-8.688589E-2,1.8272932E-1,-1.19648516E-1,5.8926076E-1,-1.02455E0,2.4165958E-1,-8.9046754E-2,-9.3444395E-1,2.113591E0,-1.964942E-1,-1.2506633E0,-9.78613E-2,3.39576E-1,-3.914452E-1,2.4962696E-1,-2.8023995E-2,-3.159631E-1,6.058433E-3,1.7611404E-1,7.3120767E-1,-2.5771356E-1,1.7983295E-1,-2.8402004E-1,-3.7874404E-1,5.7501618E-2,2.0025362E-1,-9.78613E-2,5.8115564E-2],"categories":[],"categories_nodes":[],"categories_segments":[],"categories_sizes":[],"default_left":[0,0,0,0,0,0,0,0,0,0,0,0,0,0,0,0,0,0,0,0,0,0,0,0,0,0,0,0,0],"id":18,"left_children":[1,3,5,7,9,11,13,15,17,19,21,23,-1,25,27,-1,-1,-1,-1,-1,-1,-1,-1,-1,-1,-1,-1,-1,-1],"loss_changes":[4.943435E1,5.272939E1,6.773534E1,5.660805E1,1.317651E2,7.4899406E0,5.8099857E1,5.485118E1,2.5955101E1,4.2771286E1,5.5471092E1,1.0360718E0,0E0,3.9920486E1,2.1952673E1,0E0,0E0,0E0,0E0,0E0,0E0,0E0,0E0,0E0,0E0,0E0,0E0,0E0,0E0],"parents":[2147483647,0,0,1,1,2,2,3,3,4,4,5,5,6,6,7,7,8,8,9,9,10,10,11,11,13,13,14,14],"right_children":[2,4,6,8,10,12,14,16,18,20,22,24,-1,26,28,-1,-1,-1,-1,-1,-1,-1,-1,-1,-1,-1,-1,-1,-1],"split_conditions":[1.3767077E-1,1.9540042E0,8.1806004E-1,1.8805071E0,6.935533E-1,3.0682693E0,1.8070862E0,-4.141186E-1,1.4312154E-4,3.4655786E-1,1.3105431E-2,4.2614758E-1,-9.78613E-2,6.4360105E-2,3.5068063E-6,2.4962696E-1,-2.8023995E-2,-3.159631E-1,6.058433E-3,1.7611404E-1,7.3120767E-1,-2.5771356E-1,1.7983295E-1,-2.8402004E-1,-3.7874404E-1,5.7501618E-2,2.0025362E-1,-9.78613E-2,5.8115564E-2],"split_indices":[14,1,0,1,4,4,1,9,13,4,17,4,0,9,23,0,0,0,0,0,0,0,0,0,0,0,0,0,0],"split_type":[0,0,0,0,0,0,0,0,0,0,0,0,0,0,0,0,0,0,0,0,0,0,0,0,0,0,0,0,0],"sum_hessian":[3.3322537E3,2.3802278E3,9.5202594E2,2.2702275E3,1.10000275E2,4.430613E1,9.077198E2,2.1880522E3,8.2175186E1,3.74166E1,7.258368E1,3.419921E1,1.0106918E1,7.8955743E2,1.18162346E2,4.5408287E1,2.142644E3,6.11619E1,2.1013285E1,1.3671626E1,2.3744972E1,3.798242E1,3.4601257E1,2.3862995E1,1.0336218E1,6.3805493E2,1.515025E2,6.1773838E1,5.6388508E1],"tree_param":{"num_deleted":"0","num_feature":"30","num_nodes":"29","size_leaf_vector":"1"}},{"base_weights":[-1.3695311E-2,6.852619E-2,-1.8168898E-1,-6.1210775E-1,9.9899076E-2,-5.3876233E-1,2.6994122E-2,-9.1750815E-4,-9.9675107E-1,1.2933788E-1,-5.7090634E-1,-1.2550683E0,-4.048668E-1,5.4167616E-1,-1.19274266E-1,-2.0870677E-1,3.102814E-1,-2.7620676E-1,-1.1605395E-1,2.2402462E-1,2.4773734E-2,2.705691E-1,-1.994372E-1,-3.4319142E-1,-2.898936E-1,2.500366E-1,-1.1726044E-1,-2.341544E-1,1.925262E-1,-1.025339E-1,4.907317E-2],"categories":[],"categories_nodes":[],"categories_segments":[],"categories_sizes":[],"default_left":[0,0,0,0,0,0,0,0,0,0,0,0,0,0,0,0,0,0,0,0,0,0,0,0,0,0,0,0,0,0,0],"id":19,"left_children":[1,3,5,7,9,11,13,15,17,19,21,23,25,27,29,-1,-1,-1,-1,-1,-1,-1,-1,-1,-1,-1,-1,-1,-1,-1,-1],"loss_changes":[4.565178E1,4.7383633E1,8.092868E1,2.2983963E1,4.1889862E1,3.842234E1,5.160472E1,3.91245E1,3.4524498E0,4.7121742E1,3.344595E1,7.090683E-1,3.043563E1,5.122857E1,4.8993263E1,0E0,0E0,0E0,0E0,0E0,0E0,0E0,0E0,0E0,0E0,0E0,0E0,0E0,0E0,0E0,0E0],"parents":[2147483647,0,0,1,1,2,2,3,3,4,4,5,5,6,6,7,7,8,8,9,9,10,10,11,11,12,12,13,13,14,14],"right_children":[2,4,6,8,10,12,14,16,18,20,22,24,26,28,30,-1,-1,-1,-1,-1,-1,-1,-1,-1,-1,-1,-1,-1,-1,-1,-1],"split_conditions":[2.3133494E-4,5.2804396E-9,-7.1902566E-2,2.7760942E-7,-3.310359E0,-1.0740495E0,3.1369232E-6,-3.6799343E0,7.366634E-5,-1.041157E0,1.5062501E-7,-1.9218011E-1,-1.0285403E0,-1.036659E0,3.662544E-1,-2.0870677E-1,3.102814E-1,-2.7620676E-1,-1.1605395E-1,2.2402462E-1,2.4773734E-2,2.705691E-1,-1.994372E-1,-3.4319142E-1,-2.898936E-1,2.500366E-1,-1.1726044E-1,-2.341544E-1,1.925262E-1,-1.025339E-1,4.907317E-2],"split_indices":[22,23,14,15,5,4,13,5,21,3,15,3,4,4,3,0,0,0,0,0,0,0,0,0,0,0,0,0,0,0,0],"split_type":[0,0,0,0,0,0,0,0,0,0,0,0,0,0,0,0,0,0,0,0,0,0,0,0,0,0,0,0,0,0,0],"sum_hessian":[3.3049631E3,2.2189326E3,1.0860305E3,9.7768745E1,2.1211638E3,4.0059375E2,6.8543677E2,3.7765736E1,6.000301E1,2.0319917E3,8.917208E1,6.3085526E1,3.375082E2,1.5169066E2,5.337461E2,2.2596355E1,1.5169382E1,4.9876476E1,1.0126535E1,7.710269E1,1.954889E3,1.0758216E1,7.8413864E1,2.8246876E1,3.483865E1,1.4740979E1,3.2276724E2,2.0301014E1,1.3138965E2,2.777491E2,2.55997E2],"tree_param":{"num_deleted":"0","num_feature":"30","num_nodes":"31","size_leaf_vector":"1"}},{"base_weights":[-1.7938063E-2,-7.619845E-1,-1.5046254E-3,-1.0208603E0,1.7692325E-1,7.1912846E-3,-1.3805909E0,-1.1428474E0,-1.0271502E-1,-1.9919844E-2,8.675216E-1,-3.8568667E-1,-3.0469957E-1,-2.7134526E-1,-3.402269E-1,2.8423518E-3,-1.8291748E-1,-3.763624E-1,2.861613E-1],"categories":[],"categories_nodes":[],"categories_segments":[],"categories_sizes":[],"default_left":[0,0,0,0,0,0,0,0,0,0,0,0,0,0,0,0,0,0,0],"id":20,"left_children":[1,3,5,7,-1,9,11,13,-1,15,17,-1,-1,-1,-1,-1,-1,-1,-1],"loss_changes":[3.9976723E1,2.6883102E1,3.8369595E1,4.468544E0,0E0,7.414655E1,5.2586365E-1,6.2757874E-1,0E0,6.863134E1,6.3867325E1,0E0,0E0,0E0,0E0,0E0,0E0,0E0,0E0],"parents":[2147483647,0,0,1,1,2,2,3,3,5,5,6,6,7,7,9,9,10,10],"right_children":[2,4,6,8,-1,10,12,14,-1,16,18,-1,-1,-1,-1,-1,-1,-1,-1],"split_conditions":[-8.506509E-3,1.3654684E0,4.0216758E-4,4.4764462E-1,1.7692325E-1,1.2419018E-2,-1.6804545E-1,2.6953016E-6,-1.0271502E-1,9.913395E-5,5.773846E-4,-3.8568667E-1,-3.0469957E-1,-2.7134526E-1,-3.402269E-1,2.8423518E-3,-1.8291748E-1,-3.763624E-1,2.861613E-1],"split_indices":[20,7,21,18,0,20,8,23,0,21,29,0,0,0,0,0,0,0,0],"split_type":[0,0,0,0,0,0,0,0,0,0,0,0,0,0,0,0,0,0,0],"sum_hessian":[3.2693438E3,7.064522E1,3.1986987E3,6.0066402E1,1.0578814E1,3.1786538E3,2.0044836E1,5.005308E1,1.0013321E1,3.0815442E3,9.7109695E1,1.0004087E1,1.0040749E1,3.962188E1,1.0431203E1,2.9517778E3,1.2976633E2,1.0154011E1,8.695569E1],"tree_param":{"num_deleted":"0","num_feature":"30","num_nodes":"19","size_leaf_vector":"1"}},{"base_weights":[-1.1440948E-2,-7.1302235E-2,1.6396447E-1,-3.2112416E-2,-6.394615E-1,4.0165752E-1,-2.2544768E-1,5.7048246E-2,-3.140161E-1,-9.386877E-1,6.566241E-1,1.0562408E0,1.7756763E-1,1.8988179E-1,-9.8577833E-1,3.4189794E-2,-1.0764572E-1,-1.932833E-1,-2.508187E-2,-9.6083083E-4,-2.834468E-1,2.5992298E-1,-1.8396478E-2,4.6382043E-1,1.0670489E-2,-1.992513E-2,2.2026585E-1,9.447106E-2,-1.0662795E-1,-2.9660353E-1,2.4374226E-1],"categories":[],"categories_nodes":[],"categories_segments":[],"categories_sizes":[],"default_left":[0,0,0,0,0,0,0,0,0,0,0,0,0,0,0,0,0,0,0,0,0,0,0,0,0,0,0,0,0,0,0],"id":21,"left_children":[1,3,5,7,9,11,13,15,17,19,21,23,25,27,29,-1,-1,-1,-1,-1,-1,-1,-1,-1,-1,-1,-1,-1,-1,-1,-1],"loss_changes":[3.4096886E1,5.390794E1,7.6477936E1,5.6927547E1,6.058893E1,7.52594E1,9.88984E1,6.68809E1,5.33913E1,2.3146248E1,8.199893E0,1.059669E2,6.9181526E1,2.347227E1,4.352852E1,0E0,0E0,0E0,0E0,0E0,0E0,0E0,0E0,0E0,0E0,0E0,0E0,0E0,0E0,0E0,0E0],"parents":[2147483647,0,0,1,1,2,2,3,3,4,4,5,5,6,6,7,7,8,8,9,9,10,10,11,11,12,12,13,13,14,14],"right_children":[2,4,6,8,10,12,14,16,18,20,22,24,26,28,30,-1,-1,-1,-1,-1,-1,-1,-1,-1,-1,-1,-1,-1,-1,-1,-1],"split_conditions":[8.246468E-1,6.3725233E-1,1.3975742E-3,5.593364E-4,1.7496844E-1,9.803202E-1,9.8798555E-1,4.8788154E-1,-2.9171048E-2,1.0422148E0,1.641253E-3,1.7687812E-4,2.9431372E-3,2.6868114E-1,-3.3727994E0,3.4189794E-2,-1.0764572E-1,-1.932833E-1,-2.508187E-2,-9.6083083E-4,-2.834468E-1,2.5992298E-1,-1.8396478E-2,4.6382043E-1,1.0670489E-2,-1.992513E-2,2.2026585E-1,9.447106E-2,-1.0662795E-1,-2.9660353E-1,2.4374226E-1],"split_indices":[3,3,20,22,16,3,6,4,18,7,25,17,25,26,5,0,0,0,0,0,0,0,0,0,0,0,0,0,0,0,0],"split_type":[0,0,0,0,0,0,0,0,0,0,0,0,0,0,0,0,0,0,0,0,0,0,0,0,0,0,0,0,0,0,0],"sum_hessian":[3.2472476E3,2.421027E3,8.2622034E2,2.2648118E3,1.5621545E2,5.130599E2,3.1316043E2,1.7206085E3,5.442032E2,1.2691619E2,2.9299263E1,1.3084415E2,3.8221573E2,2.0252724E2,1.106332E2,1.4788689E3,2.4173953E2,1.7283998E2,3.7136322E2,2.1915754E1,1.05000435E2,1.9219728E1,1.0079533E1,7.316339E1,5.768075E1,2.798657E2,1.0235003E2,1.5519566E2,4.7331573E1,1.0036446E2,1.026874E1],"tree_param":{"num_deleted":"0","num_feature":"30","num_nodes":"31","size_leaf_vector":"1"}},{"base_weights":[-2.5081975E-2,-1.29881E-1,1.010431E-1,-7.443449E-1,-6.404898E-2,4.5452845E-1,7.257506E-3,2.993013E-1,-9.1144717E-1,-1.2118956E-1,7.707729E-1,6.716182E-1,-2.4879993E-1,-1.0729049E-1,2.8129077E-1,-2.704646E-1,5.2779377E-1,-2.7377123E-1,-7.507442E-2,2.715279E-1,-4.1200455E-2,2.6166262E-3,3.97552E-1,2.2566786E-1,-2.6581524E-2,4.067313E-1,-1.7198764E-1,-1.5488559E-1,-5.281871E-3,3.6791408E-1,4.1815102E-2],"categories":[],"categories_nodes":[],"categories_segments":[],"categories_sizes":[],"default_left":[0,0,0,0,0,0,0,0,0,0,0,0,0,0,0,0,0,0,0,0,0,0,0,0,0,0,0,0,0,0,0],"id":22,"left_children":[1,3,5,7,9,11,13,15,17,19,21,23,25,27,29,-1,-1,-1,-1,-1,-1,-1,-1,-1,-1,-1,-1,-1,-1,-1,-1],"loss_changes":[4.2211506E1,7.0556595E1,4.8046288E1,2.9438454E1,7.515321E1,4.640143E1,3.5955566E1,5.8305367E1,1.6327316E1,7.763994E1,6.2876316E1,4.174244E1,5.904466E1,3.5652016E1,4.58339E1,0E0,0E0,0E0,0E0,0E0,0E0,0E0,0E0,0E0,0E0,0E0,0E0,0E0,0E0,0E0,0E0],"parents":[2147483647,0,0,1,1,2,2,3,3,4,4,5,5,6,6,7,7,8,8,9,9,10,10,11,11,12,12,13,13,14,14],"right_children":[2,4,6,8,10,12,14,16,18,20,22,24,26,28,30,-1,-1,-1,-1,-1,-1,-1,-1,-1,-1,-1,-1,-1,-1,-1,-1],"split_conditions":[7.315007E-7,9.894232E-1,7.8219324E-5,6.369363E-4,2.5428773E-4,8.75017E-4,1.3460293E0,2.3653333E-1,5.5119544E-2,-1.041157E0,1.4668991E-7,1.8278262E-1,3.488262E-7,-1.4028761E-2,6.254321E-3,-2.704646E-1,5.2779377E-1,-2.7377123E-1,-7.507442E-2,2.715279E-1,-4.1200455E-2,2.6166262E-3,3.97552E-1,2.2566786E-1,-2.6581524E-2,4.067313E-1,-1.7198764E-1,-1.5488559E-1,-5.281871E-3,3.6791408E-1,4.1815102E-2],"split_indices":[23,6,17,25,13,22,3,3,24,3,23,4,15,12,19,0,0,0,0,0,0,0,0,0,0,0,0,0,0,0,0],"split_type":[0,0,0,0,0,0,0,0,0,0,0,0,0,0,0,0,0,0,0,0,0,0,0,0,0,0,0,0,0,0,0],"sum_hessian":[3.1934622E3,1.7442006E3,1.4492616E3,1.6878236E2,1.5754182E3,3.0388196E2,1.1453796E3,2.3292723E1,1.4548964E2,1.474497E3,1.009213E2,2.3221086E2,7.16711E1,8.0773285E2,3.3764682E2,1.3216646E1,1.00760765E1,1.1187098E2,3.3618664E1,5.1405514E1,1.4230914E3,5.235082E1,4.8570484E1,1.790385E2,5.3172367E1,1.35955925E1,5.8075504E1,1.16297905E2,6.9143494E2,2.9515339E1,3.081315E2],"tree_param":{"num_deleted":"0","num_feature":"30","num_nodes":"31","size_leaf_vector":"1"}},{"base_weights":[-6.681614E-3,1.2200772E-1,-1.0791361E-1,-1.4769042E-1,4.1490206E-1,-1.128393E0,-5.6157887E-2,-5.404556E-1,6.862808E-2,-1.18334055E-1,6.4470214E-1,-5.4834527E-1,-1.3228669E0,-1.09224774E-1,8.494483E-1,1.4995517E-2,-1.9498323E-1,1.3908447E-1,-6.625985E-2,4.9511716E-1,-7.906474E-2,2.0228201E-1,-2.2323027E-1,7.373078E-2,-3.261335E-1,-4.649412E-1,-3.0517274E-1,-1.882096E-1,5.9551643E-3,4.9735543E-1,-1.14248395E-1],"categories":[],"categories_nodes":[],"categories_segments":[],"categories_sizes":[],"default_left":[0,0,0,0,0,0,0,0,0,0,0,0,0,0,0,0,0,0,0,0,0,0,0,0,0,0,0,0,0,0,0],"id":23,"left_children":[1,3,5,7,9,11,13,15,17,19,21,23,25,27,29,-1,-1,-1,-1,-1,-1,-1,-1,-1,-1,-1,-1,-1,-1,-1,-1],"loss_changes":[4.097178E1,1.0938272E2,9.297212E1,6.125102E1,8.134317E1,9.58345E0,8.051388E1,3.681756E1,7.5651146E1,8.304989E1,1.17287186E2,1.3612835E1,3.4914703E0,1.3552028E2,1.3811958E2,0E0,0E0,0E0,0E0,0E0,0E0,0E0,0E0,0E0,0E0,0E0,0E0,0E0,0E0,0E0,0E0],"parents":[2147483647,0,0,1,1,2,2,3,3,4,4,5,5,6,6,7,7,8,8,9,9,10,10,11,11,12,12,13,13,14,14],"right_children":[2,4,6,8,10,12,14,16,18,20,22,24,26,28,30,-1,-1,-1,-1,-1,-1,-1,-1,-1,-1,-1,-1,-1,-1,-1,-1],"split_conditions":[1.6084388E0,1.5143387E0,-1.2957101E0,-1.2598339E-1,-2.2744378E-1,1.6653899E0,9.972198E-5,-1.8484573E-1,-7.2039805E-2,-3.9839838E0,-3.4705873E0,-3.8263896E0,-2.0107673E-3,1.6546652E0,1.6667417E0,1.4995517E-2,-1.9498323E-1,1.3908447E-1,-6.625985E-2,4.9511716E-1,-7.906474E-2,2.0228201E-1,-2.2323027E-1,7.373078E-2,-3.261335E-1,-4.649412E-1,-3.0517274E-1,-1.882096E-1,5.9551643E-3,4.9735543E-1,-1.14248395E-1],"split_indices":[1,1,4,14,3,1,15,26,16,5,5,5,22,1,1,0,0,0,0,0,0,0,0,0,0,0,0,0,0,0,0],"split_type":[0,0,0,0,0,0,0,0,0,0,0,0,0,0,0,0,0,0,0,0,0,0,0,0,0,0,0,0,0,0,0],"sum_hessian":[3.144952E3,1.38468E3,1.7602719E3,7.208818E2,6.637983E2,8.496444E1,1.6753074E3,2.5602777E2,4.6485397E2,1.9991008E2,4.6388818E2,2.13366E1,6.362784E1,1.582574E3,9.2733444E1,7.2996155E1,1.8303162E2,1.8884007E2,2.7601392E2,1.7226631E1,1.8268344E2,4.1907578E2,4.4812416E1,1.0086055E1,1.1250544E1,1.016929E1,5.345855E1,2.7110547E2,1.3114684E3,4.952272E1,4.3210724E1],"tree_param":{"num_deleted":"0","num_feature":"30","num_nodes":"31","size_leaf_vector":"1"}},{"base_weights":[-1.1968461E-2,-1.8450694E-2,4.2395887E-1,5.7069607E-2,-1.685592E-1,-7.7488106E-1,8.394312E-2,1.9624262E-1,-2.6805422E-1,-8.636724E-2,-2.630704E-1,6.755595E-2,-7.011374E-3,-8.139964E-2,1.7662226E-1,1.8546702E-1,-8.1047535E-2],"categories":[],"categories_nodes":[],"categories_segments":[],"categories_sizes":[],"default_left":[0,0,0,0,0,0,0,0,0,0,0,0,0,0,0,0,0],"id":24,"left_children":[1,3,-1,5,7,9,11,13,15,-1,-1,-1,-1,-1,-1,-1,-1],"loss_changes":[3.443904E1,3.5129932E1,0E0,4.6093933E1,3.7648067E1,1.4188656E1,4.1663303E1,5.918555E1,4.620458E1,0E0,0E0,0E0,0E0,0E0,0E0,0E0,0E0],"parents":[2147483647,0,0,1,1,3,3,4,4,5,5,6,6,7,7,8,8],"right_children":[2,4,-1,6,8,10,12,14,16,-1,-1,-1,-1,-1,-1,-1,-1],"split_conditions":[5.1943207E-4,3.8582916E-6,4.2395887E-1,8.157521E-1,-7.707365E-1,-1.3024315E-2,9.5788855E-4,1.836723E-5,9.5036906E-1,-8.636724E-2,-2.630704E-1,6.755595E-2,-7.011374E-3,-8.139964E-2,1.7662226E-1,1.8546702E-1,-8.1047535E-2],"split_indices":[15,15,0,0,4,12,27,21,6,0,0,0,0,0,0,0,0],"split_type":[0,0,0,0,0,0,0,0,0,0,0,0,0,0,0,0,0],"sum_hessian":[3.11056E3,3.0987996E3,1.1760621E1,2.0615889E3,1.0372104E3,6.4506615E1,1.9970824E3,2.222608E2,8.1494965E2,1.2299055E1,5.2207558E1,7.49835E2,1.2472473E3,1.0987972E2,1.1238109E2,4.2911034E1,7.7203864E2],"tree_param":{"num_deleted":"0","num_feature":"30","num_nodes":"17","size_leaf_vector":"1"}},{"base_weights":[-8.092597E-3,-2.5442794E-1,3.5525333E-2,-6.0785586E-1,-1.6755573E-2,7.7538006E-2,-2.91111E-1,1.5267664E-1,-7.033102E-1,-2.9749474E-1,5.473829E-1,3.328918E-2,7.6899695E-1,-7.7717817E-1,8.818988E-2,-9.814976E-2,-2.659819E-1,-1.4653812E-1,1.0293189E-1,3.4428555E-1,-5.1324155E-2,-1.7044391E-2,5.9037212E-2,-1.0396108E-1,2.8477094E-1,1.1343929E-1,-2.7475858E-1,-2.300088E-1,1.2204353E-1],"categories":[],"categories_nodes":[],"categories_segments":[],"categories_sizes":[],"default_left":[0,0,0,0,0,0,0,0,0,0,0,0,0,0,0,0,0,0,0,0,0,0,0,0,0,0,0,0,0],"id":25,"left_children":[1,3,5,7,9,11,13,-1,15,17,19,21,23,25,27,-1,-1,-1,-1,-1,-1,-1,-1,-1,-1,-1,-1,-1,-1],"loss_changes":[3.3229866E1,3.907873E1,3.6055214E1,2.1760979E1,4.4057926E1,7.1226326E1,5.520549E1,0E0,1.9436745E1,3.8028454E1,5.7732185E1,4.503605E1,6.1397575E1,5.1999596E1,6.782509E1,0E0,0E0,0E0,0E0,0E0,0E0,0E0,0E0,0E0,0E0,0E0,0E0,0E0,0E0],"parents":[2147483647,0,0,1,1,2,2,3,3,4,4,5,5,6,6,8,8,9,9,10,10,11,11,12,12,13,13,14,14],"right_children":[2,4,6,8,10,12,14,-1,16,18,20,22,24,26,28,-1,-1,-1,-1,-1,-1,-1,-1,-1,-1,-1,-1,-1,-1],"split_conditions":[-1.0816128E0,1.2199534E-6,-3.4591799E0,1.8849505E-7,3.8025156E-2,-3.4980254E0,-3.9224024E-3,1.5267664E-1,3.2842872E-3,8.865061E-1,-6.87008E-2,6.6698674E-5,-5.223076E-3,-3.1578153E-2,8.4104604E-1,-9.814976E-2,-2.659819E-1,-1.4653812E-1,1.0293189E-1,3.4428555E-1,-5.1324155E-2,-1.7044391E-2,5.9037212E-2,-1.0396108E-1,2.8477094E-1,1.1343929E-1,-2.7475858E-1,-2.300088E-1,1.2204353E-1],"split_indices":[28,15,5,21,24,5,9,0,18,3,18,11,10,12,0,0,0,0,0,0,0,0,0,0,0,0,0,0,0],"split_type":[0,0,0,0,0,0,0,0,0,0,0,0,0,0,0,0,0,0,0,0,0,0,0,0,0,0,0,0,0],"sum_hessian":[3.0925266E3,4.6521942E2,2.6273071E3,1.8705373E2,2.781657E2,2.3278953E3,2.994119E2,1.358643E1,1.734673E2,1.8573845E2,9.242725E1,2.1878882E3,1.4000714E2,1.3123834E2,1.6817354E2,9.3184814E1,8.0282486E1,1.32012E2,5.372645E1,4.3964024E1,4.8463226E1,1.4584077E3,7.2948047E2,3.332148E1,1.0668565E2,2.7201061E1,1.04037285E2,4.7765965E1,1.2040758E2],"tree_param":{"num_deleted":"0","num_feature":"30","num_nodes":"29","size_leaf_vector":"1"}},{"base_weights":[-6.292778E-3,-4.401017E-1,1.4084038E-2,-7.7501965E-1,7.157397E-1,4.362578E-1,-6.0916236E-3,2.355964E-1,-9.6717733E-1,3.6468562E-1,-7.0309676E-2,1.3718873E0,-7.139773E-1,-5.537319E-1,2.3357999E-2,-2.7160108E-1,-1.2875183E-2,5.7391435E-1,-6.817973E-2,-3.8055931E-3,-2.9659352E-1,2.390557E-1,-2.3095623E-1,-1.21416174E-1,1.22000305E-2],"categories":[],"categories_nodes":[],"categories_segments":[],"categories_sizes":[],"default_left":[0,0,0,0,0,0,0,0,0,0,0,0,0,0,0,0,0,0,0,0,0,0,0,0,0],"id":26,"left_children":[1,3,5,7,9,11,13,-1,15,-1,-1,17,19,21,23,-1,-1,-1,-1,-1,-1,-1,-1,-1,-1],"loss_changes":[2.708765E1,5.3221107E1,2.4930025E1,3.5180283E1,2.288403E1,1.436645E2,4.5049423E1,0E0,1.0463791E1,0E0,0E0,1.1184158E2,1.9763407E1,7.965871E1,3.432701E1,0E0,0E0,0E0,0E0,0E0,0E0,0E0,0E0,0E0,0E0],"parents":[2147483647,0,0,1,1,2,2,3,3,4,4,5,5,6,6,8,8,11,11,12,12,13,13,14,14],"right_children":[2,4,6,8,10,12,14,-1,16,-1,-1,18,20,22,24,-1,-1,-1,-1,-1,-1,-1,-1,-1,-1],"split_conditions":[-7.1114623E-3,1.3144233E0,-1.041157E0,-2.560473E-1,1.2572457E-6,2.4727432E-3,-6.6537166E-1,2.355964E-1,1.3562379E0,3.6468562E-1,-7.0309676E-2,-4.894675E-2,5.467848E-4,-3.9236398E0,-3.9711268E0,-2.7160108E-1,-1.2875183E-2,5.7391435E-1,-6.817973E-2,-3.8055931E-3,-2.9659352E-1,2.390557E-1,-2.3095623E-1,-1.21416174E-1,1.22000305E-2],"split_indices":[20,7,3,9,13,19,3,0,18,0,0,18,17,5,5,0,0,0,0,0,0,0,0,0,0],"split_type":[0,0,0,0,0,0,0,0,0,0,0,0,0,0,0,0,0,0,0,0,0,0,0,0,0],"sum_hessian":[3.0639954E3,1.3746965E2,2.926526E3,1.0658689E2,3.088276E1,1.3348468E2,2.793041E3,1.0724545E1,9.586234E1,1.7696587E1,1.31861725E1,7.361027E1,5.987442E1,1.4253635E2,2.6505046E3,8.481622E1,1.1046117E1,4.713569E1,2.6474577E1,2.4152958E1,3.5721462E1,2.8057487E1,1.1447886E2,1.2616766E2,2.5243372E3],"tree_param":{"num_deleted":"0","num_feature":"30","num_nodes":"25","size_leaf_vector":"1"}},{"base_weights":[-1.423901E-2,-3.6619596E-2,3.6800933E-1,-3.3433068E-1,-3.699845E-3,1.6146691E0,1.4410262E-1,-4.2596653E-1,5.284887E-1,6.339182E-2,-1.6455685E-1,4.081759E-2,6.6893953E-1,8.1911737E-1,-1.5965174E-1,1.0133756E-1,-1.5626971E-1,3.366509E-2,-4.7348145E-2,-1.3514438E-1,4.1703437E-2,3.6565483E-1,7.6277725E-2,-2.942383E-1,3.2001503E-2],"categories":[],"categories_nodes":[],"categories_segments":[],"categories_sizes":[],"default_left":[0,0,0,0,0,0,0,0,0,0,0,0,0,0,0,0,0,0,0,0,0,0,0,0,0],"id":27,"left_children":[1,3,5,7,9,11,13,15,-1,17,19,-1,-1,21,23,-1,-1,-1,-1,-1,-1,-1,-1,-1,-1],"loss_changes":[2.5895021E1,2.8024158E1,4.6732468E1,6.387692E1,2.7787697E1,3.925244E1,2.9104841E1,4.5426914E1,0E0,3.273311E1,9.4428406E1,0E0,0E0,1.4569433E1,2.8649311E1,0E0,0E0,0E0,0E0,0E0,0E0,0E0,0E0,0E0,0E0],"parents":[2147483647,0,0,1,1,2,2,3,3,4,4,5,5,6,6,7,7,9,9,10,10,13,13,14,14],"right_children":[2,4,6,8,10,12,14,16,-1,18,20,-1,-1,22,24,-1,-1,-1,-1,-1,-1,-1,-1,-1,-1],"split_conditions":[4.040576E-2,-2.0348898E-1,-7.1774787E-1,2.622452E-4,3.663241E-3,-1.2841696E-1,-2.0205113E-1,-1.1024334E-2,5.284887E-1,8.2637725E-4,3.662544E-1,4.081759E-2,6.6893953E-1,2.0217798E0,2.5362194E-1,1.0133756E-1,-1.5626971E-1,3.366509E-2,-4.7348145E-2,-1.3514438E-1,4.1703437E-2,3.6565483E-1,7.6277725E-2,-2.942383E-1,3.2001503E-2],"split_indices":[12,16,4,15,12,8,8,22,0,22,3,0,0,4,3,0,0,0,0,0,0,0,0,0,0],"split_type":[0,0,0,0,0,0,0,0,0,0,0,0,0,0,0,0,0,0,0,0,0,0,0,0,0],"sum_hessian":[3.026788E3,2.859378E3,1.6741019E2,2.8469128E2,2.5746865E3,2.5488111E1,1.4192207E2,2.7442105E2,1.02702465E1,1.8168744E3,7.5781226E2,1.0765209E1,1.4722903E1,4.4046883E1,9.787518E1,5.3024826E1,2.2139622E2,1.4172986E3,3.995757E2,3.5499304E2,4.028192E2,1.95576E1,2.4489283E1,2.1576792E1,7.629839E1],"tree_param":{"num_deleted":"0","num_feature":"30","num_nodes":"25","size_leaf_vector":"1"}},{"base_weights":[-1.61021E-2,-1.8694209E-1,3.6619365E-2,1.12379886E-1,-4.995938E-1,-9.219626E-1,5.044927E-2,4.9708083E-1,-4.264909E-1,-6.1782163E-1,5.764195E-1,5.065012E-2,-1.4323019E0,1.6897538E-1,-6.556901E-2,3.921575E-1,1.6515473E-2,1.0308051E-1,-1.898761E-1,-7.345796E-2,-2.7661404E-1,-1.9076438E-1,3.7059736E-1,-3.2470474E-1,-3.9902264E-1,6.963074E-2,-1.20666645E-1,-7.051982E-2,3.4841467E-2],"categories":[],"categories_nodes":[],"categories_segments":[],"categories_sizes":[],"default_left":[0,0,0,0,0,0,0,0,0,0,0,0,0,0,0,0,0,0,0,0,0,0,0,0,0,0,0,0,0],"id":28,"left_children":[1,3,5,7,9,11,13,15,17,19,21,-1,23,25,27,-1,-1,-1,-1,-1,-1,-1,-1,-1,-1,-1,-1,-1,-1],"loss_changes":[2.6868303E1,6.583508E1,3.0221394E1,7.450635E1,4.3774353E1,1.8610378E1,3.0900688E1,9.684943E1,4.1819504E1,4.9079155E1,4.1342804E1,0E0,4.8757172E-1,7.934907E1,5.0385902E1,0E0,0E0,0E0,0E0,0E0,0E0,0E0,0E0,0E0,0E0,0E0,0E0,0E0,0E0],"parents":[2147483647,0,0,1,1,2,2,3,3,4,4,5,5,6,6,7,7,8,8,9,9,10,10,12,12,13,13,14,14],"right_children":[2,4,6,8,10,12,14,16,18,20,22,-1,24,26,28,-1,-1,-1,-1,-1,-1,-1,-1,-1,-1,-1,-1,-1,-1],"split_conditions":[7.4272485E-8,1.1865956E0,-1.4075894E0,-1.4017812E-4,2.376662E-3,3.3018694E-4,-1.2209529E-1,2.1038692E-7,-6.4110756E-2,-6.782379E-1,1.279311E0,5.065012E-2,1.0009363E-2,1.7418569E0,1.3869545E0,3.921575E-1,1.6515473E-2,1.0308051E-1,-1.898761E-1,-7.345796E-2,-2.7661404E-1,-1.9076438E-1,3.7059736E-1,-3.2470474E-1,-3.9902264E-1,6.963074E-2,-1.20666645E-1,-7.051982E-2,3.4841467E-2],"split_indices":[23,7,4,18,19,2,4,15,24,4,7,0,24,1,4,0,0,0,0,0,0,0,0,0,0,0,0,0,0],"split_type":[0,0,0,0,0,0,0,0,0,0,0,0,0,0,0,0,0,0,0,0,0,0,0,0,0,0,0,0,0],"sum_hessian":[2.9829255E3,7.034598E2,2.2794656E3,3.5938736E2,3.440724E2,3.241682E1,2.2470488E3,2.0969203E2,1.4969533E2,3.1001172E2,3.406067E1,1.0117602E1,2.229922E1,1.1115211E3,1.1355277E3,6.0149647E1,1.4954239E2,4.2538956E1,1.07156364E2,1.8641422E2,1.235975E2,1.3741432E1,2.0319237E1,1.2294014E1,1.0005204E1,9.515581E2,1.59963E2,5.521751E2,5.833526E2],"tree_param":{"num_deleted":"0","num_feature":"30","num_nodes":"29","size_leaf_vector":"1"}},{"base_weights":[-8.412503E-3,-6.9432795E-1,2.7659235E-3,-9.915779E-1,7.045143E-2,4.6497563E-1,-1.3850921E-2,-1.1138703E0,-1.6800638E-1,-8.6136514E-1,7.9544795E-1,-8.60615E-1,-1.2796632E-3,-2.6345485E-1,-3.0045763E-1,-1.08385965E-1,-3.224889E-1,2.621517E-1,-1.4608803E-1,-3.3513334E-1,1.128741E-1,-5.0278652E-2,1.0745768E-2],"categories":[],"categories_nodes":[],"categories_segments":[],"categories_sizes":[],"default_left":[0,0,0,0,0,0,0,0,0,0,0,0,0,0,0,0,0,0,0,0,0,0,0],"id":29,"left_children":[1,3,5,7,-1,9,11,13,-1,15,17,19,21,-1,-1,-1,-1,-1,-1,-1,-1,-1,-1],"loss_changes":[2.267513E1,1.3762381E1,2.2347906E1,1.4200401E0,0E0,4.4260864E1,2.9896189E1,1.3888168E-1,0E0,3.6924448E0,2.8239128E1,2.5874897E1,2.4478397E1,0E0,0E0,0E0,0E0,0E0,0E0,0E0,0E0,0E0,0E0],"parents":[2147483647,0,0,1,1,2,2,3,3,5,5,6,6,7,7,9,9,10,10,11,11,12,12],"right_children":[2,4,6,8,-1,10,12,14,-1,16,18,20,22,-1,-1,-1,-1,-1,-1,-1,-1,-1,-1],"split_conditions":[-8.506509E-3,2.8824385E-2,-3.2621905E-1,2.208565E-2,7.045143E-2,4.2123743E-3,-2.3935348E-1,1.1904421E-3,-1.6800638E-1,-1.1343467E-2,3.37286E-3,9.107325E-3,1.4963624E0,-2.6345485E-1,-3.0045763E-1,-1.08385965E-1,-3.224889E-1,2.621517E-1,-1.4608803E-1,-3.3513334E-1,1.128741E-1,-5.0278652E-2,1.0745768E-2],"split_indices":[20,10,9,19,0,28,9,19,0,12,22,29,1,0,0,0,0,0,0,0,0,0,0],"split_type":[0,0,0,0,0,0,0,0,0,0,0,0,0,0,0,0,0,0,0,0,0,0,0],"sum_hessian":[2.956705E3,4.7416267E1,2.9092888E3,3.6349533E1,1.1066733E1,1.0096659E2,2.8083223E3,2.6283638E1,1.0065894E1,2.0137678E1,8.082891E1,4.108041E1,2.767242E3,1.5635401E1,1.0648237E1,1.0080564E1,1.0057115E1,6.829935E1,1.2529567E1,3.008006E1,1.1000352E1,5.0179904E2,2.2654429E3],"tree_param":{"num_deleted":"0","num_feature":"30","num_nodes":"23","size_leaf_vector":"1"}},{"base_weights":[-8.054382E-5,-3.40553E-2,2.4486952E-1,-3.5393813E-1,3.269451E-2,6.292051E-1,-2.8033552E-1,6.838238E-2,-7.2173953E-1,-4.907442E-3,4.5023528E-1,9.151934E-1,-5.699369E-1,-4.6791765E-1,2.849731E-1,5.5875E-1,-3.6705833E-2,1.3218972E-1,-2.0859875E-1,-1.03404205E-2,1.0104969E-1,-7.333666E-2,1.9412485E-1,-1.05169006E-1,2.8398246E-1,-2.8308362E-1,1.12385646E-1,1.01344414E-1,-1.8618956E-1],"categories":[],"categories_nodes":[],"categories_segments":[],"categories_sizes":[],"default_left":[0,0,0,0,0,0,0,0,0,0,0,0,0,0,0,0,0,0,0,0,0,0,0,0,0,0,0,0,0],"id":30,"left_children":[1,3,5,7,9,11,13,15,17,19,21,23,25,27,-1,-1,-1,-1,-1,-1,-1,-1,-1,-1,-1,-1,-1,-1,-1],"loss_changes":[2.4520313E1,5.524961E1,7.244356E1,6.939119E1,3.3613083E1,7.107173E1,4.040331E1,9.697173E1,3.364052E1,2.9289564E1,4.2911552E1,4.934436E1,2.2885254E1,3.2388412E1,0E0,0E0,0E0,0E0,0E0,0E0,0E0,0E0,0E0,0E0,0E0,0E0,0E0,0E0,0E0],"parents":[2147483647,0,0,1,1,2,2,3,3,4,4,5,5,6,6,7,7,8,8,9,9,10,10,11,11,12,12,13,13],"right_children":[2,4,6,8,10,12,14,16,18,20,22,24,26,28,-1,-1,-1,-1,-1,-1,-1,-1,-1,-1,-1,-1,-1,-1,-1],"split_conditions":[9.960954E-1,8.215164E-8,1.6101642E0,1.106471E-3,1.3289595E0,5.097292E-1,2.4430208E-5,5.189515E-7,-1.1279073E0,6.9429183E-1,-2.9171048E-2,4.50933E-4,5.721214E-1,-7.152487E-2,2.849731E-1,5.5875E-1,-3.6705833E-2,1.3218972E-1,-2.0859875E-1,-1.03404205E-2,1.0104969E-1,-7.333666E-2,1.9412485E-1,-1.05169006E-1,2.8398246E-1,-2.8308362E-1,1.12385646E-1,1.01344414E-1,-1.8618956E-1],"split_indices":[6,23,1,27,7,3,15,17,26,16,18,29,4,24,0,0,0,0,0,0,0,0,0,0,0,0,0,0,0],"split_type":[0,0,0,0,0,0,0,0,0,0,0,0,0,0,0,0,0,0,0,0,0,0,0,0,0,0,0,0,0],"sum_hessian":[2.946307E3,2.5874368E3,3.5887006E2,4.4671136E2,2.1407253E3,2.072284E2,1.5164166E2,2.0794106E2,2.3877032E2,1.9638628E3,1.7686264E2,1.6732443E2,3.9903973E1,1.3395116E2,1.7690504E1,1.8789124E1,1.8915193E2,1.973107E1,2.1903925E2,1.8031914E3,1.6067143E2,5.3934532E1,1.2292811E2,2.3726177E1,1.4359825E2,2.5718536E1,1.4185434E1,3.224039E1,1.0171077E2],"tree_param":{"num_deleted":"0","num_feature":"30","num_nodes":"29","size_leaf_vector":"1"}},{"base_weights":[-3.093649E-3,-9.855746E-1,4.5205415E-3,-2.863924E-1,-1.9757755E-1,-2.0938025E-1,3.9445575E-2,6.4027745E-1,-4.283061E-1,4.1146195E-1,-1.1397704E-2,2.4877976E-1,-1.2263176E-1,-1.2263176E-1,1.4559622E-1,2.4579677E-1,-6.473758E-2,4.3518316E-2,-2.5633646E-2],"categories":[],"categories_nodes":[],"categories_segments":[],"categories_sizes":[],"default_left":[0,0,0,0,0,0,0,0,0,0,0,0,0,0,0,0,0,0,0],"id":31,"left_children":[1,3,5,-1,-1,7,9,11,13,15,17,-1,-1,-1,-1,-1,-1,-1,-1],"loss_changes":[2.1685432E1,6.962242E-1,2.1483036E1,0E0,0E0,7.507999E1,4.6759598E1,4.1358788E1,7.232968E1,1.1393196E2,3.6761864E1,0E0,0E0,0E0,0E0,0E0,0E0,0E0,0E0],"parents":[2147483647,0,0,1,1,2,2,5,5,6,6,7,7,8,8,9,9,10,10],"right_children":[2,4,6,-1,-1,8,10,12,14,16,18,-1,-1,-1,-1,-1,-1,-1,-1],"split_conditions":[8.0062157E-1,4.0060218E-4,-1.062541E0,-2.863924E-1,-1.9757755E-1,5.716839E-6,-9.047434E-1,9.8658524E-2,3.5346186E-1,-1.9218011E-1,9.242036E-5,2.4877976E-1,-1.2263176E-1,-1.2263176E-1,1.4559622E-1,2.4579677E-1,-6.473758E-2,4.3518316E-2,-2.5633646E-2],"split_indices":[0,12,4,0,0,19,4,3,3,3,17,0,0,0,0,0,0,0,0],"split_type":[0,0,0,0,0,0,0,0,0,0,0,0,0,0,0,0,0,0,0],"sum_hessian":[2.89791E3,2.2288277E1,2.8756216E3,1.2244044E1,1.0044232E1,4.0361118E2,2.4720105E3,8.268762E1,3.2092355E2,2.9723193E2,2.1747786E3,6.66433E1,1.604432E1,2.570157E2,6.3907883E1,1.6042526E2,1.3680667E2,7.1653876E2,1.4582397E3],"tree_param":{"num_deleted":"0","num_feature":"30","num_nodes":"19","size_leaf_vector":"1"}},{"base_weights":[-1.3790195E-2,-8.466037E-2,1.172388E-1,2.9366346E-2,-2.7407202E-1,5.563738E-1,6.263118E-2,-4.217092E-1,1.1833729E-1,-1.7376027E-1,-1.0749046E0,8.102139E-1,-1.7575055E-1,-3.3176258E-1,1.4553764E-1,1.1231523E-1,-2.1458027E-1,-2.3225044E-1,4.210073E-2,3.274061E-1,-6.0526125E-2,-2.8984293E-1,-1.2496373E-1,-7.706008E-2,2.4190538E-1,-8.62974E-4,-2.727615E-1,6.74038E-2,-2.3928259E-2],"categories":[],"categories_nodes":[],"categories_segments":[],"categories_sizes":[],"default_left":[0,0,0,0,0,0,0,0,0,0,0,0,0,0,0,0,0,0,0,0,0,0,0,0,0,0,0,0,0],"id":32,"left_children":[1,3,5,7,9,11,13,15,17,19,21,23,-1,25,27,-1,-1,-1,-1,-1,-1,-1,-1,-1,-1,-1,-1,-1,-1],"loss_changes":[2.6810589E1,4.046953E1,2.4302654E1,4.694012E1,5.65646E1,3.583382E1,2.9473148E1,7.327695E1,5.1227325E1,6.344103E1,3.8058167E0,1.6425667E1,0E0,3.902742E1,2.2295483E1,0E0,0E0,0E0,0E0,0E0,0E0,0E0,0E0,0E0,0E0,0E0,0E0,0E0,0E0],"parents":[2147483647,0,0,1,1,2,2,3,3,4,4,5,5,6,6,7,7,8,8,9,9,10,10,11,11,13,13,14,14],"right_children":[2,4,6,8,10,12,14,16,18,20,22,24,-1,26,28,-1,-1,-1,-1,-1,-1,-1,-1,-1,-1,-1,-1,-1,-1],"split_conditions":[1.6065101E-6,5.147141E-3,5.475586E-4,-1.0740495E0,1.7859703E0,3.1753736E0,1.4963624E0,9.08689E-4,9.8045E-1,9.7719216E-1,1.4961266E-3,-2.2456722E-2,-1.7575055E-1,-1.6363525E-1,2.2249639E-3,1.1231523E-1,-2.1458027E-1,-2.3225044E-1,4.210073E-2,3.274061E-1,-6.0526125E-2,-2.8984293E-1,-1.2496373E-1,-7.706008E-2,2.4190538E-1,-8.62974E-4,-2.727615E-1,6.74038E-2,-2.3928259E-2],"split_indices":[23,16,25,4,1,4,1,2,7,7,22,10,0,8,25,0,0,0,0,0,0,0,0,0,0,0,0,0,0],"split_type":[0,0,0,0,0,0,0,0,0,0,0,0,0,0,0,0,0,0,0,0,0,0,0,0,0,0,0,0,0],"sum_hessian":[2.8871055E3,1.8736917E3,1.0134137E3,1.1695842E3,7.041074E2,1.12078255E2,9.0133545E2,1.9268105E2,9.769032E2,6.2573157E2,7.837584E1,9.3278786E1,1.8799473E1,1.5655605E2,7.447794E2,6.433596E1,1.283451E2,4.4566036E1,9.3233716E2,2.7558193E1,5.981734E2,6.833444E1,1.0041396E1,1.1506339E1,8.1772446E1,1.09298775E2,4.725727E1,4.9183392E2,2.5294551E2],"tree_param":{"num_deleted":"0","num_feature":"30","num_nodes":"29","size_leaf_vector":"1"}},{"base_weights":[-8.151461E-3,-1.02507074E-4,-8.928187E-1,6.049324E-1,-1.3157737E-2,-3.008457E-1,-1.0215861E-1,9.216933E-1,-1.3701609E-1,-5.7341045E-1,7.005693E-3,1.22636504E-1,3.433037E-1,-2.0821556E-1,1.95799E-1,-1.4063871E-1,6.346225E-3],"categories":[],"categories_nodes":[],"categories_segments":[],"categories_sizes":[],"default_left":[0,0,0,0,0,0,0,0,0,0,0,0,0,0,0,0,0],"id":33,"left_children":[1,3,5,7,9,-1,-1,11,-1,13,15,-1,-1,-1,-1,-1,-1],"loss_changes":[2.0284986E1,2.2298367E1,3.8611088E0,2.1779142E1,3.1218431E1,0E0,0E0,9.105171E0,0E0,3.3792847E1,2.7921663E1,0E0,0E0,0E0,0E0,0E0,0E0],"parents":[2147483647,0,0,1,1,2,2,3,3,4,4,7,7,9,9,10,10],"right_children":[2,4,6,8,10,-1,-1,12,-1,14,16,-1,-1,-1,-1,-1,-1],"split_conditions":[1.4456825E0,-4.141186E-1,9.94164E-1,3.37286E-3,-7.1114623E-3,-3.008457E-1,-1.0215861E-1,1.1373359E-4,-1.3701609E-1,1.3551869E0,8.142629E-1,1.22636504E-1,3.433037E-1,-2.0821556E-1,1.95799E-1,-1.4063871E-1,6.346225E-3],"split_indices":[7,9,6,22,20,0,0,22,0,7,0,0,0,0,0,0,0],"split_type":[0,0,0,0,0,0,0,0,0,0,0,0,0,0,0,0,0],"sum_hessian":[2.848475E3,2.8227952E3,2.5679998E1,5.9619053E1,2.763176E3,1.5642128E1,1.003787E1,4.677156E1,1.284749E1,9.599559E1,2.6671804E3,2.3928185E1,2.2843378E1,8.058529E1,1.5410297E1,8.337312E1,2.5838074E3],"tree_param":{"num_deleted":"0","num_feature":"30","num_nodes":"17","size_leaf_vector":"1"}},{"base_weights":[-1.2705063E-2,2.5335523E-1,-4.3167602E-2,-3.696094E-2,4.855185E-1,-1.928898E-2,-7.682659E-1,-2.6560465E-1,4.9541395E-2,-1.0093896E-1,6.090952E-1,-9.00307E-2,1.484748E-1,2.706361E-1,-1.1354123E0,-1.0460743E-1,6.945733E-2,1.8313311E-1,-2.4606157E-2,9.717994E-3,-9.5050335E-2,-2.5692558E-1,6.5847196E-2,2.924858E-1,-1.5983818E-1,1.0719096E-1,-3.86985E-1],"categories":[],"categories_nodes":[],"categories_segments":[],"categories_sizes":[],"default_left":[0,0,0,0,0,0,0,0,0,0,0,0,0,0,0,0,0,0,0,0,0,0,0,0,0,0,0],"id":34,"left_children":[1,3,5,7,9,11,13,-1,15,-1,17,19,21,23,25,-1,-1,-1,-1,-1,-1,-1,-1,-1,-1,-1,-1],"loss_changes":[2.2942633E1,1.960165E1,4.3977127E1,1.1468511E1,1.775967E1,2.918237E1,3.0889584E1,0E0,1.2732116E1,0E0,1.2392548E1,6.4694405E1,9.857486E1,1.7309574E1,3.861235E1,0E0,0E0,0E0,0E0,0E0,0E0,0E0,0E0,0E0,0E0,0E0,0E0],"parents":[2147483647,0,0,1,1,2,2,3,3,4,4,5,5,6,6,8,8,10,10,11,11,12,12,13,13,14,14],"right_children":[2,4,6,8,10,12,14,-1,16,-1,18,20,22,24,26,-1,-1,-1,-1,-1,-1,-1,-1,-1,-1,-1,-1],"split_conditions":[9.7622085E-1,-2.4653416E-2,1.6674067E0,-1.9218011E-1,5.2540447E-4,1.7177163E0,1.5660987E0,-2.6560465E-1,-3.678194E0,-1.0093896E-1,8.466823E-1,-1.7782524E-1,-3.8241143E0,-2.0843264E-1,5.50486E-4,-1.0460743E-1,6.945733E-2,1.8313311E-1,-2.4606157E-2,9.717994E-3,-9.5050335E-2,-2.5692558E-1,6.5847196E-2,2.924858E-1,-1.5983818E-1,1.0719096E-1,-3.86985E-1],"split_indices":[6,14,3,3,29,1,1,0,5,0,28,4,5,18,29,0,0,0,0,0,0,0,0,0,0,0,0],"split_type":[0,0,0,0,0,0,0,0,0,0,0,0,0,0,0,0,0,0,0,0,0,0,0,0,0,0,0],"sum_hessian":[2.8306199E3,2.9078897E2,2.5398308E3,1.2920743E2,1.6158154E2,2.4588599E3,8.097094E1,1.0053439E1,1.19154E2,1.9712109E1,1.4186945E2,1.7295614E3,7.2929846E2,2.1141455E1,5.9829487E1,3.906467E1,8.0089325E1,1.2079773E2,2.1071709E1,1.1975604E3,5.320009E2,6.490967E1,6.643888E2,1.06343975E1,1.0507057E1,1.24849415E1,4.7344547E1],"tree_param":{"num_deleted":"0","num_feature":"30","num_nodes":"27","size_leaf_vector":"1"}},{"base_weights":[-4.022766E-3,4.97083E-1,-1.8151093E-2,1.4792023E0,-2.0184736E-1,3.4470293E-1,-2.3392927E-2,8.582672E-3,6.073821E-1,-8.0738705E-1,2.2713129E-1,1.0211465E-1,-8.85064E-2,-2.9346228E-1,-2.745249E-2,-1.8668389E-2,9.423088E-2,-1.0030673E-1,5.490571E-4],"categories":[],"categories_nodes":[],"categories_segments":[],"categories_sizes":[],"default_left":[0,0,0,0,0,0,0,0,0,0,0,0,0,0,0,0,0,0,0],"id":35,"left_children":[1,3,5,7,9,-1,11,-1,-1,13,-1,15,17,-1,-1,-1,-1,-1,-1],"loss_changes":[1.9870268E1,5.2830452E1,1.9990341E1,4.3931908E1,3.0234013E1,0E0,2.2223415E1,0E0,0E0,7.436331E0,0E0,4.5129047E1,5.078719E1,0E0,0E0,0E0,0E0,0E0,0E0],"parents":[2147483647,0,0,1,1,2,2,3,3,4,4,6,6,9,9,11,11,12,12],"right_children":[2,4,6,8,10,-1,12,-1,-1,14,-1,16,18,-1,-1,-1,-1,-1,-1],"split_conditions":[-3.969455E-2,7.345143E-7,6.4077285E-5,2.0336157E-3,3.140203E-6,3.4470293E-1,-3.7533824E0,8.582672E-3,6.073821E-1,2.3711831E-3,2.2713129E-1,1.321868E-3,-3.6816533E0,-2.9346228E-1,-2.745249E-2,-1.8668389E-2,9.423088E-2,-1.0030673E-1,5.490571E-4],"split_indices":[10,15,29,20,23,0,5,0,0,25,0,19,5,0,0,0,0,0,0],"split_type":[0,0,0,0,0,0,0,0,0,0,0,0,0,0,0,0,0,0,0],"sum_hessian":[2.8064443E3,7.695157E1,2.729493E3,3.1995527E1,4.4956043E1,1.0201967E1,2.719291E3,1.2695604E1,1.9299923E1,2.909254E1,1.5863503E1,9.2885956E2,1.7904313E3,1.9070726E1,1.0021814E1,5.652308E2,3.6362878E2,4.0255276E2,1.3878785E3],"tree_param":{"num_deleted":"0","num_feature":"30","num_nodes":"19","size_leaf_vector":"1"}},{"base_weights":[-1.6044129E-3,-2.890775E-1,4.209031E-3,5.1093805E-1,-1.5901318E-2,1.0919509E0,-4.5348492E-1,-4.176777E-1,1.6848205E-2,3.5783902E-1,-1.1332191E-1,-2.5927377E-1,3.1488714E-1,1.3064654E-1,-1.9929329E-1,2.3172302E-2,-3.6645707E-2],"categories":[],"categories_nodes":[],"categories_segments":[],"categories_sizes":[],"default_left":[0,0,0,0,0,0,0,0,0,0,0,0,0,0,0,0,0],"id":36,"left_children":[1,-1,3,5,7,9,11,13,15,-1,-1,-1,-1,-1,-1,-1,-1],"loss_changes":[1.8768702E1,0E0,2.8340925E1,5.948703E1,3.5195385E1,3.474858E1,3.99041E1,7.1936134E1,3.0653538E1,0E0,0E0,0E0,0E0,0E0,0E0,0E0,0E0],"parents":[2147483647,0,0,2,2,3,3,4,4,5,5,6,6,7,7,8,8],"right_children":[2,-1,4,6,8,10,12,14,16,-1,-1,-1,-1,-1,-1,-1,-1],"split_conditions":[-1.7714509E0,-2.890775E-1,-1.041157E0,2.4727432E-3,-5.4920256E-1,-1.9064777E-2,2.8909987E-3,-6.363413E-2,-3.6134288E0,3.5783902E-1,-1.1332191E-1,-2.5927377E-1,3.1488714E-1,1.3064654E-1,-1.9929329E-1,2.3172302E-2,-3.6645707E-2],"split_indices":[3,0,3,19,3,18,22,9,5,0,0,0,0,0,0,0,0],"split_type":[0,0,0,0,0,0,0,0,0,0,0,0,0,0,0,0,0],"sum_hessian":[2.794769E3,1.400193E1,2.780767E3,1.06150894E2,2.6746162E3,6.6244514E1,3.990638E1,2.0158678E2,2.4730293E3,5.431577E1,1.1928749E1,2.9766594E1,1.0139785E1,5.7964344E1,1.4362244E2,1.6891736E3,7.8385565E2],"tree_param":{"num_deleted":"0","num_feature":"30","num_nodes":"17","size_leaf_vector":"1"}},{"base_weights":[-4.423703E-3,2.373133E-1,-1.0890917E-2,-3.744657E-3,-9.5963234E-1,-1.1292319E-1,5.544665E-2,-3.821089E-1,-9.110963E-2,1.3913336E-1,-4.128206E-2,2.05668E-1,9.210809E-3],"categories":[],"categories_nodes":[],"categories_segments":[],"categories_sizes":[],"default_left":[0,0,0,0,0,0,0,0,0,0,0,0,0],"id":37,"left_children":[1,-1,3,5,7,9,11,-1,-1,-1,-1,-1,-1],"loss_changes":[1.7086462E1,0E0,1.8656023E1,1.7648207E1,6.9627323E0,3.3553894E1,2.5275412E1,0E0,0E0,0E0,0E0,0E0,0E0],"parents":[2147483647,0,0,2,2,3,3,4,4,5,5,6,6],"right_children":[2,-1,4,6,8,10,12,-1,-1,-1,-1,-1,-1],"split_conditions":[-1.438291E1,2.373133E-1,9.8396335E-3,-1.906785E-1,1.543955E-3,-7.0723796E-1,1.1838167E0,-3.821089E-1,-9.110963E-2,1.3913336E-1,-4.128206E-2,2.05668E-1,9.210809E-3],"split_indices":[16,0,13,8,10,18,1,0,0,0,0,0,0],"split_type":[0,0,0,0,0,0,0,0,0,0,0,0,0],"sum_hessian":[2.7699827E3,1.8655298E1,2.7513274E3,2.7307607E3,2.0566647E1,9.600269E2,1.7707338E3,1.0514498E1,1.0052149E1,6.944524E1,8.9058167E2,4.191676E1,1.728817E3],"tree_param":{"num_deleted":"0","num_feature":"30","num_nodes":"13","size_leaf_vector":"1"}},{"base_weights":[-1.5596177E-3,2.094511E-2,-2.4490722E-1,5.1612984E-2,-2.588475E-1,-6.1055386E-1,3.0063683E-1,1.2241478E-2,5.4166126E-1,-9.7509867E-1,-3.5263423E-2,1.492457E-1,-7.544392E-1,5.276616E-1,-3.121872E-1,1.5339625E-2,-9.60872E-2,-2.7491894E-1,2.0833318E-1,-1.2629527E-1,-2.8752884E-1,4.5047212E-1,-4.1163865E-2,-2.2128941E-1,6.4764775E-2,-1.8138953E-1,1.808514E-1],"categories":[],"categories_nodes":[],"categories_segments":[],"categories_sizes":[],"default_left":[0,0,0,0,0,0,0,0,0,0,0,0,0,0,0,0,0,0,0,0,0,0,0,0,0,0,0],"id":38,"left_children":[1,3,5,7,9,11,13,15,17,19,21,-1,23,25,-1,-1,-1,-1,-1,-1,-1,-1,-1,-1,-1,-1,-1],"loss_changes":[1.51377945E1,2.1708733E1,4.6675392E1,4.3990604E1,4.0020317E1,2.4342987E1,3.3029522E1,4.1110775E1,8.117497E1,7.4218216E0,4.5277523E1,0E0,1.6586304E1,2.009242E1,0E0,0E0,0E0,0E0,0E0,0E0,0E0,0E0,0E0,0E0,0E0,0E0,0E0],"parents":[2147483647,0,0,1,1,2,2,3,3,4,4,5,5,6,6,7,7,8,8,9,9,10,10,12,12,13,13],"right_children":[2,4,6,8,10,12,14,16,18,20,22,-1,24,26,-1,-1,-1,-1,-1,-1,-1,-1,-1,-1,-1,-1,-1],"split_conditions":[9.409916E-5,-3.4487998E0,1.2419018E-2,-3.5018754E0,8.395682E-1,1.1341411E0,4.0216758E-4,1.8100743E0,1.555616E0,1.286411E0,-7.951857E-3,1.492457E-1,3.7892733E-2,7.211804E-4,-3.121872E-1,1.5339625E-2,-9.60872E-2,-2.7491894E-1,2.0833318E-1,-1.2629527E-1,-2.8752884E-1,4.5047212E-1,-4.1163865E-2,-2.2128941E-1,6.4764775E-2,-1.8138953E-1,1.808514E-1],"split_indices":[21,5,20,5,0,1,21,1,1,1,2,0,12,29,0,0,0,0,0,0,0,0,0,0,0,0,0],"split_type":[0,0,0,0,0,0,0,0,0,0,0,0,0,0,0,0,0,0,0,0,0,0,0,0,0,0,0],"sum_hessian":[2.763837E3,2.5298662E3,2.339708E2,2.2799685E3,2.4989758E2,1.4008447E2,9.388633E1,2.110418E3,1.695507E2,5.944747E1,1.9045012E2,1.4913038E1,1.2517143E2,8.188897E1,1.1997354E1,1.8778546E3,2.3256328E2,2.5582302E1,1.4396841E2,1.0045261E1,4.940221E1,1.2529812E1,1.779203E2,1.108735E2,1.4297931E1,1.1060997E1,7.082797E1],"tree_param":{"num_deleted":"0","num_feature":"30","num_nodes":"27","size_leaf_vector":"1"}},{"base_weights":[-1.3454555E-2,4.3881275E-2,-1.2898067E-1,2.1416396E-1,-9.111026E-2,2.0393738E-1,-2.7658412E-1,-2.6501033E-1,4.2142975E-1,-7.097248E-1,4.3458223E-2,-5.2743584E-2,9.1275746E-1,-5.0874925E-1,1.1675797E-1,8.681336E-2,-1.7109677E-1,-3.0587533E-1,1.325835E-1,-2.1666902E-1,1.6541994E-1,9.222953E-2,-2.6554106E-2,-2.9120737E-1,3.471165E-2,3.4287938E-1,-6.24724E-2,-8.99289E-2,-2.8499553E-1,-2.7099892E-3,3.536836E-1],"categories":[],"categories_nodes":[],"categories_segments":[],"categories_sizes":[],"default_left":[0,0,0,0,0,0,0,0,0,0,0,0,0,0,0,0,0,0,0,0,0,0,0,0,0,0,0,0,0,0,0],"id":39,"left_children":[1,3,5,7,9,11,13,15,17,19,21,23,25,27,29,-1,-1,-1,-1,-1,-1,-1,-1,-1,-1,-1,-1,-1,-1,-1,-1],"loss_changes":[1.8098446E1,4.1974236E1,4.453455E1,8.01947E1,8.479192E1,5.0652237E1,5.7340298E1,6.2604065E1,1.00975586E2,3.9173744E1,4.075294E1,4.3550446E1,3.9479748E1,3.7145187E1,3.8605175E1,0E0,0E0,0E0,0E0,0E0,0E0,0E0,0E0,0E0,0E0,0E0,0E0,0E0,0E0,0E0,0E0],"parents":[2147483647,0,0,1,1,2,2,3,3,4,4,5,5,6,6,7,7,8,8,9,9,10,10,11,11,12,12,13,13,14,14],"right_children":[2,4,6,8,10,12,14,16,18,20,22,24,26,28,30,-1,-1,-1,-1,-1,-1,-1,-1,-1,-1,-1,-1,-1,-1,-1,-1],"split_conditions":[3.755251E-6,1.6010741E0,-3.757718E0,-3.8152013E0,1.6546652E0,2.708294E-3,1.7282153E0,-1.9930816E-1,-4.8765248E-1,1.4750312E-1,-2.068072E-1,1.771127E-5,8.694335E-3,1.6562613E0,1.1017708E0,8.681336E-2,-1.7109677E-1,-3.0587533E-1,1.325835E-1,-2.1666902E-1,1.6541994E-1,9.222953E-2,-2.6554106E-2,-2.9120737E-1,3.471165E-2,3.4287938E-1,-6.24724E-2,-8.99289E-2,-2.8499553E-1,-2.7099892E-3,3.536836E-1],"split_indices":[15,1,5,5,1,25,1,3,3,19,3,17,16,1,26,0,0,0,0,0,0,0,0,0,0,0,0,0,0,0,0],"split_type":[0,0,0,0,0,0,0,0,0,0,0,0,0,0,0,0,0,0,0,0,0,0,0,0,0,0,0,0,0,0,0],"sum_hessian":[2.7322024E3,1.8259568E3,9.0624554E2,8.074412E2,1.0185155E3,2.7836984E2,6.2787573E2,2.4379791E2,5.636433E2,1.8197751E2,8.36538E2,2.0436212E2,7.4007706E1,3.9483514E2,2.3304059E2,9.910515E1,1.4469276E2,3.4998062E1,5.286452E2,1.6329121E2,1.8686306E1,2.6352707E2,5.730109E2,3.0035109E1,1.7432701E2,5.3069412E1,2.0938292E1,3.194232E2,7.541196E1,2.1218037E2,2.08602E1],"tree_param":{"num_deleted":"0","num_feature":"30","num_nodes":"31","size_leaf_vector":"1"}},{"base_weights":[-9.596548E-3,-6.689528E-2,1.1030275E-1,-1.4645264E-2,-3.8007012E-1,8.411961E-1,7.804194E-2,-4.946238E-1,1.7326698E-2,-6.069499E-1,5.087624E-1,1.3410399E0,2.5520561E-2,5.231163E-1,1.9045714E-2,6.331197E-2,-2.3460257E-1,-2.911438E-1,8.527803E-3,-2.2220111E-1,-1.5480055E-3,3.9230338E-1,-8.8662066E-2,2.8510332E-1,3.7968346E-1,-1.8713234E-1,1.6745052E-1,-1.0114917E-1,2.4361128E-2],"categories":[],"categories_nodes":[],"categories_segments":[],"categories_sizes":[],"default_left":[0,0,0,0,0,0,0,0,0,0,0,0,0,0,0,0,0,0,0,0,0,0,0,0,0,0,0,0,0],"id":40,"left_children":[1,3,5,7,9,11,13,15,17,19,21,23,-1,25,27,-1,-1,-1,-1,-1,-1,-1,-1,-1,-1,-1,-1,-1,-1],"loss_changes":[1.8541275E1,2.988169E1,2.0578083E1,2.4019592E1,5.2655834E1,1.3626921E1,2.1946217E1,3.2444412E1,2.9109756E1,3.5219925E1,4.862042E1,7.8435135E-1,0E0,1.8249264E1,2.451121E1,0E0,0E0,0E0,0E0,0E0,0E0,0E0,0E0,0E0,0E0,0E0,0E0,0E0,0E0],"parents":[2147483647,0,0,1,1,2,2,3,3,4,4,5,5,6,6,7,7,8,8,9,9,10,10,11,11,13,13,14,14],"right_children":[2,4,6,8,10,12,14,16,18,20,22,24,-1,26,28,-1,-1,-1,-1,-1,-1,-1,-1,-1,-1,-1,-1,-1,-1],"split_conditions":[1.9749261E-6,4.0573286E-4,4.34173E-8,-3.9422033E0,2.2443268E-2,1.3816534E0,5.475586E-4,2.2130609E-5,-1.4807341E0,4.5530656E-3,-3.736517E0,3.408677E-4,2.5520561E-2,-2.5423096E-2,1.4963624E0,6.331197E-2,-2.3460257E-1,-2.911438E-1,8.527803E-3,-2.2220111E-1,-1.5480055E-3,3.9230338E-1,-8.8662066E-2,2.8510332E-1,3.7968346E-1,-1.8713234E-1,1.6745052E-1,-1.0114917E-1,2.4361128E-2],"split_indices":[23,17,15,5,10,3,25,17,4,20,5,17,0,10,1,0,0,0,0,0,0,0,0,0,0,0,0,0,0],"split_type":[0,0,0,0,0,0,0,0,0,0,0,0,0,0,0,0,0,0,0,0,0,0,0,0,0,0,0,0,0],"sum_hessian":[2.6987483E3,1.8260942E3,8.7265393E2,1.5649978E3,2.610965E2,3.6886677E1,8.357673E2,9.774056E1,1.4672572E3,2.0800465E2,5.309185E1,2.2003305E1,1.4883372E1,9.7813324E1,7.379539E2,3.6397736E1,6.1342827E1,2.0543238E1,1.446714E3,1.415776E2,6.642705E1,2.3828299E1,2.9263552E1,1.0340849E1,1.16624565E1,1.011437E1,8.769896E1,1.1523438E2,6.2271954E2],"tree_param":{"num_deleted":"0","num_feature":"30","num_nodes":"29","size_leaf_vector":"1"}},{"base_weights":[-4.58082E-3,-1.3306022E-1,4.653399E-2,1.4566284E-1,-3.350192E-1,1.3388373E-1,-1.3513167E-1,-2.3486346E-1,4.0154946E-1,-4.7419637E-1,2.6603943E-1,-9.1933084E-1,1.6572134E-1,-3.819866E-1,5.0970033E-2,2.4151044E-1,-1.3358374E-1,-2.6627707E-3,2.9274157E-1,-1.9439064E-1,-2.8509958E-2,2.112346E-1,-5.600664E-2,-3.10575E-1,-9.4201185E-2,7.011729E-2,-2.4350587E-2,5.113336E-2,-1.36377E-1,8.429807E-2,-9.6700974E-2],"categories":[],"categories_nodes":[],"categories_segments":[],"categories_sizes":[],"default_left":[0,0,0,0,0,0,0,0,0,0,0,0,0,0,0,0,0,0,0,0,0,0,0,0,0,0,0,0,0,0,0],"id":41,"left_children":[1,3,5,7,9,11,13,15,17,19,21,23,25,27,29,-1,-1,-1,-1,-1,-1,-1,-1,-1,-1,-1,-1,-1,-1,-1,-1],"loss_changes":[1.7507988E1,4.2711967E1,3.0263458E1,3.1042786E1,3.680654E1,4.318687E1,2.844936E1,4.6099648E1,6.0458954E1,3.9031937E1,2.3471775E1,9.032509E0,3.7744644E1,2.5530651E1,4.4240635E1,0E0,0E0,0E0,0E0,0E0,0E0,0E0,0E0,0E0,0E0,0E0,0E0,0E0,0E0,0E0,0E0],"parents":[2147483647,0,0,1,1,2,2,3,3,4,4,5,5,6,6,7,7,8,8,9,9,10,10,11,11,12,12,13,13,14,14],"right_children":[2,4,6,8,10,12,14,16,18,20,22,24,26,28,30,-1,-1,-1,-1,-1,-1,-1,-1,-1,-1,-1,-1,-1,-1,-1,-1],"split_conditions":[1.0355822E-3,-1.0830569E-1,2.6124453E-3,1.195343E-6,6.318097E-2,8.1662095E-1,-3.6816533E0,3.2177052E-4,4.0902314E-3,4.0301353E-1,4.9162896E-5,-3.5508776E0,-3.6153393E0,-4.9217213E-3,2.3477992E-6,2.4151044E-1,-1.3358374E-1,-2.6627707E-3,2.9274157E-1,-1.9439064E-1,-2.8509958E-2,2.112346E-1,-5.600664E-2,-3.10575E-1,-9.4201185E-2,7.011729E-2,-2.4350587E-2,5.113336E-2,-1.36377E-1,8.429807E-2,-9.6700974E-2],"split_indices":[25,26,20,15,9,0,5,25,20,3,17,5,5,22,15,0,0,0,0,0,0,0,0,0,0,0,0,0,0,0,0],"split_type":[0,0,0,0,0,0,0,0,0,0,0,0,0,0,0,0,0,0,0,0,0,0,0,0,0,0,0,0,0,0,0],"sum_hessian":[2.6658225E3,7.5873987E2,1.9070825E3,3.1878046E2,4.399594E2,1.2878582E3,6.1922437E2,1.281705E2,1.9060995E2,3.572425E2,8.271691E1,3.7786232E1,1.2500719E3,2.6617215E2,3.5305222E2,2.5580986E1,1.02589516E2,1.24114815E2,6.649513E1,1.9390584E2,1.6333665E2,3.792363E1,4.4793285E1,2.6903347E1,1.0882884E1,8.704701E2,3.796019E2,5.802687E1,2.0814526E2,2.1348088E2,1.3957133E2],"tree_param":{"num_deleted":"0","num_feature":"30","num_nodes":"31","size_leaf_vector":"1"}},{"base_weights":[-3.828925E-3,6.1006397E-1,-1.3119812E-2,-1.2180681E-2,8.367373E-1,-2.4032278E-3,-7.242258E-1,1.5688558E-1,2.4871358E-1,-6.349199E-1,7.2144736E-3,1.3853313E-1,-5.084645E-1,-2.6705194E-1,3.642735E-2,6.488757E-2,-3.5206715E-3,1.6943283E-1,-1.2974405E-1],"categories":[],"categories_nodes":[],"categories_segments":[],"categories_sizes":[],"default_left":[0,0,0,0,0,0,0,0,0,0,0,0,0,0,0,0,0,0,0],"id":42,"left_children":[1,3,5,-1,7,9,11,-1,-1,13,15,17,-1,-1,-1,-1,-1,-1,-1],"loss_changes":[1.507723E1,5.8871E0,1.9844147E1,0E0,9.696598E-1,1.5609021E1,4.368625E1,0E0,0E0,1.3001013E1,1.3580444E1,8.266331E0,0E0,0E0,0E0,0E0,0E0,0E0,0E0],"parents":[2147483647,0,0,1,1,2,2,4,4,5,5,6,6,9,9,10,10,11,11],"right_children":[2,4,6,-1,8,10,12,-1,-1,14,16,18,-1,-1,-1,-1,-1,-1,-1],"split_conditions":[-4.9235336E-2,-3.6733708E0,4.501556E0,-1.2180681E-2,1.853218E-3,-7.91818E-3,5.176813E-4,1.5688558E-1,2.4871358E-1,6.383483E-3,9.7622085E-1,-1.5097406E-3,-5.084645E-1,-2.6705194E-1,3.642735E-2,6.488757E-2,-3.5206715E-3,1.6943283E-1,-1.2974405E-1],"split_indices":[22,5,18,0,29,20,20,0,0,29,6,12,0,0,0,0,0,0,0],"split_type":[0,0,0,0,0,0,0,0,0,0,0,0,0,0,0,0,0,0,0],"sum_hessian":[2.6431973E3,3.9403072E1,2.6037942E3,1.0084409E1,2.9318663E1,2.5651401E3,3.8654213E1,1.2627071E1,1.6691591E1,3.842347E1,2.5267166E3,2.3301756E1,1.5352458E1,2.4710722E1,1.3712748E1,1.9666551E2,2.330051E3,1.280464E1,1.0497117E1],"tree_param":{"num_deleted":"0","num_feature":"30","num_nodes":"19","size_leaf_vector":"1"}},{"base_weights":[-5.265771E-3,-1.0274301E-2,2.7618966E-1,1.5259717E-3,-6.391992E-1,-1.6529597E-2,5.449546E-1,7.653936E-2,-1.1224663E0,-2.331305E-4,-1.5065964E-1,-2.2760242E-1,2.484818E-1,-1.5018333E-1,-3.4096175E-1],"categories":[],"categories_nodes":[],"categories_segments":[],"categories_sizes":[],"default_left":[0,0,0,0,0,0,0,0,0,0,0,0,0,0,0],"id":43,"left_children":[1,3,-1,5,7,9,11,-1,13,-1,-1,-1,-1,-1,-1],"loss_changes":[1.4596054E1,1.939766E1,0E0,2.5171347E1,2.1994041E1,2.2695436E1,5.390462E1,0E0,4.010456E0,0E0,0E0,0E0,0E0,0E0,0E0],"parents":[2147483647,0,0,1,1,3,3,4,4,5,5,6,6,8,8],"right_children":[2,4,-1,6,8,10,12,-1,14,-1,-1,-1,-1,-1,-1],"split_conditions":[5.1943207E-4,1.8213676E-4,2.7618966E-1,9.972198E-5,-3.9198297E-1,2.4167383E-2,1.5887249E0,7.653936E-2,-1.4539288E0,-2.331305E-4,-1.5065964E-1,-2.2760242E-1,2.484818E-1,-1.5018333E-1,-3.4096175E-1],"split_indices":[15,15,0,15,3,2,1,0,14,0,0,0,0,0,0],"split_type":[0,0,0,0,0,0,0,0,0,0,0,0,0,0,0],"sum_hessian":[2.6249204E3,2.6131318E3,1.1788616E1,2.5650022E3,4.8129757E1,2.4825156E3,8.248648E1,1.6279476E1,3.1850283E1,2.4181692E3,6.434652E1,1.9446074E1,6.3040405E1,1.0077577E1,2.1772705E1],"tree_param":{"num_deleted":"0","num_feature":"30","num_nodes":"15","size_leaf_vector":"1"}},{"base_weights":[-4.907756E-3,7.7220984E-2,-6.984544E-2,-9.258766E-2,2.518823E-1,-2.6173857E-1,6.667055E-2,-7.137071E-1,3.1768703E-3,4.0535405E-1,-1.5282305E-1,1.0814573E-1,-5.2823645E-1,4.0053356E-1,-1.2464521E-1,-8.01557E-2,-3.191024E-1,-3.6556497E-2,8.942798E-2,1.294086E-1,-1.3064292E-1,-1.3615194E-1,1.7063625E-1,-1.9845386E-1,7.7804774E-2,-2.03848E-1,-8.296652E-2,1.1954666E-1,-2.8644705E-1,1.02847345E-1,-5.5044807E-2],"categories":[],"categories_nodes":[],"categories_segments":[],"categories_sizes":[],"default_left":[0,0,0,0,0,0,0,0,0,0,0,0,0,0,0,0,0,0,0,0,0,0,0,0,0,0,0,0,0,0,0],"id":44,"left_children":[1,3,5,7,9,11,13,15,17,19,21,23,25,27,29,-1,-1,-1,-1,-1,-1,-1,-1,-1,-1,-1,-1,-1,-1,-1,-1],"loss_changes":[1.39118185E1,3.4160664E1,3.816102E1,3.4739685E1,3.5265896E1,5.969126E1,5.436757E1,1.7255901E1,2.6802578E1,4.2892426E1,5.1094322E1,4.6448795E1,1.9846405E1,3.7235302E1,2.7710033E1,0E0,0E0,0E0,0E0,0E0,0E0,0E0,0E0,0E0,0E0,0E0,0E0,0E0,0E0,0E0,0E0],"parents":[2147483647,0,0,1,1,2,2,3,3,4,4,5,5,6,6,7,7,8,8,9,9,10,10,11,11,12,12,13,13,14,14],"right_children":[2,4,6,8,10,12,14,16,18,20,22,24,26,28,30,-1,-1,-1,-1,-1,-1,-1,-1,-1,-1,-1,-1,-1,-1,-1,-1],"split_conditions":[1.1418788E0,9.913424E-1,-1.5854288E-2,-3.4708917E-1,2.560486E-6,-9.132662E-4,7.606853E-4,4.6004003E-5,1.888749E-1,-3.4740407E0,-3.5097656E0,-7.809044E-2,1.5765502E-3,8.580995E-1,9.8493683E-1,-8.01557E-2,-3.191024E-1,-3.6556497E-2,8.942798E-2,1.294086E-1,-1.3064292E-1,-1.3615194E-1,1.7063625E-1,-1.9845386E-1,7.7804774E-2,-2.03848E-1,-8.296652E-2,1.1954666E-1,-2.8644705E-1,1.02847345E-1,-5.5044807E-2],"split_indices":[7,6,9,3,15,20,27,11,14,5,5,16,27,14,6,0,0,0,0,0,0,0,0,0,0,0,0,0,0,0,0],"split_type":[0,0,0,0,0,0,0,0,0,0,0,0,0,0,0,0,0,0,0,0,0,0,0,0,0,0,0,0,0,0,0],"sum_hessian":[2.6083877E3,1.151727E3,1.4566606E3,5.839693E2,5.6775775E2,6.055245E2,8.511362E2,7.8012375E1,5.0595694E2,4.1165585E2,1.5610187E2,2.5357199E2,3.5195248E2,3.1006216E2,5.410741E2,4.5930805E1,3.2081573E1,3.5595096E2,1.5000597E2,3.6722372E2,4.443213E1,1.0626615E2,4.983572E1,4.659712E1,2.0697487E2,1.4293079E2,2.090217E2,2.9523743E2,1.482473E1,8.184177E1,4.592323E2],"tree_param":{"num_deleted":"0","num_feature":"30","num_nodes":"31","size_leaf_vector":"1"}},{"base_weights":[-3.4326375E-3,-4.6577606E-1,8.263516E-3,1.5739404E-1,-6.9170463E-1,1.6165444E-1,-2.5865162E-2,-1.0873637E0,-3.216765E-1,2.3911318E-1,-5.382789E-1,7.8944504E-1,-3.41701E-2,-2.6442218E-1,-2.7996776E-1,-2.6931566E-1,3.741526E-2,1.19509E-2,1.3792574E-1,8.0962606E-2,-2.9643047E-1,-1.1302253E-2,3.9902592E-1,-5.499398E-2,3.598875E-3],"categories":[],"categories_nodes":[],"categories_segments":[],"categories_sizes":[],"default_left":[0,0,0,0,0,0,0,0,0,0,0,0,0,0,0,0,0,0,0,0,0,0,0,0,0],"id":45,"left_children":[1,3,5,-1,7,9,11,13,15,17,19,21,23,-1,-1,-1,-1,-1,-1,-1,-1,-1,-1,-1,-1],"loss_changes":[1.4010302E1,1.5821157E1,1.3226538E1,0E0,7.757715E0,2.4930923E1,1.3994558E1,2.4692535E-2,9.758587E0,2.4757692E1,2.5577581E1,1.4035281E1,1.8461208E1,0E0,0E0,0E0,0E0,0E0,0E0,0E0,0E0,0E0,0E0,0E0,0E0],"parents":[2147483647,0,0,1,1,2,2,4,4,5,5,6,6,7,7,8,8,9,9,10,10,11,11,12,12],"right_children":[2,4,6,-1,8,10,12,14,16,18,20,22,24,-1,-1,-1,-1,-1,-1,-1,-1,-1,-1,-1,-1],"split_conditions":[5.2804396E-9,-6.2052613E-1,-6.01331E-2,1.5739404E-1,1.5887249E0,6.4466294E-5,-2.352803E1,9.964706E-1,9.9600977E-1,2.0537822E-5,-8.070842E-3,8.664928E-1,-2.454567E-2,-2.6442218E-1,-2.7996776E-1,-2.6931566E-1,3.741526E-2,1.19509E-2,1.3792574E-1,8.0962606E-2,-2.9643047E-1,-1.1302253E-2,3.9902592E-1,-5.499398E-2,3.598875E-3],"split_indices":[23,26,24,0,1,21,28,6,6,21,12,0,24,0,0,0,0,0,0,0,0,0,0,0,0],"split_type":[0,0,0,0,0,0,0,0,0,0,0,0,0,0,0,0,0,0,0,0,0,0,0,0,0],"sum_hessian":[2.5902437E3,6.3914852E1,2.5263289E3,1.09272E1,5.298765E1,4.5980548E2,2.0665232E3,2.5603964E1,2.7383688E1,4.1399377E2,4.581171E1,2.0835035E1,2.0456882E3,1.3422043E1,1.2181921E1,1.0521632E1,1.6862057E1,2.5682214E2,1.5717163E2,1.964675E1,2.616496E1,1.02384405E1,1.0596595E1,4.2390988E2,1.6217783E3],"tree_param":{"num_deleted":"0","num_feature":"30","num_nodes":"25","size_leaf_vector":"1"}},{"base_weights":[-8.02061E-3,-5.933944E-2,1.0072491E-1,5.8307314E-1,-8.236024E-2,-9.7213495E-1,1.4504518E-1,1.14033E0,-3.0466542E-1,-7.380618E-1,-4.9807128E-2,-3.44744E-2,-1.4103462E0,-3.9257568E-1,2.0939593E-1,1.5412743E-1,5.146598E-1,-3.0452713E-1,1.6881607E-1,1.14791065E-1,-2.3068133E-1,-4.6701855E-3,-1.2165588E-1,-3.0141306E-1,-4.0965724E-1,5.3299293E-3,-2.7290416E-1,-8.148321E-2,7.130749E-2],"categories":[],"categories_nodes":[],"categories_segments":[],"categories_sizes":[],"default_left":[0,0,0,0,0,0,0,0,0,0,0,0,0,0,0,0,0,0,0,0,0,0,0,0,0,0,0,0,0],"id":46,"left_children":[1,3,5,7,9,11,13,15,17,19,21,-1,23,25,27,-1,-1,-1,-1,-1,-1,-1,-1,-1,-1,-1,-1,-1,-1],"loss_changes":[1.4396167E1,2.5919262E1,3.932702E1,2.9996956E1,3.6114956E1,1.1992439E1,2.747845E1,1.7917694E1,2.0934614E1,1.7695065E1,2.19167E1,0E0,1.0050125E0,2.4569084E1,2.8797142E1,0E0,0E0,0E0,0E0,0E0,0E0,0E0,0E0,0E0,0E0,0E0,0E0,0E0,0E0],"parents":[2147483647,0,0,1,1,2,2,3,3,4,4,5,5,6,6,7,7,8,8,9,9,10,10,12,12,13,13,14,14],"right_children":[2,4,6,8,10,12,14,16,18,20,22,-1,24,26,28,-1,-1,-1,-1,-1,-1,-1,-1,-1,-1,-1,-1,-1,-1],"split_conditions":[2.1806576E-3,1.2148416E0,6.472904E-7,-3.6433723E0,1.4057512E0,-2.5586565E-3,-1.3407917E0,-3.7077746E0,3.7892733E-2,-4.620288E-1,1.0249633E0,-3.44744E-2,1.861754E-7,5.7414818E-5,1.2207518E-5,1.5412743E-1,5.146598E-1,-3.0452713E-1,1.6881607E-1,1.14791065E-1,-2.3068133E-1,-4.6701855E-3,-1.2165588E-1,-3.0141306E-1,-4.0965724E-1,5.3299293E-3,-2.7290416E-1,-8.148321E-2,7.130749E-2],"split_indices":[29,1,13,5,1,2,28,5,12,3,14,0,23,11,11,0,0,0,0,0,0,0,0,0,0,0,0,0,0],"split_type":[0,0,0,0,0,0,0,0,0,0,0,0,0,0,0,0,0,0,0,0,0,0,0,0,0,0,0,0,0],"sum_hessian":[2.5795298E3,1.7525115E3,8.2701843E2,6.062504E1,1.6918864E3,3.2807045E1,7.9421136E2,3.724681E1,2.3378227E1,8.001962E1,1.6118668E3,1.1300031E1,2.1507015E1,8.489737E1,7.09314E2,2.3719364E1,1.3527446E1,1.2100788E1,1.1277439E1,1.0691461E1,6.932816E1,1.5046543E3,1.07212456E2,1.1344679E1,1.0162336E1,5.3322422E1,3.1574951E1,8.8009026E1,6.21305E2],"tree_param":{"num_deleted":"0","num_feature":"30","num_nodes":"29","size_leaf_vector":"1"}},{"base_weights":[-9.328562E-3,-2.3313748E-2,4.0788695E-1,-3.065959E-1,-1.8036071E-2,-1.8414539E-1,8.5223174E-1,-3.6020134E-2,2.6463503E-1,-2.7193728E-1,2.3625799E-1,1.4888915E-1,1.4668683E0,7.3740573E-4,-5.653667E-2,1.0367816E-1,-2.7275082E-1,1.9410014E-1,-1.1831038E-1,4.6874708E-1,2.4720396E-1],"categories":[],"categories_nodes":[],"categories_segments":[],"categories_sizes":[],"default_left":[0,0,0,0,0,0,0,0,0,0,0,0,0,0,0,0,0,0,0,0,0],"id":47,"left_children":[1,3,5,-1,7,9,11,13,15,-1,-1,17,19,-1,-1,-1,-1,-1,-1,-1,-1],"loss_changes":[1.4956655E1,1.5749485E1,2.187204E1,0E0,1.2553141E1,3.6371143E1,2.0528873E1,1.7201895E1,3.005196E1,0E0,0E0,8.652054E0,4.9437943E0,0E0,0E0,0E0,0E0,0E0,0E0,0E0,0E0],"parents":[2147483647,0,0,1,1,2,2,4,4,5,5,6,6,7,7,8,8,11,11,12,12],"right_children":[2,4,6,-1,8,10,12,14,16,-1,-1,18,20,-1,-1,-1,-1,-1,-1,-1,-1],"split_conditions":[2.485644E-4,6.714613E-8,-7.246075E-2,-3.065959E-1,3.7892733E-2,9.95237E-1,9.917945E-1,9.515068E-3,1.0188716E-4,-2.7193728E-1,2.3625799E-1,6.6391403E-6,-1.6999094E-1,7.3740573E-4,-5.653667E-2,1.0367816E-1,-2.7275082E-1,1.9410014E-1,-1.1831038E-1,4.6874708E-1,2.4720396E-1],"split_indices":[11,17,4,0,12,6,6,12,11,0,0,21,26,0,0,0,0,0,0,0,0],"split_type":[0,0,0,0,0,0,0,0,0,0,0,0,0,0,0,0,0,0,0,0,0],"sum_hessian":[2.5631575E3,2.4800315E3,8.3125885E1,1.0830086E1,2.4692014E3,3.5637867E1,4.7488018E1,2.3215107E3,1.4769073E2,1.979739E1,1.5840477E1,2.2147669E1,2.5340351E1,1.9266069E3,3.9490375E2,1.3297163E2,1.4719094E1,1.102798E1,1.1119688E1,1.3667446E1,1.1672905E1],"tree_param":{"num_deleted":"0","num_feature":"30","num_nodes":"21","size_leaf_vector":"1"}},{"base_weights":[-1.049778E-3,-1.9652492E-1,2.607689E-2,4.2291877E-1,-3.5918623E-1,-3.3297557E-2,1.4908805E-1,-6.304578E-1,8.935674E-1,-5.2426815E-1,3.6594164E-1,4.1375134E-2,-2.2833067E-1,-3.0137986E-1,2.0105265E-1,-1.4448689E-1,-1.7068274E-1,3.9769775E-1,3.2888696E-2,-1.5021888E-2,-2.370687E-1,2.352854E-1,-1.6519539E-1,3.5954118E-2,-6.499801E-2,9.67315E-2,-9.11228E-2,1.4326912E-1,-1.3784537E-1,5.5928003E-2,-2.681213E-1],"categories":[],"categories_nodes":[],"categories_segments":[],"categories_sizes":[],"default_left":[0,0,0,0,0,0,0,0,0,0,0,0,0,0,0,0,0,0,0,0,0,0,0,0,0,0,0,0,0,0,0],"id":48,"left_children":[1,3,5,7,9,11,13,15,17,19,21,23,25,27,29,-1,-1,-1,-1,-1,-1,-1,-1,-1,-1,-1,-1,-1,-1,-1,-1],"loss_changes":[1.3558596E1,3.139677E1,1.6398825E1,3.213069E1,2.9543432E1,2.2054277E1,1.7110619E1,5.4918766E-2,2.6780136E1,3.9563267E1,2.7031002E1,3.380623E1,3.5124474E1,1.6528805E1,1.8913778E1,0E0,0E0,0E0,0E0,0E0,0E0,0E0,0E0,0E0,0E0,0E0,0E0,0E0,0E0,0E0,0E0],"parents":[2147483647,0,0,1,1,2,2,3,3,4,4,5,5,6,6,7,7,8,8,9,9,10,10,11,11,12,12,13,13,14,14],"right_children":[2,4,6,8,10,12,14,16,18,20,22,24,26,28,30,-1,-1,-1,-1,-1,-1,-1,-1,-1,-1,-1,-1,-1,-1,-1,-1],"split_conditions":[2.6867594E-8,1.2988505E-6,2.1806576E-3,8.547323E-1,3.5740298E-3,2.3711831E-3,1.101927E-5,-8.501983E-8,1.5255543E-5,1.1578741E0,-3.757718E0,7.320767E-5,-2.0905428E-2,-5.9778047E-1,5.8478974E-2,-1.4448689E-1,-1.7068274E-1,3.9769775E-1,3.2888696E-2,-1.5021888E-2,-2.370687E-1,2.352854E-1,-1.6519539E-1,3.5954118E-2,-6.499801E-2,9.67315E-2,-9.11228E-2,1.4326912E-1,-1.3784537E-1,5.5928003E-2,-2.681213E-1],"split_indices":[23,21,29,0,25,25,11,12,13,7,5,11,10,3,8,0,0,0,0,0,0,0,0,0,0,0,0,0,0,0,0],"split_type":[0,0,0,0,0,0,0,0,0,0,0,0,0,0,0,0,0,0,0,0,0,0,0,0,0,0,0,0,0,0,0],"sum_hessian":[2.5567117E3,3.115759E2,2.2451357E3,6.479827E1,2.4677762E2,1.514234E3,7.3090186E2,2.0009464E1,4.4788803E1,2.0101735E2,4.5760265E1,1.0949838E3,4.192502E2,7.5589714E1,6.5531213E2,1.0003978E1,1.0005486E1,2.478861E1,2.0000193E1,9.596511E1,1.05052246E2,2.9330627E1,1.6429636E1,8.172053E2,2.7777847E2,7.596718E1,3.4328302E2,1.6803885E1,5.878583E1,6.4385815E2,1.1454011E1],"tree_param":{"num_deleted":"0","num_feature":"30","num_nodes":"31","size_leaf_vector":"1"}},{"base_weights":[1.5665263E-4,-6.946195E-1,6.587918E-3,-2.4819817E-2,-2.8622228E-1,6.534219E-4,7.192837E-1,5.5076385E-1,-7.241068E-3,4.6576983E-1,-9.1646925E-2,-9.93138E-3,2.1506198E-1,-2.1978066E-4,-2.6560143E-1],"categories":[],"categories_nodes":[],"categories_segments":[],"categories_sizes":[],"default_left":[0,0,0,0,0,0,0,0,0,0,0,0,0,0,0],"id":49,"left_children":[1,3,5,-1,-1,7,9,11,13,-1,-1,-1,-1,-1,-1],"loss_changes":[1.1316784E1,6.224758E0,1.06138315E1,0E0,0E0,1.0810444E1,2.5741327E1,6.4378176E0,1.6470312E1,0E0,0E0,0E0,0E0,0E0,0E0],"parents":[2147483647,0,0,1,1,2,2,5,5,6,6,7,7,8,8],"right_children":[2,4,6,-1,-1,8,10,12,14,-1,-1,-1,-1,-1,-1],"split_conditions":[-1.4807341E0,3.1033228E-6,1.6182856E-1,-2.4819817E-2,-2.8622228E-1,-4.9235336E-2,-1.2050519E-3,1.4101835E-5,7.914024E-3,4.6576983E-1,-9.1646925E-2,-9.93138E-3,2.1506198E-1,-2.1978066E-4,-2.6560143E-1],"split_indices":[4,21,24,0,0,22,20,21,13,0,0,0,0,0,0],"split_type":[0,0,0,0,0,0,0,0,0,0,0,0,0,0,0],"sum_hessian":[2.5323228E3,2.3222437E1,2.5091003E3,1.0002441E1,1.3219996E1,2.488383E3,2.0717123E1,3.5209003E1,2.453174E3,1.009048E1,1.0626643E1,1.2105181E1,2.3103823E1,2.4384739E3,1.470021E1],"tree_param":{"num_deleted":"0","num_feature":"30","num_nodes":"15","size_leaf_vector":"1"}},{"base_weights":[-2.5884805E-3,-7.971583E-2,5.483042E-2,2.7928796E-1,-1.7566817E-1,1.1825388E-1,-1.5536116E-1,-5.2272853E-2,7.534738E-1,-8.367566E-2,-7.34234E-1,9.7041035E-1,9.427E-2,-1.2342072E0,-5.4039374E-2,