tree
version=v4
num_class=1
num_tree_per_iteration=1
label_index=0
max_feature_idx=29
objective=binary sigmoid:1
feature_names=Hurst CorrDim Lyapunov Skewness Kurtosis PSD ACF_1 WL_C1 WL_C2 WL_C3 Hurst_8_dyn Hurst_8_Variance CorrDim_8_dyn CorrDim_8_Variance Lyapunov_8_dyn Lyapunov_8_Variance Skewness_8_dyn Skewness_8_Variance Kurtosis_8_dyn Kurtosis_8_Variance PSD_8_dyn PSD_8_Variance ACF_1_8_dyn ACF_1_8_Variance WL_C1_8_dyn WL_C1_8_Variance WL_C2_8_dyn WL_C2_8_Variance WL_C3_8_dyn WL_C3_8_Variance
feature_infos=[0.29461869950303882:0.93602735151619021] [-0.73962681432284794:4.0934229766234704] [-0.035526950234941394:0.1274725075924045] [1.067768468242783:19.744707672783996] [0.96737862453923995:410.42006646634496] [-1.7464218897934378:0.10100585925177949] [0.0039684491487601437:0.81195846394177895] [0.072755615799091358:1.0401860401355556] [-0.57997827953229442:0.5742397701507338] [-2.1384853746834129:0.47490625175408102] [-0.49385088047471992:1.0268946304046684] [6.0837344461877996e-06:0.029477035415247828] [-3611697075682696:6758524990651426] [-3.1049807752207643e-17:3.6930063847808037] [-70007.685388285128:6275.4125443582107] [4.3748383020030682e-10:0.0044335533111356249] [-0.8313053177083789:9.7524749233773154] [4.6030170733353685e-08:55.803768466613228] [-0.96771779876280728:167.80891644217982] [2.5457220878344941e-06:28787.608557936295] [-50.825437228440833:11.16485456359765] [1.4172559659216769e-09:0.0035113156357743812] [-0.88074538739793051:2.2861845277554806] [1.5047742776904892e-09:0.028648769488867278] [-0.39684885632366551:0.61174428929030777] [1.9424474520892811e-06:0.016638603954354955] [-1447.8837067553106:102597.29603584028] [1.0734931671319843e-06:0.028683387244970642] [-2723.7148534518074:54059.992584138337] [3.2916987387299074e-07:0.11537894191407687]
tree_sizes=562 785 784 776 1179 662 565 973 564 1053 873 673 555 669 772 873 572 466 460 680 458 781 575 761 354 783 639 464 683 467 889 676 462 558 681 650 351 459 548 898 454 464 682 568 572 874 573 468 551 838 868 563 573 461 463 669 462 659 564 574 632 468 653 352 458 457 575 565 662 355 356 464 466 457 466

Tree=0
num_leaves=4
num_cat=0
split_feature=23 3 16
split_gain=2072.35 718.092 166.744
threshold=0.00020514044283265304 3.0249269740366986 -0.0021746740084552236
decision_type=2 2 2
left_child=-1 -2 -3
right_child=1 2 -4
leaf_value=-5.8374561914103245 -5.6529472034932366 -5.1922201123534801 -0.99190847293422024
leaf_weight=174.53064993303269 2.5280928798019877 1.1991359470412137 2.6681628907099366
leaf_count=51087 740 351 781
internal_value=-5.67232 -2.70482 -1.56796
internal_weight=0 6.39539 3.8673
internal_count=52959 1872 1132
is_linear=0
shrinkage=1


Tree=1
num_leaves=6
num_cat=0
split_feature=3 17 1 18 18
split_gain=5.82524 5.53916 12.9595 1.10411 1.07922
threshold=3.5551830544742393 0.00023476465763247012 2.121809408251987e-15 0.0039883047091303645 -0.012019794740479759
decision_type=2 2 2 2 2
left_child=-1 -2 3 -3 -4
right_child=1 2 4 -5 -6
leaf_value=-0.16285665377496009 -0.1771389689035486 -0.029698188066276922 0.074944350365219348 -0.12767710459047255 -0.0038166093622702501
leaf_weight=129.5885137473233 31.858545045368373 12.492734141182153 5.2422539577819398 84.146757605951279 43.422875177580863
leaf_count=33778 10585 2648 954 3239 1755
internal_value=0 -0.0978307 -0.0764427 -0.118044 0.00405544
internal_weight=0 177.163 145.305 96.6395 48.6651
internal_count=52959 19181 8596 5887 2709
is_linear=0
shrinkage=0.2


Tree=2
num_leaves=6
num_cat=0
split_feature=22 12 12 15 12
split_gain=14.5287 5.05016 4.01749 2.57452 1.34925
threshold=0.0056767656375195106 -1.9381955615747051 0.10327032530396109 4.5345408137144799e-07 -0.99735410107620281
decision_type=2 2 2 2 2
left_child=1 -1 4 -4 -2
right_child=2 -3 3 -5 -6
leaf_value=-0.075604479700310076 -0.032711470986548467 -0.16589120534110846 -0.095251890419833479 0.048992030043800025 -0.10840277865967576
leaf_weight=48.825761764543131 36.070696386741474 143.61253383755684 3.1824129975866553 22.707619996508583 24.592569519300014
leaf_count=8580 6886 28864 681 3074 4874
internal_value=0 -0.145238 -0.0415133 0.017598 -0.0695423
internal_weight=0 192.438 86.5533 25.89 60.6633
internal_count=52959 37444 15515 3755 11760
is_linear=0
shrinkage=0.2


Tree=3
num_leaves=6
num_cat=0
split_feature=3 19 22 24 12
split_gain=40.3119 6.67441 2.85956 5.11207 1.64482
threshold=7.2468093565381961 0.30079019332935647 -0.0088859246893240856 -0.016685135643665024 -2.5567688577357748
decision_type=2 2 2 2 2
left_child=2 -2 -1 -4 -3
right_child=1 4 3 -5 -6
leaf_value=-0.16614460847138368 -0.088977058944940277 0.20886064247400285 -0.045585543831205944 -0.13646144937233665 0.067499540271431832
leaf_weight=90.943857592064887 3.6298760198988012 9.465752509422602 50.800498091150075 83.203800887800753 19.18397572170943
leaf_count=10982 1567 104 13964 25748 594
internal_value=0 0.0981932 -0.132057 -0.104896 0.133385
internal_weight=0 32.2796 224.948 134.004 28.6497
internal_count=52959 2265 50694 39712 698
is_linear=0
shrinkage=0.2


Tree=4
num_leaves=10
num_cat=0
split_feature=2 22 29 22 19 18 18 18 23
split_gain=17.0821 6.76466 5.049 4.87147 1.31443 2.677 1.77322 3.10897 0.927552
threshold=0.0093721128487711022 0.0025523680886343496 0.00014709146682789323 0.0089517189661346714 0.063170054978855736 -0.046629104290267225 -0.0069096968328863908 -0.11174396951957082 1.5029790755511007e-05
decision_type=2 2 2 2 2 2 2 2 2
left_child=4 2 -2 -3 5 -1 7 -6 -5
right_child=1 3 -4 8 6 -7 -8 -9 -10
leaf_value=0 0.035101785370237497 -0.095398428974985586 -0.09081500680217415 0 0.10404907028782553 -0.16647336410367297 -0.11127342666419143 -0.074448511690947058 0.10332649320859483
leaf_weight=2.2795997762586913 13.487274412997065 3.9208811317803365 43.259085118421353 3.1819033202482414 3.0066618613200253 67.987682643113658 68.317854063818231 9.432167456019668 22.98870704183355
leaf_count=1128 1088 1717 5189 1399 953 33614 4461 2665 745
internal_value=0 -0.0158343 -0.057366 0.054883 -0.130139 -0.159289 -0.0984419 -0.00807229 0.0905272
internal_weight=0 86.8379 56.7464 30.0915 151.024 70.2673 80.7567 12.4388 26.1706
internal_count=52959 10138 6277 3861 42821 34742 8079 3618 2144
is_linear=0
shrinkage=0.2


Tree=5
num_leaves=5
num_cat=0
split_feature=19 4 9 18
split_gain=32.4492 6.64676 6.82162 1.16703
threshold=11.059968397092875 23.666435783070117 -0.037325175672876319 0.01035888976437749
decision_type=2 2 2 2
left_child=3 -2 -3 -1
right_child=1 2 -4 -5
leaf_value=-0.09603521246517617 -0.09569628612849701 -0.014007408315351248 0.10013929027556934 -0.15806818600374817
leaf_weight=74.428832513396628 12.114842723822219 33.099976512952708 42.797020400641486 62.514712472562678
leaf_count=37047 360 335 354 14799
internal_value=0 0.0248382 0.0489897 -0.12806
internal_weight=0 88.0118 75.897 136.944
internal_count=52895 1049 689 51846
is_linear=0
shrinkage=0.2


Tree=6
num_leaves=4
num_cat=0
split_feature=4 14 6
split_gain=14.5076 5.02987 1.10943
threshold=29.514348254825975 -1.1602384225592417 0.19899019711430696
decision_type=2 2 2
left_child=-1 -2 -3
right_child=1 2 -4
leaf_value=-0.11071004259952849 0.073690164466690397 0.022722179257759836 -0.037514746384982395
leaf_weight=106.34338359383401 21.836126816575415 8.5284098115516809 75.849996888893656
leaf_count=40131 1307 861 10596
internal_value=0 -0.00464977 -0.0286987
internal_weight=0 106.215 84.3784
internal_count=52895 12764 11457
is_linear=0
shrinkage=0.2


Tree=7
num_leaves=8
num_cat=0
split_feature=18 15 6 1 4 9 27
split_gain=16.4233 10.1635 14.5449 6.70973 3.68681 2.7568 2.17171
threshold=-0.014164334378465924 3.5432495257840139e-05 0.44208096365110333 1.8700144292294334e-15 23.432228162866959 -0.040704290508943877 0.0015154280687328227
decision_type=2 2 2 2 2 2 2
left_child=3 -2 5 4 -1 -3 -4
right_child=1 2 6 -5 -6 -7 -8
leaf_value=-0.041575357172650429 -0.11324758460274814 -0.10333041301315012 0.17128224484637256 0.23125364896662123 0.11938121955914777 -0.008779060299792172 0
leaf_weight=12.79716578056105 102.26852827996481 29.150645870366134 12.905092806322498 6.7536135746631762 6.1508449311368159 29.319605060038157 2.7945893991272888
leaf_count=7296 33890 3509 934 2557 1761 2357 591
internal_value=0 -0.0728365 -0.0127049 0.0897486 0.00929013 -0.0614113 0.141586
internal_weight=0 176.438 74.1699 25.7016 18.948 58.4703 15.6997
internal_count=52895 41281 7391 11614 9057 5866 1525
is_linear=0
shrinkage=0.2


Tree=8
num_leaves=4
num_cat=0
split_feature=4 22 19
split_gain=21.4702 23.9552 5.01644
threshold=123.52566255182761 0.0056767656375195106 0.0079827377974600894
decision_type=2 2 2
left_child=1 -1 -3
right_child=-2 2 -4
leaf_value=-0.12084978831456057 0.1479837598701628 -0.087533740001942931 0.053852557821412496
leaf_weight=111.03625274612568 18.34922161186114 8.9791706284740922 55.567704046028666
leaf_count=36767 851 6645 8632
internal_value=0 -0.0651171 0.0287581
internal_weight=0 175.583 64.5469
internal_count=52895 52044 15277
is_linear=0
shrinkage=0.2


Tree=9
num_leaves=9
num_cat=0
split_feature=22 23 6 22 18 18 15 6
split_gain=5.73232 20.8391 9.17648 7.10835 4.45036 2.94472 2.13089 1.12943
threshold=-0.0062679427782341693 3.2863625241611124e-05 0.39639334810499433 -0.23193236473172699 -0.0069096968328863908 -0.014164334378465924 2.6668677937226006e-05 0.41537096134947632
decision_type=2 2 2 2 2 2 2 2
left_child=3 4 5 6 -2 -3 -1 -4
right_child=1 2 7 -5 -6 -7 -8 -9
leaf_value=-0.067959618735706481 0 0.11651448833568943 0 -0.10647665473741202 -0.1345011029399889 -0.055752414642694183 0.045719209714359804 0.15760761503219517
leaf_weight=6.1652922370703918 12.744008901296182 2.1785116754472282 2.2772068937774774 64.12498319678707 32.373885465378407 16.79898853530176 20.326333127100952 29.252806099888403
leaf_count=86 8578 603 156 14236 26961 535 129 1611
internal_value=0 0 0.0848177 -0.071285 -0.0974984 -0.0156941 0.00896007 0.147811
internal_weight=0 95.6254 50.5075 90.6166 45.1179 18.9775 26.4916 31.53
internal_count=52895 38444 2905 14451 35539 1138 215 1767
is_linear=0
shrinkage=0.2


Tree=10
num_leaves=7
num_cat=0
split_feature=15 19 16 9 25 16
split_gain=12.4829 11.5788 19.2034 5.29085 4.06007 2.41297
threshold=1.7241775471659976e-05 0.2794181202033314 -0.013982088165571503 -0.0093212827509915209 0.00065309745209526406 -0.031065199851960709
decision_type=2 2 2 2 2 2
left_child=4 -2 5 -4 -1 -3
right_child=1 2 3 -5 -6 -7
leaf_value=-0.025525281822272497 -0.13902182940291338 0.48587420671908221 -0.016983653049209801 0.10194606179798338 -0.12604770161870926 0
leaf_weight=31.062335104681551 14.274672122497575 1.7504585739225151 50.489698954683263 17.67001599521609 59.837854485143907 0.71461114706471462
leaf_count=14038 10371 558 1109 361 26212 314
internal_value=0 0.00846119 0.0446449 0.013568 -0.0953803 0.427058
internal_weight=0 84.8995 70.6248 68.1597 90.9002 2.46507
internal_count=52963 12713 2342 1470 40250 872
is_linear=0
shrinkage=0.2


Tree=11
num_leaves=5
num_cat=0
split_feature=17 18 18 6
split_gain=17.518 3.39289 15.8576 2.47827
threshold=0.001502594366405845 -0.0021895539283316441 -0.12983604440494959 0.47444066392296996
decision_type=2 2 2 2
left_child=-1 2 -2 -3
right_child=1 3 -4 -5
leaf_value=-0.13162608438423948 0.32992386407723956 -0.025244955474615555 -0.048701160700824905 0.045092011325064706
leaf_weight=51.75880718708504 4.3121106824837616 80.503820679150522 9.4015896185301226 22.913382373692002
leaf_count=46853 927 2448 1913 822
internal_value=0 0.00430485 0.0904917 -0.00712286
internal_weight=0 117.131 13.7137 103.417
internal_count=52963 6110 2840 3270
is_linear=0
shrinkage=0.2


Tree=12
num_leaves=4
num_cat=0
split_feature=4 17 27
split_gain=7.98892 8.12084 2.87961
threshold=22.773140774267596 0.0015963671118654902 0.0036381034029674612
decision_type=2 2 2
left_child=-1 -2 -3
right_child=1 2 -4
leaf_value=-0.092038443912264761 -0.1224930727069392 0.0068629561392658939 0.11081673536088565
leaf_weight=54.482182361418381 15.59559928049566 81.96395438851323 10.95450852421345
leaf_count=35509 13930 2669 855
internal_value=0 0 0.0237269
internal_weight=0 108.514 92.9185
internal_count=52963 17454 3524
is_linear=0
shrinkage=0.2


Tree=13
num_leaves=5
num_cat=0
split_feature=2 3 16 16
split_gain=10.4261 14.9734 12.2748 1.05601
threshold=0.020402067853311948 8.1389226325038386 0.0019372388605833903 -0.074292094591157085
decision_type=2 2 2 2
left_child=3 2 -2 -1
right_child=1 -3 -4 -5
leaf_value=0.010232882619742849 0.22160554747093683 0.2171662907313841 -0.070636592885301649 -0.06423724326478096
leaf_weight=2.7367648865329093 4.3639095658436409 12.44198630430037 30.803337960212957 107.76905139232986
leaf_count=733 2787 501 1957 46985
internal_value=0 0.0480014 -0.0169889 -0.0604766
internal_weight=0 47.6092 35.1672 110.506
internal_count=52963 5245 4744 47718
is_linear=0
shrinkage=0.2


Tree=14
num_leaves=6
num_cat=0
split_feature=17 16 22 9 12
split_gain=23.6809 12.0985 4.13456 2.63463 7.40432
threshold=0.11079914002713255 -0.0041114855704825195 0.018192069872452702 0.017956481341792303 -1.0088517974756801
decision_type=2 2 2 2 2
left_child=1 2 -1 4 -2
right_child=3 -3 -4 -5 -6
leaf_value=-0.01810132028382147 0.11361224476436918 -0.13453401937222217 0.15041914646616414 0.18381260738731742 -0.013683371408407178
leaf_weight=13.396697494492402 29.458694423839916 63.613419845700264 5.7799177328124633 5.1564937060466027 36.339965663617477
leaf_count=13553 314 36303 2311 56 426
internal_value=0 -0.0930839 0.0350359 0.0612765 0.042493
internal_weight=0 82.79 19.1766 70.9552 65.7987
internal_count=52963 52167 15864 796 740
is_linear=0
shrinkage=0.2


Tree=15
num_leaves=7
num_cat=0
split_feature=16 24 19 24 12 12
split_gain=3.17229 4.50308 5.97087 2.6878 3.2257 2.16645
threshold=-0.0026380294919452481 -0.014200037332608271 0.14433472921796148 -0.0083233567238998867 -2.8787931040563488 -2.1909328404712389
decision_type=2 2 2 2 2 2
left_child=1 2 -1 -2 -5 -6
right_child=3 -3 -4 4 5 -7
leaf_value=0 0.010349295033325876 -0.0059622977859574659 0.26986741342919845 0.031661395977669274 0.03085876734692022 -0.080076823706535002
leaf_weight=5.307272323319923 63.164678604662186 13.409114644804502 4.5336090034688823 12.720643766981082 4.0742130828439249 49.131361040694173
leaf_count=6060 14005 11266 1548 2865 1247 16206
internal_value=0 0.0597967 0.14849 -0.0165902 -0.0447036 -0.0670726
internal_weight=0 23.25 9.84088 129.091 65.9262 53.2056
internal_count=53197 18874 7608 34323 20318 17453
is_linear=0
shrinkage=0.2


Tree=16
num_leaves=4
num_cat=0
split_feature=1 1 17
split_gain=8.515 3.98845 1.25175
threshold=1.0063141197541927e-15 2.7645087390832969e-15 2.6070452392723271e-05
decision_type=2 2 2
left_child=-1 -2 -3
right_child=1 2 -4
leaf_value=-0.047774188303993728 -0.0036802620536905265 -0.010282751158096386 0.091224696374128431
leaf_weight=77.948742816253798 30.990541438484797 1.1650839192152478 41.5104872508673
leaf_count=32759 12780 1880 5778
internal_value=0 0.0454479 0.0837063
internal_weight=0 73.6661 42.6756
internal_count=53197 20438 7658
is_linear=0
shrinkage=0.2


Tree=17
num_leaves=3
num_cat=0
split_feature=15 16
split_gain=2.58547 5.77014
threshold=3.8759052514846623e-07 -0.011092720834687373
decision_type=2 2
left_child=-1 -2
right_child=1 -3
leaf_value=-0.093589214212680363 0.11324616823622405 -0.0086076620770508677
leaf_weight=9.0058927116915566 15.020896616741082 126.76415804406861
leaf_count=9025 7612 36560
internal_value=0 0.00466573
internal_weight=0 141.785
internal_count=53197 44172
is_linear=0
shrinkage=0.2


Tree=18
num_leaves=3
num_cat=0
split_feature=3 22
split_gain=4.9671 1.07136
threshold=4.0254802770058236 -0.013355740536713233
decision_type=2 2
left_child=1 -1
right_child=-2 -3
leaf_value=-0.094453095984367769 0.025159952589552038 -0.022134824813088868
leaf_weight=15.333636420516994 95.006406648928532 40.766613297513686
leaf_count=6317 13928 32952
internal_value=0 -0.048398
internal_weight=0 56.1002
internal_count=53197 39269
is_linear=0
shrinkage=0.2


Tree=19
num_leaves=5
num_cat=0
split_feature=1 8 1 14
split_gain=4.54448 2.09395 1.81481 1.67743
threshold=8.7278443528129246e-16 -0.12045048659886613 1.1832538365410811e-15 -1.2623431284546653
decision_type=2 2 2 2
left_child=3 -2 -3 -1
right_child=1 2 -4 -5
leaf_value=0.0072863789526574647 -0.02649335626199761 -0.038707122571487784 0.058103363403719549 -0.054884086157045313
leaf_weight=16.67457762605045 14.880296307470415 4.6176952468813388 58.871190973586636 55.486673943494679
leaf_count=5183 3538 1886 16087 26503
internal_value=0 0.0301644 0.0469068 -0.0381301
internal_weight=0 78.3692 63.4889 72.1613
internal_count=53197 21511 17973 31686
is_linear=0
shrinkage=0.2


Tree=20
num_leaves=3
num_cat=0
split_feature=23 4
split_gain=25.9368 0.975676
threshold=0.0017433064359845621 4.1140878816216668
decision_type=2 2
left_child=1 -1
right_child=-2 -3
leaf_value=0.0066085449228040216 0.10497238272212393 -0.069200028985557549
leaf_weight=1.87559044221416 51.601584257732611 99.009351183340186
leaf_count=2671 419 49818
internal_value=0 -0.0657723
internal_weight=0 100.885
internal_count=52908 52489
is_linear=0
shrinkage=0.2


Tree=21
num_leaves=6
num_cat=0
split_feature=17 14 25 14 14
split_gain=4.36881 6.6244 8.14392 4.32593 0.877515
threshold=5.180476421172499e-05 2.0491334068384406 0.0015814802381502299 -1.6420822826760282 1.9017168297907634
decision_type=2 2 2 2 2
left_child=-1 3 -3 -2 -5
right_child=1 2 -4 4 -6
leaf_value=-0.11643711874277668 0.03883166175268269 0.14654334491324986 -0.03046409394961553 -0.051997078934214805 0.026793525601345541
leaf_weight=10.464420769567367 29.324740377138369 22.401945632766001 13.979917225515235 72.000458722061012 1.255479069717693
leaf_count=19002 3897 1875 1071 26911 152
internal_value=0 0.00428784 0.0758808 -0.0204296 -0.0472307
internal_weight=0 138.963 36.3819 102.581 73.2559
internal_count=52908 33906 2946 30960 27063
is_linear=0
shrinkage=0.2


Tree=22
num_leaves=4
num_cat=0
split_feature=0 17 28
split_gain=1.62644 2.23148 0.948841
threshold=0.57810964265050224 2.5410025863981508e-05 -0.36330615635211888
decision_type=2 2 2
left_child=2 -2 -1
right_child=1 -3 -4
leaf_value=-0.087444141104576906 -0.098348852084267982 0.018008514974146028 -0.011506153970683594
leaf_weight=9.5168479360581824 4.2838318216672624 96.811369565490168 36.858324869215721
leaf_count=2222 8997 28342 13347
internal_value=0 0.00895618 -0.0347367
internal_weight=0 101.095 46.3752
internal_count=52908 37339 15569
is_linear=0
shrinkage=0.2


Tree=23
num_leaves=6
num_cat=0
split_feature=9 17 14 14 22
split_gain=6.85902 6.7313 2.41505 2.78904 1.64125
threshold=-0.021357330016663924 0.0086697139546351443 -2.0829618619015737 1.3056557249399383 0.014714088029235907
decision_type=2 2 2 2 2
left_child=2 -2 4 -4 -1
right_child=1 -3 3 -5 -6
leaf_value=-0.0094787253164972177 -0.04896702041773713 0.086209065085567749 -0.084077077019502455 0 0.10806318089249647
leaf_weight=8.6132599565316905 17.610577152081532 44.242248044698499 46.83516988880001 26.160570144915255 3.9387506846105671
leaf_count=1837 23726 1086 22811 3163 285
internal_value=0 0.044276 -0.0413687 -0.0560391 0.026099
internal_weight=0 61.8528 85.5478 72.9957 12.552
internal_count=52908 24812 28096 25974 2122
is_linear=0
shrinkage=0.2


Tree=24
num_leaves=2
num_cat=0
split_feature=21
split_gain=3.98723
threshold=0.00015538408532805411
decision_type=2
left_child=-1
right_child=-2
leaf_value=-0.014507316859254091 0.10274992182797829
leaf_weight=135.40315450675553 10.055017024569677
leaf_count=49779 3129
internal_value=0
internal_weight=0
internal_count=52908
is_linear=0
shrinkage=0.2


Tree=25
num_leaves=6
num_cat=0
split_feature=18 4 22 18 17
split_gain=8.6898 5.84008 2.12147 1.88678 0.930276
threshold=-0.055781580675691882 21.582868687626689 0.036471621940440853 0.1303627789660923 0.012765698098718239
decision_type=2 2 2 2 2
left_child=1 -1 3 -2 -4
right_child=2 -3 4 -5 -6
leaf_value=-0.00070341318352474906 -0.074588797833653672 0.21429084036769505 -0.032529779844212042 -0.0098227214721005058 0.035568266184795395
leaf_weight=5.8142221096495623 31.033999277889961 9.2034633559815102 5.7022068664082317 60.152303458889946 30.222716711694375
leaf_count=2409 46942 918 1304 1060 309
internal_value=0 0.131538 -0.0186229 -0.0353431 0.0182621
internal_weight=0 15.0177 127.111 91.1863 35.9249
internal_count=52942 3327 49615 48002 1613
is_linear=0
shrinkage=0.2


Tree=26
num_leaves=5
num_cat=0
split_feature=16 9 12 12
split_gain=5.43153 4.65701 1.46059 1.25406
threshold=-0.038069486284647173 -0.047093370298866573 -2.3414804945682746 -1.0148117831207053
decision_type=2 2 2 2
left_child=-1 2 -2 -4
right_child=1 -3 3 -5
leaf_value=0.12931535447074535 0 0.013481137545129772 0 -0.098794654787074263
leaf_weight=9.2722413283772749 9.9111446661117935 85.777590700628934 8.4357025389472238 28.227122784956009
leaf_count=1889 2825 34062 3927 10239
internal_value=0 -0.0124297 -0.0624146 -0.079843
internal_weight=0 132.352 46.574 36.6628
internal_count=52942 51053 16991 14166
is_linear=0
shrinkage=0.2


Tree=27
num_leaves=3
num_cat=0
split_feature=23 18
split_gain=3.93366 5.39173
threshold=0.00050682928396166124 0.0019399006742389926
decision_type=2 2
left_child=1 -1
right_child=-2 -3
leaf_value=0.017565398567675077 0.026447313920049838 -0.096964647238116375
leaf_weight=27.518799488942022 84.370056720654247 29.754259647917934
leaf_count=28469 1019 23454
internal_value=0 -0.04021
internal_weight=0 57.2731
internal_count=52942 51923
is_linear=0
shrinkage=0.2


Tree=28
num_leaves=5
num_cat=0
split_feature=16 16 25 16
split_gain=4.19761 4.2112 3.24124 1.05099
threshold=-0.010246686622606025 0.025792893402551312 0.0015464803565062692 -0.012073541784213436
decision_type=2 2 2 2
left_child=3 -2 -3 -1
right_child=1 2 -4 -5
leaf_value=0.094232316627848423 -0.087614733457593019 0.030504862403575334 -0.042570703804188467 -0.00046350976858252192
leaf_weight=18.100497304898457 22.970337023682077 63.291994312443421 35.501421028515324 0.9856216867628963
leaf_count=8134 39470 2618 1480 1240
internal_value=0 -0.0148086 0.00191366 0.0807712
internal_weight=0 121.764 98.7934 19.0861
internal_count=52942 43568 4098 9374
is_linear=0
shrinkage=0.2


Tree=29
num_leaves=3
num_cat=0
split_feature=11 17
split_gain=4.24287 1.78645
threshold=0.0020279337379148512 0.0004121305407385868
decision_type=2 2
left_child=1 -1
right_child=-2 -3
leaf_value=-0.086972030911049381 0.057569592675841309 -0.0081571937391481265
leaf_weight=12.421404792636165 34.357187121626339 94.175036961096339
leaf_count=28277 14926 9739
internal_value=0 -0.0209006
internal_weight=0 106.596
internal_count=52942 38016
is_linear=0
shrinkage=0.2


Tree=30
num_leaves=7
num_cat=0
split_feature=27 12 9 9 10 18
split_gain=4.71338 3.52619 2.24696 1.06511 1.06434 5.02257
threshold=0.00077743112189347175 0.52531198974052429 -0.0029444629328040793 -0.036272234094098327 -0.031694816231141835 -0.00038416210998587491
decision_type=2 2 2 2 2 2
left_child=4 -2 3 -3 -1 -6
right_child=1 2 -4 -5 5 -7
leaf_value=0.04507026612251671 -0.081501415870868663 -0.066694621512713978 0.10969668025834234 0.022595506323104808 0.1105291683845292 -0.030932052596790868
leaf_weight=33.374395999475382 44.241396631754469 7.7641471126989936 4.7583765267481786 4.9425818325980808 10.425478006596675 42.791897218703525
leaf_count=11583 17899 1933 809 860 9461 10774
internal_value=0 -0.0519394 0.0139492 -0.0210469 0.0184283 0
internal_weight=0 61.7065 17.4651 12.7067 86.5918 53.2174
internal_count=53319 21501 3602 2793 31818 20235
is_linear=0
shrinkage=0.2


Tree=31
num_leaves=5
num_cat=0
split_feature=18 3 2 26
split_gain=3.77688 1.65841 1.8301 1.12366
threshold=-0.014164334378465924 2.9288543478090423 0.038480879078571527 0.77115423982238318
decision_type=2 2 2 2
left_child=3 -2 -3 -1
right_child=1 2 -4 -5
leaf_value=0.068668168541576285 0.052019624013718402 -0.04716786839461766 0.0032055084160707761 -0.026045864877297317
leaf_weight=25.478801446675792 6.6461742924293494 80.349440206860891 33.247658553998917 1.4350124160264375
leaf_count=10819 18195 21156 2583 566
internal_value=0 -0.0238448 -0.0309841 0.0551897
internal_weight=0 120.243 113.597 26.9138
internal_count=53319 41934 23739 11385
is_linear=0
shrinkage=0.2


Tree=32
num_leaves=3
num_cat=0
split_feature=27 5
split_gain=3.4919 3.06434
threshold=0.00076625833720289107 -0.50548706425634704
decision_type=2 2
left_child=1 -1
right_child=-2 -3
leaf_value=0.046083676698465831 -0.042833324265302904 -0.028138804837444548
leaf_weight=57.43083921536163 59.491198037314462 29.982768658606801
leaf_count=20996 21717 10606
internal_value=0 0.018374
internal_weight=0 87.4136
internal_count=53319 31602
is_linear=0
shrinkage=0.2


Tree=33
num_leaves=4
num_cat=0
split_feature=3 3 7
split_gain=7.31264 5.8837 1.775
threshold=5.7592855055465142 2.9809965387152588 0.36486892262616061
decision_type=2 2 2
left_child=1 -1 -2
right_child=2 -3 -4
leaf_value=0.057611109142987699 0.0069258716365402945 -0.065631031709176085 0.08536820062258911
leaf_weight=15.743214185582472 30.183985341660446 73.85411632724572 26.491518556373194
leaf_count=25427 1019 22600 4273
internal_value=0 -0.0408838 0.0489383
internal_weight=0 89.5973 56.6755
internal_count=53319 48027 5292
is_linear=0
shrinkage=0.2


Tree=34
num_leaves=5
num_cat=0
split_feature=6 20 1 14
split_gain=3.35903 2.08269 1.21212 6.81976
threshold=0.40592283993071349 -0.014676309918632889 -6.7037574558073074e-16 3.8932194627533501
decision_type=2 2 2 2
left_child=1 -1 -2 -4
right_child=2 -3 3 -5
leaf_value=-0.073301766516222555 -0.0097738674996694763 -0.0010054807835454945 0.00022502455554305881 0.1742246707898627
leaf_weight=28.905259641658631 18.171059867614531 44.394901537598344 43.817091125572915 9.6986170883319556
leaf_count=8001 9868 14980 19640 830
internal_value=0 -0.0335608 0.0260171 0.0415607
internal_weight=0 73.3002 71.6868 53.5157
internal_count=53319 22981 30338 20470
is_linear=0
shrinkage=0.2


Tree=35
num_leaves=5
num_cat=0
split_feature=4 18 18 28
split_gain=2.27467 2.2265 1.05807 0.871864
threshold=47.871549372589357 -0.00038416210998587491 -0.0684719661234751 1.7459900475074936
decision_type=2 2 2 2
left_child=3 2 -2 -1
right_child=1 -3 -4 -5
leaf_value=-0.024762932080082199 0.17374001229629157 0.011524408055416832 0 0.048258711247902805
leaf_weight=76.60050914423482 3.7816965475212783 53.906291035265895 3.3307470752624786 3.2231742234143885
leaf_count=44554 155 3949 2996 1422
internal_value=0 0.0319826 0.123626 -0.0180736
internal_weight=0 61.0187 7.11244 79.8237
internal_count=53076 7100 3151 45976
is_linear=0
shrinkage=0.2


Tree=36
num_leaves=2
num_cat=0
split_feature=6
split_gain=3.7816
threshold=0.35333676014317189
decision_type=2
left_child=-1
right_child=-2
leaf_value=-0.036890434332990246 0.029359244824030364
leaf_weight=52.463443016757083 87.755091695202282
leaf_count=15323 37753
internal_value=0
internal_weight=0
internal_count=53076
is_linear=0
shrinkage=0.2


Tree=37
num_leaves=3
num_cat=0
split_feature=7 6
split_gain=5.74477 2.05497
threshold=0.31279292411213394 0.30867541548383148
decision_type=2 2
left_child=1 -1
right_child=-2 -3
leaf_value=0.003899861836746633 0.029294016536702373 -0.081937004774763303
leaf_weight=10.222120350517796 99.416023369667528 31.030991250343504
leaf_count=2366 40361 10349
internal_value=0 -0.0571738
internal_weight=0 41.2531
internal_count=53076 12715
is_linear=0
shrinkage=0.2


Tree=38
num_leaves=4
num_cat=0
split_feature=7 20 7
split_gain=3.99936 2.1936 1.75708
threshold=0.46268324471699568 -0.0094510941254451458 0.33335761297718164
decision_type=2 2 2
left_child=2 -2 -1
right_child=1 -3 -4
leaf_value=-0.041856503987457355 0.11468115910673504 0 0.0056548324178115807
leaf_weight=51.894530189427314 14.334515010516045 16.995598514215089 57.950059234237415
leaf_count=16278 5528 9625 21645
internal_value=0 0.0628006 -0.015476
internal_weight=0 31.3301 109.845
internal_count=53076 15153 37923
is_linear=0
shrinkage=0.2


Tree=39
num_leaves=7
num_cat=0
split_feature=1 22 2 9 9 22
split_gain=2.32935 4.51185 2.07765 1.89062 1.56089 1.28871
threshold=2.6883644083558961e-15 -0.0048424956285777468 0.0062060603346930582 -0.050570363972872824 0.016203880184491985 -0.0047219741131959139
decision_type=2 2 2 2 2 2
left_child=1 -1 -3 -2 5 -5
right_child=3 2 -4 4 -6 -7
leaf_value=-0.059744285047547613 -0.00073915180465153178 0.064141972399960043 -0.0098356320499765476 0.070107976532408162 0.15257628775599114 -0.011226716522902337
leaf_weight=45.875990604807157 18.984765293003875 24.212074961236794 25.59727986852522 10.869334415692725 5.8777919807907884 9.8518967077688995
leaf_count=14171 4031 22640 8070 978 1059 2127
internal_value=0 -0.0148028 0.0237142 0.0386997 0.0712489 0.0259259
internal_weight=0 95.6853 49.8094 45.5838 26.599 20.7212
internal_count=53076 44881 30710 8195 4164 3105
is_linear=0
shrinkage=0.2


Tree=40
num_leaves=3
num_cat=0
split_feature=3 12
split_gain=6.69087 3.04324
threshold=5.1469995190880651 -2.5567688577357748
decision_type=2 2
left_child=-1 -2
right_child=1 -3
leaf_value=-0.040625528194401295 0.11113693065449431 0.012336656152061871
leaf_weight=74.175119429564802 18.183746441733092 48.14249756479694
leaf_count=45287 1024 6439
internal_value=0 0.0452912
internal_weight=0 66.3262
internal_count=52750 7463
is_linear=0
shrinkage=0.2


Tree=41
num_leaves=3
num_cat=0
split_feature=24 24
split_gain=2.36896 6.10362
threshold=-0.0066566523013802384 -0.055470088101472019
decision_type=2 2
left_child=1 -1
right_child=-2 -3
leaf_value=-0.042971882085072632 -0.026305020586518669 0.070359899881696317
leaf_weight=27.344196946141892 66.4855901227711 45.222504673409276
leaf_count=8156 29602 14992
internal_value=0 0.0250375
internal_weight=0 72.5667
internal_count=52750 23148
is_linear=0
shrinkage=0.2


Tree=42
num_leaves=5
num_cat=0
split_feature=26 25 13 25
split_gain=6.76666 3.20907 1.69733 1.49573
threshold=0.02102403239794837 0.0018077641867387539 3.1478846714138272e-30 0.00012573537832390129
decision_type=2 2 2 2
left_child=1 -1 -3 -2
right_child=3 2 -4 -5
leaf_value=0.067080916565856033 0.041320061838403484 0.042219130053017563 -0.056055357908153247 -0.055725916433198491
leaf_weight=52.430677336131339 2.918610065826214 7.4961392695695421 15.285053579646044 60.933475959049247
leaf_count=21700 960 4125 5494 20471
internal_value=0 0.0400137 -0.0149994 -0.0469628
internal_weight=0 75.2119 22.7812 63.8521
internal_count=52750 31319 9619 21431
is_linear=0
shrinkage=0.2


Tree=43
num_leaves=4
num_cat=0
split_feature=4 4 13
split_gain=3.63797 5.32792 1.67769
threshold=31.575526776096556 18.208483601631798 2.2412182385609353e-30
decision_type=2 2 2
left_child=1 -1 -2
right_child=2 -3 -4
leaf_value=0.020586561421790567 0.076760442574932836 -0.098397088818623954 0.0066843441130153419
leaf_weight=24.439691203202528 17.847350841708248 27.623019589496835 69.058533479372272
leaf_count=30214 2115 10730 9691
internal_value=0 -0.0405536 0.0249921
internal_weight=0 52.0627 86.9059
internal_count=52750 40944 11806
is_linear=0
shrinkage=0.2


Tree=44
num_leaves=4
num_cat=0
split_feature=13 12 4
split_gain=3.39736 1.19643 0.987329
threshold=2.3448047721597527e-30 -25.560866708980701 9.0000297829267932
decision_type=2 2 2
left_child=2 -2 -1
right_child=1 -3 -4
leaf_value=-0.0038928024843288191 0.028488997785373112 -0.027426652065868647 0.064485754788663557
leaf_weight=4.0998546048940616 12.983093701084725 89.859972102007305 31.467429102529422
leaf_count=6631 1111 34285 10723
internal_value=0 -0.0180056 0.0517176
internal_weight=0 102.843 35.5673
internal_count=52750 35396 17354
is_linear=0
shrinkage=0.2


Tree=45
num_leaves=7
num_cat=0
split_feature=24 7 7 6 24 6
split_gain=2.02468 1.92634 1.75567 1.54124 1.33457 1.08179
threshold=-0.0096612420367643819 0.31165146224965029 0.29655021436571866 0.39501006684376166 -0.038483192612315968 0.41537096134947632
decision_type=2 2 2 2 2 2
left_child=4 2 -2 -3 -1 -5
right_child=1 3 -4 5 -6 -7
leaf_value=-0.0018572651140854495 -0.11289784779904255 -0.036289498306387766 0 -0.041856454529116023 0.049063296872681531 0.048875270770736758
leaf_weight=36.340454979013884 13.407686827820728 28.706178181244468 3.7689432065453721 2.4565678069921004 30.689907339212368 20.930660446327238
leaf_count=11764 5218 9806 1374 1557 10020 13189
internal_value=0 -0.0278983 -0.082022 -0.00355501 0.0195571 0.0286831
internal_weight=0 69.27 17.1766 52.0934 67.0304 23.3872
internal_count=52928 31144 6592 24552 21784 14746
is_linear=0
shrinkage=0.2


Tree=46
num_leaves=4
num_cat=0
split_feature=8 2 2
split_gain=1.71162 2.1743 2.63604
threshold=-0.032796403178180035 0.00054136834091113187 0.0023722326701952992
decision_type=2 2 2
left_child=1 -1 -3
right_child=-2 2 -4
leaf_value=-0.056111929536888427 -0.037587771880016857 0.12355717974811174 0.0081021440086975587
leaf_weight=12.893797547658322 40.089703866113268 7.2545812374373773 76.026148590026423
leaf_count=11907 16185 5294 19542
internal_value=0 0.00989126 0.0237169
internal_weight=0 96.1745 83.2807
internal_count=52928 36743 24836
is_linear=0
shrinkage=0.2


Tree=47
num_leaves=3
num_cat=0
split_feature=24 21
split_gain=2.04651 1.97746
threshold=0.031804560696328095 4.2193491615509758e-06
decision_type=2 2
left_child=1 -1
right_child=-2 -3
leaf_value=0.053964786974495242 -0.046517294500407459 -0.0046957041327960747
leaf_weight=27.633721427198907 30.880913209977734 77.348596592077229
leaf_count=11288 13579 28061
internal_value=0 0.00981048
internal_weight=0 104.982
internal_count=52928 39349
is_linear=0
shrinkage=0.2


Tree=48
num_leaves=4
num_cat=0
split_feature=8 8 24
split_gain=1.50845 11.1478 1.7094
threshold=-0.057460844829634476 -0.059380877787500591 0.02162925435225416
decision_type=2 2 2
left_child=1 -1 -2
right_child=2 -3 -4
leaf_value=-0.00067599357637077636 0 0.32143495243742526 -0.074602994483705595
leaf_weight=71.054288351486321 45.242014591938641 2.0259936112706773 17.302773486226215
leaf_count=27424 17136 835 7533
internal_value=0 0.0158971 -0.0253235
internal_weight=0 73.0803 62.5448
internal_count=52928 28259 24669
is_linear=0
shrinkage=0.2


Tree=49
num_leaves=7
num_cat=0
split_feature=13 7 26 16 16 16
split_gain=3.60147 4.37682 1.41275 0.905722 0.899487 0.885437
threshold=1.0782868989104229e-30 0.35202897749155726 -0.17608198334975897 -0.016253651626778495 0.01125160917898871 -0.0015511664102882403
decision_type=2 2 2 2 2 2
left_child=3 5 -3 -1 -5 -2
right_child=1 2 -4 4 -6 -7
leaf_value=0 0 -0.026718457252034634 0.032442668168480564 0 0.13878909281940338 -0.069494651221706533
leaf_weight=1.4647613033885143 8.9330224242512468 16.578707878601563 57.118034641469421 2.0331779566185979 7.6779905820221757 41.320568962066318
leaf_count=585 7415 6569 23333 3938 1097 9991
internal_value=0 -0.0128364 0.0161284 0.0950601 0.114437 -0.0577893
internal_weight=0 123.95 73.6967 11.1759 9.71117 50.2536
internal_count=52928 47308 29902 5620 5035 17406
is_linear=0
shrinkage=0.2


Tree=50
num_leaves=7
num_cat=0
split_feature=3 16 3 16 14 5
split_gain=4.46389 8.10122 4.05996 3.61796 1.19348 1.13664
threshold=3.041376427538081 0.0025879972296680713 5.7592855055465142 -0.0097070501568883288 0.10336857337162954 -0.85734724242958604
decision_type=2 2 2 2 2 2
left_child=1 -1 3 5 -5 -2
right_child=2 -3 -4 4 -6 -7
leaf_value=0 -0.015834813040217045 0.27137352188604419 0.040498184313218562 -0.016709261464873615 -0.088949593947174166 0.088785465316401552
leaf_weight=12.535446770292767 1.2623686117585737 4.8943888963549389 55.921557123758248 29.47491386589536 23.480517447962484 8.8648844394774624
leaf_count=15176 506 10859 5190 12406 5442 3306
internal_value=0 0.1048 0.000646197 -0.031891 -0.0548129 0.0596623
internal_weight=0 17.4298 119.004 63.0827 52.9554 10.1273
internal_count=52885 26035 26850 21660 17848 3812
is_linear=0
shrinkage=0.2


Tree=51
num_leaves=4
num_cat=0
split_feature=14 12 25
split_gain=2.38211 1.26254 1.20347
threshold=-1.8654202037630661 -4.5969762986705236 0.0019778130829147026
decision_type=2 2 2
left_child=-1 -2 -3
right_child=1 2 -4
leaf_value=0.061535514802362523 0.048150139531957535 0.0023418808011409146 -0.044555538350175047
leaf_weight=29.794765872924472 15.548624883129376 66.57617558901984 25.974567592260428
leaf_count=5463 4114 31031 12277
internal_value=0 0 -0.00957747
internal_weight=0 108.099 92.5507
internal_count=52885 47422 43308
is_linear=0
shrinkage=0.2


Tree=52
num_leaves=4
num_cat=0
split_feature=27 20 5
split_gain=2.63234 2.37874 1.79894
threshold=0.0002863632686547376 -0.0025410804945074079 -0.28553150016795137
decision_type=2 2 2
left_child=2 -2 -1
right_child=1 -3 -4
leaf_value=0.028453012992379241 0.020433551730745712 -0.041793906048745617 0.16872039272566919
leaf_weight=44.771391365378804 48.428704387726611 42.31592912907945 2.9075024900230337
leaf_count=16916 15921 18806 1242
internal_value=0 -0.00682353 0.0488114
internal_weight=0 90.7446 47.6789
internal_count=52885 34727 18158
is_linear=0
shrinkage=0.2


Tree=53
num_leaves=3
num_cat=0
split_feature=3 27
split_gain=3.45616 1.65465
threshold=6.750088501165223 0.00044963190416784322
decision_type=2 2
left_child=1 -1
right_child=-2 -3
leaf_value=0.014711042646563444 0.058546780309458285 -0.034382303499364095
leaf_weight=48.70411750740459 39.747692548262421 50.467224277155765
leaf_count=24130 2907 25848
internal_value=0 -0.00857505
internal_weight=0 99.1713
internal_count=52885 49978
is_linear=0
shrinkage=0.2


Tree=54
num_leaves=3
num_cat=0
split_feature=26 14
split_gain=4.49277 1.89444
threshold=0.04285952685697126 -0.13663047622254584
decision_type=2 2
left_child=1 -1
right_child=-2 -3
leaf_value=0.069904596650621251 -0.033833391421902496 0.0049427178904413579
leaf_weight=38.014253139546781 54.777529488339496 46.043680732887879
leaf_count=16349 18291 18245
internal_value=0 0.0377419
internal_weight=0 84.0579
internal_count=52885 34594
is_linear=0
shrinkage=0.2


Tree=55
num_leaves=5
num_cat=0
split_feature=22 16 7 14
split_gain=6.21007 3.5068 3.07067 2.14236
threshold=-0.12851886729081383 -0.020425787625993116 0.46422162151576357 -0.19703044008374324
decision_type=2 2 2 2
left_child=2 3 -1 -2
right_child=1 -3 -4 -5
leaf_value=-0.076351425216411362 0.0067867822983347708 0.015627208437995112 0.035952454860833614 0.16800269666836135
leaf_weight=35.24528264865512 8.4647132395475655 76.181102418879163 8.8000731771753617 10.127426415885564
leaf_count=516 2103 47850 111 2497
internal_value=0 0.0391992 -0.0489869 0.113313
internal_weight=0 94.7732 44.0454 18.5921
internal_count=53077 52450 627 4600
is_linear=0
shrinkage=0.2


Tree=56
num_leaves=3
num_cat=0
split_feature=22 5
split_gain=3.31638 4.45114
threshold=0.0087461026207665844 -0.70766151612930284
decision_type=2 2
left_child=-1 -2
right_child=1 -3
leaf_value=-0.016281775958715199 -0.051396337763333105 0.071869330394787032
leaf_weight=80.753290550856036 11.398009842290774 48.209406099966145
leaf_count=41416 2622 9039
internal_value=0 0.0440367
internal_weight=0 59.6074
internal_count=53077 11661
is_linear=0
shrinkage=0.2


Tree=57
num_leaves=5
num_cat=0
split_feature=5 29 6 18
split_gain=5.53896 2.22744 1.69019 1.35471
threshold=-0.77646100409480889 0.00034403087213087235 0.44347716309980406 -0.041405534041118623
decision_type=2 2 2 2
left_child=1 -1 3 -2
right_child=2 -3 -4 -5
leaf_value=-0.12511624154786596 0.056483607682855611 0 0.05892224403461449 -0.0054469441569423415
leaf_weight=12.647411892598031 14.582843770345788 12.342310398569678 39.130747851741035 62.446779757519835
leaf_count=5353 2573 4934 14762 25455
internal_value=0 -0.0733142 0.0258043 0.0052083
internal_weight=0 24.9897 116.16 77.0296
internal_count=53077 10287 42790 28028
is_linear=0
shrinkage=0.2


Tree=58
num_leaves=4
num_cat=0
split_feature=26 26 24
split_gain=1.64542 1.60367 0.899126
threshold=-0.099100652289719912 -0.13716868931820372 -0.028511304622936381
decision_type=2 2 2
left_child=1 2 -1
right_child=-2 -3 -4
leaf_value=0.024022491389386932 0.018834064254592289 -0.097794434658002638 -0.03643996035172508
leaf_weight=17.49248450651794 101.10045015192009 7.5219820882484774 15.933066708828845
leaf_count=5110 38373 2536 7058
internal_value=0 -0.0269148 0
internal_weight=0 40.9475 33.4256
internal_count=53077 14704 12168
is_linear=0
shrinkage=0.2


Tree=59
num_leaves=4
num_cat=0
split_feature=16 18 26
split_gain=5.76761 4.94998 1.49466
threshold=-0.00022222893299023158 -0.031042968659334754 -0.42770225928787992
decision_type=2 2 2
left_child=1 -1 -2
right_child=2 -3 -4
leaf_value=0.11940697908435863 -0.08209163077536212 -0.024841768849435075 -0.0077149147162863104
leaf_weight=24.281921252477332 11.479342676131635 10.588959650827745 96.27047779262648
leaf_count=6448 2598 18419 25612
internal_value=0 0.0716188 -0.0190796
internal_weight=0 34.8709 107.75
internal_count=53077 24867 28210
is_linear=0
shrinkage=0.2


Tree=60
num_leaves=5
num_cat=0
split_feature=8 24 6 6
split_gain=3.7037 2.30643 1.10417 1.33055
threshold=0.059514575943172936 -0.025947360479751654 0.54600575766616199 0.40983749878041498
decision_type=2 2 2 2
left_child=2 -2 3 -1
right_child=1 -3 -4 -5
leaf_value=-0.041604000694188965 0.17139293203843964 0 0.02776919226801014 0
leaf_weight=70.855789300243487 4.4869273441363475 7.451154836388012 13.272516721975988 51.20686248302809
leaf_count=21765 1411 3130 6743 20122
internal_value=0 0.0882452 -0.0173911 -0.0243275
internal_weight=0 11.9381 135.335 122.063
internal_count=53171 4541 48630 41887
is_linear=0
shrinkage=0.2


Tree=61
num_leaves=3
num_cat=0
split_feature=24 11
split_gain=1.50061 1.61703
threshold=0.033383832806518583 0.00053156581518422428
decision_type=2 2
left_child=1 -1
right_child=-2 -3
leaf_value=0.045618139414902316 -0.043792111129281726 -0.0066769907994583752
leaf_weight=27.981517900378094 28.563296185988293 89.509546646717354
leaf_count=10624 13127 29420
internal_value=0 0.00482985
internal_weight=0 117.491
internal_count=53171 40044
is_linear=0
shrinkage=0.2


Tree=62
num_leaves=5
num_cat=0
split_feature=5 6 28 28
split_gain=1.75788 2.19736 1.75129 2.21702
threshold=-0.4268128700371337 0.36128454851770236 -0.72785806382251061 0.47076442751033393
decision_type=2 2 2 2
left_child=1 -1 -2 -4
right_child=2 -3 3 -5
leaf_value=-0.058738372387871565 -0.054953143171881318 0 0.07546051989214686 -0.045434691105552663
leaf_weight=32.122651565929118 3.6013113039007285 79.243126360488532 27.026170503049801 3.7184106401400632
leaf_count=7150 814 34331 9709 1167
internal_value=0 -0.016627 0.0331174 0.0526511
internal_weight=0 111.366 34.3459 30.7446
internal_count=53171 41481 11690 10876
is_linear=0
shrinkage=0.2


Tree=63
num_leaves=2
num_cat=0
split_feature=6
split_gain=1.26436
threshold=0.49035760173486459
decision_type=2
left_child=-1
right_child=-2
leaf_value=-0.014248853172687315 0.028479747882476977
leaf_weight=113.26374088981538 32.619954005065665
leaf_count=37707 15464
internal_value=0
internal_weight=0
internal_count=53171
is_linear=0
shrinkage=0.2


Tree=64
num_leaves=3
num_cat=0
split_feature=6 6
split_gain=2.74626 0.996623
threshold=0.11799974782889892 0.48623355655609496
decision_type=2 2
left_child=-1 -2
right_child=1 -3
leaf_value=0.13793815845504542 -0.01873331052607291 0.017730313503311199
leaf_weight=2.7783246488688738 108.68534109640314 33.971233608892362
leaf_count=438 36660 16073
internal_value=0 -0.00854712
internal_weight=0 142.657
internal_count=53171 52733
is_linear=0
shrinkage=0.2


Tree=65
num_leaves=3
num_cat=0
split_feature=3 6
split_gain=3.28529 3.94671
threshold=3.3064410313331676 0.4698972646463182
decision_type=2 2
left_child=-1 -2
right_child=1 -3
leaf_value=-0.067389154349741659 -0.016754336111729679 0.064775673349585991
leaf_weight=28.774560684345488 79.838799560195184 30.27580124232918
leaf_count=30122 14959 7912
internal_value=0 0.00485448
internal_weight=0 110.115
internal_count=52993 22871
is_linear=0
shrinkage=0.2


Tree=66
num_leaves=4
num_cat=0
split_feature=9 20 20
split_gain=1.62081 2.80415 0.933989
threshold=-0.0093212827509915209 -0.0028144959680999056 0.028975829757544428
decision_type=2 2 2
left_child=2 -2 -1
right_child=1 -3 -4
leaf_value=-0.010659236619278057 0.065936561620839523 -0.027579125433321111 -0.067155314101899385
leaf_weight=78.216515363696089 24.139828425330052 19.261203385933186 15.692796816365442
leaf_count=27883 7978 9931 7201
internal_value=0 0.0209187 -0.0236126
internal_weight=0 43.401 93.9093
internal_count=52993 17909 35084
is_linear=0
shrinkage=0.2


Tree=67
num_leaves=4
num_cat=0
split_feature=3 8 27
split_gain=4.30494 2.98452 2.10386
threshold=5.5411719919513578 -0.051156378583663037 0.00035217706808625442
decision_type=2 2 2
left_child=-1 -2 -3
right_child=1 2 -4
leaf_value=-0.038330210168346181 -0.0011023944395615768 -0.01045743675717993 0.10885937670690199
leaf_weight=78.051649934175657 35.053021351857751 3.6901867164997411 19.75666497599741
leaf_count=46968 1985 127 3913
internal_value=0 0.0315333 0.0833233
internal_weight=0 58.4999 23.4469
internal_count=52993 6025 4040
is_linear=0
shrinkage=0.2


Tree=68
num_leaves=5
num_cat=0
split_feature=4 7 25 25
split_gain=2.10873 2.83405 2.55012 0.804639
threshold=91.717152518897194 0.26837718948632378 0.0012346975208048017 0.0023220278458023396
decision_type=2 2 2 2
left_child=1 -1 -3 -4
right_child=-2 2 3 -5
leaf_value=-0.096201189825723801 0.036639999587451712 0.022886178981637174 0 -0.067140268282910046
leaf_weight=14.485787531943059 30.27139985129179 50.721473727295233 18.291137275198707 21.446528291628056
leaf_count=6159 1866 23976 10225 10767
internal_value=0 -0.0204904 -0.00402156 -0.0423324
internal_weight=0 104.945 90.4591 39.7377
internal_count=52993 51127 44968 20992
is_linear=0
shrinkage=0.2


Tree=69
num_leaves=2
num_cat=0
split_feature=27
split_gain=1.53014
threshold=0.0010442770274671671
decision_type=2
left_child=-1
right_child=-2
leaf_value=-0.021529884081101378 0.021681387840467331
leaf_weight=88.457063672743971 45.945380643697717
leaf_count=35496 17497
internal_value=0
internal_weight=0
internal_count=52993
is_linear=0
shrinkage=0.2


Tree=70
num_leaves=2
num_cat=0
split_feature=17
split_gain=2.58003
threshold=6.9839519997273559e-05
decision_type=2
left_child=-1
right_child=-2
leaf_value=-0.078993904750344346 0.021238790871964747
leaf_weight=8.1289735316895513 127.59445593814598
leaf_count=22361 31247
internal_value=0
internal_weight=0
internal_count=53608
is_linear=0
shrinkage=0.2


Tree=71
num_leaves=3
num_cat=0
split_feature=9 17
split_gain=2.60858 1.51627
threshold=-0.037852802112131316 0.0012883204243349059
decision_type=2 2
left_child=1 -1
right_child=-2 -3
leaf_value=-0.088040009745766951 0.033206251758967457 -0.0011655356617986128
leaf_weight=8.657384208905567 79.96947453516259 48.200270075969456
leaf_count=17508 32649 3451
internal_value=0 -0.0208124
internal_weight=0 56.8577
internal_count=53608 20959
is_linear=0
shrinkage=0.2


Tree=72
num_leaves=3
num_cat=0
split_feature=17 8
split_gain=1.86578 1.14444
threshold=2.7405684069782688e-05 -0.074858531209447382
decision_type=2 2
left_child=-1 -2
right_child=1 -3
leaf_value=-0.094817582250821014 0.03448170576882905 -0.00044362847751947508
leaf_weight=4.0341140483942572 54.737699065386551 78.924499804328661
leaf_count=12896 15709 25003
internal_value=0 0.012788
internal_weight=0 133.662
internal_count=53608 40712
is_linear=0
shrinkage=0.2


Tree=73
num_leaves=3
num_cat=0
split_feature=9 4
split_gain=2.44978 2.72543
threshold=-0.0135666307456316 6.3161255805240053
decision_type=2 2
left_child=-1 -2
right_child=1 -3
leaf_value=-0.015675637062430768 -0.072645725484807952 0.053155547908002636
leaf_weight=82.725665873200342 4.5024032437213455 51.333619518620253
leaf_count=32956 6729 13923
internal_value=0 0.0370023
internal_weight=0 55.836
internal_count=53608 20652
is_linear=0
shrinkage=0.2


Tree=74
num_leaves=3
num_cat=0
split_feature=16 16
split_gain=2.05798 3.05996
threshold=0.025792893402551312 -0.0082382685089210077
decision_type=2 2
left_child=1 -1
right_child=-2 -3
leaf_value=0.0054797459029083092 0.021482358412413912 -0.090035436259654919
leaf_weight=30.214627442052006 91.103677341474395 17.466722702902189
leaf_count=11284 4139 38185
internal_value=0 -0.0283223
internal_weight=0 47.6814
internal_count=53608 49469
is_linear=0
shrinkage=0.2


end of trees

feature_importances:
Skewness_8_dyn=21
Kurtosis_8_dyn=20
ACF_1=18
ACF_1_8_dyn=15
Skewness=14
Kurtosis=13
WL_C3=13
CorrDim_8_dyn=13
Skewness_8_Variance=13
Lyapunov_8_dyn=12
WL_C1_8_dyn=12
WL_C1=9
CorrDim=8
WL_C1_8_Variance=8
WL_C2_8_Variance=8
WL_C2=7
WL_C2_8_dyn=7
Lyapunov=6
PSD=6
Kurtosis_8_Variance=6
Lyapunov_8_Variance=5
PSD_8_dyn=5
ACF_1_8_Variance=5
CorrDim_8_Variance=4
WL_C3_8_dyn=4
Hurst_8_Variance=2
PSD_8_Variance=2
WL_C3_8_Variance=2
Hurst=1
Hurst_8_dyn=1

parameters:
[boosting: gbdt]
[objective: binary]
[metric: auc]
[tree_learner: serial]
[device_type: cpu]
[data_sample_strategy: bagging]
[data: ]
[valid: ]
[num_iterations: 500]
[learning_rate: 0.2]
[num_leaves: 115]
[num_threads: 0]
[seed: 2025]
[deterministic: 0]
[force_col_wise: 0]
[force_row_wise: 0]
[histogram_pool_size: -1]
[max_depth: 4]
[min_data_in_leaf: 52]
[min_sum_hessian_in_leaf: 0.001]
[bagging_fraction: 0.554558]
[pos_bagging_fraction: 1]
[neg_bagging_fraction: 1]
[bagging_freq: 5]
[bagging_seed: 15290]
[feature_fraction: 0.632941]
[feature_fraction_bynode: 1]
[feature_fraction_seed: 4631]
[extra_trees: 1]
[extra_seed: 801]
[early_stopping_round: 0]
[early_stopping_min_delta: 0]
[first_metric_only: 0]
[max_delta_step: 0]
[lambda_l1: 0.978735]
[lambda_l2: 2.47429]
[linear_lambda: 0]
[min_gain_to_split: 0.800984]
[drop_rate: 0.1]
[max_drop: 50]
[skip_drop: 0.5]
[xgboost_dart_mode: 0]
[uniform_drop: 0]
[drop_seed: 20313]
[top_rate: 0.2]
[other_rate: 0.1]
[min_data_per_group: 100]
[max_cat_threshold: 32]
[cat_l2: 10]
[cat_smooth: 10]
[max_cat_to_onehot: 4]
[top_k: 20]
[monotone_constraints: ]
[monotone_constraints_method: basic]
[monotone_penalty: 0]
[feature_contri: ]
[forcedsplits_filename: ]
[refit_decay_rate: 0.9]
[cegb_tradeoff: 1]
[cegb_penalty_split: 0]
[cegb_penalty_feature_lazy: ]
[cegb_penalty_feature_coupled: ]
[path_smooth: 0]
[interaction_constraints: ]
[verbosity: -1]
[saved_feature_importance_type: 0]
[use_quantized_grad: 0]
[num_grad_quant_bins: 4]
[quant_train_renew_leaf: 0]
[stochastic_rounding: 1]
[linear_tree: 0]
[max_bin: 255]
[max_bin_by_feature: ]
[min_data_in_bin: 3]
[bin_construct_sample_cnt: 200000]
[data_random_seed: 6651]
[is_enable_sparse: 1]
[enable_bundle: 1]
[use_missing: 1]
[zero_as_missing: 0]
[feature_pre_filter: 1]
[pre_partition: 0]
[two_round: 0]
[header: 0]
[label_column: ]
[weight_column: ]
[group_column: ]
[ignore_column: ]
[categorical_feature: ]
[forcedbins_filename: ]
[precise_float_parser: 0]
[parser_config_file: ]
[objective_seed: 22652]
[num_class: 1]
[is_unbalance: 0]
[scale_pos_weight: 1]
[sigmoid: 1]
[boost_from_average: 1]
[reg_sqrt: 0]
[alpha: 0.9]
[fair_c: 1]
[poisson_max_delta_step: 0.7]
[tweedie_variance_power: 1.5]
[lambdarank_truncation_level: 30]
[lambdarank_norm: 1]
[label_gain: ]
[lambdarank_position_bias_regularization: 0]
[eval_at: ]
[multi_error_top_k: 1]
[auc_mu_weights: ]
[num_machines: 1]
[local_listen_port: 12400]
[time_out: 120]
[machine_list_filename: ]
[machines: ]
[gpu_platform_id: -1]
[gpu_device_id: -1]
[gpu_use_dp: 0]
[num_gpu: 1]

end of parameters

pandas_categorical:[]
