tree
version=v4
num_class=1
num_tree_per_iteration=1
label_index=0
max_feature_idx=29
objective=binary sigmoid:1
feature_names=Hurst CorrDim Lyapunov Skewness Kurtosis PSD ACF_1 MC100 Price_MS100 Price_MK100 Hurst_8_dyn Hurst_8_Variance CorrDim_8_dyn CorrDim_8_Variance Lyapunov_8_dyn Lyapunov_8_Variance Skewness_8_dyn Skewness_8_Variance Kurtosis_8_dyn Kurtosis_8_Variance PSD_8_dyn PSD_8_Variance ACF_1_8_dyn ACF_1_8_Variance MC100_8_dyn MC100_8_Variance Price_MS100_8_dyn Price_MS100_8_Variance Price_MK100_8_dyn Price_MK100_8_Variance
feature_infos=[0.34536099466256254:0.85242520638646613] [-1.234117895062108e-14:0.13119982465867552] [-0.014172982833281205:0.072729537537048194] [1.6764104322766291:12.680759507765247] [3.2635998336194008:225.95020503158506] [-0.84564983009583472:-0.039920744483327032] [0.11120381935305634:0.61508020987026912] [-0.60424901197617364:0.56316725757818886] [-2.9369896595574816:1.9008548467699951] [-1.8660139630697623:9.7663026508371473] [-0.43043987399722705:0.91903781912027882] [2.8538972631048927e-05:0.019548348098183333] [-64286987895564.211:402637997979586.88] [-3.1558027520882309e-19:0.0015400341170945049] [-3247.3991536571316:1890.6682566552008] [1.497832042465923e-09:0.00071293757329003325] [-0.85095832975889185:5.8910748685120833] [3.2694132658319625e-07:31.007266005023332] [-0.98201391202704047:59.161709342173594] [1.032736835974827e-05:13104.414379665785] [-0.16241808255509815:0.4355283588916723] [6.2135921316553262e-09:0.0017272089736954748] [-0.60701633505121411:1.3515724196739711] [1.4500459539662405e-08:0.015419881473877297] [-152.64010551384598:152.52434227063719] [2.7285983215672874e-06:0.076175816849215441] [-152.10681517981718:26381.319552974295] [1.0774833048826243e-06:1.1592326084123583] [-1565.6935320906273:65.827764351879722] [3.0947496164068767e-06:42.309722720899515]
tree_sizes=454 456 454 549 452 453 555 552 555 553 551 560 565 555 451 554 453 558 452 451 557 453 551 453 561 453 452 560 453 452 551 555 560 449 560 563 562 558 452 553 550 456 451 456 563 448 453 557 563 453 560 555 454 548 454 557 456 552 455 556 555 560 552 559 560 452 457 557 552 459 558 553 565 559 454 561 560 455 458 565 455 455 567 560 559 563

Tree=0
num_leaves=3
num_cat=0
split_feature=19 20
split_gain=102.029 15.092
threshold=1.9114866342327905 -0.00051652100610455321
decision_type=2 2
left_child=1 -1
right_child=-2 -3
leaf_value=-2.9612017847717884 -1.7908954066661535 -2.7160316099521546
leaf_weight=32.738433692604303 6.3328230977058402 30.137452777475119
leaf_count=579 112 533
internal_value=-2.74866 -2.84369
internal_weight=0 62.8759
internal_count=1224 1112
is_linear=0
shrinkage=1


Tree=1
num_leaves=3
num_cat=0
split_feature=17 20
split_gain=38.5602 16.9531
threshold=0.049871243764019156 -0.00051652100610455321
decision_type=2 2
left_child=1 -1
right_child=-2 -3
leaf_value=-0.20678552464921268 0.60095520229515831 0.047920065660405867
leaf_weight=29.785878501832485 5.8811792135238639 36.159039869904518
leaf_count=601 48 575
internal_value=0 -0.0671231
internal_weight=0 65.9449
internal_count=1224 1176
is_linear=0
shrinkage=0.25


Tree=2
num_leaves=3
num_cat=0
split_feature=17 20
split_gain=22.418 15.4369
threshold=0.17467018317726371 -0.00051652100610455321
decision_type=2 2
left_child=1 -1
right_child=-2 -3
leaf_value=-0.20187854529167654 0.46017117877894176 0.045363058964821554
leaf_weight=26.721723482012749 5.7233572006225577 38.556022193282843
leaf_count=612 32 580
internal_value=0 -0.0558445
internal_weight=0 65.2777
internal_count=1224 1192
is_linear=0
shrinkage=0.25


Tree=3
num_leaves=4
num_cat=0
split_feature=5 5 26
split_gain=17.5174 54.3846 3.14976
threshold=-0.46964428469282599 -0.48849696336281573 0.42026865815746467
decision_type=2 2 2
left_child=1 -1 -2
right_child=2 -3 -4
leaf_value=-0.024830199096380803 -0.25969629014112006 0.81831690282761715 -0.032254199493813474
leaf_weight=43.143245354294777 15.8849313557148 5.3772364035248748 5.0060753002762786
leaf_count=780 279 80 85
internal_value=0 0.0686083 -0.2052
internal_weight=0 48.5205 20.891
internal_count=1224 860 364
is_linear=0
shrinkage=0.25


Tree=4
num_leaves=3
num_cat=0
split_feature=16 18
split_gain=22.0096 14.0778
threshold=0.25583564536623676 -0.0090436324831674169
decision_type=2 2
left_child=1 -1
right_child=-2 -3
leaf_value=0.11889789202197534 0.48593193459158474 -0.13501987568758081
leaf_weight=19.734901864081621 5.0401919521391383 44.23384146951139
leaf_count=317 24 884
internal_value=0 -0.0566822
internal_weight=0 63.9687
internal_count=1225 1201
is_linear=0
shrinkage=0.25


Tree=5
num_leaves=3
num_cat=0
split_feature=23 5
split_gain=15.0252 15.7641
threshold=7.1033270279218665e-07 -0.46964428469282599
decision_type=2 2
left_child=-1 -2
right_child=1 -3
leaf_value=-0.24600169143035616 0.12575616263515849 -0.18910092351388763
leaf_weight=13.953617600724099 39.172462617978454 13.317134859040378
leaf_count=334 629 262
internal_value=0 0.0458715
internal_weight=0 52.4896
internal_count=1225 891
is_linear=0
shrinkage=0.25


Tree=6
num_leaves=4
num_cat=0
split_feature=20 7 14
split_gain=12.9132 19.0496 11.414
threshold=-0.00051652100610455321 0.22707140252450178 0.83161654492496495
decision_type=2 2 2
left_child=2 -2 -1
right_child=1 -3 -4
leaf_value=-0.23951122231695893 -0.016860020952805348 0.40141102935728257 0.23472201823889388
leaf_weight=19.691681113094095 33.344987168908119 8.5502282753586751 3.7808376010507336
leaf_count=550 478 120 77
internal_value=0 0.0685004 -0.163119
internal_weight=0 41.8952 23.4725
internal_count=1225 598 627
is_linear=0
shrinkage=0.25


Tree=7
num_leaves=4
num_cat=0
split_feature=29 29 6
split_gain=12.1603 24.0537 4.9107
threshold=0.01850309250665395 0.0083443603411325878 0.42715163460698513
decision_type=2 2 2
left_child=1 -1 -2
right_child=2 -3 -4
leaf_value=-0.041651929504145403 -0.23150937021040921 0.40321864927750811 0.022715974270102263
leaf_weight=31.296903423964977 16.7292640125379 10.030649358406661 6.630012856796383
leaf_count=586 326 160 153
internal_value=0 0.0663202 -0.159348
internal_weight=0 41.3276 23.3593
internal_count=1225 746 479
is_linear=0
shrinkage=0.25


Tree=8
num_leaves=4
num_cat=0
split_feature=13 20 2
split_gain=12.2711 12.7237 8.45016
threshold=3.3222035493833649e-30 -0.01854169778171055 0.015849747527860052
decision_type=2 2 2
left_child=1 -1 -2
right_child=2 -3 -4
leaf_value=-0.26086256223387688 -0.19873550643477655 0.17920286571210162 0.066821074052681548
leaf_weight=4.9440798219293383 23.829232886433601 24.231627780944109 10.920753569342194
leaf_count=181 458 407 180
internal_value=0 0.104626 -0.115277
internal_weight=0 29.1757 34.75
internal_count=1226 588 638
is_linear=0
shrinkage=0.25


Tree=9
num_leaves=4
num_cat=0
split_feature=9 7 7
split_gain=9.06006 18.6483 11.082
threshold=-0.73863064151445756 0.22707140252450178 -0.087919467565960419
decision_type=2 2 2
left_child=1 -1 -2
right_child=2 -3 -4
leaf_value=-0.025833542903020833 0.12956216625006534 0.42294587668068145 -0.20718386050320922
leaf_weight=25.385549969039857 8.4789864895865339 7.4956048736348739 21.838700558058918
leaf_count=474 163 104 485
internal_value=0 0.0764668 -0.113002
internal_weight=0 32.8812 30.3177
internal_count=1226 578 648
is_linear=0
shrinkage=0.25


Tree=10
num_leaves=4
num_cat=0
split_feature=5 5 26
split_gain=8.33492 14.7188 4.20398
threshold=-0.4669772687142299 -0.48264060634239303 0.4736073838568205
decision_type=2 2 2
left_child=1 -1 -2
right_child=2 -3 -4
leaf_value=-0.028832741182471984 -0.27566454996504475 0.33552749845776469 0.043098841438722391
leaf_weight=40.740002192556858 9.6849098843522352 8.3493580585345608 3.5269223181530824
leaf_count=803 271 80 72
internal_value=0 0.033137 -0.190561
internal_weight=0 49.0894 13.2118
internal_count=1226 883 343
is_linear=0
shrinkage=0.25


Tree=11
num_leaves=4
num_cat=0
split_feature=26 14 14
split_gain=8.86496 8.95934 1.99477
threshold=-0.60038425042810772 0.0038275160604969165 -0.28717814086086152
decision_type=2 2 2
left_child=2 -2 -1
right_child=1 -3 -4
leaf_value=-0.064914608934572321 -0.073768059383950729 0.14013939416757437 -0.28153581586265786
leaf_weight=4.0389533373527229 24.330938384868205 24.621393999550492 7.7733671083115023
leaf_count=88 559 398 181
internal_value=0 0.0338178 -0.207477
internal_weight=0 48.9523 11.8123
internal_count=1226 957 269
is_linear=0
shrinkage=0.25


Tree=12
num_leaves=4
num_cat=0
split_feature=13 1 22
split_gain=8.00725 10.2212 7.39826
threshold=3.3222035493833649e-30 -9.6444111024763187e-16 -0.0090143777208029335
decision_type=2 2 2
left_child=1 -1 -2
right_child=2 -3 -4
leaf_value=0.31716033879686678 0.088798464034773844 -0.010345745632965128 -0.18235659823026865
leaf_weight=8.2672927207313496 8.9417844600975531 21.299896637909114 21.193446930497885
leaf_count=162 128 421 509
internal_value=0 0.0812243 -0.101895
internal_weight=0 29.5672 30.1352
internal_count=1220 583 637
is_linear=0
shrinkage=0.25


Tree=13
num_leaves=4
num_cat=0
split_feature=23 5 6
split_gain=8.373 8.64634 0.284164
threshold=7.1033270279218665e-07 -0.60282072406952514 0.37066952602291708
decision_type=2 2 2
left_child=2 -2 -1
right_child=1 -3 -4
leaf_value=-0.15964506015542071 -0.14663580307943624 0.090010757958084137 -0.26153317444929897
leaf_weight=2.3256671871058625 13.032572959549723 37.17314835707657 6.5486744442023337
leaf_count=88 247 642 243
internal_value=0 0.0285789 -0.234845
internal_weight=0 50.2057 8.87434
internal_count=1220 889 331
is_linear=0
shrinkage=0.25


Tree=14
num_leaves=3
num_cat=0
split_feature=29 8
split_gain=7.33028 9.7459
threshold=0.13160288101147596 0.36155644359341471
decision_type=2 2
left_child=1 -1
right_child=-2 -3
leaf_value=-0.053838248259243431 -0.27105820852856322 0.17817266341679319
leaf_weight=35.533283634809777 6.0318640470504752 16.603003546595573
leaf_count=739 171 310
internal_value=0 0.0200443
internal_weight=0 52.1363
internal_count=1220 1049
is_linear=0
shrinkage=0.25


Tree=15
num_leaves=4
num_cat=0
split_feature=5 16 7
split_gain=7.2752 8.96653 4.50563
threshold=-0.46964428469282599 -0.0055993361370086361 0.26656135581739127
decision_type=2 2 2
left_child=1 -1 -2
right_child=2 -3 -4
leaf_value=0.20097362111931985 -0.25945339620798707 -0.038975701080591382 0.087422041533638445
leaf_weight=14.361809632740913 9.687968881800769 30.201107067521662 3.085264607332646
leaf_count=208 296 648 68
internal_value=0 0.0383529 -0.175659
internal_weight=0 44.5629 12.7732
internal_count=1220 856 364
is_linear=0
shrinkage=0.25


Tree=16
num_leaves=3
num_cat=0
split_feature=9 26
split_gain=5.9939 7.15531
threshold=0.55359242158929178 -0.21498365406311501
decision_type=2 2
left_child=1 -1
right_child=-2 -3
leaf_value=-0.096874981672767188 -0.26826042604035677 0.092293315547610291
leaf_weight=20.936840124195442 5.0890784821240223 31.001920850947499
leaf_count=483 163 577
internal_value=0 0.0160361
internal_weight=0 51.9388
internal_count=1223 1060
is_linear=0
shrinkage=0.25


Tree=17
num_leaves=4
num_cat=0
split_feature=7 9 23
split_gain=6.44333 9.61642 8.72616
threshold=-0.17042730785614588 -0.39737612686571377 4.0488033061880456e-06
decision_type=2 2 2
left_child=2 -2 -1
right_child=1 -3 -4
leaf_value=-0.062063206979278446 0.016785323999034919 -0.24920532135063117 0.41667348358996753
leaf_weight=4.7229647990316135 35.698216591728851 11.14745521196164 4.7953700385987759
leaf_count=122 684 361 56
internal_value=0 -0.0465076 0.179114
internal_weight=0 46.8457 9.51833
internal_count=1223 1045 178
is_linear=0
shrinkage=0.25


Tree=18
num_leaves=3
num_cat=0
split_feature=5 6
split_gain=5.90654 7.25955
threshold=-0.35376161806302103 0.32059646739763653
decision_type=2 2
left_child=1 -1
right_child=-2 -3
leaf_value=0.24172353564188021 -0.28441337785653414 -0.023861021412075013
leaf_weight=7.5616778857074669 4.4565051770769051 43.076413174159825
leaf_count=106 119 998
internal_value=0 0.0157958
internal_weight=0 50.6381
internal_count=1223 1104
is_linear=0
shrinkage=0.25


Tree=19
num_leaves=3
num_cat=0
split_feature=19 8
split_gain=6.07736 8.84178
threshold=0.0002681584266596069 0.33566431272429592
decision_type=2 2
left_child=-1 -2
right_child=1 -3
leaf_value=0.29487714412610699 -0.11250337232841122 0.103210738761811
leaf_weight=3.8579460633918634 31.307684637024067 19.133256497560069
leaf_count=115 728 380
internal_value=0 -0.0306763
internal_weight=0 50.4409
internal_count=1223 1108
is_linear=0
shrinkage=0.25


Tree=20
num_leaves=4
num_cat=0
split_feature=23 5 6
split_gain=5.49968 6.22741 0.333461
threshold=7.1033270279218665e-07 -0.46964428469282599 0.35124532146219212
decision_type=2 2 2
left_child=2 -2 -1
right_child=1 -3 -4
leaf_value=-0.12830672146469566 0.064866852768131228 -0.1664246661843318 -0.25850578515145539
leaf_weight=1.6625758528243739 38.771306958980858 8.9561144752660748 4.7660052307182923
leaf_count=71 628 261 262
internal_value=0 0.0214622 -0.224852
internal_weight=0 47.7274 6.42858
internal_count=1222 889 333
is_linear=0
shrinkage=0.25


Tree=21
num_leaves=3
num_cat=0
split_feature=7 14
split_gain=4.7281 7.66632
threshold=-0.17042730785614588 0.010575137557611082
decision_type=2 2
left_child=-1 -2
right_child=1 -3
leaf_value=0.15287199221169218 -0.15755243255498896 0.052572845571507605
leaf_weight=9.4757121619768423 19.711273040564265 24.143908554804511
leaf_count=177 607 438
internal_value=0 -0.0418679
internal_weight=0 43.8552
internal_count=1222 1045
is_linear=0
shrinkage=0.25


Tree=22
num_leaves=4
num_cat=0
split_feature=5 20 29
split_gain=4.98348 8.63907 8.52266
threshold=-0.60282072406952514 0.022796405357206288 0.015331338972933891
decision_type=2 2 2
left_child=1 -1 -2
right_child=2 -3 -4
leaf_value=-0.28137835630519442 0.1133179213656773 0.16203862679423137 -0.13793565605172584
leaf_weight=8.7770831692032498 27.7089985095663 3.9962040940299621 12.132015227049122
leaf_count=264 501 54 403
internal_value=0 -0.142643 0.0368055
internal_weight=0 12.7733 39.841
internal_count=1222 318 904
is_linear=0
shrinkage=0.25


Tree=23
num_leaves=3
num_cat=0
split_feature=19 3
split_gain=5.15257 8.4935
threshold=0.00024973257807596591 2.4015775330639682
decision_type=2 2
left_child=-1 -2
right_child=1 -3
leaf_value=0.26695447241743508 -0.25078627854808083 0.020338939559563746
leaf_weight=3.9488928320351979 8.8770618620328587 38.718269066885114
leaf_count=105 256 861
internal_value=0 -0.0302265
internal_weight=0 47.5953
internal_count=1222 1117
is_linear=0
shrinkage=0.25


Tree=24
num_leaves=4
num_cat=0
split_feature=26 23 23
split_gain=4.68209 4.77217 1.20703
threshold=-0.60038425042810772 7.1033270279218665e-07 5.3377548579341425e-05
decision_type=2 2 2
left_child=2 -2 -1
right_child=1 -3 -4
leaf_value=-0.26472025702981911 -0.21325144305463925 0.051931489824143709 -0.050440783177666766
leaf_weight=4.8714154232875435 4.7575318441377012 39.085497550899163 2.4814184186980128
leaf_count=238 260 695 31
internal_value=0 0.023153 -0.192422
internal_weight=0 43.843 7.35283
internal_count=1224 955 269
is_linear=0
shrinkage=0.25


Tree=25
num_leaves=3
num_cat=0
split_feature=7 19
split_gain=4.99371 5.2842
threshold=-0.3065883325344953 0.00020152779077767518
decision_type=2 2
left_child=-1 -2
right_child=1 -3
leaf_value=0.27102940712473622 0.24871388101968903 -0.054952560707114267
leaf_weight=3.7316585141234091 3.9088690545177078 42.754371826071292
leaf_count=75 77 1072
internal_value=0 -0.0295126
internal_weight=0 46.6632
internal_count=1224 1149
is_linear=0
shrinkage=0.25


Tree=26
num_leaves=3
num_cat=0
split_feature=7 8
split_gain=3.71261 4.60029
threshold=-0.35531099355408957 0.33566431272429592
decision_type=2 2
left_child=-1 -2
right_child=1 -3
leaf_value=0.22792108475961725 -0.093537859797537024 0.065627019760270397
leaf_weight=3.8969575189985326 26.793288970075082 19.688956746045733
leaf_count=60 748 416
internal_value=0 -0.0261162
internal_weight=0 46.4822
internal_count=1224 1164
is_linear=0
shrinkage=0.25


Tree=27
num_leaves=4
num_cat=0
split_feature=2 13 18
split_gain=4.11844 6.88988 6.06922
threshold=0.01380677818299492 3.6575173707229442e-30 -0.0095789044252944083
decision_type=2 2 2
left_child=1 -1 -2
right_child=2 -3 -4
leaf_value=0.03231798396438465 0.34869194945572413 -0.18686200685962281 -0.043543948096122921
leaf_weight=26.702188229595777 4.6046674442477524 13.492945184145354 5.3064687893493083
leaf_count=598 60 415 151
internal_value=0 -0.0412547 0.138675
internal_weight=0 40.1951 9.91114
internal_count=1224 1013 211
is_linear=0
shrinkage=0.25


Tree=28
num_leaves=3
num_cat=0
split_feature=16 16
split_gain=3.65598 7.74223
threshold=0.13198447364440016 0.0073131992244994679
decision_type=2 2
left_child=1 -1
right_child=-2 -3
leaf_value=0.028622238694551803 0.2164103757383431 -0.21919006766283589
leaf_weight=35.158786216052249 4.2186585408635429 10.155339737830216
leaf_count=888 27 308
internal_value=0 -0.0269123
internal_weight=0 45.3141
internal_count=1223 1196
is_linear=0
shrinkage=0.25


Tree=29
num_leaves=3
num_cat=0
split_feature=7 29
split_gain=4.53232 4.83905
threshold=-0.3884145068161024 0.081499749169502131
decision_type=2 2
left_child=-1 -2
right_child=1 -3
leaf_value=0.27098900005530419 0.0001203527813564978 -0.27696668900683785
leaf_weight=3.4399020737037054 40.626718135317788 4.3620567294710773
leaf_count=45 970 208
internal_value=0 -0.026743
internal_weight=0 44.9888
internal_count=1223 1178
is_linear=0
shrinkage=0.25


Tree=30
num_leaves=4
num_cat=0
split_feature=5 5 7
split_gain=3.65651 5.21243 3.50935
threshold=-0.47030996375837519 -0.60282072406952514 0.29408778801360475
decision_type=2 2 2
left_child=1 -1 -2
right_child=2 -3 -4
leaf_value=-0.12176007223299279 -0.22723932671508473 0.086190294428656181 0.1159078128156372
leaf_weight=10.332156319520431 7.3926172791398113 27.811163404199764 2.489648247952573
leaf_count=317 312 536 58
internal_value=0 0.0298582 -0.140778
internal_weight=0 38.1433 9.88227
internal_count=1223 853 370
is_linear=0
shrinkage=0.25


Tree=31
num_leaves=4
num_cat=0
split_feature=9 6 27
split_gain=3.37343 7.58272 6.39651
threshold=-0.73863064151445756 0.41763492379417871 0.0033435219863156805
decision_type=2 2 2
left_child=1 -1 -2
right_child=2 -3 -4
leaf_value=-0.041498824568628509 0.037100047327257725 0.24015935831095053 -0.24631277252295353
leaf_weight=17.79696087026969 11.860395259398503 8.9920719428919238 8.575431201461468
leaf_count=393 279 183 368
internal_value=0 0.0530388 -0.0818219
internal_weight=0 26.789 20.4358
internal_count=1223 576 647
is_linear=0
shrinkage=0.25


Tree=32
num_leaves=4
num_cat=0
split_feature=20 6 28
split_gain=4.03766 5.32971 3.0458
threshold=0.026482958141081706 0.31036667017881253 -1.0000000180025095e-35
decision_type=2 2 2
left_child=1 -1 -2
right_child=2 -3 -4
leaf_value=0.30134354188897217 -0.030170078102301417 -0.0028908508196835892 -0.29382721328134592
leaf_weight=4.0736235589574781 6.6108772304141894 30.874205652362434 4.6763228031340969
leaf_count=91 134 915 83
internal_value=0 0.0325682 -0.139415
internal_weight=0 34.9478 11.2872
internal_count=1223 1006 217
is_linear=0
shrinkage=0.25


Tree=33
num_leaves=3
num_cat=0
split_feature=7 6
split_gain=3.24174 4.27497
threshold=-0.39510923879080101 0.43460743741461194
decision_type=2 2
left_child=-1 -2
right_child=1 -3
leaf_value=0.22891638065422512 0.011449201853414396 -0.19264215821025815
leaf_weight=3.3402305964846155 34.0599066051509 7.9026313494832712
leaf_count=40 884 299
internal_value=0 -0.0269837
internal_weight=0 41.9625
internal_count=1223 1183
is_linear=0
shrinkage=0.25


Tree=34
num_leaves=4
num_cat=0
split_feature=23 2 12
split_gain=3.20029 3.75992 0.442891
threshold=7.1033270279218665e-07 0.0078575785845610546 -1.8277172627166627
decision_type=2 2 2
left_child=2 -2 -1
right_child=1 -3 -4
leaf_value=-0.067661814833017378 -0.045369648256794862 0.11082447425500835 -0.25717004057253839
leaf_weight=1.0109459196683017 24.991356603481108 15.672714810934847 3.2692513046058584
leaf_count=58 654 234 277
internal_value=0 0.0148276 -0.212438
internal_weight=0 40.6641 4.2802
internal_count=1223 888 335
is_linear=0
shrinkage=0.25


Tree=35
num_leaves=4
num_cat=0
split_feature=27 27 28
split_gain=2.7258 7.98103 3.08605
threshold=0.0016368121030407108 0.0033435219863156805 -0.075583465457258844
decision_type=2 2 2
left_child=2 -2 -1
right_child=1 -3 -4
leaf_value=-0.28439560325984481 0.20662894024782891 -0.059736155047038143 -0.022527782423376944
leaf_weight=3.9785602655028915 10.930641454819126 19.702731162760756 9.6021116778720152
leaf_count=137 189 670 227
internal_value=0 0.0353047 -0.0992527
internal_weight=0 30.6334 13.5807
internal_count=1223 859 364
is_linear=0
shrinkage=0.25


Tree=36
num_leaves=4
num_cat=0
split_feature=13 13 9
split_gain=2.8498 4.31435 3.63005
threshold=3.3222035493833649e-30 2.2342384680344987e-20 -0.97277435797812217
decision_type=2 2 2
left_child=2 -2 -1
right_child=1 -3 -4
leaf_value=0.19901312982207825 -0.21511765370155816 0.029220893958244568 -0.0087204607162642469
leaf_weight=7.5324782337411333 7.910057214205156 10.526416231994515 17.404320323141292
leaf_count=148 393 244 440
internal_value=0 -0.0756046 0.0540234
internal_weight=0 18.4365 24.9368
internal_count=1225 637 588
is_linear=0
shrinkage=0.25


Tree=37
num_leaves=4
num_cat=0
split_feature=26 22 7
split_gain=2.90299 2.82157 1.02425
threshold=-0.60038425042810772 0.012130680420449293 -0.17042730785614588
decision_type=2 2 2
left_child=2 -2 -1
right_child=1 -3 -4
leaf_value=-0.029748257958579584 0.055370711950018706 -0.11735260135468982 -0.26676692935738405
leaf_weight=1.7779808649793265 30.347518350361497 7.3407295474316916 3.1792334429192115
leaf_count=41 801 155 228
internal_value=0 0.0217254 -0.181781
internal_weight=0 37.6882 4.95721
internal_count=1225 956 269
is_linear=0
shrinkage=0.25


Tree=38
num_leaves=3
num_cat=0
split_feature=7 7
split_gain=2.86693 3.75326
threshold=-0.40387497333519695 -0.1944189045731525
decision_type=2 2
left_child=-1 -2
right_child=1 -3
leaf_value=0.22745491796938172 -0.2711931489209275 0.0031802838403624492
leaf_weight=3.1437756405211976 3.4124536818126208 35.866114833224856
leaf_count=35 115 1075
internal_value=0 -0.0206538
internal_weight=0 39.2786
internal_count=1225 1190
is_linear=0
shrinkage=0.25


Tree=39
num_leaves=4
num_cat=0
split_feature=5 8 26
split_gain=2.72297 3.95395 3.09665
threshold=-0.47030996375837519 0.36155644359341471 0.75428115354968894
decision_type=2 2 2
left_child=1 -1 -2
right_child=2 -3 -4
leaf_value=-0.042228205751740605 -0.22060848451999079 0.13154546892946975 0.13919307871179509
leaf_weight=20.057582144218031 6.1193154164502612 13.823053286148932 1.9779207741958087
leaf_count=585 318 270 52
internal_value=0 0.0286667 -0.132705
internal_weight=0 33.8806 8.09724
internal_count=1225 855 370
is_linear=0
shrinkage=0.25


Tree=40
num_leaves=4
num_cat=0
split_feature=3 5 2
split_gain=2.3628 4.18101 2.41759
threshold=2.1271033969542223 -0.4669772687142299 0.0016886716041602863
decision_type=2 2 2
left_child=2 -2 -1
right_child=1 -3 -4
leaf_value=0.066436555379801046 0.049632918497226224 -0.24452341675195943 -0.26994346227004778
leaf_weight=2.0750379776582113 32.074780721959542 3.333807718998286 3.7437196916289395
leaf_count=72 765 220 167
internal_value=0 0.021934 -0.149966
internal_weight=0 35.4086 5.81876
internal_count=1224 985 239
is_linear=0
shrinkage=0.25


Tree=41
num_leaves=3
num_cat=0
split_feature=13 5
split_gain=2.1079 3.74703
threshold=-1.645664011901392e-20 -0.66801163224697835
decision_type=2 2
left_child=-1 -2
right_child=1 -3
leaf_value=0.16318054137775995 -0.27038823016714031 0.0034652109576351138
leaf_weight=4.2660988030838771 3.4512022656272157 32.799420771403675
leaf_count=104 157 963
internal_value=0 -0.0226034
internal_weight=0 36.2506
internal_count=1224 1120
is_linear=0
shrinkage=0.25


Tree=42
num_leaves=3
num_cat=0
split_feature=19 3
split_gain=2.24229 4.35368
threshold=0.00020152779077767518 2.1926201133878997
decision_type=2 2
left_child=-1 -2
right_child=1 -3
leaf_value=0.1848636826390363 -0.2670283398546211 0.0087075146512715831
leaf_weight=3.6105225626961319 4.0218636315184986 32.488974621810485
leaf_count=80 221 923
internal_value=0 -0.021663
internal_weight=0 36.5108
internal_count=1224 1144
is_linear=0
shrinkage=0.25


Tree=43
num_leaves=3
num_cat=0
split_feature=24 13
split_gain=2.01605 3.49181
threshold=-1.0273210336386651 3.6575173707229442e-30
decision_type=2 2
left_child=-1 -2
right_child=1 -3
leaf_value=0.20296545584337078 0.039742318348584119 -0.12008313273472818
leaf_weight=2.7577385113290793 23.385829890205059 13.460995174289563
leaf_count=130 567 527
internal_value=0 -0.0186424
internal_weight=0 36.8468
internal_count=1224 1094
is_linear=0
shrinkage=0.25


Tree=44
num_leaves=4
num_cat=0
split_feature=12 18 24
split_gain=2.04577 3.21755 1.72987
threshold=-3.8802294710649215e-14 -0.0022722646938646558 -0.072059004056490392
decision_type=2 2 2
left_child=2 -2 -1
right_child=1 -3 -4
leaf_value=-0.12220945525487895 0.17633959821495199 -0.076153415570923866 0.0088686893748415648
leaf_weight=10.472223447075521 8.029023729155595 5.194642365560866 15.762879402143881
leaf_count=412 171 241 404
internal_value=0 0.077144 -0.043449
internal_weight=0 13.2237 26.2351
internal_count=1228 412 816
is_linear=0
shrinkage=0.25


Tree=45
num_leaves=3
num_cat=0
split_feature=7 2
split_gain=2.50661 2.96682
threshold=0.42064404245439529 0.011497233950217076
decision_type=2 2
left_child=1 -1
right_child=-2 -3
leaf_value=-0.062170719502131197 0.22549867088636866 0.1022103924744651
leaf_weight=27.022210356848518 2.7899341700831419 9.1978087966563162
leaf_count=950 40 238
internal_value=0 -0.0204241
internal_weight=0 36.22
internal_count=1228 1188
is_linear=0
shrinkage=0.25


Tree=46
num_leaves=3
num_cat=0
split_feature=7 26
split_gain=2.62171 2.45756
threshold=-0.40387497333519695 0.016174695657193764
decision_type=2 2
left_child=-1 -2
right_child=1 -3
leaf_value=0.22161726097239731 -0.090399841568679612 0.041191631214823811
leaf_weight=3.0083685596473506 16.925358352887997 18.63622999846848
leaf_count=34 694 500
internal_value=0 -0.0214353
internal_weight=0 35.5616
internal_count=1228 1194
is_linear=0
shrinkage=0.25


Tree=47
num_leaves=4
num_cat=0
split_feature=9 6 7
split_gain=2.08483 3.98085 3.89616
threshold=-0.73863064151445756 0.41638563555819408 -0.087919467565960419
decision_type=2 2 2
left_child=1 -1 -2
right_child=2 -3 -4
leaf_value=-0.038707311297211458 0.080917173796531863 0.17759234847041286 -0.17119062737061988
leaf_weight=13.370426752575442 6.3547393573098843 8.8293362217373197 9.6464849256008147
leaf_count=389 164 190 485
internal_value=0 0.0473145 -0.0710609
internal_weight=0 22.1998 16.0012
internal_count=1228 579 649
is_linear=0
shrinkage=0.25


Tree=48
num_leaves=4
num_cat=0
split_feature=23 23 14
split_gain=2.23114 2.44654 0.45208
threshold=7.1033270279218665e-07 2.7144913070469751e-06 -0.2214280477242295
decision_type=2 2 2
left_child=2 -2 -1
right_child=1 -3 -4
leaf_value=-0.037706127305513891 0.10180222715731432 -0.036095214276519863 -0.25719783997784323
leaf_weight=0.77802780322963405 12.848832777614005 21.489238297741394 2.3989401768340022
leaf_count=89 314 574 244
internal_value=0 0.0155006 -0.203483
internal_weight=0 34.3381 3.17697
internal_count=1221 888 333
is_linear=0
shrinkage=0.25


Tree=49
num_leaves=3
num_cat=0
split_feature=7 29
split_gain=1.7889 2.09841
threshold=0.42064404245439529 0.0070359246192654868
decision_type=2 2
left_child=1 -1
right_child=-2 -3
leaf_value=-0.087280148274022973 0.18839047345553797 0.036846349829612553
leaf_weight=15.399639530842249 2.8215275549227945 19.030921248420782
leaf_count=539 40 642
internal_value=0 -0.0186678
internal_weight=0 34.4306
internal_count=1221 1181
is_linear=0
shrinkage=0.25


Tree=50
num_leaves=4
num_cat=0
split_feature=20 1 13
split_gain=1.92767 5.2464 2.52971
threshold=1.0000000180025095e-35 0.021619656867398827 3.6575173707229442e-30
decision_type=2 2 2
left_child=1 -1 -2
right_child=2 -3 -4
leaf_value=-0.1749001398525529 0.087469535794926598 0.35413030886809371 -0.071322607034493057
leaf_weight=8.1878534355637367 17.697981790333873 1.3671253426655301 9.7101935290847887
leaf_count=609 290 23 299
internal_value=0 -0.0991941 0.0312082
internal_weight=0 9.55498 27.4082
internal_count=1221 632 589
is_linear=0
shrinkage=0.25


Tree=51
num_leaves=4
num_cat=0
split_feature=27 6 27
split_gain=1.94608 4.13324 2.57107
threshold=0.0033435219863156805 0.31036667017881253 0.0016368121030407108
decision_type=2 2 2
left_child=2 -2 -1
right_child=1 -3 -4
leaf_value=-0.04105361760049394 0.21559282191580803 -0.12501177151045278 0.13717749278508168
leaf_weight=10.035558411924287 2.674512670866533 13.295249003524075 10.198565122176658
leaf_count=360 86 585 190
internal_value=0 -0.0679621 0.048774
internal_weight=0 15.9698 20.2341
internal_count=1221 671 550
is_linear=0
shrinkage=0.25


Tree=52
num_leaves=3
num_cat=0
split_feature=16 16
split_gain=1.71062 3.79746
threshold=0.13198447364440016 0.012798891696549576
decision_type=2 2
left_child=1 -1
right_child=-2 -3
leaf_value=0.0097038671955091312 0.17202947668472562 -0.25240310474360256
leaf_weight=27.912457646512852 3.0920841676415867 3.9426346998952786
leaf_count=993 28 199
internal_value=0 -0.0227328
internal_weight=0 31.8551
internal_count=1220 1192
is_linear=0
shrinkage=0.25


Tree=53
num_leaves=4
num_cat=0
split_feature=2 3 8
split_gain=1.56493 3.73728 2.5433
threshold=0.011497233950217076 3.2656280475923878 0.46488366154212662
decision_type=2 2 2
left_child=1 -1 -2
right_child=2 -3 -4
leaf_value=0.025947960733243805 -0.024243110591117389 -0.1832104530845261 0.2551854028211023
leaf_weight=18.197278419163926 5.0426493825507333 7.5560955141336299 3.413394794188207
leaf_count=706 185 266 63
internal_value=0 -0.035415 0.0885379
internal_weight=0 25.7534 8.45604
internal_count=1220 972 248
is_linear=0
shrinkage=0.25


Tree=54
num_leaves=3
num_cat=0
split_feature=7 25
split_gain=1.4523 1.74822
threshold=0.42064404245439529 0.00051611689288107913
decision_type=2 2
left_child=1 -1
right_child=-2 -3
leaf_value=-0.075686167582971545 0.16925572606308725 0.043342437943912383
leaf_weight=16.395258902819482 2.7698101771020438 14.560634939170994
leaf_count=647 40 533
internal_value=0 -0.0196952
internal_weight=0 30.9559
internal_count=1220 1180
is_linear=0
shrinkage=0.25


Tree=55
num_leaves=4
num_cat=0
split_feature=20 14 20
split_gain=1.63207 3.19513 1.98865
threshold=1.0000000180025095e-35 2.1556241605016218 0.026482958141081706
decision_type=2 2 2
left_child=1 -1 -2
right_child=2 -3 -4
leaf_value=-0.19602883344492394 0.071645227165927999 0.18256981376787343 -0.080297383327451288
leaf_weight=5.7927854912213652 18.180453043474703 1.8340582534146959 7.6480792312358963
leaf_count=581 374 47 218
internal_value=0 -0.10497 0.0266489
internal_weight=0 7.62684 25.8285
internal_count=1220 628 592
is_linear=0
shrinkage=0.25


Tree=56
num_leaves=3
num_cat=0
split_feature=13 5
split_gain=2.05057 2.93004
threshold=-1.645664011901392e-20 -0.47030996375837519
decision_type=2 2
left_child=-1 -2
right_child=1 -3
leaf_value=0.17697842556865317 0.0080802156508689247 -0.23126764065758579
leaf_weight=3.653128332909545 25.758932847238611 3.6494345143637501
leaf_count=104 794 322
internal_value=0 -0.0216176
internal_weight=0 29.4084
internal_count=1220 1116
is_linear=0
shrinkage=0.25


Tree=57
num_leaves=4
num_cat=0
split_feature=29 5 5
split_gain=1.4949 4.91174 3.5119
threshold=0.01850309250665395 -0.60067334818499973 -0.58842451958668651
decision_type=2 2 2
left_child=2 -2 -1
right_child=1 -3 -4
leaf_value=-0.15926738565758872 0.14937375161402719 -0.23114578677160058 0.080735468254844234
leaf_weight=4.7681300866970551 3.41153351374669 5.5997723997861595 18.971221718107703
leaf_count=245 101 375 499
internal_value=0 -0.0870741 0.0325251
internal_weight=0 9.01131 23.7394
internal_count=1220 476 744
is_linear=0
shrinkage=0.25


Tree=58
num_leaves=3
num_cat=0
split_feature=28 13
split_gain=1.3414 1.47105
threshold=-1.1858072435947542 -1.645664011901392e-20
decision_type=2 2
left_child=-1 -2
right_child=1 -3
leaf_value=-0.17401290456187543 0.16667129986285736 -0.0069916987852039697
leaf_weight=2.5907391614964608 3.4618603348499226 25.526559418331086
leaf_count=169 87 964
internal_value=0 0.0137434
internal_weight=0 28.9884
internal_count=1220 1051
is_linear=0
shrinkage=0.25


Tree=59
num_leaves=4
num_cat=0
split_feature=26 5 1
split_gain=1.22562 1.24981 1.07953
threshold=-0.65521386419551075 -0.4669772687142299 -9.0098869811594625e-16
decision_type=2 2 2
left_child=2 -2 -1
right_child=1 -3 -4
leaf_value=0.05277077557631174 0.03285505922251318 -0.12942676539643061 -0.27474491728323697
leaf_weight=0.9655802427159873 25.285042317507767 3.3601046502299097 1.8015470959653637
leaf_count=69 684 291 176
internal_value=0 0.0138151 -0.160416
internal_weight=0 28.6451 2.76713
internal_count=1220 975 245
is_linear=0
shrinkage=0.25


Tree=60
num_leaves=4
num_cat=0
split_feature=24 4 16
split_gain=1.20404 4.77697 2.18491
threshold=0.21856613172955255 8.2700348641863588 0.056181964500653832
decision_type=2 2 2
left_child=2 -2 -1
right_child=1 -3 -4
leaf_value=-0.00077788482144072258 0.16218077870609221 -0.26784429512780294 0.25275033139591657
leaf_weight=21.998055011557888 2.6909459246526231 4.0353824007070216 2.3515296478290102
leaf_count=899 74 210 40
internal_value=0 -0.0957901 0.0237014
internal_weight=0 6.72633 24.3496
internal_count=1223 284 939
is_linear=0
shrinkage=0.25


Tree=61
num_leaves=4
num_cat=0
split_feature=17 14 24
split_gain=1.08727 3.27035 2.79455
threshold=8.9360929045403662e-05 0.11593148891407946 0.21856613172955255
decision_type=2 2 2
left_child=1 -1 -2
right_child=2 -3 -4
leaf_value=0.041162944452296409 0.074736781970878283 -0.26201271187358766 -0.15672793891255568
leaf_weight=5.9370887547665934 16.766586161686067 3.5549770192883443 4.0467031769949235
leaf_count=398 521 145 159
internal_value=0 -0.0723702 0.0297277
internal_weight=0 9.49207 20.8133
internal_count=1223 543 680
is_linear=0
shrinkage=0.25


Tree=62
num_leaves=4
num_cat=0
split_feature=3 4 13
split_gain=1.24518 1.47973 1.28006
threshold=2.1271033969542223 8.0202286482543688 -8.5187313552491206e-20
decision_type=2 2 2
left_child=2 -2 -1
right_child=1 -3 -4
leaf_value=0.058532949945334513 0.1822466972639272 -0.005497614683616793 -0.26303440140040552
leaf_weight=1.213550031927298 2.9551410642816363 23.391775030064309 2.1320149614184656
leaf_count=46 60 924 193
internal_value=0 0.0155558 -0.146355
internal_weight=0 26.3469 3.34556
internal_count=1223 984 239
is_linear=0
shrinkage=0.25


Tree=63
num_leaves=4
num_cat=0
split_feature=29 27 7
split_gain=0.968783 1.68323 0.719951
threshold=0.10783811710966765 0.010704638928872795 -0.3884145068161024
decision_type=2 2 2
left_child=1 -1 -2
right_child=2 -3 -4
leaf_value=-0.010410388239663261 0.0031558256812522526 0.19469393594887188 -0.27525645577225644
leaf_weight=24.158954914924841 1.0146898074308413 2.7894415377886608 1.3540338803886687
leaf_count=924 25 100 174
internal_value=0 0.0108157 -0.155943
internal_weight=0 26.9484 2.36872
internal_count=1223 1024 199
is_linear=0
shrinkage=0.25


Tree=64
num_leaves=4
num_cat=0
split_feature=21 8 8
split_gain=0.986612 3.94964 2.35685
threshold=7.5223264940229552e-06 -0.22405564085301352 0.46488366154212662
decision_type=2 2 2
left_child=2 -2 -1
right_child=1 -3 -4
leaf_value=0.089344924824538721 -0.27260015483886058 0.029911848487853103 -0.16297492414340115
leaf_weight=12.293624324080158 3.6745335729938242 10.142388681174449 2.8498754276952232
leaf_count=413 226 437 148
internal_value=0 -0.0505309 0.0418527
internal_weight=0 13.8169 15.1435
internal_count=1224 663 561
is_linear=0
shrinkage=0.25


Tree=65
num_leaves=3
num_cat=0
split_feature=7 9
split_gain=0.937095 1.71992
threshold=-0.44401807397073018 -1.4500962580617802
decision_type=2 2
left_child=-1 -2
right_child=1 -3
leaf_value=0.15756022949844986 -0.22825082619680467 0.003536059203319029
leaf_weight=2.1031043727416572 2.1843155981769113 23.80886847783313
leaf_count=25 100 1099
internal_value=0 -0.0159374
internal_weight=0 25.9932
internal_count=1224 1199
is_linear=0
shrinkage=0.25


Tree=66
num_leaves=3
num_cat=0
split_feature=13 20
split_gain=1.15635 1.36064
threshold=-8.5187313552491206e-20 0.026482958141081706
decision_type=2 2
left_child=-1 -2
right_child=1 -3
leaf_value=0.18784120634576318 0.013456565275239231 -0.12667533368879666
leaf_weight=1.8596250658738451 20.427494936870975 5.4953876446343193
leaf_count=54 960 210
internal_value=0 -0.0162454
internal_weight=0 25.9229
internal_count=1224 1170
is_linear=0
shrinkage=0.25


Tree=67
num_leaves=4
num_cat=0
split_feature=3 2 26
split_gain=1.02183 1.08104 0.967677
threshold=2.1271033969542223 -0.00050434636159869979 -0.60038425042810772
decision_type=2 2 2
left_child=1 -1 -2
right_child=2 -3 -4
leaf_value=0.068852738380026909 -0.14290090793445542 -0.26306328490247366 0.029230802042507109
leaf_weight=0.93789212838146374 2.243428635540119 1.7693307154677338 22.632381963423537
leaf_count=42 220 196 766
internal_value=0 -0.14803 0.0137023
internal_weight=0 2.70722 24.8758
internal_count=1224 238 986
is_linear=0
shrinkage=0.25


Tree=68
num_leaves=4
num_cat=0
split_feature=5 6 7
split_gain=1.02172 1.78892 1.04805
threshold=-0.4669772687142299 0.37718650515081048 0.2981278397360651
decision_type=2 2 2
left_child=1 -1 -2
right_child=2 -3 -4
leaf_value=0.11134285069854107 -0.25884031860308032 -0.034133934742112272 0.086661663303703465
leaf_weight=7.7060996463405962 1.8001468815382389 16.800499816610682 0.78871645373328636
leaf_count=173 292 707 51
internal_value=0 0.0116064 -0.153535
internal_weight=0 24.5066 2.58886
internal_count=1223 880 343
is_linear=0
shrinkage=0.25


Tree=69
num_leaves=3
num_cat=0
split_feature=11 13
split_gain=0.862469 1.17303
threshold=0.0052645966204502683 -1.645664011901392e-20
decision_type=2 2
left_child=1 -1
right_child=-2 -3
leaf_value=0.17508025873396668 -0.1206263937297517 -0.0060011000822923211
leaf_weight=2.5068608940418988 3.4365903656434957 20.673580040453089
leaf_count=90 118 1015
internal_value=0 0.0135769
internal_weight=0 23.1804
internal_count=1223 1105
is_linear=0
shrinkage=0.25


Tree=70
num_leaves=4
num_cat=0
split_feature=2 28 8
split_gain=0.910969 2.08748 1.28237
threshold=0.011497233950217076 0.59442140027779178 0.50375690826388697
decision_type=2 2 2
left_child=1 -1 -2
right_child=2 -3 -4
leaf_value=-0.0021332491091463927 -0.011134301984621521 -0.27025897380429265 0.21884509762442284
leaf_weight=18.124226368583557 3.8361484429478869 2.0168356828389724 2.5038406775565818
leaf_count=844 192 134 53
internal_value=0 -0.0289881 0.0796723
internal_weight=0 20.1411 6.33999
internal_count=1223 978 245
is_linear=0
shrinkage=0.25


Tree=71
num_leaves=4
num_cat=0
split_feature=3 4 8
split_gain=1.08113 0.965822 0.435609
threshold=2.1271033969542223 15.70644874247367 -0.33039502246661784
decision_type=2 2 2
left_child=2 -2 -1
right_child=1 -3 -4
leaf_value=-0.020933012560910454 0.070744830347129486 -0.030925090351743338 -0.26001445164259729
leaf_weight=0.7386109072431285 10.156397965738508 13.738300782826625 1.3469913272192595
leaf_count=54 389 596 184
internal_value=0 0.0122846 -0.175401
internal_weight=0 23.8947 2.0856
internal_count=1223 985 238
is_linear=0
shrinkage=0.25


Tree=72
num_leaves=4
num_cat=0
split_feature=1 21 13
split_gain=0.761274 2.51755 2.41254
threshold=-9.6444111024763187e-16 4.1864404668745261e-05 1.9697492011392064e-30
decision_type=2 2 2
left_child=2 -2 -1
right_child=1 -3 -4
leaf_value=0.17259612566203197 0.0041742008835683334 -0.28427920236960075 -0.10697204478647218
leaf_weight=4.8645606046338816 15.50526363689187 2.1536245304851027 3.1966307323878027
leaf_count=106 748 157 213
internal_value=0 -0.030998 0.0617198
internal_weight=0 17.6589 8.06119
internal_count=1224 905 319
is_linear=0
shrinkage=0.25


Tree=73
num_leaves=4
num_cat=0
split_feature=19 22 8
split_gain=0.791146 2.40819 2.09311
threshold=0.015855803949490748 0.0061301194174352433 0.39276818300659894
decision_type=2 2 2
left_child=1 -1 -2
right_child=2 -3 -4
leaf_value=-0.16123408447897469 -0.046859343225157585 0.10536365478817629 0.13483633975440931
leaf_weight=5.6550272053223143 9.2536715550450044 3.3848964351104769 6.9296869449317446
leaf_count=501 381 178 164
internal_value=0 -0.0613965 0.0309351
internal_weight=0 9.03992 16.1834
internal_count=1224 679 545
is_linear=0
shrinkage=0.25


Tree=74
num_leaves=3
num_cat=0
split_feature=28 8
split_gain=0.883109 0.953529
threshold=-1.1858072435947542 -0.72393771893876602
decision_type=2 2
left_child=-1 -2
right_child=1 -3
leaf_value=-0.16925902906781393 0.14223405753220472 -0.0087438908881834459
leaf_weight=1.8300961945824408 3.0136965733199785 19.730600609401336
leaf_count=170 88 966
internal_value=0 0.011256
internal_weight=0 22.7443
internal_count=1224 1054
is_linear=0
shrinkage=0.25


Tree=75
num_leaves=4
num_cat=0
split_feature=27 2 10
split_gain=0.828869 1.92508 1.75598
threshold=0.0033435219863156805 0.011913448954052006 -0.0038021524991882489
decision_type=2 2 2
left_child=2 -2 -1
right_child=1 -3 -4
leaf_value=0.12266657329068635 -0.13096730999852343 0.11426455039509796 -0.050015214093655759
leaf_weight=7.292850621692196 6.7990878521563882 2.8343729881380568 7.4292547914301412
leaf_count=278 554 117 275
internal_value=0 -0.0588024 0.0355176
internal_weight=0 9.63346 14.7221
internal_count=1224 671 553
is_linear=0
shrinkage=0.25


Tree=76
num_leaves=4
num_cat=0
split_feature=20 1 1
split_gain=0.894049 1.74801 1.17825
threshold=-0.00051652100610455321 0.021619656867398827 -9.6444111024763187e-16
decision_type=2 2 2
left_child=1 -1 -2
right_child=2 -3 -4
leaf_value=-0.1642021662414262 0.11320972871513067 0.22781954451031511 -0.020497436869387039
leaf_weight=4.0964088543491952 6.1228086475093759 0.85994512282741187 12.5844939199942
leaf_count=601 155 23 443
internal_value=0 -0.096161 0.0232579
internal_weight=0 4.95635 18.7073
internal_count=1222 624 598
is_linear=0
shrinkage=0.25


Tree=77
num_leaves=3
num_cat=0
split_feature=7 18
split_gain=0.846033 1.0632
threshold=0.42064404245439529 -0.0090436324831674169
decision_type=2 2
left_child=1 -1
right_child=-2 -3
leaf_value=0.045434399453543405 0.15698303306700909 -0.066810223423134918
leaf_weight=9.6302955919431987 1.9262926903920732 11.659043912988864
leaf_count=311 39 872
internal_value=0 -0.0160305
internal_weight=0 21.2893
internal_count=1222 1183
is_linear=0
shrinkage=0.25


Tree=78
num_leaves=3
num_cat=0
split_feature=11 13
split_gain=0.735063 1.02901
threshold=0.0052645966204502683 -1.645664011901392e-20
decision_type=2 2
left_child=1 -1
right_child=-2 -3
leaf_value=0.17413814706339145 -0.11996473584820934 -0.0046320926995748121
leaf_weight=2.2675603292955264 2.8593707883046582 17.872185580123187
leaf_count=89 119 1014
internal_value=0 0.01549
internal_weight=0 20.1397
internal_count=1222 1103
is_linear=0
shrinkage=0.25


Tree=79
num_leaves=4
num_cat=0
split_feature=23 20 12
split_gain=0.644775 0.957985 0.907806
threshold=9.7988946312728865e-07 1.0000000180025095e-35 -2.4514610282734588
decision_type=2 2 2
left_child=2 -2 -1
right_child=1 -3 -4
leaf_value=0.098418251700966464 -0.09588730466569001 0.041370612197144559 -0.21182867783012263
leaf_weight=0.85698937678535037 3.9554009418066043 16.166838349154204 1.8853926484662249
leaf_count=57 418 400 347
internal_value=0 0.0143841 -0.114834
internal_weight=0 20.1222 2.74238
internal_count=1222 818 404
is_linear=0
shrinkage=0.25


Tree=80
num_leaves=3
num_cat=0
split_feature=19 3
split_gain=0.664456 1.05992
threshold=0.00020152779077767518 2.4015775330639682
decision_type=2 2
left_child=-1 -2
right_child=1 -3
leaf_value=0.14413536499758453 -0.17510501549726609 0.0068194342816593912
leaf_weight=1.8376187382436935 2.2414805560372342 18.693002780235474
leaf_count=80 269 876
internal_value=0 -0.0126538
internal_weight=0 20.9345
internal_count=1225 1145
is_linear=0
shrinkage=0.25


Tree=81
num_leaves=3
num_cat=0
split_feature=14 26
split_gain=0.625121 1.39705
threshold=-1.5874525604136036 -0.4374481115139226
decision_type=2 2
left_child=-1 -2
right_child=1 -3
leaf_value=0.13387737785373111 -0.21926010527639936 0.0074542978764334219
leaf_weight=1.9799287838654915 1.8692948723469296 18.614252871109784
leaf_count=119 307 799
internal_value=0 -0.0132295
internal_weight=0 20.4835
internal_count=1225 1106
is_linear=0
shrinkage=0.25


Tree=82
num_leaves=4
num_cat=0
split_feature=29 29 16
split_gain=0.626539 0.838297 0.615666
threshold=0.10783811710966765 0.0070359246192654868 -0.00024932205951833092
decision_type=2 2 2
left_child=1 -1 -2
right_child=2 -3 -4
leaf_value=-0.039712108589718506 -0.27498688410735145 0.061647074803762601 0.020408867466130073
leaf_weight=10.02259727754336 0.98449678352778847 10.381749060632499 0.79748454003129043
leaf_count=551 94 475 105
internal_value=0 0.0118537 -0.142723
internal_weight=0 20.4043 1.78198
internal_count=1225 1026 199
is_linear=0
shrinkage=0.25


Tree=83
num_leaves=4
num_cat=0
split_feature=5 13 5
split_gain=0.592931 0.993685 0.70026
threshold=-0.4669772687142299 -8.5187313554734626e-20 -0.48264060634239303
decision_type=2 2 2
left_child=2 -2 -1
right_child=1 -3 -4
leaf_value=-0.013299620013624875 0.19456499286137016 -0.22769281963398552 0.098299323921555451
leaf_weight=15.413552857866311 0.45095400413265441 1.5269946698855381 4.5515475717147647
leaf_count=801 13 331 80
internal_value=0 -0.131362 0.0121362
internal_weight=0 1.97795 19.9651
internal_count=1225 344 881
is_linear=0
shrinkage=0.25


Tree=84
num_leaves=4
num_cat=0
split_feature=13 5 9
split_gain=0.62694 1.72908 0.996002
threshold=3.2210563363903842e-30 -0.572022109009929 -0.97277435797812217
decision_type=2 2 2
left_child=2 -2 -1
right_child=1 -3 -4
leaf_value=0.13944393925101894 -0.23155182254855128 0.017433681096420135 -0.013252821997457181
leaf_weight=3.7522302057823245 2.4881140949873952 5.8200668976506886 9.2511955060535929
leaf_count=144 214 431 428
internal_value=0 -0.0571176 0.0307998
internal_weight=0 8.30818 13.0034
internal_count=1217 645 572
is_linear=0
shrinkage=0.25


Tree=85
num_leaves=4
num_cat=0
split_feature=24 21 21
split_gain=0.656027 2.14686 2.10708
threshold=-0.30519704169121264 2.1703382536166116e-05 2.648003545124185e-05
decision_type=2 2 2
left_child=1 -1 -2
right_child=2 -3 -4
leaf_value=-0.067755923106693136 0.01034367627140583 0.25779224692728092 -0.24358111214474407
leaf_weight=2.9003111650951068 13.353452235934581 2.2463535009950419 2.4111054881195733
leaf_count=258 620 102 237
internal_value=0 0.0743123 -0.0284852
internal_weight=0 5.14666 15.7646
internal_count=1217 360 857
is_linear=0
shrinkage=0.25


end of trees

feature_importances:
PSD=23
MC100=23
CorrDim_8_Variance=17
PSD_8_dyn=13
Price_MS100=11
Price_MS100_8_dyn=11
ACF_1=10
ACF_1_8_Variance=10
Price_MK100_8_Variance=10
Lyapunov=9
Skewness=8
Price_MK100=8
Lyapunov_8_dyn=8
Skewness_8_dyn=8
Kurtosis_8_Variance=7
Price_MS100_8_Variance=7
CorrDim=6
MC100_8_dyn=5
Price_MK100_8_dyn=5
Kurtosis_8_dyn=4
PSD_8_Variance=4
Kurtosis=3
CorrDim_8_dyn=3
Skewness_8_Variance=3
ACF_1_8_dyn=3
Hurst_8_Variance=2
Hurst_8_dyn=1
MC100_8_Variance=1

parameters:
[boosting: gbdt]
[objective: binary]
[metric: auc]
[tree_learner: serial]
[device_type: cpu]
[data_sample_strategy: bagging]
[data: ]
[valid: ]
[num_iterations: 500]
[learning_rate: 0.25]
[num_leaves: 5]
[num_threads: 0]
[seed: 2025]
[deterministic: 0]
[force_col_wise: 0]
[force_row_wise: 0]
[histogram_pool_size: -1]
[max_depth: 2]
[min_data_in_leaf: 89]
[min_sum_hessian_in_leaf: 0.001]
[bagging_fraction: 0.994539]
[pos_bagging_fraction: 1]
[neg_bagging_fraction: 1]
[bagging_freq: 4]
[bagging_seed: 15290]
[feature_fraction: 0.594546]
[feature_fraction_bynode: 1]
[feature_fraction_seed: 4631]
[extra_trees: 0]
[extra_seed: 801]
[early_stopping_round: 0]
[early_stopping_min_delta: 0]
[first_metric_only: 0]
[max_delta_step: 0]
[lambda_l1: 0.000475207]
[lambda_l2: 2.47005e-07]
[linear_lambda: 0]
[min_gain_to_split: 0.284154]
[drop_rate: 0.1]
[max_drop: 50]
[skip_drop: 0.5]
[xgboost_dart_mode: 0]
[uniform_drop: 0]
[drop_seed: 20313]
[top_rate: 0.2]
[other_rate: 0.1]
[min_data_per_group: 100]
[max_cat_threshold: 32]
[cat_l2: 10]
[cat_smooth: 10]
[max_cat_to_onehot: 4]
[top_k: 20]
[monotone_constraints: ]
[monotone_constraints_method: basic]
[monotone_penalty: 0]
[feature_contri: ]
[forcedsplits_filename: ]
[refit_decay_rate: 0.9]
[cegb_tradeoff: 1]
[cegb_penalty_split: 0]
[cegb_penalty_feature_lazy: ]
[cegb_penalty_feature_coupled: ]
[path_smooth: 0]
[interaction_constraints: ]
[verbosity: -1]
[saved_feature_importance_type: 0]
[use_quantized_grad: 0]
[num_grad_quant_bins: 4]
[quant_train_renew_leaf: 0]
[stochastic_rounding: 1]
[linear_tree: 0]
[max_bin: 261]
[max_bin_by_feature: ]
[min_data_in_bin: 3]
[bin_construct_sample_cnt: 200000]
[data_random_seed: 6651]
[is_enable_sparse: 1]
[enable_bundle: 1]
[use_missing: 1]
[zero_as_missing: 0]
[feature_pre_filter: 1]
[pre_partition: 0]
[two_round: 0]
[header: 0]
[label_column: ]
[weight_column: ]
[group_column: ]
[ignore_column: ]
[categorical_feature: ]
[forcedbins_filename: ]
[precise_float_parser: 0]
[parser_config_file: ]
[objective_seed: 22652]
[num_class: 1]
[is_unbalance: 0]
[scale_pos_weight: 1]
[sigmoid: 1]
[boost_from_average: 1]
[reg_sqrt: 0]
[alpha: 0.9]
[fair_c: 1]
[poisson_max_delta_step: 0.7]
[tweedie_variance_power: 1.5]
[lambdarank_truncation_level: 30]
[lambdarank_norm: 1]
[label_gain: ]
[lambdarank_position_bias_regularization: 0]
[eval_at: ]
[multi_error_top_k: 1]
[auc_mu_weights: ]
[num_machines: 1]
[local_listen_port: 12400]
[time_out: 120]
[machine_list_filename: ]
[machines: ]
[gpu_platform_id: -1]
[gpu_device_id: -1]
[gpu_use_dp: 0]
[num_gpu: 1]

end of parameters

pandas_categorical:[]
