tree
version=v4
num_class=1
num_tree_per_iteration=1
label_index=0
max_feature_idx=29
objective=binary sigmoid:1
feature_names=Hurst CorrDim Lyapunov Skewness Kurtosis PSD ACF_1 WL_C1 WL_C2 WL_C3 Hurst_8_dyn Hurst_8_Variance CorrDim_8_dyn CorrDim_8_Variance Lyapunov_8_dyn Lyapunov_8_Variance Skewness_8_dyn Skewness_8_Variance Kurtosis_8_dyn Kurtosis_8_Variance PSD_8_dyn PSD_8_Variance ACF_1_8_dyn ACF_1_8_Variance WL_C1_8_dyn WL_C1_8_Variance WL_C2_8_dyn WL_C2_8_Variance WL_C3_8_dyn WL_C3_8_Variance
feature_infos=[0.30183847753592641:0.89668276364793753] [-2.6098095680457785e-14:4.2082952194102781] [-0.035526950234941394:0.10894363576715593] [1.0746981580163106:19.527069835438624] [1.0292909962264827:413.1585127609988] [-1.7463013834431733:0.092522397167742285] [0.0058888400435081929:0.81195846394177895] [0.090098105339279838:1.0401860401355556] [-0.48808430377289974:0.5742397701507338] [-0.76732477440323243:0.47490625175408102] [-0.45722108727757105:0.7958636096817866] [8.3445911387526112e-06:0.027422513896320104] [-4235898106308715.5:5744017969152434] [-2.6040757413917245e-17:3.6930063847808037] [-9741.9359764501714:520.98169166222851] [4.4889894913329835e-10:0.0037845292180417531] [-0.79928024546459719:9.9736225972543515] [2.1649379320578355e-07:55.803768466613228] [-0.95405149161407321:174.6470997075001] [3.997360349782318e-06:28787.608557936295] [-2.1210386912923536:9.3295326401670522] [1.0890955382506159e-09:0.0028919205525761507] [-0.85170106692068992:1.657334090315767] [1.0134731992562541e-08:0.027866536360658296] [-0.38346824783826206:0.45303908350655098] [9.1813290687093838e-06:0.014594755204566351] [-966.96090252646047:869.58971405337809] [8.8940546337554341e-07:0.027789094878293032] [-2723.7148534518074:322.07482126709533] [3.8213152441617489e-07:0.060146825321515593]
tree_sizes=556 560 564 564 558 564 566 567 564 564 568 459 562 570 566 566 570 566 568 457 568 457 460 461 458 568 556 563 562 457 566 562 563 567 569 564 567 456 567 565

Tree=0
num_leaves=4
num_cat=0
split_feature=16 4 23
split_gain=5293.11 481.686 392.224
threshold=0.14468100681608656 27.711627029649765 0.00032161605724626241
decision_type=2 2 2
left_child=2 -2 -1
right_child=1 -3 -4
leaf_value=-3.0772033328341029 -1.0702160765650193 1.4112560403605046 -1.6566983207702541
leaf_weight=602.27368781715631 6.789785876870158 17.466478161513805 12.398739427328108
leaf_count=12241 138 355 252
internal_value=-2.90526 0.71665 -3.04855
internal_weight=0 24.2563 614.672
internal_count=12986 493 12493
is_linear=0
shrinkage=1


Tree=1
num_leaves=4
num_cat=0
split_feature=17 18 3
split_gain=282.296 64.3677 38.4803
threshold=0.0038622242099544558 -0.019299461231185363 2.6901354160810391
decision_type=2 2 2
left_child=1 -1 -2
right_child=2 -3 -4
leaf_value=0.022671033132437571 -0.12732588609290646 -0.21622687072209151 0.28630998088446369
leaf_weight=84.900831758975983 16.004098821431398 415.24101264029741 115.49596101790667
leaf_count=1961 171 9790 1064
internal_value=0 -0.175673 0.235968
internal_weight=0 500.142 131.5
internal_count=12986 11751 1235
is_linear=0
shrinkage=0.25


Tree=2
num_leaves=4
num_cat=0
split_feature=17 22 17
split_gain=191.167 53.6126 8.20485
threshold=0.001417397105552278 0.01608235941685077 0.00014102117593636806
decision_type=2 2 2
left_child=2 -2 -1
right_child=1 -3 -4
leaf_value=-0.20195182968571793 0.023984061072468213 0.31428701815712706 -0.12829634865005196
leaf_weight=243.12598896026611 92.583846386522055 69.687665954232216 154.66899620369077
leaf_count=6923 1221 711 4131
internal_value=0 0.148656 -0.173314
internal_weight=0 162.272 397.795
internal_count=12986 1932 11054
is_linear=0
shrinkage=0.25


Tree=3
num_leaves=4
num_cat=0
split_feature=17 20 5
split_gain=124.212 30.6049 7.86257
threshold=0.0013456472281317127 -0.0063062625641093209 -0.16938236022006034
decision_type=2 2 2
left_child=2 -2 -1
right_child=1 -3 -4
leaf_value=-0.16216793426995599 0.2166450015395078 0.0055352878540315597 0.16104852227853672
leaf_weight=332.19680587016046 79.858508683741093 92.790345184504986 4.7710871174931517
leaf_count=10846 886 1096 158
internal_value=0 0.103185 -0.157591
internal_weight=0 172.649 336.968
internal_count=12986 1982 11004
is_linear=0
shrinkage=0.25


Tree=4
num_leaves=4
num_cat=0
split_feature=18 3 23
split_gain=91.1903 87.5489 66.5997
threshold=-0.035815627986436775 4.6795421617350508 0.00010719442146183635
decision_type=2 2 2
left_child=1 -1 -2
right_child=2 -3 -4
leaf_value=0.051434575123499804 -0.16759962098918721 0.69985671456790211 0.076517761151890878
leaf_weight=65.424711367115378 297.0599158257246 16.245835348963737 91.319729343056679
leaf_count=1236 10828 184 745
internal_value=0 0.18042 -0.1102
internal_weight=0 81.6705 388.38
internal_count=12993 1420 11573
is_linear=0
shrinkage=0.25


Tree=5
num_leaves=4
num_cat=0
split_feature=23 16 7
split_gain=57.1795 41.883 25.8001
threshold=2.3453515313918494e-05 -0.008703320483622488 0.46541318295153106
decision_type=2 2 2
left_child=1 -1 -2
right_child=2 -3 -4
leaf_value=0.046710686794161987 0.010257435972271307 -0.18146569742489066 0.24685926536104474
leaf_weight=67.157463127747178 133.95669110678136 200.02760697901249 36.695903658866882
leaf_count=1994 1653 8955 391
internal_value=0 -0.124113 0.0611353
internal_weight=0 267.185 170.653
internal_count=12993 10949 2044
is_linear=0
shrinkage=0.25


Tree=6
num_leaves=4
num_cat=0
split_feature=23 2 20
split_gain=37.1731 24.8888 7.53872
threshold=2.3453515313918494e-05 0.0051158168440691336 -0.045461164043356699
decision_type=2 2 2
left_child=2 -2 -1
right_child=1 -3 -4
leaf_value=0.019598989878390875 -0.057641103672777409 0.13197261790365394 -0.1231080187660398
leaf_weight=25.963767053559422 80.381960907950997 93.698483245447278 212.31759257428348
leaf_count=1084 1109 935 9865
internal_value=0 0.0444175 -0.107558
internal_weight=0 174.08 238.281
internal_count=12993 2044 10949
is_linear=0
shrinkage=0.25


Tree=7
num_leaves=4
num_cat=0
split_feature=18 17 21
split_gain=39.8916 26.6061 17.2552
threshold=-0.019299461231185363 0.0079256152357856987 0.00017345875153593017
decision_type=2 2 2
left_child=2 -2 -1
right_child=1 -3 -4
leaf_value=0.058968713106977669 -0.14292787708071061 0.027334402220182397 0.45056534974244539
leaf_weight=114.03975012898445 183.39252951182425 83.468557465821505 7.4950288385152808
leaf_count=2236 9934 673 150
internal_value=0 -0.089673 0.0831194
internal_weight=0 266.861 121.535
internal_count=12993 10607 2386
is_linear=0
shrinkage=0.25


Tree=8
num_leaves=4
num_cat=0
split_feature=18 22 20
split_gain=24.2776 28.9886 18.4826
threshold=-0.013679773779528946 0.041003228210123817 -0.037706575955452175
decision_type=2 2 2
left_child=2 -2 -1
right_child=1 -3 -4
leaf_value=0.23614172565998623 -0.11826451588843681 0.11445410244802522 0.008315291058264734
leaf_weight=27.824038870632648 193.39146474935114 40.450716348364949 111.20630299672484
leaf_count=452 9657 417 2472
internal_value=0 -0.0780076 0.0539109
internal_weight=0 233.842 139.03
internal_count=12998 10074 2924
is_linear=0
shrinkage=0.25


Tree=9
num_leaves=4
num_cat=0
split_feature=18 17 4
split_gain=14.9401 21.3122 12.6428
threshold=-0.0084293504243144728 0.0095056320169024464 32.181028685109773
decision_type=2 2 2
left_child=2 -2 -1
right_child=1 -3 -4
leaf_value=-0.0073824691703429464 -0.1308940038001237 0.033027155396473946 0.15386111910836875
leaf_weight=114.53472466766834 127.03298485744745 81.294854516163468 41.368909453041852
leaf_count=3091 8631 647 629
internal_value=0 -0.0669272 0.0354026
internal_weight=0 208.328 155.904
internal_count=12998 9278 3720
is_linear=0
shrinkage=0.25


Tree=10
num_leaves=4
num_cat=0
split_feature=20 4 13
split_gain=14.5693 16.6375 8.98619
threshold=-0.0030410616882154957 8.4892352258355608 -1.4520564814002707e-20
decision_type=2 2 2
left_child=1 -1 -2
right_child=2 -3 -4
leaf_value=-0.13243703835144155 0.35297531628110407 0.068502273003319736 -0.076789757527352703
leaf_weight=31.393909472972155 3.0947122536599627 143.33851361367851 174.38873289711773
leaf_count=1519 150 4410 6919
internal_value=0 0.0323991 -0.0692954
internal_weight=0 174.732 177.483
internal_count=12998 5929 7069
is_linear=0
shrinkage=0.25


Tree=11
num_leaves=3
num_cat=0
split_feature=22 18
split_gain=11.2103 11.2466
threshold=0.49711769095882247 -0.0084293504243144728
decision_type=2 2
left_child=1 -1
right_child=-2 -3
leaf_value=0.028458812260034518 0.29652565204388343 -0.062972487416039419
leaf_weight=153.83508649468422 7.071120608597993 185.43985230103135
leaf_count=3710 48 9240
internal_value=0 -0.0215151
internal_weight=0 339.275
internal_count=12998 12950
is_linear=0
shrinkage=0.25


Tree=12
num_leaves=4
num_cat=0
split_feature=28 14 4
split_gain=11.6645 12.1711 5.07078
threshold=-0.045873147208908442 -1.6474736204483016 7.0728402047181467
decision_type=2 2 2
left_child=2 -2 -1
right_child=1 -3 -4
leaf_value=-0.18607639081161731 0.17976380540595233 0.0011360352147679511 -0.048648671651500074
leaf_weight=19.316061019897461 27.77148746047169 168.42451024241745 127.88581954874098
leaf_count=1095 893 6515 4488
internal_value=0 0.0264214 -0.066683
internal_weight=0 196.196 147.202
internal_count=12991 7408 5583
is_linear=0
shrinkage=0.25


Tree=13
num_leaves=4
num_cat=0
split_feature=1 23 16
split_gain=10.5887 13.3453 10.7888
threshold=2.1113167326366626e-15 1.7193663191682329e-05 -0.10344123622180444
decision_type=2 2 2
left_child=2 -2 -1
right_child=1 -3 -4
leaf_value=-0.23721268843298149 -0.052060152159725065 0.14372580509814345 -0.023636824977104252
leaf_weight=15.78158315643668 37.034376219380647 52.752736664842814 233.56717397645116
leaf_count=125 2280 559 10027
internal_value=0 0.0629689 -0.0371548
internal_weight=0 89.7871 249.349
internal_count=12991 2839 10152
is_linear=0
shrinkage=0.25


Tree=14
num_leaves=4
num_cat=0
split_feature=5 17 21
split_gain=8.99345 8.68078 5.64697
threshold=-0.82226857305051004 4.3667879240557118e-05 0.0001583254623563266
decision_type=2 2 2
left_child=2 -2 -1
right_child=1 -3 -4
leaf_value=-0.14333306055900935 -0.10977143124158176 0.023205771667619193 0.19585737885005519
leaf_weight=38.729597821366042 34.87166957417503 255.36959194438532 3.3312696916982523
leaf_count=1677 3360 7856 98
internal_value=0 0.00722853 -0.116466
internal_weight=0 290.241 42.0609
internal_count=12991 11216 1775
is_linear=0
shrinkage=0.25


Tree=15
num_leaves=4
num_cat=0
split_feature=24 23 19
split_gain=9.14072 7.94822 4.34749
threshold=0.061714163435631082 2.0368594471902523e-05 221.53716944980235
decision_type=2 2 2
left_child=1 -1 -2
right_child=2 -3 -4
leaf_value=-0.034075505315014569 -0.13497505014552877 0.049400679668823395 0.18144130586864629
leaf_weight=136.69981218827888 40.443034292664379 148.98471072129905 2.9088507555425158
leaf_count=9269 1808 1883 31
internal_value=0 0.00945698 -0.113741
internal_weight=0 285.685 43.3519
internal_count=12991 11152 1839
is_linear=0
shrinkage=0.25


Tree=16
num_leaves=4
num_cat=0
split_feature=20 28 20
split_gain=8.25328 8.48151 8.02707
threshold=-0.0030410616882154957 -0.050192094464286623 0.081463539338366045
decision_type=2 2 2
left_child=1 -1 -2
right_child=2 -3 -4
leaf_value=-0.032826955792303256 -0.060910045371208393 0.082458439210677248 0.14701732888409699
leaf_weight=67.121770809870213 145.00396459363401 98.285126108210534 12.613296651747076
leaf_count=2447 6570 3487 497
internal_value=0 0.0356752 -0.0442699
internal_weight=0 165.407 157.617
internal_count=13001 5934 7067
is_linear=0
shrinkage=0.25


Tree=17
num_leaves=4
num_cat=0
split_feature=13 15 10
split_gain=8.91575 12.9722 9.27901
threshold=-3.1461223754688599e-20 4.0015975124305445e-06 0.33931496608257777
decision_type=2 2 2
left_child=1 -1 -2
right_child=2 -3 -4
leaf_value=-0.11008872981323092 -0.013711834195806679 0.63650555736216541 0.34532305754251857
leaf_weight=2.634133481886237 311.89094840083271 3.2474752152338624 4.5647473176941267
leaf_count=111 12604 97 189
internal_value=0 0.302116 -0.00853252
internal_weight=0 5.88161 316.456
internal_count=13001 208 12793
is_linear=0
shrinkage=0.25


Tree=18
num_leaves=4
num_cat=0
split_feature=24 26 18
split_gain=7.69425 10.3139 8.18644
threshold=-0.007028174617659976 0.090857444068056417 -0.013679773779528946
decision_type=2 2 2
left_child=1 -1 -2
right_child=2 -3 -4
leaf_value=0.075083539600332289 0.0259029813562359 -0.070368663372086471 -0.087298756907515956
leaf_weight=116.11757634254172 68.17044112412259 41.307936887256801 96.367533419746906
leaf_count=4479 1474 1329 5719
internal_value=0 0.0369166 -0.0403969
internal_weight=0 157.426 164.538
internal_count=13001 5808 7193
is_linear=0
shrinkage=0.25


Tree=19
num_leaves=3
num_cat=0
split_feature=16 22
split_gain=7.90297 9.51514
threshold=-0.3077443161053951 0.22499609603534634
decision_type=2 2
left_child=-1 -2
right_child=1 -3
leaf_value=-0.26589126379028105 -0.0076994150045421317 0.17145163750763487
leaf_weight=6.9550782181322566 295.83897619880736 19.767236184328794
leaf_count=51 12813 137
internal_value=0 0.0035209
internal_weight=0 315.606
internal_count=13001 12950
is_linear=0
shrinkage=0.25


Tree=20
num_leaves=4
num_cat=0
split_feature=1 20 27
split_gain=7.46295 7.66318 7.37048
threshold=1.898814460065463e-15 -0.089829658382841335 8.2606778158902008e-05
decision_type=2 2 2
left_child=1 -1 -2
right_child=2 -3 -4
leaf_value=-0.27801773612937319 0.31886199614160782 -0.019487335464461786 0.037278737137879693
leaf_weight=7.4101813687011591 6.2238624617457381 217.39521821914241 87.368272404186428
leaf_count=193 211 9609 2977
internal_value=0 -0.0280097 0.0560053
internal_weight=0 224.805 93.5921
internal_count=12990 9802 3188
is_linear=0
shrinkage=0.25


Tree=21
num_leaves=3
num_cat=0
split_feature=16 22
split_gain=7.0772 7.67563
threshold=1.7151783127636275 -0.16427001757704776
decision_type=2 2
left_child=1 -1
right_child=-2 -3
leaf_value=-0.19792262084914722 0.17335345558218321 -0.0022395458323261124
leaf_weight=13.093621111474929 13.646458080038427 290.1409690589644
leaf_count=119 149 12722
internal_value=0 -0.0106895
internal_weight=0 303.235
internal_count=12990 12841
is_linear=0
shrinkage=0.25


Tree=22
num_leaves=3
num_cat=0
split_feature=7 20
split_gain=6.29207 6.24828
threshold=0.17773087605163634 0.0077381709710333544
decision_type=2 2
left_child=-1 -2
right_child=1 -3
leaf_value=-0.28159791233117515 0.029067622510376236 -0.044899648950309054
leaf_weight=4.9486501803621641 199.02328503876925 111.29051139531657
leaf_count=150 7683 5157
internal_value=0 0.00253972
internal_weight=0 310.314
internal_count=12990 12840
is_linear=0
shrinkage=0.25


Tree=23
num_leaves=3
num_cat=0
split_feature=16 18
split_gain=5.80323 11.3182
threshold=-0.10344123622180444 -0.091275957389076054
decision_type=2 2
left_child=-1 -2
right_child=1 -3
leaf_value=-0.14107135759930359 0.15080958485399643 -0.0098820127557312509
leaf_weight=17.610442668199539 30.533100754022598 266.53735720319673
leaf_count=153 303 12534
internal_value=0 0.00663358
internal_weight=0 297.07
internal_count=12990 12837
is_linear=0
shrinkage=0.25


Tree=24
num_leaves=3
num_cat=0
split_feature=1 16
split_gain=5.91788 5.43051
threshold=0.078852081965611706 -0.10344123622180444
decision_type=2 2
left_child=1 -1
right_child=-2 -3
leaf_value=-0.15217862168531418 0.26858857777153916 0.0014684221892158134
leaf_weight=15.111309996806083 4.9842029162682584 295.89343123580329
leaf_count=147 99 12765
internal_value=0 -0.0059967
internal_weight=0 311.005
internal_count=13011 12912
is_linear=0
shrinkage=0.25


Tree=25
num_leaves=4
num_cat=0
split_feature=24 17 19
split_gain=5.01713 6.69709 4.8822
threshold=0.067795388522259761 4.5529955718383337e-05 0.0009406632986802677
decision_type=2 2 2
left_child=1 -1 -2
right_child=2 -3 -4
leaf_value=-0.10009215440529848 0.30724887514177929 0.022889127215576538 -0.11771467163006907
leaf_weight=31.096769250230864 1.7878121025860298 251.49883344443515 30.72640958847478
leaf_count=3552 260 7819 1380
internal_value=0 0.00935587 -0.0943442
internal_weight=0 282.596 32.5142
internal_count=13011 11371 1640
is_linear=0
shrinkage=0.25


Tree=26
num_leaves=4
num_cat=0
split_feature=28 16 7
split_gain=5.565 8.10548 6.24967
threshold=-3.6774121997390377 1.7151783127636275 0.30309247746231421
decision_type=2 2 2
left_child=2 -2 -1
right_child=1 -3 -4
leaf_value=-0.6206015754577433 -0.005174106756751673 0.21120277403116239 -0.024517390161436947
leaf_weight=1.9088600515387941 297.9539302138146 11.227974543347953 2.5931471437215805
leaf_count=66 12665 143 137
internal_value=0 0.00268326 -0.277285
internal_weight=0 309.182 4.50201
internal_count=13011 12808 203
is_linear=0
shrinkage=0.25


Tree=27
num_leaves=4
num_cat=0
split_feature=14 26 18
split_gain=5.10621 9.43468 5.5058
threshold=-8.8038487929072957 -0.081149661551316851 -0.0084293504243144728
decision_type=2 2 2
left_child=1 -1 -2
right_child=2 -3 -4
leaf_value=-0.17462610439287934 0.027923294460068776 0.34698383048337422 -0.039743643151550129
leaf_weight=3.2215142194181681 146.72345177736133 6.6213349280878884 154.06703876401298
leaf_count=83 3664 171 9093
internal_value=0 0.176251 -0.0067358
internal_weight=0 9.84285 300.79
internal_count=13011 254 12757
is_linear=0
shrinkage=0.25


Tree=28
num_leaves=4
num_cat=0
split_feature=5 5 6
split_gain=5.01051 13.5245 7.47569
threshold=-0.77909119126438953 -0.73657015537285775 0.51221483885298003
decision_type=2 2 2
left_child=2 -2 -1
right_child=1 -3 -4
leaf_value=-0.19205111462880201 0.22533760465001151 -0.0017930709063600715 0.0038349497008433276
leaf_weight=19.847821220755577 17.576006600167602 241.82288280548528 31.5012547604274
leaf_count=818 809 9705 1664
internal_value=0 0.0135961 -0.0718781
internal_weight=0 259.399 51.3491
internal_count=12996 10514 2482
is_linear=0
shrinkage=0.25


Tree=29
num_leaves=3
num_cat=0
split_feature=7 22
split_gain=4.54563 5.98612
threshold=0.17773087605163634 0.31105595558622184
decision_type=2 2
left_child=-1 -2
right_child=1 -3
leaf_value=-0.26017010949873542 -0.0043347162931994653 0.17405918895623315
leaf_weight=4.1649520134087643 295.26503955968656 12.243615812622009
leaf_count=153 12749 94
internal_value=0 0.00276774
internal_weight=0 307.509
internal_count=12996 12843
is_linear=0
shrinkage=0.25


Tree=30
num_leaves=4
num_cat=0
split_feature=24 24 12
split_gain=4.36982 7.22338 7.11369
threshold=-0.087765125788282369 -0.0074331495405501871 0.86272526599393939
decision_type=2 2 2
left_child=2 -2 -1
right_child=1 -3 -4
leaf_value=-0.157338276551276 0.052223998760952878 -0.027927210619914305 0.18488991553188214
leaf_weight=21.833682299824435 128.68873036839068 154.81765417102724 4.5947925816290072
leaf_count=819 4797 7236 144
internal_value=0 0.00845447 -0.0978348
internal_weight=0 283.506 26.4285
internal_count=12996 12033 963
is_linear=0
shrinkage=0.25


Tree=31
num_leaves=4
num_cat=0
split_feature=20 3 3
split_gain=4.41113 13.6792 8.48151
threshold=0.0077381709710333544 2.3713442943959042 2.1473877767165765
decision_type=2 2 2
left_child=2 -2 -1
right_child=1 -3 -4
leaf_value=-0.13080171663981072 0.14815540817112241 -0.083318989976491023 0.038408586738632212
leaf_weight=20.622537915594876 19.471467629307881 88.384763780515641 181.05685144546442
leaf_count=1321 1385 3831 6459
internal_value=0 -0.0415294 0.0211056
internal_weight=0 107.856 201.679
internal_count=12996 5216 7780
is_linear=0
shrinkage=0.25


Tree=32
num_leaves=4
num_cat=0
split_feature=10 20 11
split_gain=4.61549 9.76488 9.2589
threshold=0.040964957093712513 0.073454885957677921 0.0036010766403799252
decision_type=2 2 2
left_child=2 -2 -1
right_child=1 -3 -4
leaf_value=0.038599168950114733 -0.060998879259338293 0.30657334301433292 -0.14004067599963899
leaf_weight=188.43224389897659 96.14939974877052 4.739710653666406 20.064225136535242
leaf_count=7796 4043 216 945
internal_value=0 -0.0437294 0.0214076
internal_weight=0 100.889 208.496
internal_count=13000 4259 8741
is_linear=0
shrinkage=0.25


Tree=33
num_leaves=4
num_cat=0
split_feature=13 7 13
split_gain=4.75212 11.3442 4.78169
threshold=-3.1461223754688599e-20 0.40142740314316711 5.3746603780299512e-31
decision_type=2 2 2
left_child=1 -1 -2
right_child=2 -3 -4
leaf_value=-0.083150670552914654 -0.2117255371951611 0.57725500134507235 -4.1297405746482671e-05
leaf_weight=3.663662315811961 6.8229681346565476 2.9220869834534824 296.30441301071551
leaf_count=99 410 110 12381
internal_value=0 0.209852 -0.0048064
internal_weight=0 6.58575 303.127
internal_count=13000 209 12791
is_linear=0
shrinkage=0.25


Tree=34
num_leaves=4
num_cat=0
split_feature=27 2 11
split_gain=4.10848 11.2554 5.15706
threshold=0.00011124153950072072 0.0083192954725909481 6.5714381834200802e-05
decision_type=2 2 2
left_child=1 -1 -2
right_child=2 -3 -4
leaf_value=0.0043112492252821459 0.35147189688014069 0.3232148398664314 -0.015059555612755474
leaf_weight=31.929993445985019 2.4209010126069179 8.8301781844347698 266.92315715784207
leaf_count=1568 86 259 11087
internal_value=0 0.0734006 -0.0117647
internal_weight=0 40.7602 269.344
internal_count=13000 1827 11173
is_linear=0
shrinkage=0.25


Tree=35
num_leaves=4
num_cat=0
split_feature=28 5 28
split_gain=4.35486 7.65922 5.0705
threshold=-0.045873147208908442 -0.16938236022006034 -0.13471560925584317
decision_type=2 2 2
left_child=2 -2 -1
right_child=1 -3 -4
leaf_value=-0.002591128373094023 0.016897331879857369 0.3933071634489238 -0.11106256364460797
leaf_weight=86.195083862286992 180.10170929529704 3.4432819867506614 39.176913837902248
leaf_count=3953 7296 112 1639
internal_value=0 0.0239594 -0.0364878
internal_weight=0 183.545 125.372
internal_count=13000 7408 5592
is_linear=0
shrinkage=0.25


Tree=36
num_leaves=4
num_cat=0
split_feature=6 18 27
split_gain=4.38406 10.3349 10.1042
threshold=0.32650603725843891 -0.10045152013843366 0.00056961166108987959
decision_type=2 2 2
left_child=1 -1 -2
right_child=2 -3 -4
leaf_value=0.19678537503225821 0.067095491707145433 -0.083146751669837926 -0.037969818099512199
leaf_weight=9.3174477312713844 119.67543189134449 71.463270643027499 109.60223658126779
leaf_count=84 5203 2855 4860
internal_value=0 -0.0508572 0.0168703
internal_weight=0 80.7807 229.278
internal_count=13002 2939 10063
is_linear=0
shrinkage=0.25


Tree=37
num_leaves=3
num_cat=0
split_feature=8 8
split_gain=3.95771 4.04619
threshold=-0.22239125444936803 -0.15661756557189827
decision_type=2 2
left_child=-1 -2
right_child=1 -3
leaf_value=-0.23784148742073555 0.12556183615679165 -0.004267312155441183
leaf_weight=4.3446638002060345 15.822608763584865 289.6719144663075
leaf_count=153 558 12291
internal_value=0 0.0024566
internal_weight=0 305.495
internal_count=13002 12849
is_linear=0
shrinkage=0.25


Tree=38
num_leaves=4
num_cat=0
split_feature=16 29 18
split_gain=4.08203 16.141 8.27595
threshold=-0.06320052405835129 0.00091093553638438892 -0.091275957389076054
decision_type=2 2 2
left_child=1 -1 -2
right_child=2 -3 -4
leaf_value=-0.24161015777070166 0.15515713329993466 0.14899382258834312 -0.0042587729563813674
leaf_weight=17.250044485554103 22.086088655516505 10.721449594944714 259.40717626421247
leaf_count=188 211 65 12538
internal_value=0 -0.0918877 0.00824865
internal_weight=0 27.9715 281.493
internal_count=13002 253 12749
is_linear=0
shrinkage=0.25


Tree=39
num_leaves=4
num_cat=0
split_feature=14 23 14
split_gain=3.94397 7.22024 4.45002
threshold=4.9914015940273577 2.0368594471902523e-05 -1.1420906806369078
decision_type=2 2 2
left_child=2 -2 -1
right_child=1 -3 -4
leaf_value=0.050457558934025447 -0.14110663506173696 0.17660744239370654 -0.025546345945965859
leaf_weight=61.385915930382907 5.9688286371529129 17.80574156716466 223.24067823227961
leaf_count=2236 404 194 10168
internal_value=0 0.0968373 -0.00915403
internal_weight=0 23.7746 284.627
internal_count=13002 598 12404
is_linear=0
shrinkage=0.25


end of trees

feature_importances:
Kurtosis_8_dyn=11
PSD_8_dyn=10
Skewness_8_dyn=9
Skewness_8_Variance=8
ACF_1_8_Variance=7
ACF_1_8_dyn=6
PSD=5
WL_C1=5
WL_C1_8_dyn=5
WL_C3_8_dyn=5
Skewness=4
Kurtosis=4
CorrDim_8_Variance=4
Lyapunov_8_dyn=4
CorrDim=3
WL_C2_8_Variance=3
Lyapunov=2
ACF_1=2
WL_C2=2
Hurst_8_dyn=2
Hurst_8_Variance=2
Kurtosis_8_Variance=2
PSD_8_Variance=2
WL_C2_8_dyn=2
CorrDim_8_dyn=1
Lyapunov_8_Variance=1
WL_C3_8_Variance=1

parameters:
[boosting: gbdt]
[objective: binary]
[metric: auc]
[tree_learner: serial]
[device_type: cpu]
[data_sample_strategy: bagging]
[data: ]
[valid: ]
[num_iterations: 500]
[learning_rate: 0.25]
[num_leaves: 5]
[num_threads: 0]
[seed: 2025]
[deterministic: 0]
[force_col_wise: 0]
[force_row_wise: 0]
[histogram_pool_size: -1]
[max_depth: 2]
[min_data_in_leaf: 89]
[min_sum_hessian_in_leaf: 0.001]
[bagging_fraction: 0.994539]
[pos_bagging_fraction: 1]
[neg_bagging_fraction: 1]
[bagging_freq: 4]
[bagging_seed: 15290]
[feature_fraction: 0.594546]
[feature_fraction_bynode: 1]
[feature_fraction_seed: 4631]
[extra_trees: 0]
[extra_seed: 801]
[early_stopping_round: 0]
[early_stopping_min_delta: 0]
[first_metric_only: 0]
[max_delta_step: 0]
[lambda_l1: 0.000475207]
[lambda_l2: 2.47005e-07]
[linear_lambda: 0]
[min_gain_to_split: 0.284154]
[drop_rate: 0.1]
[max_drop: 50]
[skip_drop: 0.5]
[xgboost_dart_mode: 0]
[uniform_drop: 0]
[drop_seed: 20313]
[top_rate: 0.2]
[other_rate: 0.1]
[min_data_per_group: 100]
[max_cat_threshold: 32]
[cat_l2: 10]
[cat_smooth: 10]
[max_cat_to_onehot: 4]
[top_k: 20]
[monotone_constraints: ]
[monotone_constraints_method: basic]
[monotone_penalty: 0]
[feature_contri: ]
[forcedsplits_filename: ]
[refit_decay_rate: 0.9]
[cegb_tradeoff: 1]
[cegb_penalty_split: 0]
[cegb_penalty_feature_lazy: ]
[cegb_penalty_feature_coupled: ]
[path_smooth: 0]
[interaction_constraints: ]
[verbosity: -1]
[saved_feature_importance_type: 0]
[use_quantized_grad: 0]
[num_grad_quant_bins: 4]
[quant_train_renew_leaf: 0]
[stochastic_rounding: 1]
[linear_tree: 0]
[max_bin: 261]
[max_bin_by_feature: ]
[min_data_in_bin: 3]
[bin_construct_sample_cnt: 200000]
[data_random_seed: 6651]
[is_enable_sparse: 1]
[enable_bundle: 1]
[use_missing: 1]
[zero_as_missing: 0]
[feature_pre_filter: 1]
[pre_partition: 0]
[two_round: 0]
[header: 0]
[label_column: ]
[weight_column: ]
[group_column: ]
[ignore_column: ]
[categorical_feature: ]
[forcedbins_filename: ]
[precise_float_parser: 0]
[parser_config_file: ]
[objective_seed: 22652]
[num_class: 1]
[is_unbalance: 0]
[scale_pos_weight: 1]
[sigmoid: 1]
[boost_from_average: 1]
[reg_sqrt: 0]
[alpha: 0.9]
[fair_c: 1]
[poisson_max_delta_step: 0.7]
[tweedie_variance_power: 1.5]
[lambdarank_truncation_level: 30]
[lambdarank_norm: 1]
[label_gain: ]
[lambdarank_position_bias_regularization: 0]
[eval_at: ]
[multi_error_top_k: 1]
[auc_mu_weights: ]
[num_machines: 1]
[local_listen_port: 12400]
[time_out: 120]
[machine_list_filename: ]
[machines: ]
[gpu_platform_id: -1]
[gpu_device_id: -1]
[gpu_use_dp: 0]
[num_gpu: 1]

end of parameters

pandas_categorical:[]
