tree
version=v4
num_class=1
num_tree_per_iteration=1
label_index=0
max_feature_idx=29
objective=binary sigmoid:1
feature_names=Hurst CorrDim Lyapunov Skewness Kurtosis PSD ACF_1 WL_C1 WL_C2 WL_C3 Hurst_8_dyn Hurst_8_Variance CorrDim_8_dyn CorrDim_8_Variance Lyapunov_8_dyn Lyapunov_8_Variance Skewness_8_dyn Skewness_8_Variance Kurtosis_8_dyn Kurtosis_8_Variance PSD_8_dyn PSD_8_Variance ACF_1_8_dyn ACF_1_8_Variance WL_C1_8_dyn WL_C1_8_Variance WL_C2_8_dyn WL_C2_8_Variance WL_C3_8_dyn WL_C3_8_Variance
feature_infos=[0.75912503621177474:0.93061500683267195] [0.14371155228827395:2.4057136095593488] [-0.024267836467369477:0.052562462452512518] [-5.8371524810791016:9.9134864807128906] [-1.6411082744598389:122.15324401855469] [-4.2325915438305906:-2.3641925088146793] [0.71335396295498588:0.99889084424051799] [0.75245826039511721:1.6617571545494698] [-0.73275747512575784:0.42735581698908098] [-1.2222966839042602:0.57858792695440153] [-0.093884984917767311:0.097014331756994254] [4.4225509011348613e-07:0.001045623461599695] [-0.80172739479718325:7.0337526147860405] [9.7572599795300619e-09:0.85628853069389099] [-516.48813882129605:3610.1629796870161] [2.0779361612900578e-11:0.0010979389776861579] [-1031.3226607586639:1815.6803058066193] [2.3346149728687059e-11:19.429507389443852] [-717.57920791302945:4334.6192887729212] [1.7569803321660186e-09:3202.3720602995918] [-0.026906675329978924:0.054702093198323309] [9.8124483385346992e-10:0.0026389933296977358] [-0.27488877963841474:0.10479309169152962] [4.0841239664606783e-11:0.013659013283442137] [-0.21445975475511192:0.28323222946060223] [1.6330374128017281e-05:0.011791485088530966] [-215.95336328004009:206.7267902317887] [8.0445043724110642e-06:0.042080876555993144] [-7723.2553386539139:3451.7368692192845] [2.2580692456130627e-05:0.061466640679805472]
tree_sizes=857 966 964 955 960 962 937 872 977 932 931 957 953 725 950 718 989 960 838 967 951 950 971 918 838 960 964 820 907 834 966 936 844 938 815 950 944 954 972 970 963 955 928 753 911 832 985 946 918 909 964 944 941 941 939 986 943 727 840 980 943 941 811 943 842 962 965 943 917 935 928 946 944 926 938 899 958 907 934 941 824 925 932 943 926 916 909 808 716 819 927 932 939 931 842 949 837 952 923 815 950 922 940 921 910 928 939 936 945 932 918 924 942 933 920 948 916 916 946 916 953 706 958 951 946 856 942 942 948

Tree=0
num_leaves=7
num_cat=0
split_feature=22 6 22 5 22 15
split_gain=3275.87 398.549 213.06 130.503 50.0492 31.4404
threshold=-0.012437621742245273 0.96798503547331538 -0.0040116042947196942 -3.3694682863898113 -0.023773029880184367 2.9137131487463351e-06
decision_type=2 2 2 2 2 2
left_child=3 5 -3 4 -1 -2
right_child=1 2 -4 -5 -6 -7
leaf_value=1.9647365191502058 1.4681690145546362 -2.2865553157801592 -3.1306504639412149 -1.3926052642579305 0.30182860896936647 -1.4406278943377528
leaf_weight=9.8491231575608253 1.6498531177639955 28.347476296126842 417.91279428452253 2.5997685492038718 6.04946143180132 1.6498531177639959
leaf_count=197 33 567 8359 52 121 33
internal_value=-2.88737 -3.04974 -3.07548 1.02379 1.37548 0.223165
internal_weight=0 449.56 446.26 18.4984 15.8986 3.29971
internal_count=9362 8992 8926 370 318 66
is_linear=0
shrinkage=1


Tree=1
num_leaves=8
num_cat=0
split_feature=22 4 3 6 4 22 6
split_gain=125.976 116.168 34.4086 25.9791 24.5863 20.0399 1.86467
threshold=-0.0029386514812694826 -0.78999119997024525 1.9169616699218752 0.98555818315593846 0.0097746569663286226 -0.0045382592761378229 0.99141214850180648
decision_type=2 2 2 2 2 2 2
left_child=1 5 6 -4 -3 -1 -2
right_child=2 4 3 -5 -6 -7 -8
leaf_value=1.5587381904281954 -0.29326397152222544 0.30711950983754116 0.7786526983987424 -0.13386790114303174 -0.023545657094132293 0.13790934470772973 -0.21128797545562436
leaf_weight=5.7435876727104187 120.51268050819635 25.105848908424377 5.2447905950248224 3.8503879308700562 90.807404059916735 2.4156288467347604 198.29497843980789
leaf_count=59 2985 308 60 96 865 45 4944
internal_value=0 0.125321 -0.226777 0.316479 0.0421208 1.22268 -0.244441
internal_weight=0 124.072 327.903 9.09518 115.913 8.15922 318.808
internal_count=9362 1277 8085 156 1173 104 7929
is_linear=0
shrinkage=0.3


Tree=2
num_leaves=8
num_cat=0
split_feature=22 4 0 3 3 26 6
split_gain=77.4621 26.4634 23.1438 22.7158 19.2129 9.4697 2.57469
threshold=-0.0029386514812694826 -0.039316050708293908 0.84005112350658351 2.7029035091400151 1.9169616699218752 0.18105428156314199 0.99141214850180648
decision_type=2 2 2 2 2 2 2
left_child=1 2 -1 -3 6 -6 -2
right_child=4 3 -4 -5 5 -7 -8
leaf_value=-0.059727995325333176 -0.28251630457315752 -0.089078452865361965 0.39476418130079094 0.30813440157811028 0.46151208422388595 -0.016887185135064816 -0.18683452538164178
leaf_weight=11.114260874688624 92.165959775447845 76.603729300200939 32.389749567955732 15.35509919375181 5.1987544745206815 5.0764150023460388 163.1185154914856
leaf_count=108 2985 758 288 123 96 60 4944
internal_value=0 0.0689505 0.26279 -0.0152474 -0.206699 0.158008 -0.224082
internal_weight=0 135.463 43.504 91.9588 265.56 10.2752 255.284
internal_count=9362 1277 396 881 8085 156 7929
is_linear=0
shrinkage=0.3


Tree=3
num_leaves=8
num_cat=0
split_feature=23 5 3 15 4 3 9
split_gain=60.2674 19.6207 12.7797 12.2909 3.76484 10.6827 4.88949
threshold=1.5903778663258733e-06 -3.7644776175693981 2.7029035091400151 3.0460913575066959e-05 -0.73483932018280018 -0.43929028511047358 -0.21612506137991497
decision_type=2 2 2 2 2 2 2
left_child=4 3 -3 -2 5 -1 -6
right_child=1 2 -4 -5 6 -7 -8
leaf_value=0.24753922794032199 0.11502510132595772 -0.05611200564815514 0.23513502614992332 0.5894437382352441 0 -0.16000481757649052 -0.24540715207558059
leaf_weight=5.2287685871124259 29.811522113159299 99.652955703437328 15.386833872646092 7.9717326406389466 6.1157246567308894 56.997659450396895 137.12940388359129
leaf_count=192 310 1303 132 73 196 2065 5091
internal_value=0 0.0447876 -0.0111578 0.233389 -0.200959 -0.114669 -0.233627
internal_weight=0 152.823 115.04 37.7833 205.472 62.2264 143.245
internal_count=9362 1818 1435 383 7544 2257 5287
is_linear=0
shrinkage=0.3


Tree=4
num_leaves=8
num_cat=0
split_feature=23 29 4 22 0 0 29
split_gain=41.7675 17.1058 13.1148 12.2005 3.68859 5.72919 1.06263
threshold=9.0816382871283499e-07 0.002437878547244505 -0.67537274956703175 0.0028410489995958081 0.8476982175515092 0.87382329546188409 0.014119123291297666
decision_type=2 2 2 2 2 2 2
left_child=4 2 -2 -3 6 -6 -1
right_child=1 3 -4 -5 5 -7 -8
leaf_value=-0.2728859929109676 0.17170410041986198 0.22726492993758662 -0.090226913608471612 -0.12141374595170046 -0.070289890656020232 -0.25034416915843316 0
leaf_weight=55.318575784564018 19.775526376441121 46.965458057820797 94.708426622673869 8.3959075734019262 63.637848174199462 32.832619812339544 0.7166077084839334
leaf_count=2539 224 491 1530 220 2844 1482 32
internal_value=0 0.0224585 -0.0389537 0.16192 -0.190738 -0.138723 -0.26797
internal_weight=0 169.845 114.484 55.3614 152.506 96.4705 56.0352
internal_count=9362 2465 1754 711 6897 4326 2571
is_linear=0
shrinkage=0.3


Tree=5
num_leaves=8
num_cat=0
split_feature=23 7 17 19 22 6 25
split_gain=27.7945 16.6498 11.0882 7.83666 4.08172 9.91796 4.39478
threshold=8.596012547653832e-07 1.3142038140168235 3.70016867668661e-05 0.001721792833837748 -0.0010323948347074061 0.99141214850180648 0.0036827573880378905
decision_type=2 2 2 2 2 2 2
left_child=4 2 -2 -3 5 -1 -6
right_child=1 3 -4 -5 6 -7 -8
leaf_value=-0.24116427684377501 0.27057959923392472 0.71465265876641415 -0.036178696921724908 0.083814000583506687 -0.21434049471021013 0.17141491821028773 0
leaf_weight=10.378627065569164 11.233995678834615 4.2203395199030629 145.50675034709275 8.8700227886438352 95.773730407468975 9.859788525849579 11.388463155366479
leaf_count=596 236 55 2142 99 5125 504 605
internal_value=0 0.0131034 -0.00978929 0.339926 -0.168981 -0.00606579 -0.193309
internal_weight=0 169.831 156.741 13.0904 127.401 20.2384 107.162
internal_count=9362 2532 2378 154 6830 1100 5730
is_linear=0
shrinkage=0.3


Tree=6
num_leaves=8
num_cat=0
split_feature=22 6 3 13 3 4 3
split_gain=20.0554 21.375 13.453 12.3293 6.23992 24.7724 11.5127
threshold=-0.0065881875529580905 0.97782429084796141 -0.43929028511047358 4.5920735212416474e-05 -0.17557576298713681 -0.7814766764640807 0.82475844025611889
decision_type=2 2 2 2 2 2 2
left_child=1 2 -1 -3 5 -2 -6
right_child=4 3 -4 -5 6 -7 -8
leaf_value=-0.44744758686190433 0.26491191131687969 0.41792935342952159 0 0 -0.21242572515378405 -0.14730431274972772 -0.0039736554640601692
leaf_weight=6.4718382582068434 17.621090144850314 18.325195878744129 51.759369019418955 9.0291088223457319 93.007111825048923 47.730831298045814 41.374684936366975
leaf_count=42 674 124 399 81 4248 2414 1459
internal_value=0 0.054311 -0.0382089 0.276491 -0.115026 -0.0255965 -0.153381
internal_weight=0 85.5855 58.2312 27.3543 199.734 65.3519 134.382
internal_count=9441 646 441 205 8795 3088 5707
is_linear=0
shrinkage=0.3


Tree=7
num_leaves=7
num_cat=0
split_feature=23 13 21 3 6 6
split_gain=10.757 14.6205 15.63 9.91465 8.88923 13.6456
threshold=4.5186098507015544e-06 0.00011566303648288669 2.828751062722101e-05 0.16614239662885669 0.97556866012078247 0.98951763368754497
decision_type=2 2 2 2 2 2
left_child=4 2 -2 -3 -1 -6
right_child=1 3 -4 -5 5 -7
leaf_value=0.4302211505757686 0.25182809630546732 -0.32721838520443469 -0.05136518096483994 -0.00049801219626362248 -0.24665381736870545 -0.044414037535831015
leaf_weight=2.2694153552874914 36.001235983334482 12.221624564379452 21.074577338062227 41.059793113730848 49.201523371040821 107.40211334638298
leaf_count=39 323 165 199 384 2146 6185
internal_value=0 0.0171597 0.127787 -0.0883941 -0.100265 -0.11236
internal_weight=0 110.357 57.0758 53.2814 158.873 156.604
internal_count=9441 1071 522 549 8370 8331
is_linear=0
shrinkage=0.3


Tree=8
num_leaves=8
num_cat=0
split_feature=22 0 21 12 4 4 5
split_gain=14.3016 12.1891 18.137 6.02873 4.98232 7.29838 7.05778
threshold=-0.0001455868499007362 0.83918529690565802 1.2487083787098968e-07 -0.009152077525398537 6.0753548145294198 -0.63962614536285389 -3.7304397661511453
decision_type=2 2 2 2 2 2 2
left_child=1 3 -3 -1 5 -2 -6
right_child=4 2 -4 -5 6 -7 -8
leaf_value=0.01533966862601624 -0.023320119506097275 0.66983168526074899 0.029175659402884323 -0.185555640591581 0.47861341122689749 -0.2513106447694195 -0.085899481475196535
leaf_weight=12.153960016090421 27.881471401080489 4.3024289086461058 122.86377686262131 35.914897144772112 2.5935573354363441 44.186683746986091 5.6337647801265103
leaf_count=316 1715 102 3096 889 19 3220 84
internal_value=0 0.00387493 0.0562794 -0.120404 -0.145555 -0.172683 0.00819187
internal_weight=0 175.235 127.166 48.0689 80.2955 72.0682 8.22732
internal_count=9441 4403 3198 1205 5038 4935 103
is_linear=0
shrinkage=0.3


Tree=9
num_leaves=8
num_cat=0
split_feature=22 6 17 18 29 6 25
split_gain=10.0461 16.5196 20.7025 14.615 7.20187 13.0114 4.15267
threshold=-0.0010323948347074061 0.99024722445002522 6.7775248047446726e-05 -0.12798542850081338 0.0022282382903198172 0.99637432073583276 0.0034621427307440782
decision_type=2 2 2 2 2 2 2
left_child=1 3 -3 -1 6 -6 -2
right_child=4 2 -4 -5 5 -7 -8
leaf_value=0.091939630977566841 -0.19543795206007178 0.54359497731167006 0 -0.11307868215567138 -0.06186900844851663 0.52761054362794713 0
leaf_weight=50.331645611207932 55.976953730918467 11.127132942434402 13.871633515227584 76.406111554708332 26.123944527469579 3.8471464747562996 9.04322537826374
leaf_count=610 4356 341 506 1106 1656 261 605
internal_value=0 0.01289 0.238742 -0.0262142 -0.1084 0 -0.164729
internal_weight=0 151.737 24.9988 126.738 94.9913 29.9711 65.0202
internal_count=9441 2563 847 1716 6878 1917 4961
is_linear=0
shrinkage=0.3


Tree=10
num_leaves=8
num_cat=0
split_feature=14 20 21 20 22 3 22
split_gain=7.92805 8.79782 9.48854 7.48935 3.12289 2.47783 1.16466
threshold=2.8605425706302161 -0.0072717298380632891 0.00020864153090463021 -0.0028764549453629269 -0.045238817948004155 0.87693190574646007 -0.0069944104517943853
decision_type=2 2 2 2 2 2 2
left_child=1 4 -3 5 -1 -2 -5
right_child=3 2 -4 6 -6 -7 -8
leaf_value=0 0 -0.03230526985103982 0.34773103144307815 0.16992070562152761 -0.29514688402288014 0.80941907217885167 -0.091003503017111673
leaf_weight=1.3291237726807619 1.3559015546925368 210.04620826523751 5.8779115341603747 2.7057723514735699 15.39810566511005 2.1625987309962511 3.2219988130964321
leaf_count=17 59 8203 191 20 732 25 194
internal_value=0 -0.0384826 -0.0187634 0.234621 -0.251769 0.582522 0
internal_weight=0 232.651 215.924 9.44627 16.7272 3.5185 5.92777
internal_count=9441 9143 8394 298 749 84 214
is_linear=0
shrinkage=0.3


Tree=11
num_leaves=8
num_cat=0
split_feature=1 1 29 3 16 26 14
split_gain=7.38545 14.8074 9.88401 7.51208 13.8399 12.0297 5.83593
threshold=1.8105696021257807 1.9563787042503031 0.0022282382903198172 0.4727503657341004 0.11915789264927058 -0.034593428268756048 1.0587095067796088
decision_type=2 2 2 2 2 2 2
left_child=3 6 -3 4 -1 -5 -2
right_child=1 2 -4 5 -6 -7 -8
leaf_value=0.0075459660765113089 -0.30278256124682218 -0.068722522641065403 0.38575043872655529 -0.058444144054344664 -0.23782682039354391 0.18222837852140603 0
leaf_weight=96.564810211770236 27.048340253066275 7.903294151183216 6.4739551059901714 26.062431888654828 24.866280435351655 45.390067484229803 2.9564507710747412
leaf_count=4617 1060 192 77 998 1246 1151 100
internal_value=0 -0.128513 0.0879286 0.0045252 -0.0370182 0.0847847 -0.255224
internal_weight=0 44.382 14.3772 192.884 121.431 71.4525 30.0048
internal_count=9441 1429 269 8012 5863 2149 1160
is_linear=0
shrinkage=0.3


Tree=12
num_leaves=8
num_cat=0
split_feature=23 25 4 11 25 20 24
split_gain=10.1963 8.51185 15.1776 6.94942 13.6416 5.64757 4.43904
threshold=6.8464784584503935e-08 0.0011351172147514982 -0.7814766764640807 0.0001043003683138159 0.0037305165301676746 0.00012966743473619149 -0.090821798757813474
decision_type=2 2 2 2 2 2 2
left_child=3 2 -2 6 -5 -3 -1
right_child=1 5 -4 4 -6 -7 -8
leaf_value=0 0.42243737321207986 0.058077318739730238 0.038693865033144891 0 1.1350775924065915 -0.066733954462712464 -0.25435829096195184
leaf_weight=1.8454388598911489 12.867078219074754 58.921439006458968 53.749378751730546 5.1325103458948425 0.97840945655480016 70.057938425568864 25.83774465858005
leaf_count=153 375 2109 1756 501 65 2111 2378
internal_value=0 0.0355442 0.123175 -0.141847 0.0737569 -0.00436619 -0.214368
internal_weight=0 195.596 66.6165 33.7941 6.11092 128.979 27.6832
internal_count=9448 6351 2131 3097 566 4220 2531
is_linear=0
shrinkage=0.3


Tree=13
num_leaves=6
num_cat=0
split_feature=22 19 9 29 5
split_gain=8.97524 11.293 11.9235 9.02256 1.51905
threshold=-0.057874316477908687 7.7307092868404075 -0.040326051696827576 0.00026260130333807347 -3.5532913545304732
decision_type=2 2 2 2 2
left_child=4 3 -3 -2 -1
right_child=1 2 -4 -5 -6
leaf_value=0 -0.20134719462050224 -0.73101571276335675 0 0.024132785115322731 0.38794922893182837
leaf_weight=3.8434167876839638 17.272641916293651 3.9302323684096336 3.9268081486225119 194.08092288323678 6.201446980237959
leaf_count=47 988 34 35 8291 53
internal_value=0 -0.00745974 -0.361587 0.00244028 0.28162
internal_weight=0 219.211 7.85704 211.354 10.0449
internal_count=9448 9348 69 9279 100
is_linear=0
shrinkage=0.3


Tree=14
num_leaves=8
num_cat=0
split_feature=23 11 29 5 20 20 19
split_gain=6.32412 6.6803 6.2261 16.6991 7.35356 5.53147 4.06289
threshold=2.1989866080775538e-07 7.4128004396395553e-05 0.013029500810122644 -3.7323131454233223 -0.0070588345486020656 -0.0041704975850571637 0.0010109831427211899
decision_type=2 2 2 2 2 2 2
left_child=1 6 4 -4 -2 -3 -1
right_child=2 5 3 -5 -6 -7 -8
leaf_value=-0.22346881807855279 -0.20918116298605111 0.39775255561621847 0 0.90809467282028911 0.036297778508710868 -0.0019972799824445335 0
leaf_weight=27.008867414901033 11.299584713065995 3.2796627096831825 2.8642749544233084 2.6475391695275894 162.0767733536195 13.098776826402171 7.0640130192041388
leaf_count=2662 397 277 60 53 4126 1131 742
internal_value=0 -0.0893793 0.0305006 0.351387 0.0163183 0.0359221 -0.169863
internal_weight=0 50.4513 178.888 5.51181 173.376 16.3784 34.0729
internal_count=9448 4812 4636 113 4523 1408 3404
is_linear=0
shrinkage=0.3


Tree=15
num_leaves=6
num_cat=0
split_feature=22 20 23 7 7
split_gain=5.24088 6.17094 5.92867 1.91905 0.828333
threshold=-0.057874316477908687 -0.0072717298380632891 9.3317164319192423e-05 1.3142038140168235 1.0559703957639837
decision_type=2 2 2 2 2
left_child=4 3 -3 -2 -1
right_child=1 2 -4 -5 -6
leaf_value=0.3143837483999975 -0.26648167340102191 0.016457813048132115 -0.1928093496564677 0 0
leaf_weight=5.3519983962178213 10.495312895160167 193.45841892738827 12.94317109743133 1.5654772759880859 4.1222057659178972
leaf_count=45 652 8506 120 70 55
internal_value=0 -0.00887884 0 -0.217889 0.219012
internal_weight=0 218.462 206.402 12.0608 9.4742
internal_count=9448 9348 8626 722 100
is_linear=0
shrinkage=0.3


Tree=16
num_leaves=8
num_cat=0
split_feature=3 20 24 26 15 13 15
split_gain=5.48494 9.71401 13.6115 6.88636 6.32118 9.48173 7.47773
threshold=0.70409232378005993 0.0012245583581801391 -0.056816083320727954 0.17297515306443703 4.0960590439300412e-05 6.4926126292330633e-05 3.5584945140345273e-06
decision_type=2 2 2 2 2 2 2
left_child=4 2 -2 -3 6 -6 -1
right_child=1 3 -4 -5 5 -7 -8
leaf_value=-0.005897283816238128 0.51822596688192435 0.048670297723730077 0.058328276609759165 -0.19764278393351772 0.31027369790226833 -0.075620522665950818 -0.17380056239580347
leaf_weight=90.027923825080507 8.4372932033147645 23.162767271976918 35.167934900615364 15.484659211710094 11.094075551722201 7.4778497448423868 38.025428690714762
leaf_count=4322 252 602 990 287 551 416 2028
internal_value=0 0.0629868 0.163144 -0.0321634 -0.0337807 0.11774 -0.0611456
internal_weight=0 82.2527 43.6052 38.6474 146.625 18.5719 128.053
internal_count=9448 2131 1242 889 7317 967 6350
is_linear=0
shrinkage=0.3


Tree=17
num_leaves=8
num_cat=0
split_feature=22 20 20 0 25 14 13
split_gain=5.01966 8.81594 8.67459 7.4587 7.13143 6.80516 2.46101
threshold=-0.0001455868499007362 -4.0222140004486644e-05 0.00012966743473619149 0.85426916818623522 0.00078030869351854452 -0.03293853687464126 3.1888717440593602e-07
decision_type=2 2 2 2 2 2 2
left_child=2 6 3 -1 -4 -3 -2
right_child=1 5 4 -5 -6 -7 -8
leaf_value=0 0 -0.12703780905307482 0.10637168403309381 0.18668025260216187 -0.084160519904748349 0.14231451654297875 -0.22976962529863554
leaf_weight=36.030977979535237 0.47705011814832943 14.049763860646634 21.318701168056577 42.146371654001996 69.640942280180752 19.135966228786856 25.672583717969246
leaf_count=1075 44 1246 454 1141 1757 1349 2382
internal_value=0 -0.0759543 0.0254393 0.101001 -0.0319174 0.00748453 -0.208233
internal_weight=0 59.3354 169.137 78.1773 90.9596 33.1857 26.1496
internal_count=9448 5021 4427 2216 2211 2595 2426
is_linear=0
shrinkage=0.3


Tree=18
num_leaves=7
num_cat=0
split_feature=3 1 10 4 5 15
split_gain=9.15427 14.4104 7.463 11.7617 6.25383 5.00281
threshold=2.1115967035293584 1.6224033187422613 -0.036916867587524653 0.36208868026733404 -3.6247014843879826 1.1245794462078354e-06
decision_type=2 2 2 2 2 2
left_child=2 -2 3 -1 -4 -3
right_child=1 5 4 -5 -6 -7
leaf_value=0 0.49016810419793211 -0.25488406920123263 -0.0037475852596591352 0.62727123394093964 -0.12118067076529018 0.092618053451887089
leaf_weight=4.9507769162300956 7.7094638780690756 4.9233571575023261 113.47364367870614 3.7276623919606209 77.783646714640781 15.199096650816498
leaf_count=275 76 61 5186 133 3603 143
internal_value=0 0.14127 -0.0398565 0.216898 -0.0551155 0
internal_weight=0 27.8319 199.936 8.67844 191.257 20.1225
internal_count=9477 280 9197 408 8789 204
is_linear=0
shrinkage=0.3


Tree=19
num_leaves=8
num_cat=0
split_feature=2 0 10 25 11 0 1
split_gain=5.0349 6.26476 8.29966 6.94066 4.37726 4.88836 2.48734
threshold=-0.0039559812991174217 0.86567617555247123 -0.0038084040866262488 0.00074109899832349661 0.00014764797710853017 0.86887056285089426 1.1867128045614803
decision_type=2 2 2 2 2 2 2
left_child=4 2 -2 -3 6 -6 -1
right_child=1 3 -4 -5 5 -7 -8
leaf_value=0 -0.021000219280310334 0.087917119559281262 0.12163284871552221 -0.12987401690659886 -0.024468232138414626 0.52505876871321278 -0.24252488194715141
leaf_weight=1.0303687511477679 72.017511438345537 13.898394824122077 63.606345972977579 50.712150642997585 2.1082084593363102 1.6005010507069526 18.632521828752942
leaf_count=53 2852 482 2777 2184 105 35 989
internal_value=0 0.000848378 0.0408052 -0.0723439 -0.143424 0.0266466 -0.210598
internal_weight=0 200.234 135.624 64.6105 23.3716 3.70871 19.6629
internal_count=9477 8295 5629 2666 1182 140 1042
is_linear=0
shrinkage=0.3


Tree=20
num_leaves=8
num_cat=0
split_feature=23 6 3 26 19 7 14
split_gain=5.43947 6.57548 6.09324 3.79397 9.83087 7.96386 2.78442
threshold=2.748117654202716e-07 0.99334300614772786 -1.0898571014404295 -0.26899140180672665 4.0731107537383736e-05 1.1272510564560658 -5.3830741675456109
decision_type=2 2 2 2 2 2 2
left_child=1 6 -3 4 -2 -5 -1
right_child=3 2 -4 5 -6 -7 -8
leaf_value=0 0.6914481664278509 0.87208296452077605 -0.031351562937758613 -0.029405579032689408 -0.14928644261444657 0.10484040970040262 -0.26782510216515532
leaf_weight=0.57873279042542236 1.1036999641219178 0.68367798556573944 28.686124494532123 72.319614600623026 24.66674915549811 75.545145497773774 18.421423920895904
leaf_count=66 58 54 2808 1771 730 1745 2245
internal_value=0 -0.0995133 0 0.0125805 -0.0864931 0.0345146 -0.237395
internal_weight=0 48.37 29.3698 173.635 25.7704 147.865 19.0002
internal_count=9477 5173 2862 4304 788 3516 2311
is_linear=0
shrinkage=0.3


Tree=21
num_leaves=8
num_cat=0
split_feature=21 21 19 21 3 27 4
split_gain=4.73548 9.83303 9.64723 7.40949 7.63771 5.9777 5.71911
threshold=6.4022024750493575e-06 7.1108154862236354e-07 0.00073905475600126924 4.2568752349954725e-05 0.50546935200691234 0.00067191213207190689 -0.9672369360923766
decision_type=2 2 2 2 2 2 2
left_child=1 2 -1 4 -2 -3 -5
right_child=3 5 -4 6 -6 -7 -8
leaf_value=-0.12312895377454428 0 0 0.2364270938434401 0.1302270998463711 0.16565089149511339 -0.23604760543454667 -0.11205143531230889
leaf_weight=10.358209163299763 52.600967159320135 11.857066255179232 14.086624341551213 8.4310877815587428 43.242734172963537 31.150328654563054 46.953273427614477
leaf_count=596 2710 523 425 418 1089 1549 2167
internal_value=0 -0.0759332 0.0558394 0.0182098 0.07217 -0.166877 -0.0627091
internal_weight=0 67.4522 24.4448 151.228 95.8437 43.0074 55.3844
internal_count=9477 3093 1021 6384 3799 2072 2585
is_linear=0
shrinkage=0.3


Tree=22
num_leaves=8
num_cat=0
split_feature=5 5 18 27 9 12 4
split_gain=3.23988 7.84105 14.0379 8.53628 4.71058 6.86962 4.96274
threshold=-3.7132412328572575 -3.6391891213471625 0.066911881308259105 0.0016899018621011513 -0.038635193807103736 -0.022951108626787672 2.9497410058975224
decision_type=2 2 2 2 2 2 2
left_child=4 2 -2 -3 5 -1 -6
right_child=1 3 -4 -5 6 -7 -8
leaf_value=0.12434919292204696 0.27479567999114979 -0.085927592779382084 -0.11350664259235291 0.10112322933287964 -0.031515034214495898 -0.2095251267722065 0.26055278135115023
leaf_weight=4.1615543398074797 24.708377175731584 64.785357302753255 9.6820104161743057 31.323425182432402 46.849215856287628 27.910870339954272 5.8934671626775517
leaf_count=96 1144 2977 455 1254 2445 1038 68
internal_value=0 0.0199343 0.14541 -0.0177842 -0.0540149 -0.144686 0
internal_weight=0 130.499 34.3904 96.1088 84.8151 32.0724 52.7427
internal_count=9477 5830 1599 4231 3647 1134 2513
is_linear=0
shrinkage=0.3


Tree=23
num_leaves=8
num_cat=0
split_feature=3 12 23 12 12 9 18
split_gain=3.35811 6.72118 7.91778 6.14726 9.56508 5.49515 2.95384
threshold=2.1115967035293584 -0.026244354450879855 5.5031534171588048e-05 -0.014643063202428972 -0.0073601669328137156 -0.10716622722605629 7.6274789383047645
decision_type=2 2 2 2 2 2 2
left_child=3 2 -2 6 -5 -3 -1
right_child=1 5 -4 4 -6 -7 -8
leaf_value=-0.19488678492844 0.58724894902791092 -0.23534578212567328 0 0.183555021511038 -0.029305056768033945 0.10667893155704827 0
leaf_weight=23.934374608681541 4.4490275131538528 6.3831296751741347 3.7808236302807927 21.976050626253709 140.22070670913672 12.389364995528011 1.3312573039438564
leaf_count=1385 33 79 34 1147 6648 134 17
internal_value=0 0.0896242 0.315995 -0.0219063 0 0 -0.159555
internal_weight=0 27.0023 8.22985 187.462 162.197 18.7725 25.2656
internal_count=9477 280 67 9197 7795 213 1402
is_linear=0
shrinkage=0.3


Tree=24
num_leaves=7
num_cat=0
split_feature=2 8 12 23 22 10
split_gain=7.7977 6.5329 9.23709 5.47402 2.47331 1.04501
threshold=-0.005307969156202407 -0.18049787380951965 -0.013875064974437966 9.8015142452522663e-07 -0.019813011177485847 -0.039872880088717304
decision_type=2 2 2 2 2 2
left_child=4 3 -3 -2 -1 -6
right_child=1 2 -4 -5 5 -7
leaf_value=0 -0.14912048543956122 -0.14381747558005356 0.11820884950970074 0.014739775984212271 0 -0.2687691666481698
leaf_weight=0.76671399176120658 23.058907320140861 11.553157020069191 98.95819868176477 66.805308341048658 0.62713829358108242 11.650320856249889
leaf_count=8 2274 857 4528 963 39 745
internal_value=0 0.0343963 0.084571 -0.0196274 -0.200608 -0.246753
internal_weight=0 200.376 110.511 89.8642 13.0442 12.2775
internal_count=9414 8622 5385 3237 792 784
is_linear=0
shrinkage=0.3


Tree=25
num_leaves=8
num_cat=0
split_feature=23 0 0 25 1 8 20
split_gain=5.04462 8.26544 8.86942 7.37206 10.5119 3.25882 2.90138
threshold=8.0012727818293073e-06 0.87755818227826399 0.85107665318073999 0.0019851182327686751 1.5031422607880549 -0.24629270877988066 0.0078691439582023754
decision_type=2 2 2 2 2 2 2
left_child=1 2 -1 4 -2 -5 -3
right_child=3 6 -4 5 -6 -7 -8
leaf_value=-0.085116981476364109 -0.11402161725932372 -0.25817380931062495 0.083526384447826507 0.09872354998977366 0.21438459087927536 -0.098530488831803653 0
leaf_weight=50.249015365901869 8.1750410278327745 16.137648320698649 62.306866829399951 8.6108055845834297 41.019891577656381 23.48874144180445 3.4382035993039599
leaf_count=3822 98 1322 3408 85 366 201 112
internal_value=0 -0.0232037 0.00210673 0.0702083 0.145783 -0.0241176 -0.203981
internal_weight=0 132.132 112.556 81.2945 49.1949 32.0995 19.5759
internal_count=9414 8664 7230 750 464 286 1434
is_linear=0
shrinkage=0.3


Tree=26
num_leaves=8
num_cat=0
split_feature=21 21 8 1 12 3 5
split_gain=4.30842 8.22284 5.80045 7.08633 5.16683 4.38096 3.93694
threshold=3.7744785841912209e-06 9.3750229396657955e-07 -0.19150209739901569 1.5527855816899845 -0.024390912865153987 0.34358732402324682 -3.7644776175693981
decision_type=2 2 2 2 2 2 2
left_child=1 5 4 -4 -2 -1 -3
right_child=2 6 3 -5 -6 -7 -8
leaf_value=-0.062463557081686327 0.13276950624076603 0 -0.043293077467009562 0.12396139990454175 -0.082373139903445941 0.17829890381777833 -0.29531790354108017
leaf_weight=12.706885908264669 10.637952941993715 5.8837160475086447 25.056780066108331 76.639212736568879 52.257403264287859 11.186134351301005 15.276214779762084
leaf_count=748 223 362 1386 3339 2093 419 844
internal_value=0 -0.0743189 0.0293651 0.0759659 -0.0350119 0.021374 -0.214984
internal_weight=0 45.053 164.591 101.696 62.8954 23.893 21.1599
internal_count=9414 2373 7041 4725 2316 1167 1206
is_linear=0
shrinkage=0.3


Tree=27
num_leaves=7
num_cat=0
split_feature=12 5 14 2 2 26
split_gain=3.70938 4.51488 5.9769 4.35801 5.28764 0.840979
threshold=0.05459425017285547 -3.3035508400500544 0.16660538297722685 -0.005307969156202407 0.0096557064480298788 1.225170156136671
decision_type=2 2 2 2 2 2
left_child=3 2 -2 5 -5 -1
right_child=1 -3 -4 4 -6 -7
leaf_value=-0.23014345003450282 0.36838919820414612 -0.02316626629103254 0 0.044643607874896359 -0.057972618405239512 0
leaf_weight=9.0936822840594651 9.3040211362531391 3.0635975725017479 2.8515824676142065 108.16945943032624 77.450685652729589 0.54695431352593082
leaf_count=729 164 58 64 5003 3358 38
internal_value=0 0.14502 0.244179 -0.00839569 0 -0.205208
internal_weight=0 15.2192 12.1556 195.261 185.62 9.64064
internal_count=9414 286 228 9128 8361 767
is_linear=0
shrinkage=0.3


Tree=28
num_leaves=8
num_cat=0
split_feature=15 26 25 27 1 20 29
split_gain=2.72732 4.85608 6.07572 3.35659 2.90579 2.47153 0.375833
threshold=6.7577267789636027e-05 0.01631785183345769 0.0015305900895897691 0.0040819053348618477 1.2852412053825646 0.012448149058445492 0.0025038741520596523
decision_type=2 2 2 2 2 2 2
left_child=3 2 -2 4 -1 -5 -3
right_child=1 6 -4 5 -6 -7 -8
leaf_value=0.144839753241812 0.45653665082686845 -0.076236294403709493 0 -0.17760237343096055 -0.0072452349079237177 0 0
leaf_weight=12.060879633383591 5.8074479794013332 5.8195600756444028 2.5838308725506067 17.226052141282711 161.82580007630168 1.9592438200488675 1.9514306730125097
leaf_count=435 246 307 198 807 7328 33 60
internal_value=0 0.118413 0.281225 -0.00987657 0 -0.129335 0
internal_weight=0 16.1623 8.39128 193.072 173.887 19.1853 7.77099
internal_count=9414 811 444 8603 7763 840 367
is_linear=0
shrinkage=0.3


Tree=29
num_leaves=7
num_cat=0
split_feature=19 6 5 23 22 3
split_gain=2.86376 4.04362 9.30261 6.06831 2.86887 0.663902
threshold=1.5422587551652377e-05 0.9932200171672253 -3.6785195978759755 4.5186098507015544e-06 -0.0014596460975203061 -0.10976309701800345
decision_type=2 2 2 2 2 2
left_child=4 3 -3 -2 5 -1
right_child=1 2 -4 -5 -6 -7
leaf_value=0.19910982895101706 -0.08457837557378152 0 0.27942751395610782 0.033558919862928624 -0.23250608957970353 0
leaf_weight=1.5068517131730916 62.181777225225233 20.346046090242453 15.442450122849548 98.694775480951648 9.2767104216618446 1.7461320293368761
leaf_count=31 4329 1685 1236 1028 1055 50
internal_value=0 0.00856557 0.101476 -0.00781382 -0.139349 0
internal_weight=0 196.665 35.7885 160.877 12.5297 3.25298
internal_count=9414 8278 2921 5357 1136 81
is_linear=0
shrinkage=0.3


Tree=30
num_leaves=8
num_cat=0
split_feature=12 0 1 16 3 2 19
split_gain=3.84527 8.73864 8.43704 5.93826 10.8028 7.35433 3.13125
threshold=0.0024481460766242473 0.87568191262659067 1.8105696021257807 -0.015437067004594072 0.40731664001941686 -0.0023118121997936108 0.00058513238845291017
decision_type=2 2 2 2 2 2 2
left_child=1 2 -1 5 -5 -2 -3
right_child=3 6 -4 4 -6 -7 -8
leaf_value=0.11367819117095514 0.36005896897122469 0 -0.10420514000693704 -0.30061406000517554 -0.0033350391820357547 -0.0074311599865899752 -0.24295550476695937
leaf_weight=80.200901906238869 5.2933321421733117 6.2102711359621052 16.800064838724211 19.253427614166867 37.511791130178608 31.55977709533181 11.856644779327324
leaf_count=3872 238 602 775 1270 986 1235 490
internal_value=0 0.028139 0.0688274 -0.0526781 -0.116323 0.0266298 -0.152118
internal_weight=0 115.068 97.001 93.6183 56.7652 36.8531 18.0669
internal_count=9468 5739 4647 3729 2256 1473 1092
is_linear=0
shrinkage=0.3


Tree=31
num_leaves=8
num_cat=0
split_feature=11 14 1 14 12 12 15
split_gain=3.9406 6.53271 3.56316 3.35193 3.74457 2.11905 2.09353
threshold=7.6810240064654114e-05 -0.18252492687267588 1.6268427515779662 2.8605425706302161 0.00054558758956502207 -0.0098870863113209011 1.293862931918907e-07
decision_type=2 2 2 2 2 2 2
left_child=3 6 -3 4 -1 -5 -2
right_child=1 2 -4 5 -6 -7 -8
leaf_value=0.05313240683018651 0 0.10954060599743558 -0.078295004038482094 0 -0.042941962906605215 0.29611304851399989 -0.24133268147544176
leaf_weight=72.357057772402186 1.3412858475931013 15.393326110090127 22.181023037002888 0.8979063732549547 72.000083578546764 6.0052997093298464 18.993454097595531
leaf_count=3604 37 790 937 41 2995 163 901
internal_value=0 -0.0754731 0 0.015043 0.000433546 0.220574 -0.212448
internal_weight=0 57.9091 37.5743 151.26 144.357 6.90321 20.3347
internal_count=9468 2665 1727 6803 6599 204 938
is_linear=0
shrinkage=0.3


Tree=32
num_leaves=7
num_cat=0
split_feature=29 9 21 12 7 18
split_gain=3.74732 4.38771 5.07136 4.81236 2.25696 2.05118
threshold=0.00026260130333807347 -0.037199991933190256 5.860895505183056e-05 -0.022280278103074366 1.1905489297768161 -1.8470544440905738
decision_type=2 2 2 2 2 2
left_child=4 3 -3 -2 5 -1
right_child=1 2 -4 -5 -6 -7
leaf_value=0 0.089792904641523619 0.070958892204374555 -0.080467117615606779 -0.094610946297250101 0 -0.2986495785269177
leaf_weight=0.61556660692440246 12.620150982635094 102.89593881947803 20.850686326361028 59.280581878847443 3.7464901902712873 8.1613256211276148
leaf_count=19 261 4724 1166 2380 259 659
internal_value=0 0.00234142 0.0398675 -0.0526459 -0.164821 -0.248805
internal_weight=0 195.647 123.747 71.9007 12.5234 8.77689
internal_count=9468 8531 5890 2641 937 678
is_linear=0
shrinkage=0.3


Tree=33
num_leaves=8
num_cat=0
split_feature=27 2 5 5 5 4 23
split_gain=2.74875 4.57786 3.18689 6.23266 4.2009 2.52826 0.863729
threshold=0.0040819053348618477 0.0178360848554543 -3.7538933063910553 -3.8235822749582726 -3.6785195978759755 7.8851354122161874 6.8556206565281899e-06
decision_type=2 2 2 2 2 2 2
left_child=2 5 3 -1 -4 -2 -3
right_child=1 6 4 -5 -6 -7 -8
leaf_value=-0.0023273461821545056 -0.24895414832978133 0 -0.11773369123239898 0.18023441260332707 0.0056561983412585079 0 0.20081312667943718
leaf_weight=30.673411399649922 14.025460853357801 1.8875640336191271 29.77023275825195 25.038400663237553 102.33331085598911 1.5009847795590747 2.3317758366465569
leaf_count=1359 747 114 1396 1119 4699 19 15
internal_value=0 -0.111627 0.00439354 0.0673346 -0.0169267 -0.203302 0.0621673
internal_weight=0 19.7458 187.815 55.7118 132.104 15.5264 4.21934
internal_count=9468 895 8573 2478 6095 766 129
is_linear=0
shrinkage=0.3


Tree=34
num_leaves=7
num_cat=0
split_feature=14 5 29 20 7 2
split_gain=2.51118 2.92184 2.81464 3.24158 1.78218 1.73727
threshold=-2.0046080556301318 -3.7888377385460488 0.00030891610273742448 0.00012966743473619149 0.95715146378131311 0.0034454396589808133
decision_type=2 2 2 2 2 2
left_child=1 -1 5 -4 -3 -2
right_child=2 4 3 -5 -6 -7
leaf_value=0 0 0 0.064196031555150787 -0.013426043465177194 -0.27167572682190111 -0.2067857780128754
leaf_weight=3.8670234696473917 4.9020754797093096 1.3581190148834128 78.92668670223793 99.8887019965332 8.7735823223192693 8.4339542329544184
leaf_count=173 407 26 3769 3939 483 671
internal_value=0 -0.126557 0.00361621 0.0169761 -0.21928 -0.123769
internal_weight=0 13.9987 192.151 178.815 10.1317 13.336
internal_count=9468 682 8786 7708 509 1078
is_linear=0
shrinkage=0.3


Tree=35
num_leaves=8
num_cat=0
split_feature=26 15 7 12 1 18 4
split_gain=2.35417 4.95228 4.1184 3.8193 3.4326 7.52613 4.56637
threshold=-0.0054417905533541968 2.5883470814848596e-07 1.0609518820030885 -0.010088415662771964 1.6239360138413959 -0.47892298344882317 -0.7814766764640807
decision_type=2 2 2 2 2 2 2
left_child=4 3 -3 -2 6 -6 -1
right_child=1 2 -4 -5 5 -7 -8
leaf_value=0.18424657825943036 0 -0.10603075052096253 0.034158684213181183 0.25190174684260758 0.1270507570103758 -0.14883979009883117 -0.032234891353046975
leaf_weight=11.400910042750182 6.0922510896343764 26.059496399888303 66.572080842277501 13.437687151832504 8.4509035019436833 44.83763901508064 28.695466859062435
leaf_count=572 189 887 2990 541 206 2329 1754
internal_value=0 0.0237487 0 0.161432 -0.0399872 -0.0921363 0.0121091
internal_weight=0 112.162 92.6316 19.5299 93.3849 53.2885 40.0964
internal_count=9468 4607 3877 730 4861 2535 2326
is_linear=0
shrinkage=0.3


Tree=36
num_leaves=8
num_cat=0
split_feature=28 3 16 16 2 20 24
split_gain=5.12381 4.20558 17.762 7.10848 3.58956 3.11903 0.859567
threshold=1.7280463173816625 -0.10976309701800345 -0.037545026190057333 -0.052109602617654509 0.017237556832177332 0.00021331153358084001 -1.0000000180025095e-35
decision_type=2 2 2 2 2 2 2
left_child=1 2 -1 -3 5 -2 -6
right_child=4 3 -4 -5 6 -7 -8
leaf_value=0.23962924814109055 0 -0.12562007411213769 -0.1109181525028184 0.019378678000999943 0 -0.29251723960082665 0.20895068324562724
leaf_weight=28.864799885748653 8.6636926422652376 42.616323681519134 20.648831465805415 88.683305403712438 1.217290818836773 12.784493200830182 1.7760916661354702
leaf_count=1271 376 1872 1822 3620 75 381 56
internal_value=0 0.00166763 0.0795021 -0.0224283 -0.141643 -0.19472 0.00812293
internal_weight=0 180.813 49.5136 131.3 24.4416 21.4482 2.99338
internal_count=9473 8585 3093 5492 888 757 131
is_linear=0
shrinkage=0.3


Tree=37
num_leaves=8
num_cat=0
split_feature=12 6 15 25 11 22 25
split_gain=3.59845 8.27973 9.72425 5.24293 8.11715 6.07219 2.37827
threshold=0.018299490530550692 0.99352968330615943 1.9663333930620535e-07 0.0035274858498539788 0.00014539678192354347 -0.0010323948347074061 0.0026339595615614158
decision_type=2 2 2 2 2 2 2
left_child=3 6 -3 5 -5 -1 -2
right_child=1 2 -4 4 -6 -7 -8
leaf_value=-0.0056187767296297956 0.070893205412209323 0 0.92221354274452338 0 0.45193480542424053 -0.14678587191009659 -0.092805549905278784
leaf_weight=93.396682207647245 26.092672251339536 0.90665838413406108 2.1071960984263569 21.17896131309681 4.4253379381261757 46.973878223710926 9.8241187880630587
leaf_count=1859 725 68 162 916 121 5402 220
internal_value=0 0.0668046 0.551633 -0.0320107 0.0822874 -0.0577757 0.00690357
internal_weight=0 38.9306 3.01385 165.975 25.6043 140.371 35.9168
internal_count=9473 1175 230 8298 1037 7261 945
is_linear=0
shrinkage=0.3


Tree=38
num_leaves=8
num_cat=0
split_feature=28 5 5 29 25 9 24
split_gain=2.84937 2.74241 5.35193 3.69475 2.48443 2.89322 0.762943
threshold=1.7280463173816625 -3.4589087606033782 -3.500626813426408 0.0073073587031725522 0.0010159880884044903 -0.089137993575729449 0.021774431196834646
decision_type=2 2 2 2 2 2 2
left_child=1 2 -1 -3 6 -6 -2
right_child=4 3 -4 -5 5 -7 -8
leaf_value=0.00081405892792490108 -0.032360263471009794 -0.1338644560239414 0.24380527132266841 0.14063733116996996 -0.37236374110300369 -0.0070440471989677237 0.1490009505391606
leaf_weight=141.70915528686601 4.5547076283255619 25.578790897183357 9.1257965772238077 3.0380367947509503 5.4497120333544453 10.271050067822213 2.8776686495402828
leaf_count=6782 186 1395 366 42 116 507 79
internal_value=0 0.000187368 0.0200911 -0.0806066 -0.108425 -0.177586 0
internal_weight=0 179.452 150.835 28.6168 23.1531 15.7208 7.43238
internal_count=9473 8585 7148 1437 888 623 265
is_linear=0
shrinkage=0.3


Tree=39
num_leaves=8
num_cat=0
split_feature=2 17 4 25 25 22 5
split_gain=2.33677 8.06569 7.65415 5.07206 5.33075 4.87694 3.74309
threshold=0.0025676234785780481 0.00010341376035385667 0.031701035797595985 0.00077255493660672713 0.0035274858498539788 -0.0022221292349925976 -3.5602272897985663
decision_type=2 2 2 2 2 2 2
left_child=1 2 -1 6 -5 -3 -2
right_child=3 5 -4 4 -6 -7 -8
leaf_value=0.2661461740420743 0 0.014084321561737688 -0.082979326965483935 -0.10116460822620273 0.043759085752140554 -0.20131389739405861 0.22627675216279663
leaf_weight=20.237711642083017 18.867118479683999 27.841153440298513 4.1982495709380592 85.293660255862051 23.566670635656919 11.707579376175998 9.4290409572859044
leaf_count=1072 851 415 419 4234 779 1400 303
internal_value=0 0.0372423 0.177923 -0.0305147 -0.0634514 -0.0322318 0.0718101
internal_weight=0 63.9847 24.436 137.156 108.86 39.5487 28.2962
internal_count=9473 3306 1491 6167 5013 1815 1154
is_linear=0
shrinkage=0.3


Tree=40
num_leaves=8
num_cat=0
split_feature=4 2 16 19 23 25 16
split_gain=1.93894 3.91474 2.92563 6.78653 4.46427 2.49984 2.28626
threshold=-1.0621762871742246 0.0030351039619029765 -0.011644529229365706 0.00085471279546217159 5.5992595373248634e-06 0.00067034219422532147 0.031094840345603617
decision_type=2 2 2 2 2 2 2
left_child=1 6 3 -2 -4 -3 -1
right_child=2 5 4 -5 -6 -7 -8
leaf_value=-0.039524638820751239 0.15565071579620826 0 -0.10406171726987275 -0.0081817689447314604 0.02037038819377876 -0.27054593623219136 0.23906316826684845
leaf_weight=6.5554222998325731 32.789711867299047 1.7817676885751996 42.395467802343774 52.161382959471666 50.41747699258849 10.273885597242041 3.4208210701472126
leaf_count=315 1954 79 3879 1908 536 625 177
internal_value=0 -0.0890489 0.00338747 0.0469318 -0.029033 -0.209083 0
internal_weight=0 22.0319 177.764 84.9511 92.8129 12.0557 9.97624
internal_count=9473 1196 8277 3862 4415 704 492
is_linear=0
shrinkage=0.3


Tree=41
num_leaves=8
num_cat=0
split_feature=28 28 26 24 27 27 26
split_gain=1.8232 2.3857 3.7599 2.64615 1.96011 2.21078 1.61196
threshold=1.7280463173816625 -0.52824968701092623 -0.48991384961162215 -0.074292274125986921 0.00077813957272521769 0.00043114329284311162 0.61202801948620233
decision_type=2 2 2 2 2 2 2
left_child=1 3 -3 -1 5 -2 -6
right_child=4 2 -4 -5 6 -7 -8
leaf_value=0.080003356064029238 -0.15338423509553861 0.2345668421214227 0.010126025846298504 -0.077816434771633622 -0.19909585812378386 0.17155351428579432 0
leaf_weight=7.9903815715224473 2.7313883664901395 8.0259317159070616 111.47931120752764 47.772277902608039 12.243051586323416 4.5766230876906775 3.3442859196802592
leaf_count=308 108 502 5336 2439 566 123 91
internal_value=0 0.00355697 0.0309746 -0.0428261 -0.0845905 0 -0.147742
internal_weight=0 175.268 119.505 55.7627 22.8953 7.30801 15.5873
internal_count=9473 8585 5838 2747 888 231 657
is_linear=0
shrinkage=0.3


Tree=42
num_leaves=8
num_cat=0
split_feature=24 20 0 25 11 15 28
split_gain=4.09567 7.12259 3.78716 3.65381 5.23254 4.16206 0.912807
threshold=0.077345335836240495 -0.0028764549453629269 0.86350033924014535 0.0020635129055965799 8.0213743517992589e-05 4.6138622573334979e-07 1.1357774334629247
decision_type=2 2 2 2 2 2 2
left_child=3 6 -3 4 -1 -5 -2
right_child=1 2 -4 5 -6 -7 -8
leaf_value=-0.0081084047540961549 -0.189028667077492 0.3038389852538998 0 0.16694763443530838 -0.1707225684163248 0 0
leaf_weight=83.353137154394062 4.3568167566991205 13.134878460652546 4.4653535654942962 15.852127977064809 27.151840695805731 43.793515243000002 0.62851583078736428
leaf_count=4156 227 520 286 633 1482 2046 39
internal_value=0 0.116068 0.222556 -0.0194452 -0.0543091 0.0335771 -0.121447
internal_weight=0 22.5856 17.6002 170.151 110.505 59.6456 4.98533
internal_count=9389 1072 806 8317 5638 2679 266
is_linear=0
shrinkage=0.3


Tree=43
num_leaves=6
num_cat=0
split_feature=13 29 3 19 8
split_gain=2.94448 14.0647 3.63479 21.0066 4.97378
threshold=4.0872830616474e-07 0.00068755107504461798 -0.41878932714462275 0.002487548914795469 -0.083146052671031076
decision_type=2 2 2 2 2
left_child=1 -1 3 -2 -4
right_child=2 -3 4 -5 -6
leaf_value=0.94753396066841911 0.28079881853038102 0 -0.0057013495372216635 -0.23301809710636132 -0.16549805047253691
leaf_weight=1.6780205676332105 19.242913789916205 3.6419650754251052 135.77661148979678 10.250011659038135 22.329993868712336
leaf_count=67 1311 210 5850 626 1325
internal_value=0 0.212842 -0.0114332 0.0788271 -0.0326351
internal_weight=0 5.31999 187.6 29.4929 158.107
internal_count=9389 277 9112 1937 7175
is_linear=0
shrinkage=0.3


Tree=44
num_leaves=8
num_cat=0
split_feature=20 5 3 8 11 12 3
split_gain=2.56577 2.88603 3.66233 3.41472 2.42416 1.28053 0.12365
threshold=-0.0059527611847725028 -3.9322863471106762 1.4761685729026797 -0.12926440485586585 3.6035499276249084e-05 0.076852234187886684 0.36029660701751715
decision_type=2 2 2 2 2 2 2
left_child=4 3 -3 -2 6 -6 -1
right_child=1 2 -4 -5 5 -7 -8
leaf_value=0.06399406828689827 -0.24457578522759232 0 0.11086908827840211 0 -0.2675621570869513 0 -0.016510171080663258
leaf_weight=2.4480807650543275 8.7152700279984838 135.58445897751517 30.612917808553902 4.4715689450385971 7.9111556712014117 0.5959942138288169 4.0413428229512647
leaf_count=255 390 7224 473 206 602 16 223
internal_value=0 0.00231612 0.0167604 -0.127394 -0.124634 -0.230277 0
internal_weight=0 179.384 166.197 13.1868 14.9966 8.50715 6.48942
internal_count=9389 8293 7697 596 1096 618 478
is_linear=0
shrinkage=0.3


Tree=45
num_leaves=7
num_cat=0
split_feature=21 17 12 25 1 1
split_gain=2.6357 3.20934 4.02878 2.21499 4.41543 3.55646
threshold=1.6569020430654643e-07 0.00021367815714447625 0.01874223499935335 0.0028567356662891731 1.7724948924624429 1.9870483299781436
decision_type=2 2 2 2 2 2
left_child=1 -1 -3 5 -5 -2
right_child=3 2 -4 4 -6 -7
leaf_value=0 -0.052465441140315913 0.41191583861454029 0 0.10007208463856708 -0.093043892139169623 0.14526021397371316
leaf_weight=3.6516389975731709 128.51356527108146 5.009985561715439 1.3982306933030484 34.434924469489488 12.39964077316108 7.1726674180245018
leaf_count=223 7014 118 26 1432 441 135
internal_value=0 0.140535 0.275818 -0.0148927 0.0342089 -0.036927
internal_weight=0 10.0599 6.40822 182.521 46.8346 135.686
internal_count=9389 367 144 9022 1873 7149
is_linear=0
shrinkage=0.3


Tree=46
num_leaves=8
num_cat=0
split_feature=26 3 0 26 0 20 14
split_gain=1.75194 4.71868 10.0953 4.77432 4.37156 5.66005 3.68206
threshold=0.089875269082778445 -0.12662635743618009 0.8430674536268804 -0.094542767508279543 0.85777467823197762 -0.0029377983161655847 0.44447474208754117
decision_type=2 2 2 2 2 2 2
left_child=1 2 -1 -3 5 -2 -6
right_child=4 3 -4 -5 6 -7 -8
leaf_value=-0.1398756668612996 -0.17304739926289056 -0.096317511798316519 0.19926446813142745 0.052655421484207383 -0.17267318306603374 0.074841483482522161 0.010017070963872787
leaf_weight=8.3064206362178066 10.124534321876125 38.902968757931376 29.911503940667899 33.297183914997731 28.150334153731819 37.268807566200849 5.2091181675204998
leaf_count=741 515 2309 1440 1429 1330 1423 202
internal_value=0 0.0191506 0.107497 -0.0180563 -0.0381581 0.00732377 -0.12346
internal_weight=0 110.418 38.2179 72.2002 80.7528 47.3933 33.3595
internal_count=9389 5919 2181 3738 3470 1938 1532
is_linear=0
shrinkage=0.3


Tree=47
num_leaves=8
num_cat=0
split_feature=18 13 1 8 23 7 1
split_gain=1.65409 5.24363 5.50071 5.31823 4.5529 5.18137 1.33486
threshold=-0.0074839102494000933 8.1779209786740677e-05 1.656559596013554 -0.19605589615976118 6.8464784584503935e-08 1.3162491031157135 1.9314991533361565
decision_type=2 2 2 2 2 2 2
left_child=1 2 -1 -3 6 -6 -2
right_child=4 3 -4 -5 5 -7 -8
leaf_value=0 -0.24259335000047766 0.036551713787265697 0.16754499856503077 -0.17667800000311817 -0.032281579382467437 0.22356782063640543 0
leaf_weight=30.943322626553709 10.705583955743347 14.978895708118214 31.593968989312998 18.826081686900579 75.975553318363382 7.7455866670497917 0.19673593121115196
leaf_count=1557 1671 435 1600 925 2896 267 38
internal_value=0 0.022539 0.0791549 -0.0617831 -0.0325367 -0.000367762 -0.216265
internal_weight=0 96.3423 62.5373 33.805 94.6235 83.7211 10.9023
internal_count=9389 4517 3157 1360 4872 3163 1709
is_linear=0
shrinkage=0.3


Tree=48
num_leaves=8
num_cat=0
split_feature=22 26 7 21 29 12 20
split_gain=3.94843 5.22781 9.1765 4.01567 3.12332 0.262067 0.143166
threshold=-0.029068236909165487 0.089875269082778445 1.0996519770787667 2.6040159202388887e-05 0.0036999728122303187 0.091352636567401571 0.00061479609607029151
decision_type=2 2 2 2 2 2 2
left_child=4 3 -3 -2 5 -1 -6
right_child=1 2 -4 -5 6 -7 -8
leaf_value=0.2649266117110346 -0.0038494564865116979 -0.23073611459474819 0 0.10656399306987675 0 0 -0.070123135603081296
leaf_weight=9.5374493338167685 64.622957889645477 22.158225862993277 41.841318548053096 42.153435348722269 2.6840659128502002 4.3591321660205713 2.6200321223586798
leaf_count=89 3599 1011 2280 2305 34 52 28
internal_value=0 -0.00301734 -0.0743532 0.033277 0.137824 0.215576 0
internal_weight=0 170.776 63.9995 106.776 19.2007 13.8966 5.3041
internal_count=9398 9195 3291 5904 203 141 62
is_linear=0
shrinkage=0.3


Tree=49
num_leaves=8
num_cat=0
split_feature=13 11 3 10 3 20 29
split_gain=2.72773 6.48233 4.9771 4.73623 3.68666 3.55221 2.46073
threshold=1.8601940817642335e-05 1.4650448896011593e-05 0.34358732402324682 -0.039872880088717304 -0.11846689507365225 0.0020253965087131402 0.0015498643553695339
decision_type=2 2 2 2 2 2 2
left_child=3 6 -3 5 -5 -1 -2
right_child=1 2 -4 4 -6 -7 -8
leaf_value=0 -0.20184118555140626 0 0.1266956464410916 0 -0.12853040826747816 0.65862225267178076 0
leaf_weight=1.1260422691702836 10.850597988450319 40.587027453242627 59.620159871323267 27.708489316704799 36.178480173708522 1.3455017070518804 11.467968230223049
leaf_count=70 604 2653 1768 1448 2416 52 387
internal_value=0 0.0345507 0.0712757 -0.0395331 -0.0645109 0.326864 -0.0994181
internal_weight=0 122.526 100.207 66.3585 63.887 2.47154 22.3186
internal_count=9398 5412 4421 3986 3864 122 991
is_linear=0
shrinkage=0.3


Tree=50
num_leaves=8
num_cat=0
split_feature=22 18 12 19 23 7 1
split_gain=2.74158 3.56879 3.43655 10.9894 4.55951 1.9271 1.88873
threshold=0.00028804249320180114 -0.022804619375762499 -0.0027056216955387287 6.4117602796638678e-05 8.0012727818293073e-06 1.1272510564560658 1.2375032079520603
decision_type=2 2 2 2 2 2 2
left_child=2 6 3 -1 -4 -3 -2
right_child=1 5 4 -5 -6 -7 -8
leaf_value=0.39145915986346663 0 -0.12078755334492391 -0.075996082260436582 0.011202851841464738 0.055086088905141314 0.065088762212975451 -0.23545952486298918
leaf_weight=8.9162967924785317 1.5233367774635542 7.4513844125976929 48.774263966522994 49.555638952617301 43.718479735776782 15.276657531197996 11.905265241744926
leaf_count=580 79 830 3055 1743 378 1272 1461
internal_value=0 -0.0683434 0.0227693 0.0809915 -0.00657652 0 -0.191034
internal_weight=0 36.1566 150.965 58.4719 92.4927 22.728 13.4286
internal_count=9398 3642 5756 2323 3433 2102 1540
is_linear=0
shrinkage=0.3


Tree=51
num_leaves=8
num_cat=0
split_feature=27 1 8 8 10 2 2
split_gain=2.10997 3.2955 7.68053 6.28555 2.97742 2.31797 1.27205
threshold=0.00043975829320409653 1.5666279254517759 -0.21522791513233278 -0.19918072133947154 0.020233554536749469 0.0030351039619029765 0.0083447656875358916
decision_type=2 2 2 2 2 2 2
left_child=4 3 -3 -2 5 -1 -6
right_child=1 2 -4 -5 6 -7 -8
leaf_value=0 0.051453207313159409 -0.078182159686021782 0.097236143172519537 -0.14732022945699166 0 -0.22785244458741608 0.23904949976114595
leaf_weight=8.4374675141007227 24.019523343617038 26.605162540079618 83.080841424933169 26.880045684541983 2.0429396220715708 11.753206669876816 2.260217736242339
leaf_count=368 1116 1133 4085 1847 119 645 85
internal_value=0 0.0160923 0.0483955 -0.0399613 -0.0778138 -0.14103 0.0584305
internal_weight=0 160.586 109.686 50.8996 24.4938 20.1907 4.30316
internal_count=9398 8181 5218 2963 1217 1013 204
is_linear=0
shrinkage=0.3


Tree=52
num_leaves=8
num_cat=0
split_feature=5 29 1 29 6 23 21
split_gain=1.89514 7.62295 5.85161 5.24839 4.53906 3.79436 1.96399
threshold=-3.5316543399700726 0.0039094962977668278 1.7766687259599676 0.0057929430667218729 0.9472001314925359 5.5031534171588048e-05 2.6040159202388887e-05
decision_type=2 2 2 2 2 2 2
left_child=2 4 3 -1 -2 -3 -4
right_child=1 5 6 -5 -6 -7 -8
leaf_value=0.080015149373882891 0.059472636005590343 0.29142042696245563 -0.16303416389958261 -0.096598510927174891 -0.17738468688711354 0 0
leaf_weight=99.859657281296677 4.4630391416139892 6.8040783639444253 16.769226965116108 14.59303149912739 30.747249346182798 2.181984132155776 9.7000479239504767
leaf_count=5076 50 181 782 687 2107 21 494
internal_value=0 -0.0531952 0.0179683 0.0514667 -0.127763 0.162185 -0.100806
internal_weight=0 44.1964 140.922 114.453 35.2103 8.98606 26.4693
internal_count=9398 2359 7039 5763 2157 202 1276
is_linear=0
shrinkage=0.3


Tree=53
num_leaves=8
num_cat=0
split_feature=26 5 13 1 3 12 8
split_gain=1.39238 6.20913 5.79126 4.19916 3.51338 3.66835 2.33137
threshold=-0.48991384961162215 -3.5979651323295858 4.1607652477872787e-05 1.4668834332971132 -0.45658589899539942 -0.0021988277468456548 -0.085098741115406468
decision_type=2 2 2 2 2 2 2
left_child=1 3 -3 -1 5 -2 -6
right_child=4 2 -4 -5 6 -7 -8
leaf_value=0.22063124221715516 0 0.48170962835959918 0 -0.16812568354447049 0.020125265787548537 -0.21874540054426644 -0.11090244378720368
leaf_weight=2.9894844650989425 9.6565108093345788 5.1288418931362676 1.6673789415799545 8.2244781644549203 130.46294775220304 13.785502167975208 12.907204037881455
leaf_count=142 672 183 140 580 6007 937 737
internal_value=0 0.0782404 0.313734 -0.0029479 -0.00950226 -0.118556 0.00351561
internal_weight=0 18.0102 6.79622 11.214 166.812 23.442 143.37
internal_count=9398 1045 323 722 8353 1609 6744
is_linear=0
shrinkage=0.3


Tree=54
num_leaves=8
num_cat=0
split_feature=20 24 29 28 19 4 22
split_gain=2.6139 10.4096 6.36602 6.29031 5.51093 4.07273 3.56993
threshold=-0.0015962957244912144 -0.047579307445020307 0.0030226184911173438 0.13842619095446798 7.7307092868404075 3.4308423995971684 -0.072040515132343538
decision_type=2 2 2 2 2 2 2
left_child=1 3 -3 -1 5 -2 -6
right_child=4 2 -4 -5 6 -7 -8
leaf_value=0.36107520662126574 -0.039273345462672582 -0.10526636060655853 0.14336675150898809 0 0 0.11013672894613327 -0.38702797967791541
leaf_weight=12.145281033102945 96.690566130215302 31.301990964628203 11.906813480673007 3.6320751700695828 3.5407944996841252 18.706025700681494 6.3466781995375623
leaf_count=554 5611 2050 537 275 43 267 69
internal_value=0 0.041 -0.0207802 0.253931 -0.0337779 -0.00907322 -0.252303
internal_weight=0 58.9862 43.2088 15.7774 125.284 115.397 9.88747
internal_count=9406 3416 2587 829 5990 5878 112
is_linear=0
shrinkage=0.3


Tree=55
num_leaves=8
num_cat=0
split_feature=2 24 27 4 23 4 25
split_gain=1.16028 3.05831 6.7987 2.81846 4.5353 4.14191 1.76511
threshold=0.0089352952519515215 -0.07724147567009769 0.0010351588241663589 1.4259788990020754 7.1585853370162837e-05 -0.91351705789566029 0.0023362147213161605
decision_type=2 2 2 2 2 2 2
left_child=1 2 -1 5 -5 -2 -3
right_child=3 6 -4 4 -6 -7 -8
leaf_value=-0.017462911970927315 0.040976710894991338 0.01747546563847063 0.33366232692850889 0.11897633975408786 -0.098599937063517384 -0.14352135639910321 -0.072148034578374778
leaf_weight=4.7252156647082293 8.8120349534001416 67.627141407901945 8.0733356028649705 20.351346078903589 12.980868485406971 34.000396467490646 26.554714773446904
leaf_count=253 424 3754 364 621 128 2526 1336
internal_value=0 0.0110972 0.150111 -0.0352907 0.0135401 -0.0894273 -0.000466909
internal_weight=0 106.98 12.7986 76.1446 33.3322 42.8124 94.1819
internal_count=9406 5707 617 3699 749 2950 5090
is_linear=0
shrinkage=0.3


Tree=56
num_leaves=8
num_cat=0
split_feature=11 26 2 16 17 5 8
split_gain=1.46865 4.53465 4.32812 4.17486 4.08282 3.46127 2.02933
threshold=1.9941305025367219e-05 -0.13504492146244459 0.0099290457891893762 -0.043721063597525971 0.00038083817667980895 -3.4621112935245475 -0.030312342622799585
decision_type=2 2 2 2 2 2 2
left_child=2 3 6 -2 -3 -4 -1
right_child=1 4 5 -5 -6 -7 -8
leaf_value=-0.004300984146929818 0.003526282311826022 0.11454311052971712 -0.24031835494301512 -0.16298306810567467 0 0 0.24836388183667088
leaf_weight=26.418003155224145 17.309086808527354 45.105718316895945 14.263312856579434 21.463929005520185 51.233123803747731 3.6403146893790099 2.9526322721503666
leaf_count=1417 806 3260 725 1526 1343 184 145
internal_value=0 0.00896814 -0.05095 -0.0708521 0.0482563 -0.169148 0
internal_weight=0 135.112 47.2743 38.773 96.3388 17.9036 29.3706
internal_count=9406 6935 2471 2332 4603 909 1562
is_linear=0
shrinkage=0.3


Tree=57
num_leaves=6
num_cat=0
split_feature=18 12 0 12 20
split_gain=1.29749 1.61818 4.15877 1.78409 1.50022
threshold=5.2029444384406309 -0.014643063202428972 0.85563502709897443 -0.0093486495667648422 0.00076265117319995756
decision_type=2 2 2 2 2
left_child=1 2 -1 -3 -2
right_child=4 3 -4 -5 -6
leaf_value=0 0.20567835511027982 0.090539506782375656 -0.24011090862412809 -0.012388503324796723 0
leaf_weight=15.262940561820871 5.3564038756012433 17.172104261233471 9.4666108395758766 129.00190272037071 6.8568395714974031
leaf_count=776 90 788 649 7028 75
internal_value=0 -0.0123042 -0.0832787 0 0.0865964
internal_weight=0 170.904 24.7296 146.174 12.2132
internal_count=9406 9241 1425 7816 165
is_linear=0
shrinkage=0.3


Tree=58
num_leaves=7
num_cat=0
split_feature=29 29 0 5 7 16
split_gain=0.991434 2.41903 3.81101 2.53885 1.75185 0.367291
threshold=0.00024080901736497893 0.00058119341568470208 0.84984161448316176 -3.7577765760114832 1.2484515690046565 -2.0172091774183478
decision_type=2 2 2 2 2 2
left_child=4 2 -2 -3 5 -1
right_child=1 3 -4 -5 -6 -7
leaf_value=0 -0.0088387903084139203 0.040462153296975965 0.16988350828985707 -0.041538066214666637 0 -0.23062116456872647
leaf_weight=0.33819625100295514 10.300193329610922 45.2053712321067 18.752524517243728 100.3785063108553 1.3786226892989359 5.2629882223372979
leaf_count=14 724 2210 931 4702 115 710
internal_value=0 0.000367814 0.0827678 -0.0113359 -0.113053 -0.209937
internal_weight=0 174.637 29.0527 145.584 6.97981 5.60118
internal_count=9406 8567 1655 6912 839 724
is_linear=0
shrinkage=0.3


Tree=59
num_leaves=8
num_cat=0
split_feature=23 25 9 5 7 3 29
split_gain=1.06352 3.64441 3.89228 2.31798 2.21964 5.17436 4.37709
threshold=4.5186098507015544e-06 0.0016754926671005059 -0.11012610990592246 -3.8159341887820557 1.0794805885038725 -1.3682602643966673 0.0013763143800936354
decision_type=2 2 2 2 2 2 2
left_child=4 2 -2 -3 6 -6 -1
right_child=1 3 -4 -5 5 -7 -8
leaf_value=-0.06191318106179021 -0.047787503273507961 0.083704793927475929 0.13463945360004359 -0.078877801488393115 0.42943278855807271 -0.072256331169561774 0.1838492274458067
leaf_weight=8.8616073278026324 8.1909841283340921 6.8925155416945918 35.939435107662575 32.875717859191354 1.5667309763521178 75.044212429686013 11.958745273892417
leaf_count=1214 101 78 441 408 148 6250 766
internal_value=0 0.0207529 0.0851418 -0.0333462 -0.0247292 -0.052987 0.0461031
internal_weight=0 83.8987 44.1304 39.7682 97.4313 76.6109 20.8204
internal_count=9406 1028 542 486 8378 6398 1980
is_linear=0
shrinkage=0.3


Tree=60
num_leaves=8
num_cat=0
split_feature=0 6 3 3 3 2 19
split_gain=2.1438 9.14818 4.2378 4.1629 7.85191 3.07847 2.95649
threshold=0.8476982175515092 0.97556866012078247 -1.0511778593063352 0.97978222370147716 0.41859929263591772 0.01302821007507707 7.7307092868404075
decision_type=2 2 2 2 2 2 2
left_child=1 6 -3 4 -2 -5 -1
right_child=3 2 -4 5 -6 -7 -8
leaf_value=0.15544594980255697 0 0.092989909614501931 -0.18763433059001325 -0.12843672165097192 0.20995016840928193 0.031632250758442337 -0.011903458010324486
leaf_weight=16.823495632444978 62.959104739667964 2.1470742362143929 33.659013823940768 23.242656672533485 23.081659202296578 10.173113983495567 7.1204650234431019
leaf_count=167 3693 205 3180 763 1076 201 82
internal_value=0 -0.0484588 -0.151533 0.0209905 0.060098 -0.0590538 0.076859
internal_weight=0 59.75 35.8061 119.457 86.0408 33.4158 23.944
internal_count=9367 3634 3385 5733 4769 964 249
is_linear=0
shrinkage=0.3


Tree=61
num_leaves=8
num_cat=0
split_feature=1 6 3 10 8 24 4
split_gain=1.64986 5.37533 5.50057 5.48781 3.61694 3.66969 3.33285
threshold=1.6006088732656314 0.99352968330615943 0.56813231110572826 -0.0020398902875265463 -0.18049787380951965 0.033546859456350726 -1.0805304646492002
decision_type=2 2 2 2 2 2 2
left_child=1 2 -1 -3 5 -2 -6
right_child=4 3 -4 -5 6 -7 -8
leaf_value=-0.097615109885847692 -0.15244261943095447 0 0.10534660029450178 0.2992297663439526 -0.17578054295927534 0 0.041824591802106931
leaf_weight=29.413348427449819 30.544333998848742 6.6273287411604569 19.388125542645867 11.887052084013702 6.5099037293985011 11.205470277025595 60.696109116397565
leaf_count=2271 1207 613 416 728 480 572 3080
internal_value=0 0.0359681 -0.00284035 0.175533 -0.0237388 -0.0953464 0.0104772
internal_weight=0 67.3159 48.8015 18.5144 108.956 41.7498 67.206
internal_count=9367 4028 2687 1341 5339 1779 3560
is_linear=0
shrinkage=0.3


Tree=62
num_leaves=7
num_cat=0
split_feature=18 0 29 16 5 27
split_gain=1.71043 2.42353 4.03435 2.54249 1.80792 1.04918
threshold=3.9369008886599612 0.8476982175515092 0.00049214768509645988 -0.1103665673761529 -3.6840255376143025 0.00053043838098487488
decision_type=2 2 2 2 2 2
left_child=1 3 -3 -1 -2 -6
right_child=4 2 -4 -5 5 -7
leaf_value=0 0 0.13116031957145047 -0.010917183708621237 -0.11762904903999927 0 0.26551984138731161
leaf_weight=15.698210606846258 5.5201906959409826 21.010153260587686 93.596521534273052 32.684804012409586 2.2598399329290242 5.6203556710970588
leaf_count=734 75 1245 4385 2811 27 90
internal_value=0 -0.009534 0.00910789 -0.0679547 0.101891 0.195708
internal_weight=0 162.99 114.607 48.383 13.4004 7.8802
internal_count=9367 9175 5630 3545 192 117
is_linear=0
shrinkage=0.3


Tree=63
num_leaves=8
num_cat=0
split_feature=25 24 27 4 15 3 18
split_gain=1.31896 2.99662 5.76372 2.59055 2.44687 2.23756 1.42299
threshold=0.0011262255503912599 0.018310360395993323 0.00073491652871677659 -1.0151883363723753 1.1302623452662305e-05 -0.25881141424179072 -0.079809562686999611
decision_type=2 2 2 2 2 2 2
left_child=1 5 -3 6 -5 -1 -2
right_child=3 2 -4 4 -6 -7 -8
leaf_value=-0.13566310339667634 0 0.35931276349696856 0 0.023420354867236603 -0.084637047890421188 0.024253948737877996 -0.19053444787659257
leaf_weight=10.071336216184134 1.7902690789487667 6.6973307882763065 16.99069102571957 76.461836838519957 24.886954895904637 27.238380698021501 11.118359848649559
leaf_count=608 27 296 799 3850 1436 1417 934
internal_value=0 0.0353628 0.120851 -0.0192698 0 -0.000418334 -0.146108
internal_weight=0 60.9977 23.688 114.257 101.349 37.3097 12.9086
internal_count=9367 3120 1095 6247 5286 2025 961
is_linear=0
shrinkage=0.3


Tree=64
num_leaves=7
num_cat=0
split_feature=27 9 9 12 5 11
split_gain=1.28416 3.13479 2.56662 5.0411 3.91297 0.349084
threshold=0.0065370908356059618 -0.067332848392578415 -0.037199991933190256 -0.013085963168980861 -3.5979651323295858 2.5987183309772791e-05
decision_type=2 2 2 2 2 2
left_child=2 5 4 -4 -1 -2
right_child=1 -3 3 -5 -6 -7
leaf_value=-0.12177348373356901 0 0 -0.14110725676771935 0.047115598631904142 0.018707486499467386 0.39336119418606613
leaf_weight=36.897430141587392 0.82500620288192328 3.3687786215450606 13.726239088024156 96.047589351015631 20.757296156196389 2.7466437637194758
leaf_count=1711 51 184 1154 5397 790 80
internal_value=0 0.126744 -0.00493528 0.0172932 -0.0592272 0.331963
internal_weight=0 6.94043 167.429 109.774 57.6547 3.57165
internal_count=9367 315 9052 6551 2501 131
is_linear=0
shrinkage=0.3


Tree=65
num_leaves=8
num_cat=0
split_feature=13 4 29 29 5 18 27
split_gain=1.16706 5.5983 3.82501 2.49726 6.67826 3.31601 2.43367
threshold=0.00019522263443678671 -0.73483932018280018 0.0008159603325359131 0.00060509636776166005 -3.725895338176739 -0.039941346692771766 0.0015909444484335127
decision_type=2 2 2 2 2 2 2
left_child=3 2 -2 4 -1 -5 -3
right_child=1 6 -4 5 -6 -7 -8
leaf_value=-0.094484611060278598 0 -0.057356621944156999 0.50413841991604835 0.0058904229952456222 0.16838312603712019 -0.092726120611474075 0.094175700229197787
leaf_weight=11.852205289491392 1.0426089085740375 22.756593429847271 3.6559561104513705 44.194555531721562 20.307413500751863 54.079114819149254 16.254465510894079
leaf_count=743 99 998 93 2164 1298 3518 454
internal_value=0 0.0430915 0.352846 -0.0135284 0.0500468 -0.0413553 0
internal_weight=0 43.7096 4.69857 130.433 32.1596 98.2737 39.0111
internal_count=9367 1644 192 7723 2041 5682 1452
is_linear=0
shrinkage=0.3


Tree=66
num_leaves=8
num_cat=0
split_feature=10 28 0 2 8 2 3
split_gain=2.34157 3.03251 3.19895 2.50198 4.90315 2.58522 2.25508
threshold=0.0050190561192717817 -0.46577447427748081 0.83269374997075729 0.00812484150813827 -0.15230921722717994 0.010337309095150961 1.0932731628417971
decision_type=2 2 2 2 2 2 2
left_child=1 6 -3 4 -2 -5 -1
right_child=3 2 -4 5 -6 -7 -8
leaf_value=-0.090310702782261318 0 -0.015805726486583186 0.11450807942921779 0.16391560222116672 -0.20673589404387607 -0.0083005781671014432 0.068682515275799327
leaf_weight=21.364053615570814 23.096962657014956 12.319349657424025 54.091779776506883 8.9492527940456039 16.671745195370022 25.05714028944567 8.8695702157856413
leaf_count=1508 1183 982 2869 328 982 1337 197
internal_value=0 0.0412741 0.0799435 -0.0274561 -0.0825911 0.0167286 -0.0208417
internal_weight=0 96.6448 66.4111 73.7751 39.7687 34.0064 30.2336
internal_count=9386 5556 3851 3830 2165 1665 1705
is_linear=0
shrinkage=0.3


Tree=67
num_leaves=8
num_cat=0
split_feature=27 2 29 8 5 24 5
split_gain=2.00459 3.93672 2.87106 4.4783 1.99027 1.90301 0.51547
threshold=0.003480495409573551 0.01814146436502519 0.002181265206259054 -0.23789826349659127 -3.6330330642370874 0.082192452876093461 -3.7816125391180413
decision_type=2 2 2 2 2 2 2
left_child=2 5 4 -4 -1 -2 -3
right_child=1 6 3 -5 -6 -7 -8
leaf_value=0.023089338745371189 -0.20826488501886717 0 -0.0051045220065047588 0.14776727824727909 -0.059778225183783201 0 0.17882006904649134
leaf_weight=55.549758386256144 14.346472019977229 1.1940056602470579 20.004787367535755 32.338592380277987 42.818886470828147 1.4601117850688741 2.5755851935537057
leaf_count=3330 1009 70 660 1240 2882 95 100
internal_value=0 -0.0823263 0.0179771 0.0761585 -0.00596676 -0.168916 0.0976883
internal_weight=0 19.5762 150.712 52.3434 98.3686 15.8066 3.76959
internal_count=9386 1274 8112 1900 6212 1104 170
is_linear=0
shrinkage=0.3


Tree=68
num_leaves=8
num_cat=0
split_feature=0 8 8 10 0 17 4
split_gain=1.65988 2.98939 2.49638 2.46563 2.46295 3.33303 2.79519
threshold=0.86392138665827412 -0.10077707416171697 -0.16442190293821354 0.029727184962582202 0.83589303889524402 0.00038083817667980895 -0.050244962796568864
decision_type=2 2 2 2 2 2 2
left_child=4 2 -2 -3 5 -1 -6
right_child=1 3 -4 -5 6 -7 -8
leaf_value=-0.19778065937251987 -0.055774508309606244 -0.23305864425742553 0.086273121620067478 0 0.10813400527062871 0 0
leaf_weight=8.6902543851065293 28.482624744374331 10.419672339005045 18.281148480844426 2.4410841452045124 43.41399398798967 18.880238725318122 39.428857244532992
leaf_count=1478 1563 691 919 117 2329 605 1684
internal_value=0 -0.035472 0 -0.163563 0.025956 -0.0380791 0.0555975
internal_weight=0 59.6245 46.7638 12.8608 110.413 27.5705 82.8429
internal_count=9386 3290 2482 808 6096 2083 4013
is_linear=0
shrinkage=0.3


Tree=69
num_leaves=8
num_cat=0
split_feature=24 28 28 1 11 25 11
split_gain=1.6406 3.36152 3.12058 3.11616 2.87383 1.52164 1.26397
threshold=-0.023925078831084353 -0.58145535078178523 0.069992386814539023 1.5150310246809797 1.8932421562334246e-05 0.00087921832243141346 3.7869814431912528e-05
decision_type=2 2 2 2 2 2 2
left_child=2 5 4 -3 -1 -2 -4
right_child=1 3 6 -5 -6 -7 -8
leaf_value=0 0 -0.10656519544592991 0 0.038610988256805701 0.14320405010255727 -0.16618817338358727 -0.10249730433917442
leaf_weight=8.2429126379211066 8.0281559769355244 16.043918116160057 11.061520724593722 66.095401599748584 30.820108444780999 17.407904836538364 12.114670333030515
leaf_count=507 430 1187 571 3289 1527 1206 669
internal_value=0 -0.0196616 0.0412818 0.00185254 0.0977695 -0.116266 -0.0241515
internal_weight=0 107.575 62.2392 82.1393 39.063 25.4361 23.1762
internal_count=9386 6112 3274 4476 2034 1636 1240
is_linear=0
shrinkage=0.3


Tree=70
num_leaves=8
num_cat=0
split_feature=23 1 21 21 4 10 1
split_gain=1.80844 2.57523 4.71393 3.31358 2.04049 2.88912 2.56318
threshold=4.5186098507015544e-06 1.5934218802304625 1.59138197534017e-05 1.2082227391507329e-05 0.5708601474761964 0.010678674983774618 1.55460197986523
decision_type=2 2 2 2 2 2 2
left_child=1 3 -3 -1 6 -6 -2
right_child=4 2 -4 -5 5 -7 -8
leaf_value=0.12043778187980528 0 -0.17455177422223389 0 -0.044801189561335206 0.048159247709915816 -0.10211104864572598 0.16307252456148058
leaf_weight=18.498593290558347 8.0093427094689122 23.64663945216671 28.693525286947988 20.118655019210564 34.975695990287932 17.1577021505218 18.882329760148423
leaf_count=1558 113 2419 2435 1955 467 233 206
internal_value=0 -0.0287056 -0.0752307 0.0164826 0.033334 0 0.10047
internal_weight=0 90.9574 52.3402 38.6172 79.0251 52.1334 26.8917
internal_count=9386 8367 4854 3513 1019 700 319
is_linear=0
shrinkage=0.3


Tree=71
num_leaves=8
num_cat=0
split_feature=26 0 12 0 1 21 29
split_gain=1.27364 5.36097 4.06667 3.0627 2.42738 2.33619 2.05262
threshold=0.061820431203594824 0.86206963009789284 0.00535721072168971 0.85387732610446887 1.7866784455329976 4.8858023824095119e-06 0.0011384277608995185
decision_type=2 2 2 2 2 2 2
left_child=3 6 -3 4 -1 -5 -2
right_child=1 2 -4 5 -6 -7 -8
leaf_value=-0.13641948425035988 0 -0.16803967229264724 0.033405740025332822 0.11226693015247105 0 -0.01551398719569202 0.13872477858650159
leaf_weight=29.225230653408289 15.519733152475963 16.473192084016777 10.471602378813257 16.328742341822363 7.9692811172208158 39.465085402647674 32.016965028342383
leaf_count=2187 1124 996 395 818 571 2133 1162
internal_value=0 0.0283325 -0.0641409 -0.0242845 -0.0935381 0.00951444 0.0952655
internal_weight=0 74.4815 26.9448 92.9883 37.1945 55.7938 47.5367
internal_count=9386 3677 1391 5709 2758 2951 2286
is_linear=0
shrinkage=0.3


Tree=72
num_leaves=8
num_cat=0
split_feature=27 3 19 3 22 5 7
split_gain=2.66547 2.85191 2.83624 3.78362 2.96998 2.70914 2.46353
threshold=0.001470851200059451 0.82475844025611889 0.00031679548509359429 -0.25881141424179072 -0.00048984253689676727 -3.7644776175693981 1.2235614271927591
decision_type=2 2 2 2 2 2 2
left_child=1 6 4 -4 -2 -3 -1
right_child=2 5 3 -5 -6 -7 -8
leaf_value=-0.11578577416946437 6.7442431738650496e-05 0.19875685130071724 -0.04121074301880745 0.11791042321789003 -0.20790289222616232 0 0
leaf_weight=42.412562570016235 11.841098378547033 6.6792796489608035 10.921760350483963 48.774736275103351 6.8490227182192021 22.756689605288557 19.387071892779204
leaf_count=3407 525 136 738 1554 1306 676 1142
internal_value=0 -0.034764 0.040666 0.0772383 -0.0392233 0.0260982 -0.07492
internal_weight=0 91.2356 78.3866 59.6965 18.6901 29.436 61.7996
internal_count=9484 5361 4123 2292 1831 812 4549
is_linear=0
shrinkage=0.3


Tree=73
num_leaves=8
num_cat=0
split_feature=17 27 1 9 22 11 0
split_gain=1.3298 2.89658 3.36206 1.87962 2.75088 2.2938 1.12527
threshold=0.0016341885707887415 0.0010923139645272293 1.7974498086278698 -0.087187853670526269 -0.00022463294293922906 2.7215298021963789e-05 0.8563168850217483
decision_type=2 2 2 2 2 2 2
left_child=3 6 -3 4 -1 -5 -2
right_child=1 2 -4 5 -6 -7 -8
leaf_value=0.17939752845742352 0 0.15020296663913257 0 -0.10917830270085571 -0.037525773472613259 0 -0.11100115723556105
leaf_weight=9.3161495014064695 13.021964025974741 26.979374224429193 13.668681824055964 30.974093907114366 3.4237853177255593 58.76443627288063 10.133771492062804
leaf_count=394 292 508 203 2561 609 4659 258
internal_value=0 0.032885 0.0867783 -0.0222389 0.0669344 -0.0425889 -0.0319181
internal_weight=0 63.8038 40.6481 102.478 12.7399 89.7385 23.1557
internal_count=9484 1261 711 8223 1003 7220 550
is_linear=0
shrinkage=0.3


Tree=74
num_leaves=8
num_cat=0
split_feature=14 12 16 23 2 8 12
split_gain=1.09287 2.7522 3.37336 2.67612 2.619 1.72554 1.62399
threshold=-0.12650410816863042 0.0036438709948835028 -0.040132338014977446 5.9625184648540948e-06 0.0079813453077074922 -0.15230921722717994 0.05459425017285547
decision_type=2 2 2 2 2 2 2
left_child=4 2 -2 -3 5 -1 -6
right_child=1 3 -4 -5 6 -7 -8
leaf_value=0.044969596213300982 0 -0.13128336169028448 0.12032941179577969 0.00714636231977611 -0.18039484379263612 -0.069869696015035412 0
leaf_weight=30.566209008264192 25.675592882045748 16.968946729817617 36.272333996788802 19.989644622459309 13.941208486572576 19.149394450760159 1.885642889264999
leaf_count=1538 1489 1759 2208 252 857 1331 50
internal_value=0 0.0163804 0.0598089 -0.03774 -0.0331024 0 -0.139393
internal_weight=0 98.9065 61.9479 36.9586 65.5425 49.7156 15.8269
internal_count=9484 5708 3697 2011 3776 2869 907
is_linear=0
shrinkage=0.3


Tree=75
num_leaves=8
num_cat=0
split_feature=1 21 15 27 8 12 18
split_gain=1.0239 1.9793 2.83788 1.92573 3.70773 2.50029 0.865937
threshold=1.4640843062823989 3.0362298502497861e-05 8.4777465084664861e-07 0.0018514397104811714 -0.19823524184205196 -0.023660133918026679 0.047759437294392144
decision_type=2 2 2 2 2 2 2
left_child=1 2 -1 4 -2 -5 -3
right_child=3 6 -4 5 -6 -7 -8
leaf_value=0.2460395280020867 -0.13978190885816383 -0.12554910066261804 0 0.29124790272509582 0 0 0
leaf_weight=8.2558418812986947 25.500256958368482 4.9439475912404287 7.666030141986993 3.0611414600571143 65.014278594113421 44.206844193904544 4.8096191560580337
leaf_count=381 1321 378 753 127 3873 2373 278
internal_value=0 0.0507941 0.123889 -0.0137121 -0.0426384 0.0270799 0
internal_weight=0 25.6754 15.9219 137.783 90.5145 47.268 9.75357
internal_count=9484 1790 1134 7694 5194 2500 656
is_linear=0
shrinkage=0.3


Tree=76
num_leaves=8
num_cat=0
split_feature=24 26 29 18 29 18 28
split_gain=0.800958 2.65877 1.96254 1.89593 1.71723 1.70071 1.62531
threshold=-0.0075930101212264281 0.14170970309102851 0.0008159603325359131 -0.070326994859404399 0.00073229148752850957 -0.064575595846952258 -0.79561377882416284
decision_type=2 2 2 2 2 2 2
left_child=3 2 -2 4 -1 -3 -5
right_child=1 5 -4 6 -6 -7 -8
leaf_value=0 0 -0.012871651741916394 -0.11041749484230864 -0.11655839810654402 0.12287411644694272 0.10208720290472319 0.0075911165379840308
leaf_weight=8.5202419225061039 18.84770010826287 9.8281098609186319 34.306912928735983 10.706759647362558 23.455586457130266 18.307025209429412 38.667389441576233
leaf_count=421 1413 495 2191 659 943 1035 2327
internal_value=0 -0.0226536 -0.0674246 0.0193214 0.0790048 0.0374026 -0.00535441
internal_weight=0 81.2897 53.1546 81.35 31.9758 28.1351 49.3741
internal_count=9484 5134 3604 4350 1364 1530 2986
is_linear=0
shrinkage=0.3


Tree=77
num_leaves=8
num_cat=0
split_feature=7 23 16 23 19 18 28
split_gain=0.779651 3.48779 1.05411 0.889789 2.49407 0.715499 0.696357
threshold=1.3417797128877738 1.0055853502982009e-06 0.056086081237280434 0.0004811691031711114 7.7307092868404075 0.096546499213488915 1.7280463173816625
decision_type=2 2 2 2 2 2 2
left_child=3 5 -3 4 -1 -2 -5
right_child=1 2 -4 6 -6 -7 -8
leaf_value=-0.0023766021353567464 -0.1329211655209859 0.37171009848674014 0 0.15948473549514056 -0.19552213002646676 0 0
leaf_weight=137.56920896337033 3.6443996397283609 3.4082278943096753 2.1245829989202321 4.412502715131267 6.8580401354120104 1.3989634315075816 2.1374229327775538
leaf_count=8637 493 53 40 68 68 99 26
internal_value=0 0.0766763 0.260709 -0.0072732 -0.0163266 0 0.0869919
internal_weight=0 10.5762 5.53281 150.977 144.427 5.04336 6.54993
internal_count=9484 685 93 8799 8705 592 94
is_linear=0
shrinkage=0.3


Tree=78
num_leaves=8
num_cat=0
split_feature=4 3 1 5 16 17 16
split_gain=1.65686 3.50403 2.91624 2.50811 3.12754 2.16763 2.06121
threshold=-0.91351705789566029 -0.33536437153816218 1.6696224318465449 -3.8265470780652748 -0.020095996971486837 0.00011263117867003916 -0.053478995776687459
decision_type=2 2 2 2 2 2 2
left_child=1 2 -1 4 -2 -3 -5
right_child=3 5 -4 6 -6 -7 -8
leaf_value=0.34720285735329365 0 -0.08460202573345442 0 -0.038023903861468165 -0.20908185164933457 0.099268925044596668 0.043733477703857992
leaf_weight=6.092072518309581 11.197442034204871 10.763374755119004 1.5917488877894355 37.319064044844708 11.335487807977186 11.97871957105235 75.280923240880838
leaf_count=124 533 845 109 2025 635 754 4430
internal_value=0 0.0717443 0.247834 -0.00239025 -0.0974686 0 0.0105078
internal_weight=0 30.4259 7.68382 135.133 22.5329 22.7421 112.6
internal_count=9455 1832 233 7623 1168 1599 6455
is_linear=0
shrinkage=0.3


Tree=79
num_leaves=8
num_cat=0
split_feature=26 29 5 25 2 3 10
split_gain=1.61113 3.03879 2.9163 1.39492 2.72193 2.32327 0.624466
threshold=0.72790959815062561 0.00084731383097607401 -3.7365740737111257 0.00068208099806614303 0.0071318048628328575 0.082208633422851576 -0.0079815665661178131
decision_type=2 2 2 2 2 2 2
left_child=3 2 -2 4 -1 -5 -3
right_child=1 6 -4 5 -6 -7 -8
leaf_value=-0.18615491763817404 0 0.10747489005729556 0.41593655640937666 0.063618065153665054 0 -0.018441488163774545 -0.045001180239809521
leaf_weight=10.585591212780857 0.78822026449779503 3.6612901111002421 3.9426895971810145 45.863270566249412 12.921155767111484 81.291476782796963 6.867131084232823
leaf_count=625 68 173 200 3476 600 3956 357
internal_value=0 0.0978797 0.297835 -0.00181825 -0.0720019 0.00572933 0
internal_weight=0 15.2593 4.73091 150.661 23.5067 127.155 10.5284
internal_count=9455 798 268 8657 1225 7432 530
is_linear=0
shrinkage=0.3


Tree=80
num_leaves=7
num_cat=0
split_feature=25 8 12 8 9 10
split_gain=1.24866 2.29033 2.27677 2.14633 1.74654 0.917743
threshold=0.0046976655313675482 -0.25494514400170265 -0.013085963168980861 -0.26484583227655772 -0.043018114328275216 0.032367415130242445
decision_type=2 2 2 2 2 2
left_child=2 -2 4 -4 -1 -3
right_child=1 5 3 -5 -6 -7
leaf_value=0 0 -0.21123156786352609 -0.057206573264177489 0.049233229500652773 -0.14325227815873767 0
leaf_weight=14.291588516949561 2.2895055979606687 8.5145656159511383 14.466614202356139 114.08252384039224 12.310776246973544 0.74115674846689295
leaf_count=456 90 367 761 6589 1160 32
internal_value=0 -0.0888759 0.0117006 0.0318863 -0.0598998 -0.179227
internal_weight=0 11.5452 155.152 128.549 26.6024 9.25572
internal_count=9455 489 8966 7350 1616 399
is_linear=0
shrinkage=0.3


Tree=81
num_leaves=8
num_cat=0
split_feature=7 28 9 29 28 0 18
split_gain=1.02802 4.34933 3.54566 3.15941 2.25323 2.0576 1.61871
threshold=1.1787826839783315 -0.038182392933930824 -0.037199991933190256 0.00045237686310350256 -0.29083254389436608 0.85048085024730702 0.047759437294392144
decision_type=2 2 2 2 2 2 2
left_child=3 2 -2 6 -5 -3 -1
right_child=1 5 -4 4 -6 -7 -8
leaf_value=0 -0.10050996381512914 0 0.0947466223273217 0 0.087910489746418574 -0.15778808396978064 -0.23489430821371729
leaf_weight=8.5821879554796379 9.0922623088918026 9.7023156959403405 29.302857173886878 28.55282356186035 53.186239596820087 23.50346866953987 4.8923671009724776
leaf_count=782 570 664 1726 1607 2472 1164 470
internal_value=0 -0.0248877 0.0305345 0.022493 0.0504748 -0.109753 -0.0960335
internal_weight=0 71.6009 38.3951 95.2136 81.7391 33.2058 13.4746
internal_count=9455 4124 2296 5331 4079 1828 1252
is_linear=0
shrinkage=0.3


Tree=82
num_leaves=8
num_cat=0
split_feature=27 2 24 6 19 27 9
split_gain=0.79424 2.26634 1.99755 1.53419 3.16609 1.69475 1.03778
threshold=0.00054554756926168473 0.010618578698802479 0.032895063343777793 0.99608290885351569 4.2072783045371714e-05 0.00083660787677715376 -0.008791879373188342
decision_type=2 2 2 2 2 2 2
left_child=1 6 -3 5 -5 -2 -1
right_child=3 2 -4 4 -6 -7 -8
leaf_value=-0.07505022590589118 0.069283662311983629 -0.26537955546980929 0 0 0.24160042627503009 -0.017951910368799336 0.060426542256909521
leaf_weight=7.9228956511433397 25.003718195909642 6.3276035626658977 3.2305778365334845 2.6565551010644395 7.4110013582394458 100.85504253469844 13.357070135396498
leaf_count=392 1214 406 174 397 466 5687 719
internal_value=0 -0.0448031 -0.166779 0.00839482 0.121104 0 0
internal_weight=0 30.8381 9.55818 135.926 10.0676 125.859 21.28
internal_count=9455 1691 580 7764 863 6901 1111
is_linear=0
shrinkage=0.3


Tree=83
num_leaves=8
num_cat=0
split_feature=20 22 2 9 7 18 26
split_gain=0.807736 3.44534 3.03191 1.72388 2.06266 1.30578 1.11533
threshold=-0.0012268313708863052 -0.0001455868499007362 -0.0016165625605753838 -0.044150559183290021 1.1680575042235566 -0.018505580546753882 0.8940509534635761
decision_type=2 2 2 2 2 2 2
left_child=1 2 -1 4 -2 -5 -3
right_child=3 6 -4 5 -6 -7 -8
leaf_value=0.20406537213600953 0 -0.15185188965794943 0.0032278117664426152 0.048793088920401489 -0.15297221582330903 -0.027833471071584077 0
leaf_weight=12.170220904932647 17.8652180840254 9.3914635572873486 33.828242364172183 36.098362855575033 15.94315788573658 40.761228949409997 0.76905207972595313
leaf_count=419 650 1814 1295 1809 871 2476 121
internal_value=0 0.026821 0.0713687 -0.0170832 -0.0744602 0 -0.106933
internal_weight=0 56.159 45.9985 110.668 33.8084 76.8596 10.1605
internal_count=9455 3649 1714 5806 1521 4285 1935
is_linear=0
shrinkage=0.3


Tree=84
num_leaves=8
num_cat=0
split_feature=7 23 12 8 5 9 14
split_gain=2.09853 3.30046 3.19531 2.6594 2.41435 2.09731 0.30253
threshold=1.3142038140168235 2.3129363237389577e-07 -0.011837781573468485 -0.32495988947788784 -3.740549356357795 -0.011525944569152251 -7.1793795119936696
decision_type=2 2 2 2 2 2 2
left_child=2 6 3 -1 -4 -3 -2
right_child=1 5 4 -5 -6 -7 -8
leaf_value=0 0 0.26317442319440937 -0.070220176759007172 -0.18134441165540247 0.020805138632559863 0 -0.094301100650397388
leaf_weight=5.1347772491863024 0.28492774747428562 8.4025954012467974 36.612814745378273 19.15300109155578 85.143528937393967 4.6499429189425419 4.1854306679379096
leaf_count=141 16 177 2041 1541 4718 145 717
internal_value=0 0.0778448 -0.0265628 -0.126803 -0.000898953 0.173569 -0.0472827
internal_weight=0 17.5229 146.044 24.2878 121.756 13.0525 4.47036
internal_count=9496 1055 8441 1682 6759 322 733
is_linear=0
shrinkage=0.3


Tree=85
num_leaves=8
num_cat=0
split_feature=23 19 15 0 19 10 10
split_gain=1.67802 1.90475 3.9041 2.57679 1.83151 1.40844 0.114595
threshold=3.5582738529443831e-08 0.00069046877074985518 1.5579130230676642e-06 0.85426916818623522 0.00077261893889397383 -0.045386175908211195 0.014120484024679471
decision_type=2 2 2 2 2 2 2
left_child=4 3 -3 -2 5 -1 -6
right_child=1 2 -4 -5 6 -7 -8
leaf_value=0 0.13764777396575759 -0.102107841041403 0.014431806641572601 0 0 -0.229650311957252 0.072748835358893676
leaf_weight=0.62773404372273844 18.778623215163861 37.002736773210927 62.948346570772628 29.994522896045964 1.753478568294667 8.5484177548396456 1.9484420146109185
leaf_count=30 1813 1393 2239 1813 330 1775 103
internal_value=0 0 -0.021808 0.0503998 -0.111204 -0.187931 0
internal_weight=0 148.724 99.9511 48.7731 12.8781 9.17615 3.70192
internal_count=9496 7258 3632 3626 2238 1805 433
is_linear=0
shrinkage=0.3


Tree=86
num_leaves=8
num_cat=0
split_feature=23 26 15 5 0 10 17
split_gain=1.34278 1.7843 2.44541 1.47879 2.07037 1.51361 0.53801
threshold=4.1028005068978955e-07 -0.48991384961162215 2.9873690057326837e-07 -3.277071399788023 0.8450936457699042 0.0097342534984207214 3.4592157145901899e-05
decision_type=2 2 2 2 2 2 2
left_child=1 6 -3 4 -2 -5 -1
right_child=3 2 -4 5 -6 -7 -8
leaf_value=0 0.081418199938057517 0 -0.14839211245971809 -0.22669955742859685 0 0 0.10546706283750464
leaf_weight=1.0861049947416166 34.795889690016338 9.6220821834576764 22.452730336695822 4.4783158717546021 81.274702631610126 2.0202656749461312 4.7474613242466148
leaf_count=250 1213 995 4133 196 2162 92 455
internal_value=0 -0.0558244 -0.0924817 0.00650105 0.0195423 -0.12023 0.0274317
internal_weight=0 37.9084 32.0748 122.569 116.071 6.49858 5.83357
internal_count=9496 5833 5128 3663 3375 288 705
is_linear=0
shrinkage=0.3


Tree=87
num_leaves=7
num_cat=0
split_feature=15 15 7 14 5 24
split_gain=1.13581 2.59051 2.56367 2.35834 1.54862 2.09496
threshold=7.6469513532527804e-08 2.511476198850207e-07 1.2441837949807777 0.086512797063162963 -3.8012426795099414 -0.14389278968270805
decision_type=2 2 2 2 2 2
left_child=4 3 -3 -2 -1 -6
right_child=1 2 -4 -5 5 -7
leaf_value=0 0 -0.03577308853681177 0.060902382649050978 0.33834404315007371 0 -0.25899498109654023
leaf_weight=3.0656067445816007 11.146558654367253 103.59564432757634 29.480768564542814 3.7926440776864174 0.47075955377658818 6.4284323808606114
leaf_count=237 579 6133 1939 246 4 358
internal_value=0 0 -0.00917051 0.121889 -0.101818 -0.187548
internal_weight=0 148.016 133.076 14.9392 9.9648 6.89919
internal_count=9496 8897 8072 825 599 362
is_linear=0
shrinkage=0.3


Tree=88
num_leaves=6
num_cat=0
split_feature=6 19 21 8 2
split_gain=1.06818 2.20362 1.49233 1.31965 1.04395
threshold=0.93958887900942256 2.4605292621518262 4.2568752349954725e-05 -0.21411995700759884 0.014502259377144654
decision_type=2 2 2 2 2
left_child=4 2 -2 -3 -1
right_child=1 3 -4 -5 -6
leaf_value=0.16104479436922489 0.016732662231670848 0 -0.059459610290247135 -0.2310635639483529 0
leaf_weight=6.8200166767928732 107.96055701599334 3.7648878499458078 29.439404506005303 6.1861781115003378 2.882321888115257
leaf_count=92 6734 54 2527 53 36
internal_value=0 -0.00946628 0 -0.145796 0.0924521
internal_weight=0 147.351 137.4 9.95107 9.70234
internal_count=9496 9368 9261 107 128
is_linear=0
shrinkage=0.3


Tree=89
num_leaves=7
num_cat=0
split_feature=16 17 3 15 9 19
split_gain=0.87946 1.59046 2.13943 1.95347 1.50941 1.96726
threshold=1.0474586430994062 0.00039312373975217905 0.82475844025611889 2.4151907369833756e-06 -0.11012610990592246 0.022435556185475471
decision_type=2 2 2 2 2 2
left_child=1 2 -1 -3 -2 -6
right_child=4 3 -4 -5 5 -7
leaf_value=-0.00049421177543055618 0 -0.10328381899233526 0.11942847479825745 0 0 0.19184800866322607
leaf_weight=61.417354891918876 2.6585432164574732 29.922901922500387 14.427703822566398 36.110040738622047 1.308651039676987 10.284612673742229
leaf_count=5996 47 1103 811 1204 190 145
internal_value=0 -0.00975754 0.0132199 -0.0466 0.0678665 0.131831
internal_weight=0 141.878 75.8451 66.0329 14.2518 11.5933
internal_count=9496 9114 6807 2307 382 335
is_linear=0
shrinkage=0.3


Tree=90
num_leaves=8
num_cat=0
split_feature=3 3 0 15 0 21 0
split_gain=2.94035 2.79848 2.58876 2.57732 2.4038 2.36178 1.78182
threshold=1.3136210441589358 1.0090779066085818 0.85006376257120786 3.273097411782613e-05 0.85322612560812139 2.5001116066427821e-05 0.87067712033623135
decision_type=2 2 2 2 2 2 2
left_child=1 4 3 -2 -1 -3 -4
right_child=2 5 6 -5 -6 -7 -8
leaf_value=-0.046737187981178353 0.23655685458429798 -0.30105320423422316 -0.066271802616819517 0 0.043116361113582267 0 0.10421608269337039
leaf_weight=40.898272080186871 13.528496709470348 5.1309689472727751 10.735039938750562 2.9340996904065824 69.000546046270756 4.2724414179228916 10.423660363034285
leaf_count=3881 303 309 253 54 4208 209 251
internal_value=0 -0.00400119 0.0881164 0.178595 0.00339842 -0.163864 0
internal_weight=0 119.302 37.6213 16.4626 109.899 9.40341 21.1587
internal_count=9468 8607 861 357 8089 518 504
is_linear=0
shrinkage=0.3


Tree=91
num_leaves=8
num_cat=0
split_feature=15 7 12 21 21 27 23
split_gain=2.08489 4.32718 1.96653 1.69606 2.08709 1.99172 0.680721
threshold=2.511476198850207e-07 1.2275038104700895 0.006957572313158745 3.4070844043365272e-06 8.4392251002570777e-07 0.002645909199173561 9.4002432390734378e-06
decision_type=2 2 2 2 2 2 2
left_child=1 2 -1 4 -2 -5 -3
right_child=3 6 -4 5 -6 -7 -8
leaf_value=0.22174611284789333 0 -0.11718337758333254 0 -0.0055982996009542743 -0.172775917869498 0.090355477551839855 0
leaf_weight=15.187582488833874 16.311732643731379 5.5434070878109187 3.8256542488816185 79.812950904290574 11.177793296146772 22.636409775142965 1.8405797886662183
leaf_count=790 996 452 220 4745 1013 1234 18
internal_value=0 0.086 0.173116 -0.00310745 -0.0728383 0.00886714 -0.0448613
internal_weight=0 26.3972 19.0132 129.939 27.4895 102.449 7.38399
internal_count=9468 1480 1010 7988 2009 5979 470
is_linear=0
shrinkage=0.3


Tree=92
num_leaves=8
num_cat=0
split_feature=8 13 8 4 21 27 10
split_gain=1.68529 2.08547 3.22955 1.8054 1.77412 2.58793 1.6503
threshold=-0.20640508644865058 8.9331006095310009e-05 -0.22229382064093448 17.555320739746097 1.7881716550231605e-05 0.00083660787677715376 0.0015011971757888933
decision_type=2 2 2 2 2 2 2
left_child=1 2 -1 -3 5 -2 -6
right_child=4 3 -4 -5 6 -7 -8
leaf_value=-0.07028080906826302 0 0.15053178395463454 0.16481354726692646 0 0.069260924568973231 -0.11712410390887927 -0.024651791477054236
leaf_weight=19.592661090318874 20.572401837367579 21.22876619198178 7.1372690741754914 3.1523504132346707 29.680088228338718 29.505378847830798 25.844025861931186
leaf_count=1480 1355 701 389 39 1717 2197 1590
internal_value=0 0.0506011 0 0.114305 -0.0143461 -0.0585797 0.0131201
internal_weight=0 51.111 26.7299 24.3811 105.602 50.0778 55.5241
internal_count=9468 2609 1869 740 6859 3552 3307
is_linear=0
shrinkage=0.3


Tree=93
num_leaves=8
num_cat=0
split_feature=15 16 3 6 11 19 6
split_gain=1.53719 2.69044 2.46776 1.78622 2.3082 1.48016 0.51053
threshold=1.2209731282859823e-05 -0.0047015435040044786 1.7352046966552737 0.98217228974909621 7.8429023112666529e-05 6.4117602796638678e-05 0.98945985892850707
decision_type=2 2 2 2 2 2 2
left_child=3 6 -3 4 -1 -5 -2
right_child=1 2 -4 5 -6 -7 -8
leaf_value=0.11698629091422984 -0.013405694821804839 -0.21450277738384124 0 0.067413779838741528 0 -0.028709986147346069 0.068192307253225101
leaf_weight=30.725795038924844 11.159295397987082 11.96582936879622 3.6177221715333863 18.467805456420137 10.612053449034645 59.791231600090214 9.4492351654407667
leaf_count=453 467 1087 60 1794 170 4759 678
internal_value=0 -0.0488428 -0.145184 0.0208545 0.0717436 0 0
internal_weight=0 36.1921 15.5836 119.597 41.3378 78.259 20.6085
internal_count=9468 2292 1147 7176 623 6553 1145
is_linear=0
shrinkage=0.3


Tree=94
num_leaves=7
num_cat=0
split_feature=10 10 26 27 27 17
split_gain=0.714957 1.40889 2.29252 1.85302 1.19837 1.23503
threshold=0.03012844672608939 -0.0034482734542199407 0.29060084382576162 0.0017863413051788925 0.00083660787677715376 0.03963749242861115
decision_type=2 2 2 2 2 2
left_child=1 3 -3 -1 -2 -6
right_child=4 2 -4 -5 5 -7
leaf_value=-0.06551331087819548 0 0.072217802893652164 -0.034069073242220034 0.026751473646923568 -0.19062332405153523 0
leaf_weight=38.488084288144364 4.86115716468339 58.710582835699824 16.437488900588505 27.549904709609109 7.5143348182118626 0.7698636726127005
leaf_count=2681 275 3626 937 1398 537 14
internal_value=0 0.00853737 0.039786 -0.0165721 -0.0641252 -0.139798
internal_weight=0 141.186 75.1481 66.038 13.1454 8.2842
internal_count=9468 8642 4563 4079 826 551
is_linear=0
shrinkage=0.3


Tree=95
num_leaves=8
num_cat=0
split_feature=1 1 15 5 20 25 25
split_gain=0.644799 2.50265 3.25856 2.04092 1.46267 2.82037 2.30174
threshold=1.6097100494122454 1.654999381209197 3.7991697305533527e-06 -3.5462354514771697 -0.00026076229237481646 0.0026553435737734607 0.0031878232130619468
decision_type=2 2 2 2 2 2 2
left_child=4 2 -2 -3 6 -6 -1
right_child=1 3 -4 -5 5 -7 -8
leaf_value=0.12282869404115507 -0.23361366701668251 -0.022527714426300194 0 0.086431883923731009 -0.068837982900265951 0.11533022248203487 -0.037136933971323359
leaf_weight=24.572992038792112 9.883023943604714 52.360895969806734 6.4841916138575462 21.03046114771314 25.884521065298031 9.8616069869203766 3.782007196927224
leaf_count=1790 643 3040 373 1134 1757 460 271
internal_value=0 -0.015251 -0.122625 0 0.0240753 0 0.0771547
internal_weight=0 89.7586 16.3672 73.3914 64.1011 35.7461 28.355
internal_count=9468 5190 1016 4174 4278 2217 2061
is_linear=0
shrinkage=0.3


Tree=96
num_leaves=7
num_cat=0
split_feature=20 20 4 16 19 7
split_gain=1.18108 1.57556 2.7882 2.14669 1.07708 1.04023
threshold=-0.0070588345486020656 0.0012245583581801391 -0.22174488008022306 -0.075086783290718481 25.899112348717967 1.3142038140168235
decision_type=2 2 2 2 2 2
left_child=4 2 -2 -3 5 -1
right_child=1 3 -4 -5 -6 -7
leaf_value=-0.22851835020659342 -0.0046203074932009269 0.0417075909307646 0.097044072877767659 -0.059761812592991688 0 0
leaf_weight=5.3248734112912635 30.136762478243327 25.585744784965755 42.321077982564475 45.131539468524352 0.76225098804570723 1.0150786566518943
leaf_count=710 2418 1113 2170 2840 14 79
internal_value=0 0.0115081 0.0452358 -0.0132913 -0.11101 -0.17057
internal_weight=0 143.175 72.4578 70.7173 7.1022 6.33995
internal_count=9344 8541 4588 3953 803 789
is_linear=0
shrinkage=0.3


Tree=97
num_leaves=8
num_cat=0
split_feature=1 5 7 14 10 11 18
split_gain=1.17842 2.25417 1.60098 2.58453 1.65679 1.37811 1.20647
threshold=1.8812143903984342 -3.5267568704305079 1.1796926299045791 -0.53437779318759226 -0.0036359632153041828 6.4550290727637504e-05 0.33985322222409559
decision_type=2 2 2 2 2 2 2
left_child=2 5 3 -1 -4 -2 -3
right_child=1 6 4 -5 -6 -7 -8
leaf_value=-0.04127009292548002 -0.25035810148016774 -0.047156057024509604 -0.080103354891283229 0.07732804828360347 0.010342884467753388 0 0.16505308456394835
leaf_weight=14.536887497618407 6.5789757109159854 3.5429069426681954 25.164686044099653 59.620590321734198 34.051902756287745 2.614883963149623 3.6962364779610652
leaf_count=1046 315 160 1625 3778 2209 157 54
internal_value=0 -0.0721219 0.0124215 0.0447737 -0.0164397 -0.177095 0
internal_weight=0 16.433 133.374 74.1575 59.2166 9.19386 7.23914
internal_count=9344 686 8658 4824 3834 472 214
is_linear=0
shrinkage=0.3


Tree=98
num_leaves=8
num_cat=0
split_feature=28 14 14 6 19 1 5
split_gain=0.775156 1.611 2.47092 1.32758 2.026 1.09975 0.963667
threshold=-0.29083254389436608 -0.50509266124073993 -0.062182662586318098 0.99349344475149837 0.0071959536254852094 1.6126203047601604 -3.7744599452104137
decision_type=2 2 2 2 2 2 2
left_child=3 6 -3 4 -1 -5 -2
right_child=1 2 -4 5 -6 -7 -8
leaf_value=-0.14020943529537547 0 0.11468644160617135 0 0.10468409892945882 0 -0.0063328601883389391 -0.096316969612087786
leaf_weight=17.341372446867354 5.5486843071012144 26.922244686360955 49.523330218798037 9.3503535478921567 20.875732213884476 6.7370619277444339 13.678450384473761
leaf_count=1715 318 1456 2953 579 557 826 940
internal_value=0 0.01677 0.041511 -0.0280928 -0.064415 0.0152975 -0.0457062
internal_weight=0 95.6727 76.4456 54.3045 38.2171 16.0874 19.2271
internal_count=9344 5667 4409 3677 2272 1405 1258
is_linear=0
shrinkage=0.3


Tree=99
num_leaves=7
num_cat=0
split_feature=1 5 3 9 29 23
split_gain=0.569744 1.75723 2.84309 1.13363 2.31301 1.66667
threshold=1.2007731517158675 -3.8091572461303116 0.2537484765052796 -0.008791879373188342 0.0065507705234128478 1.0351074874018121e-05
decision_type=2 2 2 2 2 2
left_child=1 -1 -3 4 -2 -5
right_child=3 2 -4 5 -6 -7
leaf_value=0 -0.061570119040540279 0 0.3702424133122928 0 0.083434760771505037 0.095567728382318307
leaf_weight=1.563694255062728 62.485141079035202 1.4532747363828082 3.3745411846684874 53.918333482996786 8.2519373423929192 18.455311018733482
leaf_count=136 3622 202 64 4746 327 247
internal_value=0 0.087193 0.206932 -0.00432935 -0.0348983 0.0160132
internal_weight=0 6.39151 4.82782 143.111 70.7371 72.3736
internal_count=9344 402 266 8942 3949 4993
is_linear=0
shrinkage=0.3


Tree=100
num_leaves=8
num_cat=0
split_feature=28 15 5 6 12 25 0
split_gain=0.482137 2.61179 1.79073 1.389 0.896094 2.65617 1.87025
threshold=0.29107163975736089 6.3477487344874996e-07 -3.3218996905318936 0.99424905349172199 -0.0019993001321121913 0.0014569101831967076 0.87601219648467377
decision_type=2 2 2 2 2 2 2
left_child=4 3 -3 -2 5 -1 -6
right_child=1 2 -4 -5 6 -7 -8
leaf_value=-0.059842461104221686 -0.15381223256615872 0.11622736394858216 0 0 -0.065610730616463067 0.083528924138425845 0.053466351689081884
leaf_weight=16.998239678268874 7.5391249611566291 27.654529322134294 3.8552372865833631 3.2175191314418043 53.517102771223108 26.341485341770749 8.9756979027806647
leaf_count=1348 368 1673 146 370 3133 1587 719
internal_value=0 0.0269579 0.0821052 -0.0704307 -0.010944 0.0113745 -0.037465
internal_weight=0 42.2664 31.5098 10.7566 105.833 43.3397 62.4928
internal_count=9344 2557 1819 738 6787 2935 3852
is_linear=0
shrinkage=0.3


Tree=101
num_leaves=8
num_cat=0
split_feature=25 25 18 1 13 7 19
split_gain=0.56532 1.57971 1.99026 1.55017 2.1213 1.52235 1.14
threshold=0.0024960633902315656 0.0014569101831967076 -0.042686084121234084 1.5242844372174347 2.1497067955306669e-05 1.1841466321366156 0.012291360874154158
decision_type=2 2 2 2 2 2 2
left_child=1 5 -3 6 -5 -1 -2
right_child=3 2 -4 4 -6 -7 -8
leaf_value=0.016654747730401365 0 0.13818342552428198 0 0 -0.1318345390537102 -0.070601541707594778 0.1694563346690362
leaf_weight=39.328976707242418 4.8325479866816732 17.340679371991428 19.294027108289811 16.566931518900674 20.084024343794226 26.04643687582211 4.2233859007101273
leaf_count=2402 450 959 1613 984 957 1907 72
internal_value=0 0.0115266 0.0644124 -0.0285766 -0.0656898 -0.00755363 0.0454227
internal_weight=0 102.01 36.6347 45.7069 36.651 65.3754 9.05593
internal_count=9344 6881 2572 2463 1941 4309 522
is_linear=0
shrinkage=0.3


Tree=102
num_leaves=8
num_cat=0
split_feature=28 28 11 5 24 1 16
split_gain=1.85271 2.14426 3.19115 1.88135 2.36724 1.77687 1.77682
threshold=0.075895317047559377 -0.28351943603459101 3.1022894033598376e-05 -3.7504693781815406 0.013813092387460648 1.5681402660039414 -0.049718402086268425
decision_type=2 2 2 2 2 2 2
left_child=1 6 -3 5 -5 -2 -1
right_child=3 2 -4 4 -6 -7 -8
leaf_value=0.052085179035553118 -0.069873506720765602 0 0.14810153096981468 -0.1457187296023196 0 0.10435895405289056 -0.055622128745715024
leaf_weight=21.87543227419701 6.183561304278558 12.53450468634446 24.834794791888271 22.776565750200461 15.673332752385248 11.996381706558166 32.50573097186043
leaf_count=1244 446 835 1298 1355 1071 629 2475
internal_value=0 0.0265238 0.0830149 -0.0424808 -0.0838895 0.00713831 0
internal_weight=0 91.7505 37.3693 56.6298 38.4499 18.1799 54.3812
internal_count=9353 5852 2133 3501 2426 1075 3719
is_linear=0
shrinkage=0.3


Tree=103
num_leaves=8
num_cat=0
split_feature=1 5 29 7 10 5 3
split_gain=1.12289 2.26321 2.92836 2.13844 1.77952 1.77032 0.645031
threshold=1.5150310246809797 -3.4589087606033782 0.0043681687657625111 1.2939245528963936 0.0030821210324197827 -3.4302625031764742 1.0000000180025095e-35
decision_type=2 2 2 2 2 2 2
left_child=3 4 -3 5 -2 -1 -5
right_child=1 2 -4 6 -6 -7 -8
leaf_value=-0.15733419357444214 0.069471507761801679 -0.17572309360164143 0.033319523302061532 0.1266625051920019 0 0 0
leaf_weight=17.372138241391902 56.219264825020218 11.941910687193738 3.425137033162172 4.0116706967091877 46.573898178978197 5.5016378344798786 2.9566880783604574
leaf_count=1499 3226 1006 79 204 2627 411 301
internal_value=0 0.0118158 -0.0842235 -0.0532321 0.0328868 -0.108788 0.0300985
internal_weight=0 118.16 15.367 29.8421 102.793 22.8738 6.96836
internal_count=9353 6938 1085 2415 5853 1910 505
is_linear=0
shrinkage=0.3


Tree=104
num_leaves=8
num_cat=0
split_feature=28 21 21 18 4 23 7
split_gain=0.698462 1.27449 2.03571 1.11925 1.114 1.02827 0.444545
threshold=0.075895317047559377 6.4029819730239166e-05 1.8517824877710092e-05 -1.6326043744856749 7.8851354122161874 0.00014068076902573387 1.2162873843715789
decision_type=2 2 2 2 2 2 2
left_child=1 2 -1 6 -5 -3 -2
right_child=3 5 -4 4 -6 -7 -8
leaf_value=0 0.13424876266367547 -0.10369041416153681 0.092694503276345319 -0.073712093450463492 0 0 0
leaf_weight=45.438324294994345 3.2464489328558548 12.036501970249445 32.703232217338609 41.482605186507499 8.7959311324229912 1.9569685007445503 1.1774247735775132
leaf_count=3024 95 1104 1703 3248 125 21 33
internal_value=0 0.0147155 0.0353746 -0.0280075 -0.0498883 -0.0513312 0.0646763
internal_weight=0 92.135 78.1416 54.7024 50.2785 13.9935 4.42387
internal_count=9353 5852 4727 3501 3373 1125 128
is_linear=0
shrinkage=0.3


Tree=105
num_leaves=8
num_cat=0
split_feature=23 13 11 0 19 2 10
split_gain=0.646106 2.92314 2.80378 1.78343 0.82877 0.827424 0.700705
threshold=6.8556206565281899e-06 0.00012329185585305011 3.6422374456013077e-05 0.87382329546188409 0.00023899389645730057 -0.0039559812991174217 0.013331050586372519
decision_type=2 2 2 2 2 2 2
left_child=3 2 -2 5 -5 -1 -3
right_child=1 6 -4 4 -6 -7 -8
leaf_value=-0.099195736855959935 0.19356557404376432 -0.062711587900132718 0 0 -0.18254473107344332 0.011831407111354563 0
leaf_weight=6.6113181075834282 14.170476842205973 21.098495421210831 15.775945042463716 5.2770462368480349 7.7365283443195949 67.230272235213306 7.633530083583536
leaf_count=878 162 325 204 763 999 5887 135
internal_value=0 0.0245742 0.096454 -0.0161714 -0.118655 0 -0.0263257
internal_weight=0 58.6784 29.9464 86.8552 13.0136 73.8416 28.732
internal_count=9353 826 366 8527 1762 6765 460
is_linear=0
shrinkage=0.3


Tree=106
num_leaves=8
num_cat=0
split_feature=10 10 18 10 21 1 3
split_gain=0.522249 2.27197 2.39409 1.34091 2.77631 0.726403 0.449457
threshold=0.0030821210324197827 -0.002221864872051837 -0.0011607208292028768 0.011574394177988003 1.511072488966903e-05 1.5666279254517759 -0.2268005087971687
decision_type=2 2 2 2 2 2 2
left_child=1 5 -3 4 -2 -1 -5
right_child=3 2 -4 6 -6 -7 -8
leaf_value=-0.060375833694313423 0 0 0.23427386555506655 -0.042227266081859581 -0.19696226896433969 0.0089666790649662424 0.025862974939623203
leaf_weight=16.896769694988052 10.500987583076496 7.5858152812888866 8.0237513056526932 10.110603892278048 10.235858313715651 47.043153451344551 33.520641612841246
