tree
version=v4
num_class=1
num_tree_per_iteration=1
label_index=0
max_feature_idx=29
objective=binary sigmoid:1
feature_names=Hurst CorrDim Lyapunov Skewness Kurtosis PSD ACF_1 MC100 Price_MS100 Price_MK100 Hurst_8_dyn Hurst_8_Variance CorrDim_8_dyn CorrDim_8_Variance Lyapunov_8_dyn Lyapunov_8_Variance Skewness_8_dyn Skewness_8_Variance Kurtosis_8_dyn Kurtosis_8_Variance PSD_8_dyn PSD_8_Variance ACF_1_8_dyn ACF_1_8_Variance MC100_8_dyn MC100_8_Variance Price_MS100_8_dyn Price_MS100_8_Variance Price_MK100_8_dyn Price_MK100_8_Variance
feature_infos=[0.346033725900742:0.86127361811792547] [-1.251034256050468e-14:0.13119982465867552] [-0.016465323311941112:0.069683945262348584] [1.6884453909888486:12.680759507765247] [3.266263694497082:225.95020503158506] [-0.84564983009583472:-0.040620152238582702] [0.1216086907593565:0.61508020987026912] [-0.61393574523440075:0.5623559267459981] [-2.2706792189762606:2.0868829760025078] [-1.8783908593042289:8.7836268742821453] [-0.41117284832703405:0.5983428263037196] [4.127943528780112e-05:0.017447810865977732] [-392816669021386.38:983388009079131.5] [-3.1558027520911223e-19:0.0015400341170945049] [-48.360502327357665:8213.4688427581368] [5.3926392313436761e-10:0.00062914692072556613] [-0.85022871090184104:5.8910748685120833] [4.6197098566077128e-07:18.411674824579329] [-0.98184966900797777:59.161709342173594] [8.4764771059638942e-06:7454.6760762900585] [-0.16241808255509815:0.421894738140703] [9.5656963457356021e-09:0.0018681881186409757] [-0.65416867567504644:2.106473018136497] [1.2095074609425558e-08:0.020432640211953908] [-314.864569672843:80.354256389503576] [2.6658812101835554e-06:0.06444300132264931] [-664.86916282812717:155.07465038814638] [1.4166026802988249e-06:1.5370767200036095] [-1565.6935320906273:65.827764351879722] [1.0888327830204169e-05:23.244022817097569]
tree_sizes=556 765 657 757 660 754 656 651 756 760 761 754 861 656 658 664 654 761 752 757 759 653 771 658 666 658 761 663 870 663 867 664 554

Tree=0
num_leaves=4
num_cat=0
split_feature=17 13 1
split_gain=60.1385 10.7222 1.60589
threshold=0.0043072327286724256 9.7286076073459142e-31 -1.6361301467919472e-15
decision_type=2 2 2
left_child=1 -1 -3
right_child=-2 2 -4
leaf_value=-2.5240258969359739 -1.1549111111736985 -2.9481049152875767 -3.2646007773409527
leaf_weight=5.879190154373652 3.7947500087320796 3.955091558396826 18.118595112115138
leaf_count=110 71 74 339
internal_value=-2.81241 -3.06406 -3.20789
internal_weight=0 27.9529 22.0737
internal_count=594 523 413
is_linear=0
shrinkage=1


Tree=1
num_leaves=6
num_cat=0
split_feature=16 20 21 16 14
split_gain=24.7639 6.0572 7.32473 3.56142 1.72272
threshold=0.092810241742403835 1.0000000180025095e-35 3.4111695307991831e-06 -1.0000000180025095e-35 0.16919074541370396
decision_type=2 2 2 2 2
left_child=1 4 -3 -4 -1
right_child=-2 2 3 -5 -6
leaf_value=-0.50843340259896797 0.91167184016446534 0.46483936080236948 0.027307816596602839 -0.50747638392995464 -0.17791917519375844
leaf_weight=13.336351610720163 4.1903306096792212 4.1991234794259062 4.9990049712359896 5.0885330326855174 4.1988973282277575
leaf_count=233 23 80 85 92 81
internal_value=0 -0.252078 -0.0345693 -0.242458 -0.42929
internal_weight=0 31.8219 14.2867 10.0875 17.5352
internal_count=594 571 257 177 314
is_linear=0
shrinkage=0.45


Tree=2
num_leaves=5
num_cat=0
split_feature=17 0 20 1
split_gain=11.2105 9.33187 4.1258 0.89788
threshold=0.01974168956598242 0.53905710534147711 0.013245273792785952 3.2225572811661787e-15
decision_type=2 2 2 2
left_child=1 -1 3 -3
right_child=-2 2 -4 -5
leaf_value=0.38913212171994965 0.45685655994655017 -0.49743979732872839 -0.0031739558734608471 -0.22975713558131142
leaf_weight=4.6284719835966852 6.8548560440540305 12.023130284622313 6.1063533555716267 3.2162903174757949
leaf_count=106 33 263 124 74
internal_value=0 -0.190113 -0.315713 -0.440945
internal_weight=0 25.9742 21.3458 15.2394
internal_count=600 567 461 337
is_linear=0
shrinkage=0.45


Tree=3
num_leaves=6
num_cat=0
split_feature=20 5 27 26 26
split_gain=8.38558 13.5856 13.9633 3.00323 1.76906
threshold=1.0000000180025095e-35 -0.47131368835614595 0.0032191426102353257 0.10113674033129562 0.67353564746090477
decision_type=2 2 2 2 2
left_child=3 2 -2 -1 -5
right_child=1 -3 -4 4 -6
leaf_value=-0.55297604339736672 0.89262630312088442 -0.45384376430013079 -0.034194072763377319 0.19768964087044005 -0.35881287659776989
leaf_weight=6.7793468441814202 5.8850647015497106 5.7350034546107045 7.4698945051059127 2.2956246398389339 2.3315753825008869
leaf_count=181 86 91 105 73 64
internal_value=0 0.125456 0.374223 -0.362213 -0.0827235
internal_weight=0 19.09 13.355 11.4065 4.6272
internal_count=600 282 191 318 137
is_linear=0
shrinkage=0.45


Tree=4
num_leaves=5
num_cat=0
split_feature=15 5 5 12
split_gain=12.0377 5.14556 11.3281 5.42895
threshold=1.1668116100385299e-07 -0.46943041079405068 -0.50829731961960511 3.0531133177191811e-14
decision_type=2 2 2 2
left_child=-1 2 3 -2
right_child=1 -3 -4 -5
leaf_value=0.68478992519697635 -0.41245781001779735 -0.58077801732719114 0.63991122852388471 0.091693483227824238
leaf_weight=3.7345727151259807 11.65552255231888 5.1703199734911278 3.6706864945590523 6.8775736931711426
leaf_count=80 252 125 70 103
internal_value=0 -0.176469 -0.0823223 -0.225369
internal_weight=0 27.3741 22.2038 18.5331
internal_count=630 550 425 355
is_linear=0
shrinkage=0.45


Tree=5
num_leaves=6
num_cat=0
split_feature=7 13 5 5 2
split_gain=9.36842 5.99885 6.08694 7.09826 1.52345
threshold=0.33414861855378619 3.218224174528966e-30 -0.46943041079405068 -0.51817153756439116 0.01561313173479399
decision_type=2 2 2 2 2
left_child=1 2 3 -1 -3
right_child=-2 4 -4 -5 -6
leaf_value=-0.05068638934183884 0.64433421090630261 -0.52931620016221725 -0.50796329341090851 0.70551767444825564 -0.19878053669614229
leaf_weight=8.5152825131081062 3.2651339056901625 7.3296982133761031 3.4138721423223641 3.5663628950715056 4.593138637021184
leaf_count=184 57 191 76 45 77
internal_value=0 -0.162021 0.0226131 0.172537 -0.401981
internal_weight=0 27.4184 15.4955 12.0816 11.9228
internal_count=630 573 305 229 268
is_linear=0
shrinkage=0.45


Tree=6
num_leaves=5
num_cat=0
split_feature=17 12 21 9
split_gain=8.67878 5.93727 4.0303 1.78837
threshold=0.00019543043495963782 -0.98093531485636165 7.4873313094899224e-06 -0.98765789662064496
decision_type=2 2 2 2
left_child=3 -2 -3 -1
right_child=1 2 -4 -5
leaf_value=-0.10127006305906519 -0.24391084334127919 0.55824218021888139 0.043454389176177832 -0.49320619384925701
leaf_weight=3.4483766527846473 5.615555289899933 6.495184258790685 5.8565574276726693 7.4523861464112997
leaf_count=112 102 67 86 253
internal_value=0 0.139736 0.314157 -0.36922
internal_weight=0 17.9673 12.3517 10.9008
internal_count=620 255 153 365
is_linear=0
shrinkage=0.45


Tree=7
num_leaves=5
num_cat=0
split_feature=12 23 7 26
split_gain=6.11682 3.72443 5.63976 4.54722
threshold=11.620010356747251 1.01562605057983e-06 -0.17560682954368681 0.40798343431211798
decision_type=2 2 2 2
left_child=1 -1 -3 -4
right_child=-2 2 3 -5
leaf_value=-0.48393258074516593 0.52099921638769553 0.47554402266757251 -0.337046138757082 0.19568754841647609
leaf_weight=4.8199563219677719 3.3218269851058713 3.4861136903055092 9.8291338765993626 4.8432259049732247
leaf_count=212 42 49 222 95
internal_value=0 -0.132291 -0.0389521 -0.161195
internal_weight=0 22.9784 18.1585 14.6724
internal_count=620 578 366 317
is_linear=0
shrinkage=0.45


Tree=8
num_leaves=6
num_cat=0
split_feature=16 12 15 12 24
split_gain=6.85214 4.96444 3.4446 4.13433 0.640809
threshold=0.1406435159568096 -2.4275965151043972 3.5134263460360474e-06 -0.47771677010692842 0.056897082750495882
decision_type=2 2 2 2 2
left_child=1 -1 3 -3 -4
right_child=-2 2 4 -5 -6
leaf_value=0.38511709393622173 0.45752949450001651 -0.51391277583219863 -0.4528929364235203 0.075576390042810068 -0.735366267666972
leaf_weight=2.3514044821495252 3.4409750066697589 3.8205857722787249 5.1061249262420452 6.5218638408696235 2.3863669459242374
leaf_count=86 21 129 168 147 55
internal_value=0 -0.22948 -0.31051 -0.142186 -0.542861
internal_weight=0 20.1863 17.8349 10.3424 7.49249
internal_count=606 585 499 276 223
is_linear=0
shrinkage=0.45


Tree=9
num_leaves=6
num_cat=0
split_feature=6 29 20 8 22
split_gain=4.64205 8.10486 4.69114 1.61439 0.641068
threshold=0.35191409029910353 0.0085553425730309548 0.017144937543653541 -0.52522251232499262 -0.014027815127712893
decision_type=2 2 2 2 2
left_child=1 -1 3 -2 -5
right_child=2 -3 -4 4 -6
leaf_value=-0.36085420103087668 -0.036843225367586857 0.70484305819390147 0.11616733174711298 -0.74080436353033441 -0.43234594741430865
leaf_weight=2.5654106161091503 1.8950096938060585 3.3092217162484303 5.1844079110305747 1.7331923730671395 6.4119779988541259
leaf_count=74 42 89 91 35 275
internal_value=0 0.239461 -0.231449 -0.410946 -0.497982
internal_weight=0 5.87463 15.2246 10.0402 8.14517
internal_count=606 163 443 352 310
is_linear=0
shrinkage=0.45


Tree=10
num_leaves=6
num_cat=0
split_feature=9 8 2 11 21
split_gain=5.40292 4.74622 7.07821 1.96237 1.05008
threshold=-0.75179179589136802 0.34155718503626664 0.0034339332107302897 0.0027694346746495492 2.3724793744951052e-06
decision_type=2 2 2 2 2
left_child=1 2 -1 4 -2
right_child=3 -3 -4 -5 -6
leaf_value=0.52634259241649206 -0.15731228096070615 0.70657661880593492 -0.44964619865055222 0.027551141201039665 -0.54518839544453657
leaf_weight=2.5957545605488139 1.9353060368448476 2.397403676295653 3.5800264943100046 2.4263651670189574 5.2408861458534375
leaf_count=72 61 65 115 97 183
internal_value=0 0.169186 -0.0394264 -0.322296 -0.440584
internal_weight=0 8.57318 6.17578 9.60256 7.17619
internal_count=593 252 187 341 244
is_linear=0
shrinkage=0.45


Tree=11
num_leaves=6
num_cat=0
split_feature=29 8 27 22 12
split_gain=2.99757 3.89 4.91931 2.34505 2.33562
threshold=0.014600559998806386 0.34155718503626664 0.00069477444589993015 -0.011791071482069869 0.81041518908672228
decision_type=2 2 2 2 2
left_child=1 2 -1 -4 -2
right_child=4 -3 3 -5 -6
leaf_value=0.49210541654242512 -0.48262408234891657 0.5162310639578942 0.089925248279998732 -0.52969479162599575 0.092245046280228088
leaf_weight=2.0775725854036882 4.8278255999030071 2.8755073581123725 1.8689518878818496 3.6572470192040774 2.0341744981706142
leaf_count=67 214 72 36 160 44
internal_value=0 0.0703917 -0.0982109 -0.32014 -0.31221
internal_weight=0 10.4793 7.60377 5.5262 6.862
internal_count=593 335 263 196 258
is_linear=0
shrinkage=0.45


Tree=12
num_leaves=7
num_cat=0
split_feature=24 24 25 7 4 0
split_gain=6.77392 7.91669 4.64157 3.64819 1.35849 0.550133
threshold=0.081705139857227729 -0.033223039452666851 0.00051728831473297988 -0.031277695049783498 11.462396525410556 0.61184737495938835
decision_type=2 2 2 2 2 2
left_child=1 2 5 -4 -2 -1
right_child=4 -3 3 -5 -6 -7
leaf_value=-0.5100531767725589 -0.13105068273230858 0.90674275506905566 -0.18955365481560904 0.6259768674465509 -0.54644753288109471 -0.16722933867477574
leaf_weight=2.0527063426707177 3.0012684286048161 2.6584487679647291 1.7919415729120372 2.9220213900407543 3.4006545640877448 1.7610989105596671
leaf_count=67 83 74 63 118 103 85
internal_value=0 0.228717 0.0173493 0.315965 -0.351707 -0.351748
internal_weight=0 11.1862 8.52777 4.71396 6.40192 3.81381
internal_count=593 407 333 181 186 152
is_linear=0
shrinkage=0.45


Tree=13
num_leaves=5
num_cat=0
split_feature=6 0 2 20
split_gain=3.78809 2.15932 2.4902 1.66923
threshold=0.48769910638973951 0.66531991332311124 0.010929412033598799 0.0025654200389939601
decision_type=2 2 2 2
left_child=1 2 3 -1
right_child=-2 -3 -4 -5
leaf_value=-0.39768046864930101 0.55452921362936736 -0.50826058859043999 0.33793528697668807 -0.008097870752162081
leaf_weight=3.295109132726795 2.0334851634397628 2.2319556383881709 2.9069382316374677 6.8713357868837193
leaf_count=182 82 100 95 134
internal_value=0 -0.0991879 -0.0293487 -0.134368
internal_weight=0 15.3053 13.0734 10.1664
internal_count=593 511 411 316
is_linear=0
shrinkage=0.45


Tree=14
num_leaves=5
num_cat=0
split_feature=20 20 8 6
split_gain=3.99029 2.73076 4.01978 0.672095
threshold=1.0000000180025095e-35 0.027220498211298353 -0.18533417963681145 0.32599209113789723
decision_type=2 2 2 2
left_child=3 2 -2 -1
right_child=1 -3 -4 -5
leaf_value=-0.047229090533663087 0.59262883697851887 -0.25079207651577123 -0.0072207155034125763 -0.49334979649528304
leaf_weight=0.86015940786456013 3.6974931732984251 3.2736924789496689 5.8281126651563673 3.335943743630196
leaf_count=38 63 105 120 295
internal_value=0 0.103767 0.225619 -0.4019
internal_weight=0 12.7993 9.52561 4.1961
internal_count=621 288 183 333
is_linear=0
shrinkage=0.45


Tree=15
num_leaves=5
num_cat=0
split_feature=23 20 15 6
split_gain=2.91799 2.54436 2.18284 0.636571
threshold=9.6456091314795403e-07 1.0000000180025095e-35 1.2947742083087648e-06 0.32599209113789723
decision_type=2 2 2 2
left_child=-1 3 -3 -2
right_child=1 2 -4 -5
leaf_value=-0.48336176019998539 -0.00188886371309973 0.33237914742165703 -0.07474066091771861 -0.48292000796334783
leaf_weight=2.4100230965777891 0.7934482002165163 6.0002672477858123 4.8004770567058586 1.8701367295434463
leaf_count=204 29 80 115 193
internal_value=0 0.0542876 0.151432 -0.339627
internal_weight=0 13.4643 10.8007 2.66358
internal_count=621 417 195 222
is_linear=0
shrinkage=0.45


Tree=16
num_leaves=5
num_cat=0
split_feature=6 11 19 15
split_gain=5.05661 2.30053 2.2404 1.5164
threshold=0.42054344274409411 0.0016551585602238331 1.3580457098492593 9.6445645474481743e-08
decision_type=2 2 2 2
left_child=2 -2 3 -1
right_child=1 -3 -4 -5
leaf_value=-0.1071027894699839 0.70228774717730913 0.024467666568951916 0.084275061122782324 -0.52531444197226462
leaf_weight=2.6525470926571852 1.8343056158482802 2.2672699516660941 2.8114511737658177 5.1925722288433462
leaf_count=68 110 83 47 317
internal_value=0 0.327603 -0.260393 -0.383911
internal_weight=0 4.10158 10.6566 7.84512
internal_count=625 193 432 385
is_linear=0
shrinkage=0.45


Tree=17
num_leaves=6
num_cat=0
split_feature=5 20 22 0 23
split_gain=1.69176 2.1016 2.04792 1.85763 1.22212
threshold=-0.47131368835614595 0.029710267952954176 0.00064451700126466626 0.56921154563301934 7.4690199575369133e-06
decision_type=2 2 2 2 2
left_child=1 2 4 -4 -1
right_child=-2 -3 3 -5 -6
leaf_value=-0.48789697163219525 -0.42500980760707013 -0.36411205741784142 -0.08145820378626073 0.49571885140698996 0.053380288057438885
leaf_weight=1.3927820054959723 2.3819304855423988 2.5584182182210489 1.757815402044798 3.1575014770060079 2.1464988793595694
leaf_count=135 176 58 59 142 55
internal_value=0 -0.00676122 0.101376 0.289309 -0.159624
internal_weight=0 11.013 8.4546 4.91532 3.53928
internal_count=625 449 391 201 190
is_linear=0
shrinkage=0.45


Tree=18
num_leaves=6
num_cat=0
split_feature=11 13 0 3 5
split_gain=3.7799 3.61567 1.73092 2.01249 1.621
threshold=0.0015422050116350304 -1.4520564799801787e-21 0.6280485986781571 3.024462207123416 -0.52993871535904857
decision_type=2 2 2 2 2
left_child=2 -2 3 -1 -3
right_child=1 4 -4 -5 -6
leaf_value=-0.36783577072370721 0.65903252012316693 -0.449920934233493 -0.57013340360251041 0.28868191669482779 0.13354279413054415
leaf_weight=2.329191736884241 2.2082529482722748 1.3785456133227851 2.688443022838328 1.5915916703597757 3.2082256577687076
leaf_count=112 57 121 145 70 121
internal_value=0 0.185946 -0.292026 -0.101331 -0.0418164
internal_weight=0 6.79502 6.60923 3.92078 4.58677
internal_count=626 299 327 182 242
is_linear=0
shrinkage=0.45


Tree=19
num_leaves=6
num_cat=0
split_feature=6 14 25 25 27
split_gain=1.7129 1.97152 1.45394 1.58993 1.4506
threshold=0.36736897048413114 0.015243346433243434 0.00012486816119621931 0.00032271969551099874 0.0030397114327251561
decision_type=2 2 2 2 2
left_child=1 -1 -2 -4 -5
right_child=2 -3 3 4 -6
leaf_value=-0.15539813541356104 0.19389514928105889 0.39184849706713737 -0.6535652346896248 0.10143701576642987 -0.48002555200910529
leaf_weight=2.4433886552997137 1.5145665913314585 2.9336828101913852 1.7771493158434166 2.1497449557718942 1.458105321291441
leaf_count=121 77 92 108 92 136
internal_value=0 0.143175 -0.195618 -0.305172 -0.13356
internal_weight=0 5.37707 6.89957 5.385 3.60785
internal_count=626 213 413 336 228
is_linear=0
shrinkage=0.45


Tree=20
num_leaves=6
num_cat=0
split_feature=20 29 29 28 28
split_gain=2.86441 3.20636 3.69728 1.28977 1.21764
threshold=0.020137712762721586 0.008225890209997002 0.018786593660983845 0.013975698277099104 -0.93273624388298493
decision_type=2 2 2 2 2
left_child=1 3 -3 -1 -4
right_child=-2 2 4 -5 -6
leaf_value=-0.44683392225680779 -0.3827266279312877 0.84815796219889783 0.28861251654656289 0.082193082646973045 -0.42977544518433608
leaf_weight=1.9032876450128244 3.5214898274571169 1.8810886399078302 1.0482749824477648 1.83097219769661 0.8778961956159036
leaf_count=127 135 72 63 97 116
internal_value=0 0.108831 0.399423 -0.187443 -0.0388093
internal_weight=0 7.54152 3.80726 3.73426 1.92617
internal_count=610 475 251 224 179
is_linear=0
shrinkage=0.45


Tree=21
num_leaves=5
num_cat=0
split_feature=14 15 7 12
split_gain=2.1037 1.35345 1.61063 0.813915
threshold=0.90083347024366167 2.1620668604168956e-07 -0.17560682954368681 7.2539930108094701
decision_type=2 2 2 2
left_child=1 -1 -3 -4
right_child=-2 2 3 -5
leaf_value=0.10858442533656291 0.42260498892907278 0.11519724697418471 -0.5157670551917366 -0.010865221439532446
leaf_weight=3.0035342434402974 1.6211953357687896 1.6163485980778194 3.264039066096303 0.80622818943811569
leaf_count=94 69 69 353 25
internal_value=0 -0.135775 -0.26484 -0.415758
internal_weight=0 8.69015 5.68662 4.07027
internal_count=610 541 447 378
is_linear=0
shrinkage=0.45


Tree=22
num_leaves=6
num_cat=0
split_feature=25 25 12 9 23
split_gain=2.12559 2.06194 0.848475 0.879385 0.676344
threshold=0.00025444334916904023 0.00017453277715836349 0.36596307797421562 -0.084516245654317576 1.0761395415176739e-05
decision_type=2 2 2 2 2
left_child=1 4 3 -2 -1
right_child=2 -3 -4 -5 -6
leaf_value=-0.23874000540137719 -0.46732929793937172 0.74627129329897668 0.036755143062022939 0.063780300238884216 0.26270190947677496
leaf_weight=1.1054152453289141 2.4449514849620759 1.1830607096462697 2.0820353778435674 0.85104279943789141 1.0738054803587145
leaf_count=104 217 71 82 87 36
internal_value=0 0.267994 -0.188135 -0.330194 0.00834425
internal_weight=0 3.36228 5.37803 3.29599 2.17922
internal_count=597 211 386 304 140
is_linear=0
shrinkage=0.45


Tree=23
num_leaves=5
num_cat=0
split_feature=5 5 8 15
split_gain=1.36341 2.17329 1.52146 0.819764
threshold=-0.46589186199669558 -0.48498286050652689 0.42208186788823432 3.1417067379404306e-07
decision_type=2 2 2 2
left_child=1 2 3 -1
right_child=-2 -3 -4 -5
leaf_value=0.12076798607552926 -0.46135453772528107 0.53246250517981697 0.23425693507510903 -0.37918376765087003
leaf_weight=0.88394934808093184 1.2311641735595911 1.5005189241965133 2.0194761091979672 2.6707211803231985
leaf_count=41 144 40 121 251
internal_value=0 0.051749 -0.0776558 -0.254859
internal_weight=0 7.07467 5.57415 3.55467
internal_count=597 453 413 292
is_linear=0
shrinkage=0.45


Tree=24
num_leaves=5
num_cat=0
split_feature=13 21 19 21
split_gain=6.4235 1.57183 1.63868 0.803364
threshold=-1.4520564799801787e-21 1.0068375869398776e-05 0.016666891875666962 1.5936868666499857e-05
decision_type=2 2 2 2
left_child=-1 2 -2 -3
right_child=1 3 -4 -5
leaf_value=0.73165948145368842 -0.49199416065291374 -0.9787603887836972 0.17496739320574764 -0.29573028452077665
leaf_weight=2.4998446058925765 0.97823539128057735 0.50104232061585197 3.1416727519572305 1.1468983948175262
leaf_count=99 149 47 131 196
internal_value=0 -0.131969 0.016603 -0.503402
internal_weight=0 5.76785 4.11991 1.64794
internal_count=622 523 280 243
is_linear=0
shrinkage=0.45


Tree=25
num_leaves=5
num_cat=0
split_feature=15 11 8 13
split_gain=2.69534 1.88563 2.21551 1.94589
threshold=3.6795398090451923e-08 0.00072244678336687621 0.53195035550901504 -1.4520564799801787e-21
decision_type=2 2 2 2
left_child=-1 -2 3 -3
right_child=1 2 -4 -5
leaf_value=-0.59964512836112238 -0.4093374295061179 0.72577942255145922 -0.2514163018565333 0.14270416995343096
leaf_weight=1.1245477786578701 1.044731284355066 2.0239126660453612 1.4059877223530746 2.7122305835259803
leaf_count=45 159 37 104 277
internal_value=0 0.149554 0.244618 0.391872
internal_weight=0 7.18686 6.14213 4.73614
internal_count=622 577 418 314
is_linear=0
shrinkage=0.45


Tree=26
num_leaves=6
num_cat=0
split_feature=25 23 13 19 9
split_gain=4.27438 5.14953 1.60703 1.59009 0.500644
threshold=0.00050582710662216447 1.7085616165193182e-06 2.9779189109262432e-30 1.3580457098492593 -1.4262151912086634
decision_type=2 2 2 2 2
left_child=2 -2 -1 -3 -4
right_child=1 3 4 -5 -6
leaf_value=-0.63175282891212525 0.9744023224903523 -0.36275218225832268 0.30225279055550724 0.250101140711535 -0.24947178716260374
leaf_weight=2.43250324528799 1.34277506312128 1.7647485727502501 0.56426572212581072 1.6672214609498039 0.8127732601942621
leaf_count=155 134 132 29 35 136
internal_value=0 0.227282 -0.411849 -0.0650334 -0.0233928
internal_weight=0 4.77475 3.80954 3.43197 1.37704
internal_count=621 301 320 167 165
is_linear=0
shrinkage=0.45


Tree=27
num_leaves=5
num_cat=0
split_feature=12 21 18 1
split_gain=2.99611 2.56828 1.83761 0.751196
threshold=-2.5602436891361218 1.6496919782878336e-05 -0.0027416054825246112 -1.454359403129508e-16
decision_type=2 2 2 2
left_child=-1 3 -3 -2
right_child=1 2 -4 -5
leaf_value=0.60739357538420902 -0.59097892427382903 0.72030804293570894 -0.11354962449808575 -0.22059350626195234
leaf_weight=1.148574171178552 1.8592583004192418 0.88806248259061282 1.3467843987823469 2.7473351307664871
leaf_count=84 125 73 132 207
internal_value=0 -0.178044 0.217802 -0.370084
internal_weight=0 6.84144 2.23485 4.60659
internal_count=621 537 205 332
is_linear=0
shrinkage=0.45


Tree=28
num_leaves=7
num_cat=0
split_feature=20 10 25 24 27 11
split_gain=2.37477 5.21443 1.86812 1.20874 1.09665 0.783397
threshold=-0.015417489710620234 -0.048716633647028655 0.00075358237278996874 -0.13999150943780106 0.002731504793238053 0.0010318428862232845
decision_type=2 2 2 2 2 2
left_child=1 -1 3 -2 -4 -5
right_child=2 -3 4 5 -6 -7
leaf_value=1.4757653991610642 0.4397771576707033 -0.3835606683814537 -0.02927428038208231 0.22345016845750887 -0.57268651146784788 -0.25821165507271893
leaf_weight=0.65184007300922531 1.5340196302458933 0.57474359534126029 1.3151073736917172 1.1749693226857973 1.7564008544575243 1.6357084185383426
leaf_count=54 82 140 46 77 113 109
internal_value=0 0.604538 -0.0714046 0.118493 -0.340018 -0.0568588
internal_weight=0 1.22658 7.41621 4.3447 3.07151 2.81068
internal_count=621 194 427 268 159 186
is_linear=0
shrinkage=0.45


Tree=29
num_leaves=5
num_cat=0
split_feature=11 14 9 11
split_gain=1.32458 1.05387 0.696716 0.625145
threshold=0.003428742803140105 -0.025755867851329047 -0.75179179589136802 0.0015988588361591351
decision_type=2 2 2 2
left_child=1 2 -1 -3
right_child=-2 3 -4 -5
leaf_value=0.020298881512176285 -0.35376825727138561 0.094132645891872924 -0.47906162067022279 0.47546856747804872
leaf_weight=1.9181547292516823 1.7812461193625493 2.2328431995704254 0.80248828639923919 1.426840612415617
leaf_count=121 119 156 145 80
internal_value=0 0.0851205 -0.126994 0.242809
internal_weight=0 6.38033 2.72064 3.65968
internal_count=621 502 266 236
is_linear=0
shrinkage=0.45


Tree=30
num_leaves=7
num_cat=0
split_feature=7 24 15 16 2 26
split_gain=2.29113 1.1452 0.835867 1.47217 0.805235 0.734913
threshold=0.16192339183805735 0.22408004051274191 1.6792836040720475e-06 0.0075421431624210786 0.0079248086601887407 0.12054758430901792
decision_type=2 2 2 2 2 2
left_child=2 4 -1 5 -2 -4
right_child=1 -3 3 -5 -6 -7
leaf_value=-0.41410260101357971 -0.16920991567060875 0.67464241487792653 -0.16941046355855394 -0.42803920406833434 0.41393777251556463 0.51316628633778549
leaf_weight=2.1377890560420383 1.0698187064592732 1.0556712755115993 0.49232736292549384 1.0669763740374945 0.86898476215901599 0.90946051744685974
leaf_count=166 110 42 120 71 45 80
internal_value=0 0.29751 -0.208111 -0.0297351 0.0921611 0.273436
internal_weight=0 2.99447 4.60655 2.46876 1.9388 1.40179
internal_count=634 197 437 271 155 200
is_linear=0
shrinkage=0.45


Tree=31
num_leaves=5
num_cat=0
split_feature=14 26 12 19
split_gain=1.10505 0.867078 0.780634 0.484766
threshold=-0.86798427949290957 -0.39254151182737401 -0.73060980151203936 0.04661262792411331
decision_type=2 2 2 2
left_child=-1 -2 -3 -4
right_child=1 2 3 -5
leaf_value=0.38343588400876399 -0.4546246614113657 -0.36791050482945542 -0.10933487580455324 0.23453488977068185
leaf_weight=1.1731018227833372 1.1017563562087387 0.95428114550327281 1.4154995877561312 2.0076094872201793
leaf_count=98 154 179 127 76
internal_value=0 -0.0978049 -0.00799565 0.0923404
internal_weight=0 5.47915 4.37739 3.42311
internal_count=634 536 382 203
is_linear=0
shrinkage=0.45


Tree=32
num_leaves=4
num_cat=0
split_feature=24 13 20
split_gain=2.31989 1.78374 0.877078
threshold=0.36986688931555317 3.218224174528966e-30 0.001408461787789639
decision_type=2 2 2
left_child=1 2 -1
right_child=-2 -3 -4
leaf_value=-0.01730139780078558 -0.55607719574811321 -0.28416645923439943 0.42718899215834766
leaf_weight=1.2837798541665959 1.1352743471499023 1.4455406604698735 2.9989303497832225
leaf_count=155 97 230 113
internal_value=0 0.14806 0.293949
internal_weight=0 5.72825 4.28271
internal_count=595 498 268
is_linear=0
shrinkage=0.45


end of trees

feature_importances:
PSD_8_dyn=12
CorrDim_8_dyn=10
PSD=9
Lyapunov_8_Variance=8
Hurst_8_Variance=7
CorrDim_8_Variance=7
MC100_8_Variance=7
ACF_1=6
Price_MS100=6
PSD_8_Variance=6
MC100_8_dyn=6
Hurst=5
MC100=5
Price_MK100=5
Lyapunov_8_dyn=5
ACF_1_8_Variance=5
Price_MS100_8_dyn=5
Lyapunov=4
Skewness_8_dyn=4
Kurtosis_8_Variance=4
Price_MS100_8_Variance=4
Price_MK100_8_Variance=4
CorrDim=3
Skewness_8_Variance=3
ACF_1_8_dyn=3
Price_MK100_8_dyn=2
Skewness=1
Kurtosis=1
Hurst_8_dyn=1
Kurtosis_8_dyn=1

parameters:
[boosting: gbdt]
[objective: binary]
[metric: auc]
[tree_learner: serial]
[device_type: cpu]
[data_sample_strategy: bagging]
[data: ]
[valid: ]
[num_iterations: 500]
[learning_rate: 0.45]
[num_leaves: 157]
[num_threads: 0]
[seed: 2025]
[deterministic: 0]
[force_col_wise: 0]
[force_row_wise: 0]
[histogram_pool_size: -1]
[max_depth: 4]
[min_data_in_leaf: 68]
[min_sum_hessian_in_leaf: 0.001]
[bagging_fraction: 0.580069]
[pos_bagging_fraction: 1]
[neg_bagging_fraction: 1]
[bagging_freq: 2]
[bagging_seed: 15290]
[feature_fraction: 0.947816]
[feature_fraction_bynode: 1]
[feature_fraction_seed: 4631]
[extra_trees: 0]
[extra_seed: 801]
[early_stopping_round: 0]
[early_stopping_min_delta: 0]
[first_metric_only: 0]
[max_delta_step: 0]
[lambda_l1: 1.06792e-08]
[lambda_l2: 4.31802e-06]
[linear_lambda: 0]
[min_gain_to_split: 0.46827]
[drop_rate: 0.1]
[max_drop: 50]
[skip_drop: 0.5]
[xgboost_dart_mode: 0]
[uniform_drop: 0]
[drop_seed: 20313]
[top_rate: 0.2]
[other_rate: 0.1]
[min_data_per_group: 100]
[max_cat_threshold: 32]
[cat_l2: 10]
[cat_smooth: 10]
[max_cat_to_onehot: 4]
[top_k: 20]
[monotone_constraints: ]
[monotone_constraints_method: basic]
[monotone_penalty: 0]
[feature_contri: ]
[forcedsplits_filename: ]
[refit_decay_rate: 0.9]
[cegb_tradeoff: 1]
[cegb_penalty_split: 0]
[cegb_penalty_feature_lazy: ]
[cegb_penalty_feature_coupled: ]
[path_smooth: 0]
[interaction_constraints: ]
[verbosity: -1]
[saved_feature_importance_type: 0]
[use_quantized_grad: 0]
[num_grad_quant_bins: 4]
[quant_train_renew_leaf: 0]
[stochastic_rounding: 1]
[linear_tree: 0]
[max_bin: 105]
[max_bin_by_feature: ]
[min_data_in_bin: 3]
[bin_construct_sample_cnt: 200000]
[data_random_seed: 6651]
[is_enable_sparse: 1]
[enable_bundle: 1]
[use_missing: 1]
[zero_as_missing: 0]
[feature_pre_filter: 1]
[pre_partition: 0]
[two_round: 0]
[header: 0]
[label_column: ]
[weight_column: ]
[group_column: ]
[ignore_column: ]
[categorical_feature: ]
[forcedbins_filename: ]
[precise_float_parser: 0]
[parser_config_file: ]
[objective_seed: 22652]
[num_class: 1]
[is_unbalance: 0]
[scale_pos_weight: 1]
[sigmoid: 1]
[boost_from_average: 1]
[reg_sqrt: 0]
[alpha: 0.9]
[fair_c: 1]
[poisson_max_delta_step: 0.7]
[tweedie_variance_power: 1.5]
[lambdarank_truncation_level: 30]
[lambdarank_norm: 1]
[label_gain: ]
[lambdarank_position_bias_regularization: 0]
[eval_at: ]
[multi_error_top_k: 1]
[auc_mu_weights: ]
[num_machines: 1]
[local_listen_port: 12400]
[time_out: 120]
[machine_list_filename: ]
[machines: ]
[gpu_platform_id: -1]
[gpu_device_id: -1]
[gpu_use_dp: 0]
[num_gpu: 1]

end of parameters

pandas_categorical:[]
